digraph Tree {
node [shape=box, fontname="helvetica"] ;
edge [fontname="helvetica"] ;
0 [label="x[59] <= 6.487\ngini = 0.127\nsamples = 246012\nvalue = [26514, 362180]"] ;
1 [label="x[52] <= 756302.0\ngini = 0.022\nsamples = 174171\nvalue = [3035, 271942]"] ;
0 -> 1 [labeldistance=2.5, labelangle=45, headlabel="True"] ;
2 [label="x[35] <= 676.652\ngini = 0.006\nsamples = 165235\nvalue = [736, 260101]"] ;
1 -> 2 ;
3 [label="x[4] <= 11.5\ngini = 0.002\nsamples = 162518\nvalue = [258, 256298]"] ;
2 -> 3 ;
4 [label="x[71] <= 4.53\ngini = 0.001\nsamples = 158976\nvalue = [86, 250937]"] ;
3 -> 4 ;
5 [label="x[28] <= 196.5\ngini = 0.003\nsamples = 27064\nvalue = [72, 42721]"] ;
4 -> 5 ;
6 [label="x[22] <= 0.5\ngini = 0.0\nsamples = 26303\nvalue = [3, 41573]"] ;
5 -> 6 ;
7 [label="gini = 0.0\nsamples = 25637\nvalue = [0, 40512]"] ;
6 -> 7 ;
8 [label="x[0] <= 64523.0\ngini = 0.006\nsamples = 666\nvalue = [3, 1061]"] ;
6 -> 8 ;
9 [label="x[15] <= 10.0\ngini = 0.004\nsamples = 653\nvalue = [2, 1040]"] ;
8 -> 9 ;
10 [label="x[27] <= 12.0\ngini = 0.004\nsamples = 604\nvalue = [2, 961]"] ;
9 -> 10 ;
11 [label="x[12] <= 30.0\ngini = 0.004\nsamples = 591\nvalue = [2, 935]"] ;
10 -> 11 ;
12 [label="gini = 0.0\nsamples = 454\nvalue = [0, 726]"] ;
11 -> 12 ;
13 [label="x[13] <= 36.0\ngini = 0.019\nsamples = 137\nvalue = [2, 209]"] ;
11 -> 13 ;
14 [label="x[0] <= 12701.0\ngini = 0.019\nsamples = 133\nvalue = [2, 205]"] ;
13 -> 14 ;
15 [label="x[78] <= 188.0\ngini = 0.18\nsamples = 13\nvalue = [2, 18]"] ;
14 -> 15 ;
16 [label="gini = 0.0\nsamples = 7\nvalue = [0, 12]"] ;
15 -> 16 ;
17 [label="x[1] <= 261.5\ngini = 0.375\nsamples = 6\nvalue = [2, 6]"] ;
15 -> 17 ;
18 [label="gini = 0.0\nsamples = 5\nvalue = [0, 6]"] ;
17 -> 18 ;
19 [label="gini = 0.0\nsamples = 1\nvalue = [2, 0]"] ;
17 -> 19 ;
20 [label="gini = 0.0\nsamples = 120\nvalue = [0, 187]"] ;
14 -> 20 ;
21 [label="gini = 0.0\nsamples = 4\nvalue = [0, 4]"] ;
13 -> 21 ;
22 [label="gini = 0.0\nsamples = 13\nvalue = [0, 26]"] ;
10 -> 22 ;
23 [label="gini = 0.0\nsamples = 49\nvalue = [0, 79]"] ;
9 -> 23 ;
24 [label="x[13] <= 26.0\ngini = 0.087\nsamples = 13\nvalue = [1, 21]"] ;
8 -> 24 ;
25 [label="gini = 0.0\nsamples = 10\nvalue = [0, 19]"] ;
24 -> 25 ;
26 [label="x[17] <= 0.5\ngini = 0.444\nsamples = 3\nvalue = [1, 2]"] ;
24 -> 26 ;
27 [label="gini = 0.5\nsamples = 2\nvalue = [1, 1]"] ;
26 -> 27 ;
28 [label="gini = 0.0\nsamples = 1\nvalue = [0, 1]"] ;
26 -> 28 ;
29 [label="x[20] <= 0.5\ngini = 0.107\nsamples = 761\nvalue = [69, 1148]"] ;
5 -> 29 ;
30 [label="x[39] <= 206.0\ngini = 0.113\nsamples = 722\nvalue = [69, 1082]"] ;
29 -> 30 ;
31 [label="gini = 0.221\nsamples = 348\nvalue = [69, 476]"] ;
30 -> 31 ;
32 [label="gini = 0.0\nsamples = 374\nvalue = [0, 606]"] ;
30 -> 32 ;
33 [label="gini = 0.0\nsamples = 39\nvalue = [0, 66]"] ;
29 -> 33 ;
34 [label="x[14] <= 380.0\ngini = 0.0\nsamples = 131912\nvalue = [14, 208216]"] ;
4 -> 34 ;
35 [label="x[38] <= 2895.5\ngini = 0.0\nsamples = 131906\nvalue = [11, 208211]"] ;
34 -> 35 ;
36 [label="x[6] <= 6.5\ngini = 0.0\nsamples = 130778\nvalue = [3, 206477]"] ;
35 -> 36 ;
37 [label="x[42] <= 741891.031\ngini = 0.0\nsamples = 130727\nvalue = [2, 206399]"] ;
36 -> 37 ;
38 [label="gini = 0.0\nsamples = 130607\nvalue = [0, 206225]"] ;
37 -> 38 ;
39 [label="x[54] <= 1511445.062\ngini = 0.022\nsamples = 120\nvalue = [2, 174]"] ;
37 -> 39 ;
40 [label="x[46] <= 8845.949\ngini = 0.056\nsamples = 48\nvalue = [2, 67]"] ;
39 -> 40 ;
41 [label="gini = 0.0\nsamples = 47\nvalue = [0, 67]"] ;
40 -> 41 ;
42 [label="gini = 0.0\nsamples = 1\nvalue = [2, 0]"] ;
40 -> 42 ;
43 [label="gini = 0.0\nsamples = 72\nvalue = [0, 107]"] ;
39 -> 43 ;
44 [label="x[36] <= 849.273\ngini = 0.025\nsamples = 51\nvalue = [1, 78]"] ;
36 -> 44 ;
45 [label="gini = 0.0\nsamples = 47\nvalue = [0, 75]"] ;
44 -> 45 ;
46 [label="x[40] <= 287.185\ngini = 0.375\nsamples = 4\nvalue = [1, 3]"] ;
44 -> 46 ;
47 [label="gini = 0.5\nsamples = 2\nvalue = [1, 1]"] ;
46 -> 47 ;
48 [label="gini = 0.0\nsamples = 2\nvalue = [0, 2]"] ;
46 -> 48 ;
49 [label="x[52] <= 5.484\ngini = 0.009\nsamples = 1128\nvalue = [8, 1734]"] ;
35 -> 49 ;
50 [label="x[7] <= 6.913\ngini = 0.42\nsamples = 8\nvalue = [3, 7]"] ;
49 -> 50 ;
51 [label="x[11] <= 344.0\ngini = 0.48\nsamples = 4\nvalue = [3, 2]"] ;
50 -> 51 ;
52 [label="gini = 0.0\nsamples = 1\nvalue = [2, 0]"] ;
51 -> 52 ;
53 [label="x[33] <= 2896.5\ngini = 0.444\nsamples = 3\nvalue = [1, 2]"] ;
51 -> 53 ;
54 [label="gini = 0.5\nsamples = 2\nvalue = [1, 1]"] ;
53 -> 54 ;
55 [label="gini = 0.0\nsamples = 1\nvalue = [0, 1]"] ;
53 -> 55 ;
56 [label="gini = 0.0\nsamples = 4\nvalue = [0, 5]"] ;
50 -> 56 ;
57 [label="x[10] <= 0.782\ngini = 0.006\nsamples = 1120\nvalue = [5, 1727]"] ;
49 -> 57 ;
58 [label="gini = 0.0\nsamples = 775\nvalue = [0, 1209]"] ;
57 -> 58 ;
59 [label="x[39] <= 6849.5\ngini = 0.019\nsamples = 345\nvalue = [5, 518]"] ;
57 -> 59 ;
60 [label="gini = 0.0\nsamples = 244\nvalue = [0, 379]"] ;
59 -> 60 ;
61 [label="x[10] <= 0.802\ngini = 0.067\nsamples = 101\nvalue = [5, 139]"] ;
59 -> 61 ;
62 [label="x[68] <= 28451.562\ngini = 0.245\nsamples = 23\nvalue = [4, 24]"] ;
61 -> 62 ;
63 [label="x[60] <= 807.0\ngini = 0.463\nsamples = 9\nvalue = [4, 7]"] ;
62 -> 63 ;
64 [label="gini = 0.0\nsamples = 5\nvalue = [0, 6]"] ;
63 -> 64 ;
65 [label="x[7] <= 1.28\ngini = 0.32\nsamples = 4\nvalue = [4, 1]"] ;
63 -> 65 ;
66 [label="x[40] <= 274.3\ngini = 0.5\nsamples = 2\nvalue = [1, 1]"] ;
65 -> 66 ;
67 [label="gini = 0.0\nsamples = 1\nvalue = [1, 0]"] ;
66 -> 67 ;
68 [label="gini = 0.0\nsamples = 1\nvalue = [0, 1]"] ;
66 -> 68 ;
69 [label="gini = 0.0\nsamples = 2\nvalue = [3, 0]"] ;
65 -> 69 ;
70 [label="gini = 0.0\nsamples = 14\nvalue = [0, 17]"] ;
62 -> 70 ;
71 [label="x[9] <= 13.875\ngini = 0.017\nsamples = 78\nvalue = [1, 115]"] ;
61 -> 71 ;
72 [label="gini = 0.0\nsamples = 67\nvalue = [0, 98]"] ;
71 -> 72 ;
73 [label="x[44] <= 1600163.938\ngini = 0.105\nsamples = 11\nvalue = [1, 17]"] ;
71 -> 73 ;
74 [label="gini = 0.0\nsamples = 10\nvalue = [0, 17]"] ;
73 -> 74 ;
75 [label="gini = 0.0\nsamples = 1\nvalue = [1, 0]"] ;
73 -> 75 ;
76 [label="x[58] <= 6.25\ngini = 0.469\nsamples = 6\nvalue = [3, 5]"] ;
34 -> 76 ;
77 [label="gini = 0.0\nsamples = 2\nvalue = [0, 3]"] ;
76 -> 77 ;
78 [label="x[68] <= 546955.938\ngini = 0.48\nsamples = 4\nvalue = [3, 2]"] ;
76 -> 78 ;
79 [label="x[71] <= 447371.23\ngini = 0.375\nsamples = 3\nvalue = [3, 1]"] ;
78 -> 79 ;
80 [label="gini = 0.0\nsamples = 1\nvalue = [1, 0]"] ;
79 -> 80 ;
81 [label="gini = 0.444\nsamples = 2\nvalue = [2, 1]"] ;
79 -> 81 ;
82 [label="gini = 0.0\nsamples = 1\nvalue = [0, 1]"] ;
78 -> 82 ;
83 [label="x[12] <= 26.0\ngini = 0.06\nsamples = 3542\nvalue = [172, 5361]"] ;
3 -> 83 ;
84 [label="x[7] <= 0.295\ngini = 0.139\nsamples = 1468\nvalue = [172, 2119]"] ;
83 -> 84 ;
85 [label="x[75] <= 54537766.0\ngini = 0.002\nsamples = 764\nvalue = [1, 1182]"] ;
84 -> 85 ;
86 [label="x[49] <= 53396668.0\ngini = 0.278\nsamples = 4\nvalue = [1, 5]"] ;
85 -> 86 ;
87 [label="gini = 0.0\nsamples = 3\nvalue = [0, 5]"] ;
86 -> 87 ;
88 [label="gini = 0.0\nsamples = 1\nvalue = [1, 0]"] ;
86 -> 88 ;
89 [label="gini = 0.0\nsamples = 760\nvalue = [0, 1177]"] ;
85 -> 89 ;
90 [label="x[35] <= 386.099\ngini = 0.261\nsamples = 704\nvalue = [171, 937]"] ;
84 -> 90 ;
91 [label="x[48] <= 42945138.0\ngini = 0.022\nsamples = 297\nvalue = [5, 455]"] ;
90 -> 91 ;
92 [label="x[0] <= 5623.0\ngini = 0.005\nsamples = 276\nvalue = [1, 418]"] ;
91 -> 92 ;
93 [label="x[79] <= 65347.5\ngini = 0.133\nsamples = 13\nvalue = [1, 13]"] ;
92 -> 93 ;
94 [label="x[11] <= 484.0\ngini = 0.375\nsamples = 4\nvalue = [1, 3]"] ;
93 -> 94 ;
95 [label="gini = 0.0\nsamples = 3\nvalue = [0, 3]"] ;
94 -> 95 ;
96 [label="gini = 0.0\nsamples = 1\nvalue = [1, 0]"] ;
94 -> 96 ;
97 [label="gini = 0.0\nsamples = 9\nvalue = [0, 10]"] ;
93 -> 97 ;
98 [label="gini = 0.0\nsamples = 263\nvalue = [0, 405]"] ;
92 -> 98 ;
99 [label="x[47] <= 39.101\ngini = 0.176\nsamples = 21\nvalue = [4, 37]"] ;
91 -> 99 ;
100 [label="x[22] <= 31.5\ngini = 0.056\nsamples = 18\nvalue = [1, 34]"] ;
99 -> 100 ;
101 [label="x[55] <= 1694647.125\ngini = 0.32\nsamples = 3\nvalue = [1, 4]"] ;
100 -> 101 ;
102 [label="gini = 0.0\nsamples = 1\nvalue = [1, 0]"] ;
101 -> 102 ;
103 [label="gini = 0.0\nsamples = 2\nvalue = [0, 4]"] ;
101 -> 103 ;
104 [label="gini = 0.0\nsamples = 15\nvalue = [0, 30]"] ;
100 -> 104 ;
105 [label="x[22] <= 33.0\ngini = 0.5\nsamples = 3\nvalue = [3, 3]"] ;
99 -> 105 ;
106 [label="gini = 0.0\nsamples = 1\nvalue = [1, 0]"] ;
105 -> 106 ;
107 [label="gini = 0.48\nsamples = 2\nvalue = [2, 3]"] ;
105 -> 107 ;
108 [label="x[70] <= 2740816.375\ngini = 0.381\nsamples = 407\nvalue = [166, 482]"] ;
90 -> 108 ;
109 [label="x[29] <= 1214.0\ngini = 0.448\nsamples = 258\nvalue = [138, 270]"] ;
108 -> 109 ;
110 [label="x[42] <= 879.049\ngini = 0.093\nsamples = 25\nvalue = [2, 39]"] ;
109 -> 110 ;
111 [label="gini = 0.0\nsamples = 24\nvalue = [0, 39]"] ;
110 -> 111 ;
112 [label="gini = 0.0\nsamples = 1\nvalue = [2, 0]"] ;
110 -> 112 ;
113 [label="x[73] <= 11574703.0\ngini = 0.466\nsamples = 233\nvalue = [136, 231]"] ;
109 -> 113 ;
114 [label="x[74] <= 5004760.5\ngini = 0.432\nsamples = 159\nvalue = [80, 173]"] ;
113 -> 114 ;
115 [label="x[42] <= 20.504\ngini = 0.491\nsamples = 27\nvalue = [26, 20]"] ;
114 -> 115 ;
116 [label="x[57] <= 3699.086\ngini = 0.133\nsamples = 7\nvalue = [13, 1]"] ;
115 -> 116 ;
117 [label="gini = 0.0\nsamples = 6\nvalue = [13, 0]"] ;
116 -> 117 ;
118 [label="gini = 0.0\nsamples = 1\nvalue = [0, 1]"] ;
116 -> 118 ;
119 [label="x[20] <= 5.5\ngini = 0.482\nsamples = 20\nvalue = [13, 19]"] ;
115 -> 119 ;
120 [label="x[68] <= 2471826.0\ngini = 0.375\nsamples = 5\nvalue = [6, 2]"] ;
119 -> 120 ;
121 [label="gini = 0.0\nsamples = 2\nvalue = [3, 0]"] ;
120 -> 121 ;
122 [label="x[34] <= 5972.5\ngini = 0.48\nsamples = 3\nvalue = [3, 2]"] ;
120 -> 122 ;
123 [label="gini = 0.0\nsamples = 1\nvalue = [0, 1]"] ;
122 -> 123 ;
124 [label="gini = 0.375\nsamples = 2\nvalue = [3, 1]"] ;
122 -> 124 ;
125 [label="x[40] <= 287.4\ngini = 0.413\nsamples = 15\nvalue = [7, 17]"] ;
119 -> 125 ;
126 [label="x[56] <= 391352.438\ngini = 0.386\nsamples = 14\nvalue = [6, 17]"] ;
125 -> 126 ;
127 [label="x[39] <= 6855.5\ngini = 0.219\nsamples = 4\nvalue = [1, 7]"] ;
126 -> 127 ;
128 [label="gini = 0.375\nsamples = 2\nvalue = [1, 3]"] ;
127 -> 128 ;
129 [label="gini = 0.0\nsamples = 2\nvalue = [0, 4]"] ;
127 -> 129 ;
130 [label="x[0] <= 5264.0\ngini = 0.444\nsamples = 10\nvalue = [5, 10]"] ;
126 -> 130 ;
131 [label="gini = 0.0\nsamples = 1\nvalue = [1, 0]"] ;
130 -> 131 ;
132 [label="x[56] <= 391922.438\ngini = 0.408\nsamples = 9\nvalue = [4, 10]"] ;
130 -> 132 ;
133 [label="gini = 0.0\nsamples = 1\nvalue = [0, 1]"] ;
132 -> 133 ;
134 [label="x[42] <= 43.035\ngini = 0.426\nsamples = 8\nvalue = [4, 9]"] ;
132 -> 134 ;
135 [label="x[47] <= 36.001\ngini = 0.5\nsamples = 4\nvalue = [2, 2]"] ;
134 -> 135 ;
136 [label="gini = 0.5\nsamples = 2\nvalue = [1, 1]"] ;
135 -> 136 ;
137 [label="gini = 0.5\nsamples = 2\nvalue = [1, 1]"] ;
135 -> 137 ;
138 [label="x[52] <= 17.524\ngini = 0.346\nsamples = 4\nvalue = [2, 7]"] ;
134 -> 138 ;
139 [label="gini = 0.375\nsamples = 2\nvalue = [1, 3]"] ;
138 -> 139 ;
140 [label="gini = 0.32\nsamples = 2\nvalue = [1, 4]"] ;
138 -> 140 ;
141 [label="gini = 0.0\nsamples = 1\nvalue = [1, 0]"] ;
125 -> 141 ;
142 [label="x[36] <= 696.99\ngini = 0.386\nsamples = 132\nvalue = [54, 153]"] ;
114 -> 142 ;
143 [label="x[2] <= 53.693\ngini = 0.21\nsamples = 27\nvalue = [5, 37]"] ;
142 -> 143 ;
144 [label="x[69] <= 367247.0\ngini = 0.444\nsamples = 7\nvalue = [4, 8]"] ;
143 -> 144 ;
145 [label="gini = 0.0\nsamples = 3\nvalue = [4, 0]"] ;
144 -> 145 ;
146 [label="gini = 0.0\nsamples = 4\nvalue = [0, 8]"] ;
144 -> 146 ;
147 [label="x[44] <= 54861576.0\ngini = 0.064\nsamples = 20\nvalue = [1, 29]"] ;
143 -> 147 ;
148 [label="gini = 0.0\nsamples = 12\nvalue = [0, 20]"] ;
147 -> 148 ;
149 [label="x[0] <= 55095.0\ngini = 0.18\nsamples = 8\nvalue = [1, 9]"] ;
147 -> 149 ;
150 [label="gini = 0.0\nsamples = 6\nvalue = [0, 8]"] ;
149 -> 150 ;
151 [label="gini = 0.5\nsamples = 2\nvalue = [1, 1]"] ;
149 -> 151 ;
152 [label="x[39] <= 9839.0\ngini = 0.418\nsamples = 105\nvalue = [49, 116]"] ;
142 -> 152 ;
153 [label="x[72] <= 137471.156\ngini = 0.431\nsamples = 99\nvalue = [49, 107]"] ;
152 -> 153 ;
154 [label="x[53] <= 11085448.5\ngini = 0.489\nsamples = 34\nvalue = [23, 31]"] ;
153 -> 154 ;
155 [label="x[57] <= 759.221\ngini = 0.43\nsamples = 21\nvalue = [10, 22]"] ;
154 -> 155 ;
156 [label="gini = 0.0\nsamples = 5\nvalue = [0, 8]"] ;
155 -> 156 ;
157 [label="x[52] <= 18.954\ngini = 0.486\nsamples = 16\nvalue = [10, 14]"] ;
155 -> 157 ;
158 [label="x[68] <= 27537.465\ngini = 0.496\nsamples = 14\nvalue = [10, 12]"] ;
157 -> 158 ;
159 [label="gini = 0.0\nsamples = 3\nvalue = [0, 4]"] ;
158 -> 159 ;
160 [label="x[0] <= 9854.0\ngini = 0.494\nsamples = 11\nvalue = [10, 8]"] ;
158 -> 160 ;
161 [label="x[8] <= 1.78\ngini = 0.444\nsamples = 8\nvalue = [8, 4]"] ;
160 -> 161 ;
162 [label="x[55] <= 280435.328\ngini = 0.42\nsamples = 6\nvalue = [7, 3]"] ;
161 -> 162 ;
163 [label="gini = 0.0\nsamples = 1\nvalue = [2, 0]"] ;
162 -> 163 ;
164 [label="x[75] <= 7787289.0\ngini = 0.469\nsamples = 5\nvalue = [5, 3]"] ;
162 -> 164 ;
165 [label="gini = 0.5\nsamples = 2\nvalue = [1, 1]"] ;
164 -> 165 ;
166 [label="x[10] <= 0.89\ngini = 0.444\nsamples = 3\nvalue = [4, 2]"] ;
164 -> 166 ;
167 [label="gini = 0.0\nsamples = 1\nvalue = [1, 0]"] ;
166 -> 167 ;
168 [label="gini = 0.48\nsamples = 2\nvalue = [3, 2]"] ;
166 -> 168 ;
169 [label="gini = 0.5\nsamples = 2\nvalue = [1, 1]"] ;
161 -> 169 ;
170 [label="x[8] <= 1.682\ngini = 0.444\nsamples = 3\nvalue = [2, 4]"] ;
160 -> 170 ;
171 [label="gini = 0.0\nsamples = 1\nvalue = [0, 1]"] ;
170 -> 171 ;
172 [label="gini = 0.48\nsamples = 2\nvalue = [2, 3]"] ;
170 -> 172 ;
173 [label="gini = 0.0\nsamples = 2\nvalue = [0, 2]"] ;
157 -> 173 ;
174 [label="x[50] <= 1028190.312\ngini = 0.483\nsamples = 13\nvalue = [13, 9]"] ;
154 -> 174 ;
175 [label="gini = 0.0\nsamples = 1\nvalue = [3, 0]"] ;
174 -> 175 ;
176 [label="x[44] <= 54102202.0\ngini = 0.499\nsamples = 12\nvalue = [10, 9]"] ;
174 -> 176 ;
177 [label="x[77] <= 11128060.0\ngini = 0.469\nsamples = 5\nvalue = [3, 5]"] ;
176 -> 177 ;
178 [label="x[50] <= 1035593.719\ngini = 0.49\nsamples = 4\nvalue = [3, 4]"] ;
177 -> 178 ;
179 [label="gini = 0.48\nsamples = 2\nvalue = [2, 3]"] ;
178 -> 179 ;
180 [label="gini = 0.5\nsamples = 2\nvalue = [1, 1]"] ;
178 -> 180 ;
181 [label="gini = 0.0\nsamples = 1\nvalue = [0, 1]"] ;
177 -> 181 ;
182 [label="x[2] <= 54.429\ngini = 0.463\nsamples = 7\nvalue = [7, 4]"] ;
176 -> 182 ;
183 [label="gini = 0.0\nsamples = 1\nvalue = [1, 0]"] ;
182 -> 183 ;
184 [label="x[71] <= 148741.797\ngini = 0.48\nsamples = 6\nvalue = [6, 4]"] ;
182 -> 184 ;
185 [label="gini = 0.5\nsamples = 2\nvalue = [2, 2]"] ;
184 -> 185 ;
186 [label="x[51] <= 12348340.0\ngini = 0.444\nsamples = 4\nvalue = [4, 2]"] ;
184 -> 186 ;
187 [label="gini = 0.444\nsamples = 2\nvalue = [2, 1]"] ;
186 -> 187 ;
188 [label="gini = 0.444\nsamples = 2\nvalue = [2, 1]"] ;
186 -> 188 ;
189 [label="x[7] <= 0.311\ngini = 0.38\nsamples = 65\nvalue = [26, 76]"] ;
153 -> 189 ;
190 [label="gini = 0.0\nsamples = 8\nvalue = [0, 17]"] ;
189 -> 190 ;
191 [label="x[56] <= 7572087.75\ngini = 0.425\nsamples = 57\nvalue = [26, 59]"] ;
189 -> 191 ;
192 [label="x[70] <= 1770437.812\ngini = 0.34\nsamples = 30\nvalue = [10, 36]"] ;
191 -> 192 ;
193 [label="x[10] <= 0.85\ngini = 0.32\nsamples = 29\nvalue = [9, 36]"] ;
192 -> 193 ;
194 [label="x[42] <= 39.458\ngini = 0.494\nsamples = 6\nvalue = [4, 5]"] ;
193 -> 194 ;
195 [label="x[60] <= 624.0\ngini = 0.469\nsamples = 5\nvalue = [3, 5]"] ;
194 -> 195 ;
196 [label="gini = 0.444\nsamples = 2\nvalue = [2, 1]"] ;
195 -> 196 ;
197 [label="x[29] <= 2125.0\ngini = 0.32\nsamples = 3\nvalue = [1, 4]"] ;
195 -> 197 ;
198 [label="gini = 0.0\nsamples = 1\nvalue = [0, 1]"] ;
197 -> 198 ;
199 [label="gini = 0.375\nsamples = 2\nvalue = [1, 3]"] ;
197 -> 199 ;
200 [label="gini = 0.0\nsamples = 1\nvalue = [1, 0]"] ;
194 -> 200 ;
201 [label="x[0] <= 13470.0\ngini = 0.239\nsamples = 23\nvalue = [5, 31]"] ;
193 -> 201 ;
202 [label="x[46] <= 2198514.125\ngini = 0.34\nsamples = 15\nvalue = [5, 18]"] ;
201 -> 202 ;
203 [label="gini = 0.0\nsamples = 4\nvalue = [0, 8]"] ;
202 -> 203 ;
204 [label="x[35] <= 402.644\ngini = 0.444\nsamples = 11\nvalue = [5, 10]"] ;
202 -> 204 ;
205 [label="x[54] <= 10193211.5\ngini = 0.48\nsamples = 4\nvalue = [3, 2]"] ;
204 -> 205 ;
206 [label="gini = 0.444\nsamples = 2\nvalue = [2, 1]"] ;
205 -> 206 ;
207 [label="gini = 0.5\nsamples = 2\nvalue = [1, 1]"] ;
205 -> 207 ;
208 [label="x[39] <= 6857.5\ngini = 0.32\nsamples = 7\nvalue = [2, 8]"] ;
204 -> 208 ;
209 [label="x[3] <= 13.5\ngini = 0.444\nsamples = 4\nvalue = [2, 4]"] ;
208 -> 209 ;
210 [label="gini = 0.444\nsamples = 2\nvalue = [1, 2]"] ;
209 -> 210 ;
211 [label="gini = 0.444\nsamples = 2\nvalue = [1, 2]"] ;
209 -> 211 ;
212 [label="gini = 0.0\nsamples = 3\nvalue = [0, 4]"] ;
208 -> 212 ;
213 [label="gini = 0.0\nsamples = 8\nvalue = [0, 13]"] ;
201 -> 213 ;
214 [label="gini = 0.0\nsamples = 1\nvalue = [1, 0]"] ;
192 -> 214 ;
215 [label="x[4] <= 15.5\ngini = 0.484\nsamples = 27\nvalue = [16, 23]"] ;
191 -> 215 ;
216 [label="x[47] <= 30.994\ngini = 0.437\nsamples = 22\nvalue = [10, 21]"] ;
215 -> 216 ;
217 [label="x[6] <= 8.5\ngini = 0.219\nsamples = 11\nvalue = [2, 14]"] ;
216 -> 217 ;
218 [label="gini = 0.0\nsamples = 2\nvalue = [0, 4]"] ;
217 -> 218 ;
219 [label="x[29] <= 2105.5\ngini = 0.278\nsamples = 9\nvalue = [2, 10]"] ;
217 -> 219 ;
220 [label="gini = 0.0\nsamples = 4\nvalue = [0, 4]"] ;
219 -> 220 ;
221 [label="x[50] <= 3932532.125\ngini = 0.375\nsamples = 5\nvalue = [2, 6]"] ;
219 -> 221 ;
222 [label="x[73] <= 11279266.0\ngini = 0.32\nsamples = 3\nvalue = [1, 4]"] ;
221 -> 222 ;
223 [label="gini = 0.375\nsamples = 2\nvalue = [1, 3]"] ;
222 -> 223 ;
224 [label="gini = 0.0\nsamples = 1\nvalue = [0, 1]"] ;
222 -> 224 ;
225 [label="gini = 0.444\nsamples = 2\nvalue = [1, 2]"] ;
221 -> 225 ;
226 [label="x[51] <= 11867910.0\ngini = 0.498\nsamples = 11\nvalue = [8, 7]"] ;
216 -> 226 ;
227 [label="x[2] <= 54.529\ngini = 0.42\nsamples = 7\nvalue = [7, 3]"] ;
226 -> 227 ;
228 [label="gini = 0.0\nsamples = 3\nvalue = [4, 0]"] ;
227 -> 228 ;
229 [label="x[73] <= 11169683.5\ngini = 0.5\nsamples = 4\nvalue = [3, 3]"] ;
227 -> 229 ;
230 [label="gini = 0.5\nsamples = 2\nvalue = [2, 2]"] ;
229 -> 230 ;
231 [label="gini = 0.5\nsamples = 2\nvalue = [1, 1]"] ;
229 -> 231 ;
232 [label="x[76] <= 27961494.0\ngini = 0.32\nsamples = 4\nvalue = [1, 4]"] ;
226 -> 232 ;
233 [label="gini = 0.0\nsamples = 2\nvalue = [0, 2]"] ;
232 -> 233 ;
234 [label="gini = 0.444\nsamples = 2\nvalue = [1, 2]"] ;
232 -> 234 ;
235 [label="x[44] <= 54301548.0\ngini = 0.375\nsamples = 5\nvalue = [6, 2]"] ;
215 -> 235 ;
236 [label="gini = 0.0\nsamples = 2\nvalue = [4, 0]"] ;
235 -> 236 ;
237 [label="x[30] <= 119.491\ngini = 0.5\nsamples = 3\nvalue = [2, 2]"] ;
235 -> 237 ;
238 [label="gini = 0.0\nsamples = 2\nvalue = [0, 2]"] ;
237 -> 238 ;
239 [label="gini = 0.0\nsamples = 1\nvalue = [2, 0]"] ;
237 -> 239 ;
240 [label="gini = 0.0\nsamples = 6\nvalue = [0, 9]"] ;
152 -> 240 ;
241 [label="x[74] <= 43349618.0\ngini = 0.5\nsamples = 74\nvalue = [56, 58]"] ;
113 -> 241 ;
242 [label="x[4] <= 14.5\ngini = 0.484\nsamples = 58\nvalue = [34, 49]"] ;
241 -> 242 ;
243 [label="x[9] <= 1.839\ngini = 0.493\nsamples = 54\nvalue = [34, 43]"] ;
242 -> 243 ;
244 [label="x[70] <= 231774.922\ngini = 0.5\nsamples = 44\nvalue = [30, 31]"] ;
243 -> 244 ;
245 [label="x[46] <= 3938122.625\ngini = 0.451\nsamples = 25\nvalue = [23, 12]"] ;
244 -> 245 ;
246 [label="gini = 0.0\nsamples = 3\nvalue = [4, 0]"] ;
245 -> 246 ;
247 [label="x[28] <= 742.5\ngini = 0.475\nsamples = 22\nvalue = [19, 12]"] ;
245 -> 247 ;
248 [label="gini = 0.0\nsamples = 1\nvalue = [0, 2]"] ;
247 -> 248 ;
249 [label="x[40] <= 273.26\ngini = 0.452\nsamples = 21\nvalue = [19, 10]"] ;
247 -> 249 ;
250 [label="x[40] <= 263.75\ngini = 0.375\nsamples = 14\nvalue = [15, 5]"] ;
249 -> 250 ;
251 [label="x[49] <= 15497429.5\ngini = 0.459\nsamples = 10\nvalue = [9, 5]"] ;
250 -> 251 ;
252 [label="gini = 0.0\nsamples = 1\nvalue = [3, 0]"] ;
251 -> 252 ;
253 [label="x[30] <= 130.821\ngini = 0.496\nsamples = 9\nvalue = [6, 5]"] ;
251 -> 253 ;
254 [label="x[43] <= 18456528.0\ngini = 0.48\nsamples = 8\nvalue = [6, 4]"] ;
253 -> 254 ;
255 [label="x[71] <= 112341.699\ngini = 0.5\nsamples = 4\nvalue = [2, 2]"] ;
254 -> 255 ;
256 [label="gini = 0.5\nsamples = 2\nvalue = [1, 1]"] ;
255 -> 256 ;
257 [label="gini = 0.5\nsamples = 2\nvalue = [1, 1]"] ;
255 -> 257 ;
258 [label="x[75] <= 22125905.0\ngini = 0.444\nsamples = 4\nvalue = [4, 2]"] ;
254 -> 258 ;
259 [label="gini = 0.444\nsamples = 2\nvalue = [2, 1]"] ;
258 -> 259 ;
260 [label="gini = 0.444\nsamples = 2\nvalue = [2, 1]"] ;
258 -> 260 ;
261 [label="gini = 0.0\nsamples = 1\nvalue = [0, 1]"] ;
253 -> 261 ;
262 [label="gini = 0.0\nsamples = 4\nvalue = [6, 0]"] ;
250 -> 262 ;
263 [label="x[75] <= 15028389.0\ngini = 0.494\nsamples = 7\nvalue = [4, 5]"] ;
249 -> 263 ;
264 [label="x[14] <= 404.0\ngini = 0.444\nsamples = 4\nvalue = [2, 4]"] ;
263 -> 264 ;
265 [label="gini = 0.444\nsamples = 2\nvalue = [1, 2]"] ;
264 -> 265 ;
266 [label="gini = 0.444\nsamples = 2\nvalue = [1, 2]"] ;
264 -> 266 ;
267 [label="x[47] <= 19.073\ngini = 0.444\nsamples = 3\nvalue = [2, 1]"] ;
263 -> 267 ;
268 [label="gini = 0.5\nsamples = 2\nvalue = [1, 1]"] ;
267 -> 268 ;
269 [label="gini = 0.0\nsamples = 1\nvalue = [1, 0]"] ;
267 -> 269 ;
270 [label="x[54] <= 16690546.0\ngini = 0.393\nsamples = 19\nvalue = [7, 19]"] ;
244 -> 270 ;
271 [label="gini = 0.0\nsamples = 5\nvalue = [0, 7]"] ;
270 -> 271 ;
272 [label="x[29] <= 1990.0\ngini = 0.465\nsamples = 14\nvalue = [7, 12]"] ;
270 -> 272 ;
273 [label="x[19] <= 2.5\ngini = 0.492\nsamples = 12\nvalue = [7, 9]"] ;
272 -> 273 ;
274 [label="x[68] <= 27512.55\ngini = 0.5\nsamples = 11\nvalue = [7, 7]"] ;
273 -> 274 ;
275 [label="x[0] <= 29173.0\ngini = 0.375\nsamples = 3\nvalue = [3, 1]"] ;
274 -> 275 ;
276 [label="gini = 0.0\nsamples = 1\nvalue = [1, 0]"] ;
275 -> 276 ;
277 [label="gini = 0.444\nsamples = 2\nvalue = [2, 1]"] ;
275 -> 277 ;
278 [label="x[0] <= 13060.0\ngini = 0.48\nsamples = 8\nvalue = [4, 6]"] ;
274 -> 278 ;
279 [label="gini = 0.0\nsamples = 1\nvalue = [1, 0]"] ;
278 -> 279 ;
280 [label="x[76] <= 27451588.0\ngini = 0.444\nsamples = 7\nvalue = [3, 6]"] ;
278 -> 280 ;
281 [label="x[75] <= 21230974.0\ngini = 0.469\nsamples = 6\nvalue = [3, 5]"] ;
280 -> 281 ;
282 [label="gini = 0.5\nsamples = 2\nvalue = [1, 1]"] ;
281 -> 282 ;
283 [label="x[69] <= 672649.047\ngini = 0.444\nsamples = 4\nvalue = [2, 4]"] ;
281 -> 283 ;
284 [label="gini = 0.444\nsamples = 2\nvalue = [1, 2]"] ;
283 -> 284 ;
285 [label="gini = 0.444\nsamples = 2\nvalue = [1, 2]"] ;
283 -> 285 ;
286 [label="gini = 0.0\nsamples = 1\nvalue = [0, 1]"] ;
280 -> 286 ;
287 [label="gini = 0.0\nsamples = 1\nvalue = [0, 2]"] ;
273 -> 287 ;
288 [label="gini = 0.0\nsamples = 2\nvalue = [0, 3]"] ;
272 -> 288 ;
289 [label="x[70] <= 1358357.625\ngini = 0.375\nsamples = 10\nvalue = [4, 12]"] ;
243 -> 289 ;
290 [label="x[43] <= 12098043.5\ngini = 0.153\nsamples = 8\nvalue = [1, 11]"] ;
289 -> 290 ;
291 [label="gini = 0.0\nsamples = 1\nvalue = [1, 0]"] ;
290 -> 291 ;
292 [label="gini = 0.0\nsamples = 7\nvalue = [0, 11]"] ;
290 -> 292 ;
293 [label="gini = 0.375\nsamples = 2\nvalue = [3, 1]"] ;
289 -> 293 ;
294 [label="gini = 0.0\nsamples = 4\nvalue = [0, 6]"] ;
242 -> 294 ;
295 [label="x[50] <= 4053113.25\ngini = 0.412\nsamples = 16\nvalue = [22, 9]"] ;
241 -> 295 ;
296 [label="x[8] <= 0.268\ngini = 0.302\nsamples = 15\nvalue = [22, 5]"] ;
295 -> 296 ;
297 [label="x[72] <= 157095.523\ngini = 0.5\nsamples = 6\nvalue = [4, 4]"] ;
296 -> 297 ;
298 [label="gini = 0.0\nsamples = 1\nvalue = [0, 1]"] ;
297 -> 298 ;
299 [label="x[7] <= 0.301\ngini = 0.49\nsamples = 5\nvalue = [4, 3]"] ;
297 -> 299 ;
300 [label="gini = 0.0\nsamples = 1\nvalue = [1, 0]"] ;
299 -> 300 ;
301 [label="x[9] <= 0.578\ngini = 0.5\nsamples = 4\nvalue = [3, 3]"] ;
299 -> 301 ;
302 [label="gini = 0.5\nsamples = 2\nvalue = [1, 1]"] ;
301 -> 302 ;
303 [label="gini = 0.5\nsamples = 2\nvalue = [2, 2]"] ;
301 -> 303 ;
304 [label="x[70] <= 531220.656\ngini = 0.1\nsamples = 9\nvalue = [18, 1]"] ;
296 -> 304 ;
305 [label="gini = 0.0\nsamples = 8\nvalue = [18, 0]"] ;
304 -> 305 ;
306 [label="gini = 0.0\nsamples = 1\nvalue = [0, 1]"] ;
304 -> 306 ;
307 [label="gini = 0.0\nsamples = 1\nvalue = [0, 4]"] ;
295 -> 307 ;
308 [label="x[59] <= 4.292\ngini = 0.206\nsamples = 149\nvalue = [28, 212]"] ;
108 -> 308 ;
309 [label="x[50] <= 518470.875\ngini = 0.024\nsamples = 56\nvalue = [1, 82]"] ;
308 -> 309 ;
310 [label="x[28] <= 462.5\ngini = 0.444\nsamples = 3\nvalue = [1, 2]"] ;
309 -> 310 ;
311 [label="gini = 0.0\nsamples = 1\nvalue = [1, 0]"] ;
310 -> 311 ;
312 [label="gini = 0.0\nsamples = 2\nvalue = [0, 2]"] ;
310 -> 312 ;
313 [label="gini = 0.0\nsamples = 53\nvalue = [0, 80]"] ;
309 -> 313 ;
314 [label="x[55] <= 227498.078\ngini = 0.285\nsamples = 93\nvalue = [27, 130]"] ;
308 -> 314 ;
315 [label="x[43] <= 4184071.5\ngini = 0.375\nsamples = 64\nvalue = [27, 81]"] ;
314 -> 315 ;
316 [label="x[44] <= 3261850.875\ngini = 0.126\nsamples = 31\nvalue = [4, 55]"] ;
315 -> 316 ;
317 [label="x[41] <= 598.868\ngini = 0.278\nsamples = 8\nvalue = [3, 15]"] ;
316 -> 317 ;
318 [label="x[52] <= 9.537\ngini = 0.49\nsamples = 4\nvalue = [3, 4]"] ;
317 -> 318 ;
319 [label="gini = 0.48\nsamples = 2\nvalue = [2, 3]"] ;
318 -> 319 ;
320 [label="gini = 0.5\nsamples = 2\nvalue = [1, 1]"] ;
318 -> 320 ;
321 [label="gini = 0.0\nsamples = 4\nvalue = [0, 11]"] ;
317 -> 321 ;
322 [label="x[54] <= 4333379.5\ngini = 0.048\nsamples = 23\nvalue = [1, 40]"] ;
316 -> 322 ;
323 [label="gini = 0.0\nsamples = 15\nvalue = [0, 25]"] ;
322 -> 323 ;
324 [label="x[69] <= 4392507.5\ngini = 0.117\nsamples = 8\nvalue = [1, 15]"] ;
322 -> 324 ;
325 [label="gini = 0.5\nsamples = 2\nvalue = [1, 1]"] ;
324 -> 325 ;
326 [label="gini = 0.0\nsamples = 6\nvalue = [0, 14]"] ;
324 -> 326 ;
327 [label="x[31] <= 227.95\ngini = 0.498\nsamples = 33\nvalue = [23, 26]"] ;
315 -> 327 ;
328 [label="x[31] <= 121.668\ngini = 0.485\nsamples = 27\nvalue = [17, 24]"] ;
327 -> 328 ;
329 [label="x[51] <= 1318108.938\ngini = 0.32\nsamples = 3\nvalue = [4, 1]"] ;
328 -> 329 ;
330 [label="gini = 0.0\nsamples = 1\nvalue = [0, 1]"] ;
329 -> 330 ;
331 [label="gini = 0.0\nsamples = 2\nvalue = [4, 0]"] ;
329 -> 331 ;
332 [label="x[60] <= 539.333\ngini = 0.461\nsamples = 24\nvalue = [13, 23]"] ;
328 -> 332 ;
333 [label="x[48] <= 4748397.5\ngini = 0.18\nsamples = 5\nvalue = [1, 9]"] ;
332 -> 333 ;
334 [label="gini = 0.0\nsamples = 1\nvalue = [1, 0]"] ;
333 -> 334 ;
335 [label="gini = 0.0\nsamples = 4\nvalue = [0, 9]"] ;
333 -> 335 ;
336 [label="x[68] <= 6997611.0\ngini = 0.497\nsamples = 19\nvalue = [12, 14]"] ;
332 -> 336 ;
337 [label="x[70] <= 5546117.0\ngini = 0.486\nsamples = 17\nvalue = [10, 14]"] ;
336 -> 337 ;
338 [label="x[71] <= 4766622.0\ngini = 0.457\nsamples = 11\nvalue = [6, 11]"] ;
337 -> 338 ;
339 [label="x[48] <= 4396375.0\ngini = 0.49\nsamples = 9\nvalue = [6, 8]"] ;
338 -> 339 ;
340 [label="x[8] <= 2.711\ngini = 0.463\nsamples = 7\nvalue = [4, 7]"] ;
339 -> 340 ;
341 [label="x[0] <= 16486.0\ngini = 0.408\nsamples = 5\nvalue = [2, 5]"] ;
340 -> 341 ;
342 [label="x[69] <= 4543196.0\ngini = 0.444\nsamples = 4\nvalue = [2, 4]"] ;
341 -> 342 ;
343 [label="gini = 0.444\nsamples = 2\nvalue = [1, 2]"] ;
342 -> 343 ;
344 [label="gini = 0.444\nsamples = 2\nvalue = [1, 2]"] ;
342 -> 344 ;
345 [label="gini = 0.0\nsamples = 1\nvalue = [0, 1]"] ;
341 -> 345 ;
346 [label="gini = 0.5\nsamples = 2\nvalue = [2, 2]"] ;
340 -> 346 ;
347 [label="gini = 0.444\nsamples = 2\nvalue = [2, 1]"] ;
339 -> 347 ;
348 [label="gini = 0.0\nsamples = 2\nvalue = [0, 3]"] ;
338 -> 348 ;
349 [label="x[10] <= 0.692\ngini = 0.49\nsamples = 6\nvalue = [4, 3]"] ;
337 -> 349 ;
350 [label="gini = 0.0\nsamples = 1\nvalue = [0, 1]"] ;
349 -> 350 ;
351 [label="x[41] <= 669.077\ngini = 0.444\nsamples = 5\nvalue = [4, 2]"] ;
349 -> 351 ;
352 [label="x[45] <= 372851.328\ngini = 0.48\nsamples = 4\nvalue = [3, 2]"] ;
351 -> 352 ;
353 [label="gini = 0.444\nsamples = 2\nvalue = [2, 1]"] ;
352 -> 353 ;
354 [label="gini = 0.5\nsamples = 2\nvalue = [1, 1]"] ;
352 -> 354 ;
355 [label="gini = 0.0\nsamples = 1\nvalue = [1, 0]"] ;
351 -> 355 ;
356 [label="gini = 0.0\nsamples = 2\nvalue = [2, 0]"] ;
336 -> 356 ;
357 [label="x[39] <= 6844.0\ngini = 0.375\nsamples = 6\nvalue = [6, 2]"] ;
327 -> 357 ;
358 [label="gini = 0.5\nsamples = 2\nvalue = [1, 1]"] ;
357 -> 358 ;
359 [label="x[48] <= 4389908.0\ngini = 0.278\nsamples = 4\nvalue = [5, 1]"] ;
357 -> 359 ;
360 [label="gini = 0.375\nsamples = 2\nvalue = [3, 1]"] ;
359 -> 360 ;
361 [label="gini = 0.0\nsamples = 2\nvalue = [2, 0]"] ;
359 -> 361 ;
362 [label="gini = 0.0\nsamples = 29\nvalue = [0, 49]"] ;
314 -> 362 ;
363 [label="gini = 0.0\nsamples = 2074\nvalue = [0, 3242]"] ;
83 -> 363 ;
364 [label="x[48] <= 5056170.0\ngini = 0.198\nsamples = 2717\nvalue = [478, 3803]"] ;
2 -> 364 ;
365 [label="x[54] <= 5747708.5\ngini = 0.322\nsamples = 1508\nvalue = [478, 1894]"] ;
364 -> 365 ;
366 [label="x[53] <= 4963817.5\ngini = 0.02\nsamples = 756\nvalue = [12, 1178]"] ;
365 -> 366 ;
367 [label="x[44] <= 3615106.625\ngini = 0.012\nsamples = 747\nvalue = [7, 1171]"] ;
366 -> 367 ;
368 [label="gini = 0.0\nsamples = 627\nvalue = [0, 982]"] ;
367 -> 368 ;
369 [label="x[35] <= 794.625\ngini = 0.069\nsamples = 120\nvalue = [7, 189]"] ;
367 -> 369 ;
370 [label="x[69] <= 3665388.0\ngini = 0.201\nsamples = 35\nvalue = [6, 47]"] ;
369 -> 370 ;
371 [label="gini = 0.0\nsamples = 1\nvalue = [4, 0]"] ;
370 -> 371 ;
372 [label="x[45] <= 240137.336\ngini = 0.078\nsamples = 34\nvalue = [2, 47]"] ;
370 -> 372 ;
373 [label="x[50] <= 283706.523\ngini = 0.444\nsamples = 3\nvalue = [1, 2]"] ;
372 -> 373 ;
374 [label="gini = 0.0\nsamples = 1\nvalue = [0, 1]"] ;
373 -> 374 ;
375 [label="gini = 0.5\nsamples = 2\nvalue = [1, 1]"] ;
373 -> 375 ;
376 [label="x[50] <= 331203.141\ngini = 0.043\nsamples = 31\nvalue = [1, 45]"] ;
372 -> 376 ;
377 [label="x[43] <= 2685726.125\ngini = 0.198\nsamples = 6\nvalue = [1, 8]"] ;
376 -> 377 ;
378 [label="gini = 0.0\nsamples = 4\nvalue = [0, 7]"] ;
377 -> 378 ;
379 [label="gini = 0.5\nsamples = 2\nvalue = [1, 1]"] ;
377 -> 379 ;
380 [label="gini = 0.0\nsamples = 25\nvalue = [0, 37]"] ;
376 -> 380 ;
381 [label="x[13] <= 42.0\ngini = 0.014\nsamples = 85\nvalue = [1, 142]"] ;
369 -> 381 ;
382 [label="gini = 0.0\nsamples = 65\nvalue = [0, 109]"] ;
381 -> 382 ;
383 [label="x[68] <= 4170850.875\ngini = 0.057\nsamples = 20\nvalue = [1, 33]"] ;
381 -> 383 ;
384 [label="x[41] <= 820.378\ngini = 0.198\nsamples = 6\nvalue = [1, 8]"] ;
383 -> 384 ;
385 [label="gini = 0.5\nsamples = 2\nvalue = [1, 1]"] ;
384 -> 385 ;
386 [label="gini = 0.0\nsamples = 4\nvalue = [0, 7]"] ;
384 -> 386 ;
387 [label="gini = 0.0\nsamples = 14\nvalue = [0, 25]"] ;
383 -> 387 ;
388 [label="x[14] <= 312.0\ngini = 0.486\nsamples = 9\nvalue = [5, 7]"] ;
366 -> 388 ;
389 [label="gini = 0.0\nsamples = 2\nvalue = [0, 3]"] ;
388 -> 389 ;
390 [label="x[0] <= 22471.0\ngini = 0.494\nsamples = 7\nvalue = [5, 4]"] ;
388 -> 390 ;
391 [label="gini = 0.0\nsamples = 2\nvalue = [2, 0]"] ;
390 -> 391 ;
392 [label="x[55] <= 257145.539\ngini = 0.49\nsamples = 5\nvalue = [3, 4]"] ;
390 -> 392 ;
393 [label="x[7] <= 2.333\ngini = 0.5\nsamples = 4\nvalue = [3, 3]"] ;
392 -> 393 ;
394 [label="gini = 0.5\nsamples = 2\nvalue = [2, 2]"] ;
393 -> 394 ;
395 [label="gini = 0.5\nsamples = 2\nvalue = [1, 1]"] ;
393 -> 395 ;
396 [label="gini = 0.0\nsamples = 1\nvalue = [0, 1]"] ;
392 -> 396 ;
397 [label="x[7] <= 2.39\ngini = 0.478\nsamples = 752\nvalue = [466, 716]"] ;
365 -> 397 ;
398 [label="x[72] <= 116762.703\ngini = 0.093\nsamples = 172\nvalue = [13, 254]"] ;
397 -> 398 ;
399 [label="x[41] <= 816.461\ngini = 0.022\nsamples = 113\nvalue = [2, 181]"] ;
398 -> 399 ;
400 [label="x[41] <= 812.069\ngini = 0.137\nsamples = 16\nvalue = [2, 25]"] ;
399 -> 400 ;
401 [label="gini = 0.0\nsamples = 14\nvalue = [0, 24]"] ;
400 -> 401 ;
402 [label="gini = 0.444\nsamples = 2\nvalue = [2, 1]"] ;
400 -> 402 ;
403 [label="gini = 0.0\nsamples = 97\nvalue = [0, 156]"] ;
399 -> 403 ;
404 [label="x[40] <= 382.394\ngini = 0.228\nsamples = 59\nvalue = [11, 73]"] ;
398 -> 404 ;
405 [label="x[30] <= 59.91\ngini = 0.411\nsamples = 28\nvalue = [11, 27]"] ;
404 -> 405 ;
406 [label="x[61] <= 3718.0\ngini = 0.498\nsamples = 15\nvalue = [8, 9]"] ;
405 -> 406 ;
407 [label="x[40] <= 367.178\ngini = 0.245\nsamples = 7\nvalue = [1, 6]"] ;
406 -> 407 ;
408 [label="gini = 0.0\nsamples = 5\nvalue = [0, 5]"] ;
407 -> 408 ;
409 [label="x[48] <= 5002833.5\ngini = 0.5\nsamples = 2\nvalue = [1, 1]"] ;
407 -> 409 ;
410 [label="gini = 0.0\nsamples = 1\nvalue = [1, 0]"] ;
409 -> 410 ;
411 [label="gini = 0.0\nsamples = 1\nvalue = [0, 1]"] ;
409 -> 411 ;
412 [label="x[49] <= 6199486.5\ngini = 0.42\nsamples = 8\nvalue = [7, 3]"] ;
406 -> 412 ;
413 [label="x[31] <= 130.167\ngini = 0.48\nsamples = 4\nvalue = [3, 2]"] ;
412 -> 413 ;
414 [label="gini = 0.0\nsamples = 1\nvalue = [0, 1]"] ;
413 -> 414 ;
415 [label="x[74] <= 5005950.0\ngini = 0.375\nsamples = 3\nvalue = [3, 1]"] ;
413 -> 415 ;
416 [label="gini = 0.444\nsamples = 2\nvalue = [2, 1]"] ;
415 -> 416 ;
417 [label="gini = 0.0\nsamples = 1\nvalue = [1, 0]"] ;
415 -> 417 ;
418 [label="x[9] <= 3.688\ngini = 0.32\nsamples = 4\nvalue = [4, 1]"] ;
412 -> 418 ;
419 [label="gini = 0.444\nsamples = 2\nvalue = [2, 1]"] ;
418 -> 419 ;
420 [label="gini = 0.0\nsamples = 2\nvalue = [2, 0]"] ;
418 -> 420 ;
421 [label="x[49] <= 8475179.5\ngini = 0.245\nsamples = 13\nvalue = [3, 18]"] ;
405 -> 421 ;
422 [label="x[13] <= 42.0\ngini = 0.124\nsamples = 10\nvalue = [1, 14]"] ;
421 -> 422 ;
423 [label="gini = 0.0\nsamples = 7\nvalue = [0, 12]"] ;
422 -> 423 ;
424 [label="x[34] <= 9102.5\ngini = 0.444\nsamples = 3\nvalue = [1, 2]"] ;
422 -> 424 ;
425 [label="gini = 0.0\nsamples = 1\nvalue = [0, 1]"] ;
424 -> 425 ;
426 [label="gini = 0.5\nsamples = 2\nvalue = [1, 1]"] ;
424 -> 426 ;
427 [label="x[49] <= 8978157.5\ngini = 0.444\nsamples = 3\nvalue = [2, 4]"] ;
421 -> 427 ;
428 [label="gini = 0.5\nsamples = 2\nvalue = [2, 2]"] ;
427 -> 428 ;
429 [label="gini = 0.0\nsamples = 1\nvalue = [0, 2]"] ;
427 -> 429 ;
430 [label="gini = 0.0\nsamples = 31\nvalue = [0, 46]"] ;
404 -> 430 ;
431 [label="x[35] <= 1466.179\ngini = 0.5\nsamples = 580\nvalue = [453, 462]"] ;
397 -> 431 ;
432 [label="x[30] <= 101.609\ngini = 0.5\nsamples = 557\nvalue = [452, 434]"] ;
431 -> 432 ;
433 [label="x[53] <= 3026399.625\ngini = 0.499\nsamples = 548\nvalue = [452, 422]"] ;
432 -> 433 ;
434 [label="gini = 0.0\nsamples = 3\nvalue = [0, 10]"] ;
433 -> 434 ;
435 [label="x[53] <= 5003525.0\ngini = 0.499\nsamples = 545\nvalue = [452, 412]"] ;
433 -> 435 ;
436 [label="x[55] <= 216507.734\ngini = 0.491\nsamples = 282\nvalue = [256, 196]"] ;
435 -> 436 ;
437 [label="x[72] <= 527081.734\ngini = 0.456\nsamples = 118\nvalue = [122, 66]"] ;
436 -> 437 ;
438 [label="x[40] <= 402.833\ngini = 0.464\nsamples = 113\nvalue = [114, 66]"] ;
437 -> 438 ;
439 [label="x[70] <= 1023055.531\ngini = 0.367\nsamples = 42\nvalue = [50, 16]"] ;
438 -> 439 ;
440 [label="x[76] <= 5002725.0\ngini = 0.495\nsamples = 13\nvalue = [11, 9]"] ;
439 -> 440 ;
441 [label="x[0] <= 32295.0\ngini = 0.463\nsamples = 7\nvalue = [4, 7]"] ;
440 -> 441 ;
442 [label="x[44] <= 5975985.5\ngini = 0.494\nsamples = 5\nvalue = [4, 5]"] ;
441 -> 442 ;
443 [label="x[50] <= 534341.125\ngini = 0.5\nsamples = 4\nvalue = [4, 4]"] ;
442 -> 443 ;
444 [label="gini = 0.5\nsamples = 2\nvalue = [3, 3]"] ;
443 -> 444 ;
445 [label="gini = 0.5\nsamples = 2\nvalue = [1, 1]"] ;
443 -> 445 ;
446 [label="gini = 0.0\nsamples = 1\nvalue = [0, 1]"] ;
442 -> 446 ;
447 [label="gini = 0.0\nsamples = 2\nvalue = [0, 2]"] ;
441 -> 447 ;
448 [label="x[48] <= 5002785.5\ngini = 0.346\nsamples = 6\nvalue = [7, 2]"] ;
440 -> 448 ;
449 [label="gini = 0.0\nsamples = 1\nvalue = [1, 0]"] ;
448 -> 449 ;
450 [label="x[46] <= 1168364.75\ngini = 0.375\nsamples = 5\nvalue = [6, 2]"] ;
448 -> 450 ;
451 [label="x[53] <= 5002793.5\ngini = 0.32\nsamples = 3\nvalue = [4, 1]"] ;
450 -> 451 ;
452 [label="gini = 0.375\nsamples = 2\nvalue = [3, 1]"] ;
451 -> 452 ;
453 [label="gini = 0.0\nsamples = 1\nvalue = [1, 0]"] ;
451 -> 453 ;
454 [label="gini = 0.444\nsamples = 2\nvalue = [2, 1]"] ;
450 -> 454 ;
455 [label="x[57] <= 1540.054\ngini = 0.258\nsamples = 29\nvalue = [39, 7]"] ;
439 -> 455 ;
456 [label="gini = 0.0\nsamples = 1\nvalue = [0, 2]"] ;
455 -> 456 ;
457 [label="x[30] <= 88.06\ngini = 0.201\nsamples = 28\nvalue = [39, 5]"] ;
455 -> 457 ;
458 [label="x[36] <= 793.684\ngini = 0.136\nsamples = 26\nvalue = [38, 3]"] ;
457 -> 458 ;
459 [label="gini = 0.0\nsamples = 1\nvalue = [0, 1]"] ;
458 -> 459 ;
460 [label="x[7] <= 3.427\ngini = 0.095\nsamples = 25\nvalue = [38, 2]"] ;
458 -> 460 ;
461 [label="x[52] <= 9.537\ngini = 0.051\nsamples = 23\nvalue = [37, 1]"] ;
460 -> 461 ;
462 [label="x[54] <= 6080632.5\ngini = 0.278\nsamples = 5\nvalue = [5, 1]"] ;
461 -> 462 ;
463 [label="gini = 0.0\nsamples = 1\nvalue = [0, 1]"] ;
462 -> 463 ;
464 [label="gini = 0.0\nsamples = 4\nvalue = [5, 0]"] ;
462 -> 464 ;
465 [label="gini = 0.0\nsamples = 18\nvalue = [32, 0]"] ;
461 -> 465 ;
466 [label="gini = 0.5\nsamples = 2\nvalue = [1, 1]"] ;
460 -> 466 ;
467 [label="x[76] <= 5001424.5\ngini = 0.444\nsamples = 2\nvalue = [1, 2]"] ;
457 -> 467 ;
468 [label="gini = 0.0\nsamples = 1\nvalue = [0, 2]"] ;
467 -> 468 ;
469 [label="gini = 0.0\nsamples = 1\nvalue = [1, 0]"] ;
467 -> 469 ;
470 [label="x[43] <= 5002773.0\ngini = 0.492\nsamples = 71\nvalue = [64, 50]"] ;
438 -> 470 ;
471 [label="x[45] <= 366975.484\ngini = 0.498\nsamples = 65\nvalue = [55, 49]"] ;
470 -> 471 ;
472 [label="x[34] <= 10889.0\ngini = 0.5\nsamples = 62\nvalue = [48, 49]"] ;
471 -> 472 ;
473 [label="gini = 0.0\nsamples = 1\nvalue = [0, 5]"] ;
472 -> 473 ;
474 [label="x[43] <= 5001779.0\ngini = 0.499\nsamples = 61\nvalue = [48, 44]"] ;
472 -> 474 ;
475 [label="x[0] <= 14613.0\ngini = 0.489\nsamples = 46\nvalue = [42, 31]"] ;
474 -> 475 ;
476 [label="x[50] <= 498276.688\ngini = 0.388\nsamples = 13\nvalue = [5, 14]"] ;
475 -> 476 ;
477 [label="x[28] <= 426.5\ngini = 0.219\nsamples = 5\nvalue = [1, 7]"] ;
476 -> 477 ;
478 [label="x[21] <= 9.0\ngini = 0.278\nsamples = 3\nvalue = [1, 5]"] ;
477 -> 478 ;
479 [label="gini = 0.0\nsamples = 1\nvalue = [0, 1]"] ;
478 -> 479 ;
480 [label="gini = 0.32\nsamples = 2\nvalue = [1, 4]"] ;
478 -> 480 ;
481 [label="gini = 0.0\nsamples = 2\nvalue = [0, 2]"] ;
477 -> 481 ;
482 [label="x[54] <= 6064215.5\ngini = 0.463\nsamples = 8\nvalue = [4, 7]"] ;
476 -> 482 ;
483 [label="gini = 0.5\nsamples = 2\nvalue = [1, 1]"] ;
482 -> 483 ;
484 [label="x[38] <= 5048.5\ngini = 0.444\nsamples = 6\nvalue = [3, 6]"] ;
482 -> 484 ;
485 [label="x[29] <= 1641.0\ngini = 0.444\nsamples = 4\nvalue = [2, 4]"] ;
484 -> 485 ;
486 [label="gini = 0.444\nsamples = 2\nvalue = [1, 2]"] ;
485 -> 486 ;
487 [label="gini = 0.444\nsamples = 2\nvalue = [1, 2]"] ;
485 -> 487 ;
488 [label="gini = 0.444\nsamples = 2\nvalue = [1, 2]"] ;
484 -> 488 ;
489 [label="x[50] <= 498318.672\ngini = 0.431\nsamples = 33\nvalue = [37, 17]"] ;
475 -> 489 ;
490 [label="x[47] <= 5.484\ngini = 0.312\nsamples = 20\nvalue = [25, 6]"] ;
489 -> 490 ;
491 [label="x[52] <= 4.53\ngini = 0.48\nsamples = 4\nvalue = [2, 3]"] ;
490 -> 491 ;
492 [label="gini = 0.444\nsamples = 2\nvalue = [1, 2]"] ;
491 -> 492 ;
493 [label="gini = 0.5\nsamples = 2\nvalue = [1, 1]"] ;
491 -> 493 ;
494 [label="x[60] <= 676.167\ngini = 0.204\nsamples = 16\nvalue = [23, 3]"] ;
490 -> 494 ;
495 [label="gini = 0.0\nsamples = 12\nvalue = [21, 0]"] ;
494 -> 495 ;
496 [label="x[58] <= 8.833\ngini = 0.48\nsamples = 4\nvalue = [2, 3]"] ;
494 -> 496 ;
497 [label="x[49] <= 6948341.5\ngini = 0.5\nsamples = 3\nvalue = [2, 2]"] ;
496 -> 497 ;
498 [label="gini = 0.444\nsamples = 2\nvalue = [1, 2]"] ;
497 -> 498 ;
499 [label="gini = 0.0\nsamples = 1\nvalue = [1, 0]"] ;
497 -> 499 ;
500 [label="gini = 0.0\nsamples = 1\nvalue = [0, 1]"] ;
496 -> 500 ;
501 [label="x[68] <= 823559.375\ngini = 0.499\nsamples = 13\nvalue = [12, 11]"] ;
489 -> 501 ;
502 [label="x[69] <= 742924.562\ngini = 0.426\nsamples = 7\nvalue = [9, 4]"] ;
501 -> 502 ;
503 [label="gini = 0.0\nsamples = 1\nvalue = [3, 0]"] ;
502 -> 503 ;
504 [label="x[73] <= 5001396.5\ngini = 0.48\nsamples = 6\nvalue = [6, 4]"] ;
502 -> 504 ;
505 [label="x[69] <= 926767.594\ngini = 0.444\nsamples = 4\nvalue = [4, 2]"] ;
504 -> 505 ;
506 [label="gini = 0.444\nsamples = 2\nvalue = [2, 1]"] ;
505 -> 506 ;
507 [label="gini = 0.444\nsamples = 2\nvalue = [2, 1]"] ;
505 -> 507 ;
508 [label="gini = 0.5\nsamples = 2\nvalue = [2, 2]"] ;
504 -> 508 ;
509 [label="x[52] <= 12.398\ngini = 0.42\nsamples = 6\nvalue = [3, 7]"] ;
501 -> 509 ;
510 [label="x[30] <= 75.508\ngini = 0.469\nsamples = 4\nvalue = [3, 5]"] ;
509 -> 510 ;
511 [label="gini = 0.444\nsamples = 2\nvalue = [1, 2]"] ;
510 -> 511 ;
512 [label="gini = 0.48\nsamples = 2\nvalue = [2, 3]"] ;
510 -> 512 ;
513 [label="gini = 0.0\nsamples = 2\nvalue = [0, 2]"] ;
509 -> 513 ;
514 [label="x[6] <= 9.5\ngini = 0.432\nsamples = 15\nvalue = [6, 13]"] ;
474 -> 514 ;
515 [label="x[5] <= 5.5\ngini = 0.408\nsamples = 6\nvalue = [5, 2]"] ;
514 -> 515 ;
516 [label="x[39] <= 13347.5\ngini = 0.5\nsamples = 4\nvalue = [2, 2]"] ;
515 -> 516 ;
517 [label="gini = 0.0\nsamples = 1\nvalue = [0, 1]"] ;
516 -> 517 ;
518 [label="x[61] <= 6856.0\ngini = 0.444\nsamples = 3\nvalue = [2, 1]"] ;
516 -> 518 ;
519 [label="gini = 0.0\nsamples = 1\nvalue = [1, 0]"] ;
518 -> 519 ;
520 [label="gini = 0.5\nsamples = 2\nvalue = [1, 1]"] ;
518 -> 520 ;
521 [label="gini = 0.0\nsamples = 2\nvalue = [3, 0]"] ;
515 -> 521 ;
522 [label="x[47] <= 6.557\ngini = 0.153\nsamples = 9\nvalue = [1, 11]"] ;
514 -> 522 ;
523 [label="gini = 0.444\nsamples = 2\nvalue = [1, 2]"] ;
522 -> 523 ;
524 [label="gini = 0.0\nsamples = 7\nvalue = [0, 9]"] ;
522 -> 524 ;
525 [label="gini = 0.0\nsamples = 3\nvalue = [7, 0]"] ;
471 -> 525 ;
526 [label="x[69] <= 631351.594\ngini = 0.18\nsamples = 6\nvalue = [9, 1]"] ;
470 -> 526 ;
527 [label="gini = 0.0\nsamples = 1\nvalue = [0, 1]"] ;
526 -> 527 ;
528 [label="gini = 0.0\nsamples = 5\nvalue = [9, 0]"] ;
526 -> 528 ;
529 [label="gini = 0.0\nsamples = 5\nvalue = [8, 0]"] ;
437 -> 529 ;
530 [label="x[31] <= 160.846\ngini = 0.5\nsamples = 164\nvalue = [134, 130]"] ;
436 -> 530 ;
531 [label="x[71] <= 8536377.0\ngini = 0.498\nsamples = 152\nvalue = [129, 112]"] ;
530 -> 531 ;
532 [label="x[33] <= 6871.5\ngini = 0.496\nsamples = 151\nvalue = [129, 108]"] ;
531 -> 532 ;
533 [label="x[69] <= 726274.0\ngini = 0.494\nsamples = 149\nvalue = [129, 104]"] ;
532 -> 533 ;
534 [label="x[74] <= 5000739.0\ngini = 0.42\nsamples = 12\nvalue = [6, 14]"] ;
533 -> 534 ;
535 [label="gini = 0.0\nsamples = 1\nvalue = [1, 0]"] ;
534 -> 535 ;
536 [label="x[70] <= 941149.0\ngini = 0.388\nsamples = 11\nvalue = [5, 14]"] ;
534 -> 536 ;
537 [label="x[60] <= 511.5\ngini = 0.444\nsamples = 5\nvalue = [3, 6]"] ;
536 -> 537 ;
538 [label="x[56] <= 1018463.469\ngini = 0.32\nsamples = 3\nvalue = [1, 4]"] ;
537 -> 538 ;
539 [label="gini = 0.375\nsamples = 2\nvalue = [1, 3]"] ;
538 -> 539 ;
540 [label="gini = 0.0\nsamples = 1\nvalue = [0, 1]"] ;
538 -> 540 ;
541 [label="gini = 0.5\nsamples = 2\nvalue = [2, 2]"] ;
537 -> 541 ;
542 [label="x[49] <= 5973964.5\ngini = 0.32\nsamples = 6\nvalue = [2, 8]"] ;
536 -> 542 ;
543 [label="gini = 0.0\nsamples = 1\nvalue = [0, 2]"] ;
542 -> 543 ;
544 [label="x[54] <= 6090189.0\ngini = 0.375\nsamples = 5\nvalue = [2, 6]"] ;
542 -> 544 ;
545 [label="x[30] <= 63.373\ngini = 0.32\nsamples = 3\nvalue = [1, 4]"] ;
544 -> 545 ;
546 [label="gini = 0.375\nsamples = 2\nvalue = [1, 3]"] ;
545 -> 546 ;
547 [label="gini = 0.0\nsamples = 1\nvalue = [0, 1]"] ;
545 -> 547 ;
548 [label="gini = 0.444\nsamples = 2\nvalue = [1, 2]"] ;
544 -> 548 ;
549 [label="x[39] <= 16334.5\ngini = 0.488\nsamples = 137\nvalue = [123, 90]"] ;
533 -> 549 ;
550 [label="x[30] <= 50.5\ngini = 0.484\nsamples = 136\nvalue = [123, 86]"] ;
549 -> 550 ;
551 [label="x[56] <= 753370.719\ngini = 0.444\nsamples = 9\nvalue = [5, 10]"] ;
550 -> 551 ;
552 [label="gini = 0.444\nsamples = 2\nvalue = [2, 1]"] ;
551 -> 552 ;
553 [label="x[60] <= 340.0\ngini = 0.375\nsamples = 7\nvalue = [3, 9]"] ;
551 -> 553 ;
554 [label="gini = 0.0\nsamples = 2\nvalue = [0, 4]"] ;
553 -> 554 ;
555 [label="x[54] <= 6766958.5\ngini = 0.469\nsamples = 5\nvalue = [3, 5]"] ;
553 -> 555 ;
556 [label="x[74] <= 2501331.0\ngini = 0.5\nsamples = 4\nvalue = [3, 3]"] ;
555 -> 556 ;
557 [label="gini = 0.5\nsamples = 2\nvalue = [1, 1]"] ;
556 -> 557 ;
558 [label="gini = 0.5\nsamples = 2\nvalue = [2, 2]"] ;
556 -> 558 ;
559 [label="gini = 0.0\nsamples = 1\nvalue = [0, 2]"] ;
555 -> 559 ;
560 [label="x[46] <= 1177017.75\ngini = 0.477\nsamples = 127\nvalue = [118, 76]"] ;
550 -> 560 ;
561 [label="x[33] <= 2772.0\ngini = 0.497\nsamples = 70\nvalue = [59, 50]"] ;
560 -> 561 ;
562 [label="gini = 0.0\nsamples = 2\nvalue = [4, 0]"] ;
561 -> 562 ;
563 [label="x[56] <= 862654.844\ngini = 0.499\nsamples = 68\nvalue = [55, 50]"] ;
561 -> 563 ;
564 [label="gini = 0.0\nsamples = 1\nvalue = [0, 2]"] ;
563 -> 564 ;
565 [label="x[43] <= 4727370.5\ngini = 0.498\nsamples = 67\nvalue = [55, 48]"] ;
563 -> 565 ;
566 [label="gini = 0.0\nsamples = 1\nvalue = [0, 2]"] ;
565 -> 566 ;
567 [label="x[52] <= 8.464\ngini = 0.496\nsamples = 66\nvalue = [55, 46]"] ;
565 -> 567 ;
568 [label="x[45] <= 373750.266\ngini = 0.375\nsamples = 6\nvalue = [9, 3]"] ;
567 -> 568 ;
569 [label="gini = 0.0\nsamples = 1\nvalue = [0, 1]"] ;
568 -> 569 ;
570 [label="x[55] <= 239257.375\ngini = 0.298\nsamples = 5\nvalue = [9, 2]"] ;
568 -> 570 ;
571 [label="x[13] <= 42.0\ngini = 0.346\nsamples = 4\nvalue = [7, 2]"] ;
570 -> 571 ;
572 [label="gini = 0.375\nsamples = 2\nvalue = [3, 1]"] ;
571 -> 572 ;
573 [label="gini = 0.32\nsamples = 2\nvalue = [4, 1]"] ;
571 -> 573 ;
574 [label="gini = 0.0\nsamples = 1\nvalue = [2, 0]"] ;
570 -> 574 ;
575 [label="x[69] <= 1081977.938\ngini = 0.499\nsamples = 60\nvalue = [46, 43]"] ;
567 -> 575 ;
576 [label="x[36] <= 1369.82\ngini = 0.469\nsamples = 15\nvalue = [9, 15]"] ;
575 -> 576 ;
577 [label="x[44] <= 6790575.0\ngini = 0.434\nsamples = 14\nvalue = [7, 15]"] ;
576 -> 577 ;
578 [label="x[72] <= 46299.239\ngini = 0.49\nsamples = 4\nvalue = [4, 3]"] ;
577 -> 578 ;
579 [label="gini = 0.375\nsamples = 2\nvalue = [3, 1]"] ;
578 -> 579 ;
580 [label="gini = 0.444\nsamples = 2\nvalue = [1, 2]"] ;
578 -> 580 ;
581 [label="x[43] <= 5002291.5\ngini = 0.32\nsamples = 10\nvalue = [3, 12]"] ;
577 -> 581 ;
582 [label="x[49] <= 6807965.5\ngini = 0.219\nsamples = 6\nvalue = [1, 7]"] ;
581 -> 582 ;
583 [label="gini = 0.444\nsamples = 2\nvalue = [1, 2]"] ;
582 -> 583 ;
584 [label="gini = 0.0\nsamples = 4\nvalue = [0, 5]"] ;
582 -> 584 ;
585 [label="x[31] <= 159.317\ngini = 0.408\nsamples = 4\nvalue = [2, 5]"] ;
581 -> 585 ;
586 [label="gini = 0.444\nsamples = 2\nvalue = [1, 2]"] ;
585 -> 586 ;
587 [label="gini = 0.375\nsamples = 2\nvalue = [1, 3]"] ;
585 -> 587 ;
588 [label="gini = 0.0\nsamples = 1\nvalue = [2, 0]"] ;
576 -> 588 ;
589 [label="x[54] <= 7010021.5\ngini = 0.49\nsamples = 45\nvalue = [37, 28]"] ;
575 -> 589 ;
590 [label="x[45] <= 408473.766\ngini = 0.45\nsamples = 25\nvalue = [25, 13]"] ;
589 -> 590 ;
591 [label="x[55] <= 232605.82\ngini = 0.422\nsamples = 23\nvalue = [23, 10]"] ;
590 -> 591 ;
592 [label="x[74] <= 5000767.5\ngini = 0.473\nsamples = 20\nvalue = [16, 10]"] ;
591 -> 592 ;
593 [label="x[35] <= 981.654\ngini = 0.5\nsamples = 8\nvalue = [4, 4]"] ;
592 -> 593 ;
594 [label="gini = 0.5\nsamples = 2\nvalue = [1, 1]"] ;
593 -> 594 ;
595 [label="x[44] <= 6864632.5\ngini = 0.5\nsamples = 6\nvalue = [3, 3]"] ;
593 -> 595 ;
596 [label="gini = 0.5\nsamples = 2\nvalue = [1, 1]"] ;
595 -> 596 ;
597 [label="x[61] <= 4599.333\ngini = 0.5\nsamples = 4\nvalue = [2, 2]"] ;
595 -> 597 ;
598 [label="gini = 0.5\nsamples = 2\nvalue = [1, 1]"] ;
597 -> 598 ;
599 [label="gini = 0.5\nsamples = 2\nvalue = [1, 1]"] ;
597 -> 599 ;
600 [label="x[48] <= 5001017.5\ngini = 0.444\nsamples = 12\nvalue = [12, 6]"] ;
592 -> 600 ;
601 [label="gini = 0.0\nsamples = 1\nvalue = [1, 0]"] ;
600 -> 601 ;
602 [label="x[28] <= 418.0\ngini = 0.457\nsamples = 11\nvalue = [11, 6]"] ;
600 -> 602 ;
603 [label="x[76] <= 5002767.0\ngini = 0.408\nsamples = 5\nvalue = [5, 2]"] ;
602 -> 603 ;
604 [label="x[10] <= 0.641\ngini = 0.444\nsamples = 4\nvalue = [4, 2]"] ;
603 -> 604 ;
605 [label="gini = 0.444\nsamples = 2\nvalue = [2, 1]"] ;
604 -> 605 ;
606 [label="gini = 0.444\nsamples = 2\nvalue = [2, 1]"] ;
604 -> 606 ;
607 [label="gini = 0.0\nsamples = 1\nvalue = [1, 0]"] ;
603 -> 607 ;
608 [label="x[75] <= 5002274.0\ngini = 0.48\nsamples = 6\nvalue = [6, 4]"] ;
602 -> 608 ;
609 [label="gini = 0.5\nsamples = 2\nvalue = [1, 1]"] ;
608 -> 609 ;
610 [label="x[50] <= 629201.594\ngini = 0.469\nsamples = 4\nvalue = [5, 3]"] ;
608 -> 610 ;
611 [label="gini = 0.48\nsamples = 2\nvalue = [3, 2]"] ;
610 -> 611 ;
612 [label="gini = 0.444\nsamples = 2\nvalue = [2, 1]"] ;
610 -> 612 ;
613 [label="gini = 0.0\nsamples = 3\nvalue = [7, 0]"] ;
591 -> 613 ;
614 [label="gini = 0.48\nsamples = 2\nvalue = [2, 3]"] ;
590 -> 614 ;
615 [label="x[72] <= 314502.656\ngini = 0.494\nsamples = 20\nvalue = [12, 15]"] ;
589 -> 615 ;
616 [label="x[28] <= 426.5\ngini = 0.455\nsamples = 16\nvalue = [7, 13]"] ;
615 -> 616 ;
617 [label="x[44] <= 7030161.0\ngini = 0.32\nsamples = 8\nvalue = [2, 8]"] ;
616 -> 617 ;
618 [label="gini = 0.0\nsamples = 2\nvalue = [0, 4]"] ;
617 -> 618 ;
619 [label="x[9] <= 4.288\ngini = 0.444\nsamples = 6\nvalue = [2, 4]"] ;
617 -> 619 ;
620 [label="gini = 0.0\nsamples = 1\nvalue = [0, 1]"] ;
619 -> 620 ;
621 [label="x[43] <= 4981780.5\ngini = 0.48\nsamples = 5\nvalue = [2, 3]"] ;
619 -> 621 ;
622 [label="gini = 0.0\nsamples = 1\nvalue = [0, 1]"] ;
621 -> 622 ;
623 [label="x[20] <= 5.5\ngini = 0.5\nsamples = 4\nvalue = [2, 2]"] ;
621 -> 623 ;
624 [label="gini = 0.5\nsamples = 2\nvalue = [1, 1]"] ;
623 -> 624 ;
625 [label="gini = 0.5\nsamples = 2\nvalue = [1, 1]"] ;
623 -> 625 ;
626 [label="x[5] <= 5.5\ngini = 0.5\nsamples = 8\nvalue = [5, 5]"] ;
616 -> 626 ;
627 [label="gini = 0.0\nsamples = 1\nvalue = [1, 0]"] ;
626 -> 627 ;
628 [label="x[41] <= 1032.47\ngini = 0.494\nsamples = 7\nvalue = [4, 5]"] ;
626 -> 628 ;
629 [label="x[7] <= 2.86\ngini = 0.5\nsamples = 6\nvalue = [4, 4]"] ;
628 -> 629 ;
630 [label="gini = 0.5\nsamples = 2\nvalue = [2, 2]"] ;
629 -> 630 ;
631 [label="x[46] <= 1142988.125\ngini = 0.5\nsamples = 4\nvalue = [2, 2]"] ;
629 -> 631 ;
632 [label="gini = 0.5\nsamples = 2\nvalue = [1, 1]"] ;
631 -> 632 ;
633 [label="gini = 0.5\nsamples = 2\nvalue = [1, 1]"] ;
631 -> 633 ;
634 [label="gini = 0.0\nsamples = 1\nvalue = [0, 1]"] ;
628 -> 634 ;
635 [label="x[52] <= 18.477\ngini = 0.408\nsamples = 4\nvalue = [5, 2]"] ;
615 -> 635 ;
636 [label="x[46] <= 1170994.5\ngini = 0.278\nsamples = 3\nvalue = [5, 1]"] ;
635 -> 636 ;
637 [label="gini = 0.375\nsamples = 2\nvalue = [3, 1]"] ;
636 -> 637 ;
638 [label="gini = 0.0\nsamples = 1\nvalue = [2, 0]"] ;
636 -> 638 ;
639 [label="gini = 0.0\nsamples = 1\nvalue = [0, 1]"] ;
635 -> 639 ;
640 [label="x[41] <= 704.456\ngini = 0.425\nsamples = 57\nvalue = [59, 26]"] ;
560 -> 640 ;
641 [label="gini = 0.0\nsamples = 1\nvalue = [0, 1]"] ;
640 -> 641 ;
642 [label="x[45] <= 448007.047\ngini = 0.418\nsamples = 56\nvalue = [59, 25]"] ;
640 -> 642 ;
643 [label="x[44] <= 6470125.0\ngini = 0.404\nsamples = 54\nvalue = [59, 23]"] ;
642 -> 643 ;
644 [label="x[58] <= 8.75\ngini = 0.477\nsamples = 21\nvalue = [17, 11]"] ;
643 -> 644 ;
645 [label="x[0] <= 15276.5\ngini = 0.453\nsamples = 19\nvalue = [17, 9]"] ;
644 -> 645 ;
646 [label="gini = 0.0\nsamples = 2\nvalue = [2, 0]"] ;
645 -> 646 ;
647 [label="x[45] <= 432604.797\ngini = 0.469\nsamples = 17\nvalue = [15, 9]"] ;
645 -> 647 ;
648 [label="x[71] <= 715123.625\ngini = 0.454\nsamples = 16\nvalue = [15, 8]"] ;
647 -> 648 ;
649 [label="gini = 0.0\nsamples = 2\nvalue = [3, 0]"] ;
648 -> 649 ;
650 [label="x[7] <= 2.824\ngini = 0.48\nsamples = 14\nvalue = [12, 8]"] ;
648 -> 650 ;
651 [label="x[51] <= 1554145.25\ngini = 0.492\nsamples = 12\nvalue = [9, 7]"] ;
650 -> 651 ;
652 [label="x[42] <= 566.483\ngini = 0.48\nsamples = 11\nvalue = [9, 6]"] ;
651 -> 652 ;
653 [label="x[54] <= 6381563.5\ngini = 0.49\nsamples = 10\nvalue = [8, 6]"] ;
652 -> 653 ;
654 [label="x[7] <= 2.715\ngini = 0.469\nsamples = 6\nvalue = [5, 3]"] ;
653 -> 654 ;
655 [label="x[19] <= 2.5\ngini = 0.444\nsamples = 4\nvalue = [4, 2]"] ;
654 -> 655 ;
656 [label="gini = 0.444\nsamples = 2\nvalue = [2, 1]"] ;
655 -> 656 ;
657 [label="gini = 0.444\nsamples = 2\nvalue = [2, 1]"] ;
655 -> 657 ;
658 [label="gini = 0.5\nsamples = 2\nvalue = [1, 1]"] ;
654 -> 658 ;
659 [label="x[34] <= 7967.0\ngini = 0.5\nsamples = 4\nvalue = [3, 3]"] ;
653 -> 659 ;
660 [label="gini = 0.5\nsamples = 2\nvalue = [1, 1]"] ;
659 -> 660 ;
661 [label="gini = 0.5\nsamples = 2\nvalue = [2, 2]"] ;
659 -> 661 ;
662 [label="gini = 0.0\nsamples = 1\nvalue = [1, 0]"] ;
652 -> 662 ;
663 [label="gini = 0.0\nsamples = 1\nvalue = [0, 1]"] ;
651 -> 663 ;
664 [label="gini = 0.375\nsamples = 2\nvalue = [3, 1]"] ;
650 -> 664 ;
665 [label="gini = 0.0\nsamples = 1\nvalue = [0, 1]"] ;
647 -> 665 ;
666 [label="gini = 0.0\nsamples = 2\nvalue = [0, 2]"] ;
644 -> 666 ;
667 [label="x[71] <= 6954069.5\ngini = 0.346\nsamples = 33\nvalue = [42, 12]"] ;
643 -> 667 ;
668 [label="x[20] <= 5.5\ngini = 0.329\nsamples = 32\nvalue = [42, 11]"] ;
667 -> 668 ;
669 [label="x[76] <= 5001307.0\ngini = 0.359\nsamples = 30\nvalue = [36, 11]"] ;
668 -> 669 ;
670 [label="x[58] <= 8.75\ngini = 0.172\nsamples = 13\nvalue = [19, 2]"] ;
669 -> 670 ;
671 [label="gini = 0.0\nsamples = 8\nvalue = [15, 0]"] ;
670 -> 671 ;
672 [label="x[39] <= 11312.5\ngini = 0.444\nsamples = 5\nvalue = [4, 2]"] ;
670 -> 672 ;
673 [label="gini = 0.0\nsamples = 1\nvalue = [2, 0]"] ;
672 -> 673 ;
674 [label="x[54] <= 6674627.0\ngini = 0.5\nsamples = 4\nvalue = [2, 2]"] ;
672 -> 674 ;
675 [label="gini = 0.5\nsamples = 2\nvalue = [1, 1]"] ;
674 -> 675 ;
676 [label="gini = 0.5\nsamples = 2\nvalue = [1, 1]"] ;
674 -> 676 ;
677 [label="x[0] <= 48086.5\ngini = 0.453\nsamples = 17\nvalue = [17, 9]"] ;
669 -> 677 ;
678 [label="x[28] <= 409.5\ngini = 0.483\nsamples = 14\nvalue = [13, 9]"] ;
677 -> 678 ;
679 [label="gini = 0.0\nsamples = 1\nvalue = [0, 1]"] ;
678 -> 679 ;
680 [label="x[61] <= 4997.25\ngini = 0.472\nsamples = 13\nvalue = [13, 8]"] ;
678 -> 680 ;
681 [label="x[60] <= 409.5\ngini = 0.498\nsamples = 11\nvalue = [9, 8]"] ;
680 -> 681 ;
682 [label="gini = 0.0\nsamples = 2\nvalue = [2, 0]"] ;
681 -> 682 ;
683 [label="x[42] <= 23.484\ngini = 0.498\nsamples = 9\nvalue = [7, 8]"] ;
681 -> 683 ;
684 [label="x[68] <= 871555.469\ngini = 0.496\nsamples = 6\nvalue = [6, 5]"] ;
683 -> 684 ;
685 [label="x[55] <= 243300.398\ngini = 0.5\nsamples = 4\nvalue = [4, 4]"] ;
684 -> 685 ;
686 [label="gini = 0.5\nsamples = 2\nvalue = [2, 2]"] ;
685 -> 686 ;
687 [label="gini = 0.5\nsamples = 2\nvalue = [2, 2]"] ;
685 -> 687 ;
688 [label="gini = 0.444\nsamples = 2\nvalue = [2, 1]"] ;
684 -> 688 ;
689 [label="x[3] <= 18.5\ngini = 0.375\nsamples = 3\nvalue = [1, 3]"] ;
683 -> 689 ;
690 [label="gini = 0.0\nsamples = 1\nvalue = [0, 1]"] ;
689 -> 690 ;
691 [label="gini = 0.444\nsamples = 2\nvalue = [1, 2]"] ;
689 -> 691 ;
692 [label="gini = 0.0\nsamples = 2\nvalue = [4, 0]"] ;
680 -> 692 ;
693 [label="gini = 0.0\nsamples = 3\nvalue = [4, 0]"] ;
677 -> 693 ;
694 [label="gini = 0.0\nsamples = 2\nvalue = [6, 0]"] ;
668 -> 694 ;
695 [label="gini = 0.0\nsamples = 1\nvalue = [0, 1]"] ;
667 -> 695 ;
696 [label="gini = 0.0\nsamples = 2\nvalue = [0, 2]"] ;
642 -> 696 ;
697 [label="gini = 0.0\nsamples = 1\nvalue = [0, 4]"] ;
549 -> 697 ;
698 [label="gini = 0.0\nsamples = 2\nvalue = [0, 4]"] ;
532 -> 698 ;
699 [label="gini = 0.0\nsamples = 1\nvalue = [0, 4]"] ;
531 -> 699 ;
700 [label="x[76] <= 5002811.5\ngini = 0.34\nsamples = 12\nvalue = [5, 18]"] ;
530 -> 700 ;
701 [label="x[50] <= 652015.969\ngini = 0.245\nsamples = 11\nvalue = [3, 18]"] ;
700 -> 701 ;
702 [label="x[57] <= 1731.551\ngini = 0.117\nsamples = 8\nvalue = [1, 15]"] ;
701 -> 702 ;
703 [label="gini = 0.0\nsamples = 1\nvalue = [1, 0]"] ;
702 -> 703 ;
704 [label="gini = 0.0\nsamples = 7\nvalue = [0, 15]"] ;
702 -> 704 ;
705 [label="x[39] <= 13626.5\ngini = 0.48\nsamples = 3\nvalue = [2, 3]"] ;
701 -> 705 ;
706 [label="gini = 0.375\nsamples = 2\nvalue = [1, 3]"] ;
705 -> 706 ;
707 [label="gini = 0.0\nsamples = 1\nvalue = [1, 0]"] ;
705 -> 707 ;
708 [label="gini = 0.0\nsamples = 1\nvalue = [2, 0]"] ;
700 -> 708 ;
709 [label="x[53] <= 5004171.5\ngini = 0.499\nsamples = 263\nvalue = [196, 216]"] ;
435 -> 709 ;
710 [label="x[45] <= 413026.422\ngini = 0.444\nsamples = 78\nvalue = [38, 76]"] ;
709 -> 710 ;
711 [label="x[11] <= 530.0\ngini = 0.407\nsamples = 67\nvalue = [29, 73]"] ;
710 -> 711 ;
712 [label="gini = 0.0\nsamples = 2\nvalue = [4, 0]"] ;
711 -> 712 ;
713 [label="x[30] <= 86.079\ngini = 0.38\nsamples = 65\nvalue = [25, 73]"] ;
711 -> 713 ;
714 [label="x[70] <= 2043570.75\ngini = 0.429\nsamples = 55\nvalue = [24, 53]"] ;
713 -> 714 ;
715 [label="x[68] <= 375667.094\ngini = 0.392\nsamples = 50\nvalue = [19, 52]"] ;
714 -> 715 ;
716 [label="x[55] <= 210568.141\ngini = 0.499\nsamples = 15\nvalue = [10, 11]"] ;
715 -> 716 ;
717 [label="x[49] <= 6086777.0\ngini = 0.469\nsamples = 11\nvalue = [6, 10]"] ;
716 -> 717 ;
718 [label="x[45] <= 332589.688\ngini = 0.497\nsamples = 9\nvalue = [6, 7]"] ;
717 -> 718 ;
719 [label="gini = 0.0\nsamples = 1\nvalue = [0, 2]"] ;
718 -> 719 ;
720 [label="x[47] <= 19.55\ngini = 0.496\nsamples = 8\nvalue = [6, 5]"] ;
718 -> 720 ;
721 [label="x[45] <= 356280.625\ngini = 0.444\nsamples = 5\nvalue = [2, 4]"] ;
720 -> 721 ;
722 [label="x[0] <= 35048.0\ngini = 0.48\nsamples = 4\nvalue = [2, 3]"] ;
721 -> 722 ;
723 [label="gini = 0.5\nsamples = 2\nvalue = [1, 1]"] ;
722 -> 723 ;
724 [label="gini = 0.444\nsamples = 2\nvalue = [1, 2]"] ;
722 -> 724 ;
725 [label="gini = 0.0\nsamples = 1\nvalue = [0, 1]"] ;
721 -> 725 ;
726 [label="x[45] <= 337084.328\ngini = 0.32\nsamples = 3\nvalue = [4, 1]"] ;
720 -> 726 ;
727 [label="gini = 0.0\nsamples = 1\nvalue = [1, 0]"] ;
726 -> 727 ;
728 [label="gini = 0.375\nsamples = 2\nvalue = [3, 1]"] ;
726 -> 728 ;
729 [label="gini = 0.0\nsamples = 2\nvalue = [0, 3]"] ;
717 -> 729 ;
730 [label="x[72] <= 700377.875\ngini = 0.32\nsamples = 4\nvalue = [4, 1]"] ;
716 -> 730 ;
731 [label="gini = 0.0\nsamples = 2\nvalue = [3, 0]"] ;
730 -> 731 ;
732 [label="gini = 0.5\nsamples = 2\nvalue = [1, 1]"] ;
730 -> 732 ;
733 [label="x[52] <= 10.49\ngini = 0.295\nsamples = 35\nvalue = [9, 41]"] ;
715 -> 733 ;
734 [label="x[39] <= 14280.5\ngini = 0.444\nsamples = 12\nvalue = [5, 10]"] ;
733 -> 734 ;
735 [label="x[31] <= 156.009\ngini = 0.494\nsamples = 7\nvalue = [4, 5]"] ;
734 -> 735 ;
736 [label="x[21] <= 7.5\ngini = 0.469\nsamples = 6\nvalue = [3, 5]"] ;
735 -> 736 ;
737 [label="gini = 0.0\nsamples = 1\nvalue = [0, 1]"] ;
736 -> 737 ;
738 [label="x[30] <= 73.496\ngini = 0.49\nsamples = 5\nvalue = [3, 4]"] ;
736 -> 738 ;
739 [label="x[36] <= 1523.687\ngini = 0.5\nsamples = 4\nvalue = [3, 3]"] ;
738 -> 739 ;
740 [label="gini = 0.5\nsamples = 2\nvalue = [2, 2]"] ;
739 -> 740 ;
741 [label="gini = 0.5\nsamples = 2\nvalue = [1, 1]"] ;
739 -> 741 ;
742 [label="gini = 0.0\nsamples = 1\nvalue = [0, 1]"] ;
738 -> 742 ;
743 [label="gini = 0.0\nsamples = 1\nvalue = [1, 0]"] ;
735 -> 743 ;
744 [label="x[7] <= 2.869\ngini = 0.278\nsamples = 5\nvalue = [1, 5]"] ;
734 -> 744 ;
745 [label="gini = 0.444\nsamples = 2\nvalue = [1, 2]"] ;
744 -> 745 ;
746 [label="gini = 0.0\nsamples = 3\nvalue = [0, 3]"] ;
744 -> 746 ;
747 [label="x[73] <= 5003915.0\ngini = 0.202\nsamples = 23\nvalue = [4, 31]"] ;
733 -> 747 ;
748 [label="x[2] <= 6.97\ngini = 0.124\nsamples = 19\nvalue = [2, 28]"] ;
747 -> 748 ;
749 [label="x[42] <= 307.918\ngini = 0.069\nsamples = 17\nvalue = [1, 27]"] ;
748 -> 749 ;
750 [label="gini = 0.0\nsamples = 14\nvalue = [0, 24]"] ;
749 -> 750 ;
751 [label="x[49] <= 6052785.0\ngini = 0.375\nsamples = 3\nvalue = [1, 3]"] ;
749 -> 751 ;
752 [label="gini = 0.0\nsamples = 1\nvalue = [1, 0]"] ;
751 -> 752 ;
753 [label="gini = 0.0\nsamples = 2\nvalue = [0, 3]"] ;
751 -> 753 ;
754 [label="gini = 0.5\nsamples = 2\nvalue = [1, 1]"] ;
748 -> 754 ;
755 [label="x[69] <= 768214.125\ngini = 0.48\nsamples = 4\nvalue = [2, 3]"] ;
747 -> 755 ;
756 [label="gini = 0.0\nsamples = 1\nvalue = [0, 1]"] ;
755 -> 756 ;
757 [label="x[51] <= 1479391.312\ngini = 0.5\nsamples = 3\nvalue = [2, 2]"] ;
755 -> 757 ;
758 [label="gini = 0.444\nsamples = 2\nvalue = [2, 1]"] ;
757 -> 758 ;
759 [label="gini = 0.0\nsamples = 1\nvalue = [0, 1]"] ;
757 -> 759 ;
760 [label="x[54] <= 7541874.5\ngini = 0.278\nsamples = 5\nvalue = [5, 1]"] ;
714 -> 760 ;
761 [label="gini = 0.0\nsamples = 3\nvalue = [4, 0]"] ;
760 -> 761 ;
762 [label="gini = 0.5\nsamples = 2\nvalue = [1, 1]"] ;
760 -> 762 ;
763 [label="x[10] <= 0.73\ngini = 0.091\nsamples = 10\nvalue = [1, 20]"] ;
713 -> 763 ;
764 [label="gini = 0.0\nsamples = 8\nvalue = [0, 19]"] ;
763 -> 764 ;
765 [label="x[6] <= 15.5\ngini = 0.5\nsamples = 2\nvalue = [1, 1]"] ;
763 -> 765 ;
766 [label="gini = 0.0\nsamples = 1\nvalue = [1, 0]"] ;
765 -> 766 ;
767 [label="gini = 0.0\nsamples = 1\nvalue = [0, 1]"] ;
765 -> 767 ;
768 [label="x[74] <= 5003762.5\ngini = 0.375\nsamples = 11\nvalue = [9, 3]"] ;
710 -> 768 ;
769 [label="x[11] <= 544.0\ngini = 0.444\nsamples = 8\nvalue = [6, 3]"] ;
768 -> 769 ;
770 [label="x[53] <= 5003696.0\ngini = 0.5\nsamples = 4\nvalue = [2, 2]"] ;
769 -> 770 ;
771 [label="gini = 0.5\nsamples = 2\nvalue = [1, 1]"] ;
770 -> 771 ;
772 [label="gini = 0.5\nsamples = 2\nvalue = [1, 1]"] ;
770 -> 772 ;
773 [label="x[59] <= 5.333\ngini = 0.32\nsamples = 4\nvalue = [4, 1]"] ;
769 -> 773 ;
774 [label="gini = 0.0\nsamples = 2\nvalue = [2, 0]"] ;
773 -> 774 ;
775 [label="gini = 0.444\nsamples = 2\nvalue = [2, 1]"] ;
773 -> 775 ;
776 [label="gini = 0.0\nsamples = 3\nvalue = [3, 0]"] ;
768 -> 776 ;
777 [label="x[55] <= 241190.047\ngini = 0.498\nsamples = 185\nvalue = [158, 140]"] ;
709 -> 777 ;
778 [label="x[7] <= 2.6\ngini = 0.493\nsamples = 167\nvalue = [148, 117]"] ;
777 -> 778 ;
779 [label="gini = 0.0\nsamples = 4\nvalue = [7, 0]"] ;
778 -> 779 ;
780 [label="x[34] <= 9300.5\ngini = 0.496\nsamples = 163\nvalue = [141, 117]"] ;
778 -> 780 ;
781 [label="x[55] <= 222014.266\ngini = 0.41\nsamples = 46\nvalue = [52, 21]"] ;
780 -> 781 ;
782 [label="x[56] <= 910076.188\ngini = 0.272\nsamples = 19\nvalue = [31, 6]"] ;
781 -> 782 ;
783 [label="gini = 0.0\nsamples = 1\nvalue = [0, 1]"] ;
782 -> 783 ;
784 [label="x[70] <= 1000793.469\ngini = 0.239\nsamples = 18\nvalue = [31, 5]"] ;
782 -> 784 ;
785 [label="x[9] <= 5.037\ngini = 0.397\nsamples = 7\nvalue = [8, 3]"] ;
784 -> 785 ;
786 [label="x[19] <= 2.5\ngini = 0.48\nsamples = 4\nvalue = [2, 3]"] ;
785 -> 786 ;
787 [label="gini = 0.444\nsamples = 2\nvalue = [1, 2]"] ;
786 -> 787 ;
788 [label="gini = 0.5\nsamples = 2\nvalue = [1, 1]"] ;
786 -> 788 ;
789 [label="gini = 0.0\nsamples = 3\nvalue = [6, 0]"] ;
785 -> 789 ;
790 [label="x[73] <= 5010992.0\ngini = 0.147\nsamples = 11\nvalue = [23, 2]"] ;
784 -> 790 ;
791 [label="x[57] <= 1695.329\ngini = 0.087\nsamples = 9\nvalue = [21, 1]"] ;
790 -> 791 ;
792 [label="gini = 0.0\nsamples = 6\nvalue = [17, 0]"] ;
791 -> 792 ;
793 [label="x[33] <= 3372.0\ngini = 0.32\nsamples = 3\nvalue = [4, 1]"] ;
791 -> 793 ;
794 [label="gini = 0.375\nsamples = 2\nvalue = [3, 1]"] ;
793 -> 794 ;
795 [label="gini = 0.0\nsamples = 1\nvalue = [1, 0]"] ;
793 -> 795 ;
796 [label="gini = 0.444\nsamples = 2\nvalue = [2, 1]"] ;
790 -> 796 ;
797 [label="x[2] <= 5.99\ngini = 0.486\nsamples = 27\nvalue = [21, 15]"] ;
781 -> 797 ;
798 [label="gini = 0.0\nsamples = 2\nvalue = [0, 5]"] ;
797 -> 798 ;
799 [label="x[74] <= 5005170.5\ngini = 0.437\nsamples = 25\nvalue = [21, 10]"] ;
797 -> 799 ;
800 [label="x[47] <= 15.497\ngini = 0.278\nsamples = 13\nvalue = [15, 3]"] ;
799 -> 800 ;
801 [label="x[7] <= 2.763\ngini = 0.444\nsamples = 5\nvalue = [4, 2]"] ;
800 -> 801 ;
802 [label="x[53] <= 5004664.5\ngini = 0.48\nsamples = 4\nvalue = [3, 2]"] ;
801 -> 802 ;
803 [label="gini = 0.5\nsamples = 2\nvalue = [1, 1]"] ;
802 -> 803 ;
804 [label="gini = 0.444\nsamples = 2\nvalue = [2, 1]"] ;
802 -> 804 ;
805 [label="gini = 0.0\nsamples = 1\nvalue = [1, 0]"] ;
801 -> 805 ;
806 [label="x[6] <= 7.5\ngini = 0.153\nsamples = 8\nvalue = [11, 1]"] ;
800 -> 806 ;
807 [label="x[2] <= 6.168\ngini = 0.278\nsamples = 4\nvalue = [5, 1]"] ;
806 -> 807 ;
808 [label="gini = 0.0\nsamples = 2\nvalue = [3, 0]"] ;
807 -> 808 ;
809 [label="gini = 0.444\nsamples = 2\nvalue = [2, 1]"] ;
807 -> 809 ;
810 [label="gini = 0.0\nsamples = 4\nvalue = [6, 0]"] ;
806 -> 810 ;
811 [label="x[72] <= 74902.451\ngini = 0.497\nsamples = 12\nvalue = [6, 7]"] ;
799 -> 811 ;
812 [label="gini = 0.0\nsamples = 1\nvalue = [1, 0]"] ;
811 -> 812 ;
813 [label="x[55] <= 237714.148\ngini = 0.486\nsamples = 11\nvalue = [5, 7]"] ;
811 -> 813 ;
814 [label="x[74] <= 5005590.0\ngini = 0.5\nsamples = 10\nvalue = [5, 5]"] ;
813 -> 814 ;
815 [label="gini = 0.5\nsamples = 2\nvalue = [1, 1]"] ;
814 -> 815 ;
816 [label="x[38] <= 3372.0\ngini = 0.5\nsamples = 8\nvalue = [4, 4]"] ;
814 -> 816 ;
817 [label="gini = 0.5\nsamples = 2\nvalue = [1, 1]"] ;
816 -> 817 ;
818 [label="x[58] <= 7.417\ngini = 0.5\nsamples = 6\nvalue = [3, 3]"] ;
816 -> 818 ;
819 [label="x[61] <= 3026.333\ngini = 0.5\nsamples = 4\nvalue = [2, 2]"] ;
818 -> 819 ;
820 [label="gini = 0.5\nsamples = 2\nvalue = [1, 1]"] ;
819 -> 820 ;
821 [label="gini = 0.5\nsamples = 2\nvalue = [1, 1]"] ;
819 -> 821 ;
822 [label="gini = 0.5\nsamples = 2\nvalue = [1, 1]"] ;
818 -> 822 ;
823 [label="gini = 0.0\nsamples = 1\nvalue = [0, 2]"] ;
813 -> 823 ;
824 [label="x[76] <= 5004306.5\ngini = 0.499\nsamples = 117\nvalue = [89, 96]"] ;
780 -> 824 ;
825 [label="gini = 0.0\nsamples = 3\nvalue = [5, 0]"] ;
824 -> 825 ;
826 [label="x[76] <= 5004599.0\ngini = 0.498\nsamples = 114\nvalue = [84, 96]"] ;
824 -> 826 ;
827 [label="gini = 0.0\nsamples = 4\nvalue = [0, 5]"] ;
826 -> 827 ;
828 [label="x[69] <= 1091352.938\ngini = 0.499\nsamples = 110\nvalue = [84, 91]"] ;
826 -> 828 ;
829 [label="x[46] <= 1169059.062\ngini = 0.495\nsamples = 61\nvalue = [54, 44]"] ;
828 -> 829 ;
830 [label="x[42] <= 749.946\ngini = 0.337\nsamples = 17\nvalue = [22, 6]"] ;
829 -> 830 ;
831 [label="x[75] <= 5004684.0\ngini = 0.311\nsamples = 15\nvalue = [21, 5]"] ;
830 -> 831 ;
832 [label="x[40] <= 463.833\ngini = 0.444\nsamples = 5\nvalue = [6, 3]"] ;
831 -> 832 ;
833 [label="gini = 0.0\nsamples = 1\nvalue = [1, 0]"] ;
832 -> 833 ;
834 [label="x[54] <= 6890214.0\ngini = 0.469\nsamples = 4\nvalue = [5, 3]"] ;
832 -> 834 ;
835 [label="gini = 0.444\nsamples = 2\nvalue = [4, 2]"] ;
834 -> 835 ;
836 [label="gini = 0.5\nsamples = 2\nvalue = [1, 1]"] ;
834 -> 836 ;
837 [label="x[8] <= 1.99\ngini = 0.208\nsamples = 10\nvalue = [15, 2]"] ;
831 -> 837 ;
838 [label="gini = 0.0\nsamples = 4\nvalue = [7, 0]"] ;
837 -> 838 ;
839 [label="x[54] <= 6035853.0\ngini = 0.32\nsamples = 6\nvalue = [8, 2]"] ;
837 -> 839 ;
840 [label="gini = 0.0\nsamples = 2\nvalue = [3, 0]"] ;
839 -> 840 ;
841 [label="x[28] <= 419.0\ngini = 0.408\nsamples = 4\nvalue = [5, 2]"] ;
839 -> 841 ;
842 [label="gini = 0.32\nsamples = 2\nvalue = [4, 1]"] ;
841 -> 842 ;
843 [label="gini = 0.5\nsamples = 2\nvalue = [1, 1]"] ;
841 -> 843 ;
844 [label="gini = 0.5\nsamples = 2\nvalue = [1, 1]"] ;
830 -> 844 ;
845 [label="x[75] <= 5014173.5\ngini = 0.496\nsamples = 44\nvalue = [32, 38]"] ;
829 -> 845 ;
846 [label="x[48] <= 5005788.5\ngini = 0.499\nsamples = 43\nvalue = [32, 35]"] ;
845 -> 846 ;
847 [label="x[72] <= 52632.395\ngini = 0.474\nsamples = 29\nvalue = [17, 27]"] ;
846 -> 847 ;
848 [label="gini = 0.0\nsamples = 5\nvalue = [0, 6]"] ;
847 -> 848 ;
849 [label="x[29] <= 1661.0\ngini = 0.494\nsamples = 24\nvalue = [17, 21]"] ;
847 -> 849 ;
850 [label="x[8] <= 2.027\ngini = 0.498\nsamples = 23\nvalue = [17, 19]"] ;
849 -> 850 ;
851 [label="x[7] <= 2.813\ngini = 0.495\nsamples = 20\nvalue = [17, 14]"] ;
850 -> 851 ;
852 [label="x[42] <= 97.394\ngini = 0.469\nsamples = 9\nvalue = [6, 10]"] ;
851 -> 852 ;
853 [label="gini = 0.0\nsamples = 3\nvalue = [0, 4]"] ;
852 -> 853 ;
854 [label="x[60] <= 621.25\ngini = 0.5\nsamples = 6\nvalue = [6, 6]"] ;
852 -> 854 ;
855 [label="gini = 0.0\nsamples = 2\nvalue = [0, 3]"] ;
854 -> 855 ;
856 [label="x[59] <= 5.75\ngini = 0.444\nsamples = 4\nvalue = [6, 3]"] ;
854 -> 856 ;
857 [label="gini = 0.48\nsamples = 2\nvalue = [3, 2]"] ;
856 -> 857 ;
858 [label="gini = 0.375\nsamples = 2\nvalue = [3, 1]"] ;
856 -> 858 ;
859 [label="x[0] <= 28906.5\ngini = 0.391\nsamples = 11\nvalue = [11, 4]"] ;
851 -> 859 ;
860 [label="gini = 0.0\nsamples = 4\nvalue = [6, 0]"] ;
859 -> 860 ;
861 [label="x[22] <= 27.5\ngini = 0.494\nsamples = 7\nvalue = [5, 4]"] ;
859 -> 861 ;
862 [label="x[22] <= 26.5\ngini = 0.408\nsamples = 6\nvalue = [5, 2]"] ;
861 -> 862 ;
863 [label="x[9] <= 4.652\ngini = 0.48\nsamples = 4\nvalue = [3, 2]"] ;
862 -> 863 ;
864 [label="gini = 0.5\nsamples = 2\nvalue = [1, 1]"] ;
863 -> 864 ;
865 [label="gini = 0.444\nsamples = 2\nvalue = [2, 1]"] ;
863 -> 865 ;
866 [label="gini = 0.0\nsamples = 2\nvalue = [2, 0]"] ;
862 -> 866 ;
867 [label="gini = 0.0\nsamples = 1\nvalue = [0, 2]"] ;
861 -> 867 ;
868 [label="gini = 0.0\nsamples = 3\nvalue = [0, 5]"] ;
850 -> 868 ;
869 [label="gini = 0.0\nsamples = 1\nvalue = [0, 2]"] ;
849 -> 869 ;
870 [label="x[46] <= 1169320.938\ngini = 0.454\nsamples = 14\nvalue = [15, 8]"] ;
846 -> 870 ;
871 [label="gini = 0.0\nsamples = 1\nvalue = [0, 3]"] ;
870 -> 871 ;
872 [label="x[9] <= 4.648\ngini = 0.375\nsamples = 13\nvalue = [15, 5]"] ;
870 -> 872 ;
873 [label="x[39] <= 11410.5\ngini = 0.5\nsamples = 4\nvalue = [3, 3]"] ;
872 -> 873 ;
874 [label="gini = 0.5\nsamples = 2\nvalue = [1, 1]"] ;
873 -> 874 ;
875 [label="gini = 0.5\nsamples = 2\nvalue = [2, 2]"] ;
873 -> 875 ;
876 [label="x[10] <= 0.657\ngini = 0.245\nsamples = 9\nvalue = [12, 2]"] ;
872 -> 876 ;
877 [label="gini = 0.0\nsamples = 4\nvalue = [8, 0]"] ;
876 -> 877 ;
878 [label="x[75] <= 5006575.0\ngini = 0.444\nsamples = 5\nvalue = [4, 2]"] ;
876 -> 878 ;
879 [label="gini = 0.0\nsamples = 1\nvalue = [1, 0]"] ;
878 -> 879 ;
880 [label="x[31] <= 140.645\ngini = 0.48\nsamples = 4\nvalue = [3, 2]"] ;
878 -> 880 ;
881 [label="gini = 0.444\nsamples = 2\nvalue = [2, 1]"] ;
880 -> 881 ;
882 [label="gini = 0.5\nsamples = 2\nvalue = [1, 1]"] ;
880 -> 882 ;
883 [label="gini = 0.0\nsamples = 1\nvalue = [0, 3]"] ;
845 -> 883 ;
884 [label="x[30] <= 82.05\ngini = 0.476\nsamples = 49\nvalue = [30, 47]"] ;
828 -> 884 ;
885 [label="x[48] <= 5004730.5\ngini = 0.494\nsamples = 35\nvalue = [24, 30]"] ;
884 -> 885 ;
886 [label="x[3] <= 26.0\ngini = 0.245\nsamples = 5\nvalue = [1, 6]"] ;
885 -> 886 ;
887 [label="gini = 0.0\nsamples = 3\nvalue = [0, 4]"] ;
886 -> 887 ;
888 [label="gini = 0.444\nsamples = 2\nvalue = [1, 2]"] ;
886 -> 888 ;
889 [label="x[45] <= 376089.625\ngini = 0.5\nsamples = 30\nvalue = [23, 24]"] ;
885 -> 889 ;
890 [label="x[70] <= 2039270.125\ngini = 0.475\nsamples = 20\nvalue = [12, 19]"] ;
889 -> 890 ;
891 [label="x[30] <= 76.929\ngini = 0.36\nsamples = 12\nvalue = [4, 13]"] ;
890 -> 891 ;
892 [label="x[70] <= 1965778.125\ngini = 0.298\nsamples = 8\nvalue = [2, 9]"] ;
891 -> 892 ;
893 [label="x[0] <= 58592.0\ngini = 0.375\nsamples = 5\nvalue = [2, 6]"] ;
892 -> 893 ;
894 [label="x[4] <= 14.5\ngini = 0.408\nsamples = 4\nvalue = [2, 5]"] ;
893 -> 894 ;
895 [label="gini = 0.444\nsamples = 2\nvalue = [1, 2]"] ;
894 -> 895 ;
896 [label="gini = 0.375\nsamples = 2\nvalue = [1, 3]"] ;
894 -> 896 ;
897 [label="gini = 0.0\nsamples = 1\nvalue = [0, 1]"] ;
893 -> 897 ;
898 [label="gini = 0.0\nsamples = 3\nvalue = [0, 3]"] ;
892 -> 898 ;
899 [label="x[70] <= 1974097.375\ngini = 0.444\nsamples = 4\nvalue = [2, 4]"] ;
891 -> 899 ;
900 [label="gini = 0.444\nsamples = 2\nvalue = [1, 2]"] ;
899 -> 900 ;
901 [label="gini = 0.444\nsamples = 2\nvalue = [1, 2]"] ;
899 -> 901 ;
902 [label="x[4] <= 13.5\ngini = 0.49\nsamples = 8\nvalue = [8, 6]"] ;
890 -> 902 ;
903 [label="gini = 0.444\nsamples = 2\nvalue = [2, 4]"] ;
902 -> 903 ;
904 [label="x[19] <= 2.5\ngini = 0.375\nsamples = 6\nvalue = [6, 2]"] ;
902 -> 904 ;
905 [label="gini = 0.0\nsamples = 1\nvalue = [1, 0]"] ;
904 -> 905 ;
906 [label="x[21] <= 8.5\ngini = 0.408\nsamples = 5\nvalue = [5, 2]"] ;
904 -> 906 ;
907 [label="gini = 0.0\nsamples = 1\nvalue = [1, 0]"] ;
906 -> 907 ;
908 [label="x[10] <= 0.695\ngini = 0.444\nsamples = 4\nvalue = [4, 2]"] ;
906 -> 908 ;
909 [label="gini = 0.444\nsamples = 2\nvalue = [2, 1]"] ;
908 -> 909 ;
910 [label="gini = 0.444\nsamples = 2\nvalue = [2, 1]"] ;
908 -> 910 ;
911 [label="x[49] <= 8368634.0\ngini = 0.43\nsamples = 10\nvalue = [11, 5]"] ;
889 -> 911 ;
912 [label="x[71] <= 1660332.0\ngini = 0.444\nsamples = 9\nvalue = [10, 5]"] ;
911 -> 912 ;
913 [label="x[40] <= 531.05\ngini = 0.408\nsamples = 8\nvalue = [10, 4]"] ;
912 -> 913 ;
914 [label="x[22] <= 32.5\ngini = 0.444\nsamples = 6\nvalue = [8, 4]"] ;
913 -> 914 ;
915 [label="x[50] <= 620722.031\ngini = 0.469\nsamples = 4\nvalue = [5, 3]"] ;
914 -> 915 ;
916 [label="gini = 0.444\nsamples = 2\nvalue = [2, 1]"] ;
915 -> 916 ;
917 [label="gini = 0.48\nsamples = 2\nvalue = [3, 2]"] ;
915 -> 917 ;
918 [label="gini = 0.375\nsamples = 2\nvalue = [3, 1]"] ;
914 -> 918 ;
919 [label="gini = 0.0\nsamples = 2\nvalue = [2, 0]"] ;
913 -> 919 ;
920 [label="gini = 0.0\nsamples = 1\nvalue = [0, 1]"] ;
912 -> 920 ;
921 [label="gini = 0.0\nsamples = 1\nvalue = [1, 0]"] ;
911 -> 921 ;
922 [label="x[44] <= 10646811.5\ngini = 0.386\nsamples = 14\nvalue = [6, 17]"] ;
884 -> 922 ;
923 [label="x[6] <= 16.0\ngini = 0.351\nsamples = 13\nvalue = [5, 17]"] ;
922 -> 923 ;
924 [label="x[45] <= 369288.719\ngini = 0.32\nsamples = 11\nvalue = [4, 16]"] ;
923 -> 924 ;
925 [label="x[48] <= 5009292.5\ngini = 0.42\nsamples = 4\nvalue = [3, 7]"] ;
924 -> 925 ;
926 [label="gini = 0.375\nsamples = 2\nvalue = [1, 3]"] ;
925 -> 926 ;
927 [label="gini = 0.444\nsamples = 2\nvalue = [2, 4]"] ;
925 -> 927 ;
928 [label="x[7] <= 2.707\ngini = 0.18\nsamples = 7\nvalue = [1, 9]"] ;
924 -> 928 ;
929 [label="gini = 0.444\nsamples = 2\nvalue = [1, 2]"] ;
928 -> 929 ;
930 [label="gini = 0.0\nsamples = 5\nvalue = [0, 7]"] ;
928 -> 930 ;
931 [label="gini = 0.5\nsamples = 2\nvalue = [1, 1]"] ;
923 -> 931 ;
932 [label="gini = 0.0\nsamples = 1\nvalue = [1, 0]"] ;
922 -> 932 ;
933 [label="x[71] <= 1585213.812\ngini = 0.422\nsamples = 18\nvalue = [10, 23]"] ;
777 -> 933 ;
934 [label="x[10] <= 0.639\ngini = 0.358\nsamples = 17\nvalue = [7, 23]"] ;
933 -> 934 ;
935 [label="x[69] <= 1932709.0\ngini = 0.48\nsamples = 3\nvalue = [3, 2]"] ;
934 -> 935 ;
936 [label="gini = 0.444\nsamples = 2\nvalue = [1, 2]"] ;
935 -> 936 ;
937 [label="gini = 0.0\nsamples = 1\nvalue = [2, 0]"] ;
935 -> 937 ;
938 [label="x[7] <= 2.448\ngini = 0.269\nsamples = 14\nvalue = [4, 21]"] ;
934 -> 938 ;
939 [label="x[38] <= 3372.0\ngini = 0.5\nsamples = 4\nvalue = [3, 3]"] ;
938 -> 939 ;
940 [label="gini = 0.5\nsamples = 2\nvalue = [2, 2]"] ;
939 -> 940 ;
941 [label="gini = 0.5\nsamples = 2\nvalue = [1, 1]"] ;
939 -> 941 ;
942 [label="x[72] <= 350805.25\ngini = 0.1\nsamples = 10\nvalue = [1, 18]"] ;
938 -> 942 ;
943 [label="gini = 0.0\nsamples = 7\nvalue = [0, 15]"] ;
942 -> 943 ;
944 [label="x[55] <= 248573.68\ngini = 0.375\nsamples = 3\nvalue = [1, 3]"] ;
942 -> 944 ;
945 [label="gini = 0.0\nsamples = 1\nvalue = [1, 0]"] ;
944 -> 945 ;
946 [label="gini = 0.0\nsamples = 2\nvalue = [0, 3]"] ;
944 -> 946 ;
947 [label="gini = 0.0\nsamples = 1\nvalue = [3, 0]"] ;
933 -> 947 ;
948 [label="gini = 0.0\nsamples = 9\nvalue = [0, 12]"] ;
432 -> 948 ;
949 [label="x[48] <= 4975660.0\ngini = 0.067\nsamples = 23\nvalue = [1, 28]"] ;
431 -> 949 ;
950 [label="gini = 0.0\nsamples = 21\nvalue = [0, 27]"] ;
949 -> 950 ;
951 [label="gini = 0.5\nsamples = 2\nvalue = [1, 1]"] ;
949 -> 951 ;
952 [label="gini = 0.0\nsamples = 1209\nvalue = [0, 1909]"] ;
364 -> 952 ;
953 [label="x[53] <= 768569.469\ngini = 0.272\nsamples = 8936\nvalue = [2299, 11841]"] ;
1 -> 953 ;
954 [label="x[58] <= 2.5\ngini = 0.49\nsamples = 2551\nvalue = [2297, 1729]"] ;
953 -> 954 ;
955 [label="gini = 0.0\nsamples = 1\nvalue = [0, 3]"] ;
954 -> 955 ;
956 [label="x[71] <= 1528572.875\ngini = 0.49\nsamples = 2550\nvalue = [2297, 1726]"] ;
954 -> 956 ;
957 [label="x[70] <= 1528556.0\ngini = 0.5\nsamples = 815\nvalue = [650, 646]"] ;
956 -> 957 ;
958 [label="x[2] <= 1.529\ngini = 0.498\nsamples = 638\nvalue = [532, 475]"] ;
957 -> 958 ;
959 [label="x[53] <= 764321.438\ngini = 0.5\nsamples = 476\nvalue = [377, 380]"] ;
958 -> 959 ;
960 [label="x[7] <= 1.963\ngini = 0.495\nsamples = 313\nvalue = [263, 217]"] ;
959 -> 960 ;
961 [label="x[53] <= 764277.469\ngini = 0.498\nsamples = 301\nvalue = [245, 215]"] ;
960 -> 961 ;
962 [label="x[46] <= 30.009\ngini = 0.499\nsamples = 136\nvalue = [103, 113]"] ;
961 -> 962 ;
963 [label="x[9] <= 1.963\ngini = 0.492\nsamples = 85\nvalue = [70, 54]"] ;
962 -> 963 ;
964 [label="x[54] <= 1528506.5\ngini = 0.496\nsamples = 37\nvalue = [24, 29]"] ;
963 -> 964 ;
965 [label="gini = 0.0\nsamples = 4\nvalue = [0, 6]"] ;
964 -> 965 ;
966 [label="x[2] <= 1.529\ngini = 0.5\nsamples = 33\nvalue = [24, 23]"] ;
964 -> 966 ;
967 [label="x[44] <= 1528509.5\ngini = 0.463\nsamples = 16\nvalue = [14, 8]"] ;
966 -> 967 ;
968 [label="x[45] <= 764254.219\ngini = 0.5\nsamples = 8\nvalue = [7, 7]"] ;
967 -> 968 ;
969 [label="x[71] <= 1528507.625\ngini = 0.497\nsamples = 7\nvalue = [7, 6]"] ;
968 -> 969 ;
970 [label="x[7] <= 1.963\ngini = 0.494\nsamples = 5\nvalue = [4, 5]"] ;
969 -> 970 ;
971 [label="gini = 0.0\nsamples = 1\nvalue = [0, 1]"] ;
970 -> 971 ;
972 [label="x[52] <= 764240.5\ngini = 0.5\nsamples = 4\nvalue = [4, 4]"] ;
970 -> 972 ;
973 [label="gini = 0.0\nsamples = 2\nvalue = [4, 0]"] ;
972 -> 973 ;
974 [label="gini = 0.0\nsamples = 2\nvalue = [0, 4]"] ;
972 -> 974 ;
975 [label="x[42] <= 764241.938\ngini = 0.375\nsamples = 2\nvalue = [3, 1]"] ;
969 -> 975 ;
976 [label="gini = 0.0\nsamples = 1\nvalue = [3, 0]"] ;
975 -> 976 ;
977 [label="gini = 0.0\nsamples = 1\nvalue = [0, 1]"] ;
975 -> 977 ;
978 [label="gini = 0.0\nsamples = 1\nvalue = [0, 1]"] ;
968 -> 978 ;
979 [label="x[52] <= 764242.531\ngini = 0.219\nsamples = 8\nvalue = [7, 1]"] ;
967 -> 979 ;
980 [label="gini = 0.0\nsamples = 1\nvalue = [0, 1]"] ;
979 -> 980 ;
981 [label="gini = 0.0\nsamples = 7\nvalue = [7, 0]"] ;
979 -> 981 ;
982 [label="x[68] <= 1528529.375\ngini = 0.48\nsamples = 17\nvalue = [10, 15]"] ;
966 -> 982 ;
983 [label="x[56] <= 6.659\ngini = 0.355\nsamples = 7\nvalue = [3, 10]"] ;
982 -> 983 ;
984 [label="x[52] <= 764258.031\ngini = 0.375\nsamples = 3\nvalue = [3, 1]"] ;
983 -> 984 ;
985 [label="gini = 0.0\nsamples = 2\nvalue = [3, 0]"] ;
984 -> 985 ;
986 [label="gini = 0.0\nsamples = 1\nvalue = [0, 1]"] ;
984 -> 986 ;
987 [label="gini = 0.0\nsamples = 4\nvalue = [0, 9]"] ;
983 -> 987 ;
988 [label="x[43] <= 764269.469\ngini = 0.486\nsamples = 10\nvalue = [7, 5]"] ;
982 -> 988 ;
989 [label="gini = 0.0\nsamples = 4\nvalue = [5, 0]"] ;
988 -> 989 ;
990 [label="x[46] <= 9.947\ngini = 0.408\nsamples = 6\nvalue = [2, 5]"] ;
988 -> 990 ;
991 [label="x[45] <= 764267.031\ngini = 0.278\nsamples = 5\nvalue = [1, 5]"] ;
990 -> 991 ;
992 [label="gini = 0.0\nsamples = 2\nvalue = [0, 3]"] ;
991 -> 992 ;
993 [label="x[7] <= 1.963\ngini = 0.444\nsamples = 3\nvalue = [1, 2]"] ;
991 -> 993 ;
994 [label="gini = 0.0\nsamples = 2\nvalue = [0, 2]"] ;
993 -> 994 ;
995 [label="gini = 0.0\nsamples = 1\nvalue = [1, 0]"] ;
993 -> 995 ;
996 [label="gini = 0.0\nsamples = 1\nvalue = [1, 0]"] ;
990 -> 996 ;
997 [label="x[7] <= 1.963\ngini = 0.456\nsamples = 48\nvalue = [46, 25]"] ;
963 -> 997 ;
998 [label="x[55] <= 764247.0\ngini = 0.231\nsamples = 11\nvalue = [13, 2]"] ;
997 -> 998 ;
999 [label="x[9] <= 1.963\ngini = 0.408\nsamples = 4\nvalue = [5, 2]"] ;
998 -> 999 ;
1000 [label="gini = 0.0\nsamples = 1\nvalue = [0, 2]"] ;
999 -> 1000 ;
1001 [label="gini = 0.0\nsamples = 3\nvalue = [5, 0]"] ;
999 -> 1001 ;
1002 [label="gini = 0.0\nsamples = 7\nvalue = [8, 0]"] ;
998 -> 1002 ;
1003 [label="x[57] <= 98.136\ngini = 0.484\nsamples = 37\nvalue = [33, 23]"] ;
997 -> 1003 ;
1004 [label="gini = 0.0\nsamples = 3\nvalue = [0, 4]"] ;
1003 -> 1004 ;
1005 [label="x[52] <= 764239.562\ngini = 0.464\nsamples = 34\nvalue = [33, 19]"] ;
1003 -> 1005 ;
1006 [label="x[55] <= 764219.219\ngini = 0.44\nsamples = 33\nvalue = [33, 16]"] ;
1005 -> 1006 ;
1007 [label="x[56] <= 19.05\ngini = 0.498\nsamples = 14\nvalue = [8, 9]"] ;
1006 -> 1007 ;
1008 [label="x[68] <= 1528415.938\ngini = 0.375\nsamples = 10\nvalue = [3, 9]"] ;
1007 -> 1008 ;
1009 [label="x[2] <= 1.528\ngini = 0.49\nsamples = 6\nvalue = [3, 4]"] ;
1008 -> 1009 ;
1010 [label="x[9] <= 1.963\ngini = 0.32\nsamples = 4\nvalue = [1, 4]"] ;
1009 -> 1010 ;
1011 [label="gini = 0.0\nsamples = 1\nvalue = [0, 2]"] ;
1010 -> 1011 ;
1012 [label="x[45] <= 764189.469\ngini = 0.444\nsamples = 3\nvalue = [1, 2]"] ;
1010 -> 1012 ;
1013 [label="gini = 0.0\nsamples = 2\nvalue = [0, 2]"] ;
1012 -> 1013 ;
1014 [label="gini = 0.0\nsamples = 1\nvalue = [1, 0]"] ;
1012 -> 1014 ;
1015 [label="gini = 0.0\nsamples = 2\nvalue = [2, 0]"] ;
1009 -> 1015 ;
1016 [label="gini = 0.0\nsamples = 4\nvalue = [0, 5]"] ;
1008 -> 1016 ;
1017 [label="gini = 0.0\nsamples = 4\nvalue = [5, 0]"] ;
1007 -> 1017 ;
1018 [label="x[42] <= 764230.0\ngini = 0.342\nsamples = 19\nvalue = [25, 7]"] ;
1006 -> 1018 ;
1019 [label="x[56] <= 11.548\ngini = 0.172\nsamples = 13\nvalue = [19, 2]"] ;
1018 -> 1019 ;
1020 [label="x[46] <= 8.092\ngini = 0.444\nsamples = 3\nvalue = [2, 1]"] ;
1019 -> 1020 ;
1021 [label="gini = 0.0\nsamples = 2\nvalue = [2, 0]"] ;
1020 -> 1021 ;
1022 [label="gini = 0.0\nsamples = 1\nvalue = [0, 1]"] ;
1020 -> 1022 ;
1023 [label="x[52] <= 764213.562\ngini = 0.105\nsamples = 10\nvalue = [17, 1]"] ;
1019 -> 1023 ;
1024 [label="x[68] <= 1528454.875\ngini = 0.278\nsamples = 3\nvalue = [5, 1]"] ;
1023 -> 1024 ;
1025 [label="gini = 0.0\nsamples = 2\nvalue = [5, 0]"] ;
1024 -> 1025 ;
1026 [label="gini = 0.0\nsamples = 1\nvalue = [0, 1]"] ;
1024 -> 1026 ;
1027 [label="gini = 0.0\nsamples = 7\nvalue = [12, 0]"] ;
1023 -> 1027 ;
1028 [label="x[7] <= 1.963\ngini = 0.496\nsamples = 6\nvalue = [6, 5]"] ;
1018 -> 1028 ;
1029 [label="gini = 0.0\nsamples = 1\nvalue = [3, 0]"] ;
1028 -> 1029 ;
1030 [label="x[42] <= 764236.469\ngini = 0.469\nsamples = 5\nvalue = [3, 5]"] ;
1028 -> 1030 ;
1031 [label="x[57] <= 98.137\ngini = 0.278\nsamples = 4\nvalue = [1, 5]"] ;
1030 -> 1031 ;
1032 [label="gini = 0.0\nsamples = 3\nvalue = [0, 5]"] ;
1031 -> 1032 ;
1033 [label="gini = 0.0\nsamples = 1\nvalue = [1, 0]"] ;
1031 -> 1033 ;
1034 [label="gini = 0.0\nsamples = 1\nvalue = [2, 0]"] ;
1030 -> 1034 ;
1035 [label="gini = 0.0\nsamples = 1\nvalue = [0, 3]"] ;
1005 -> 1035 ;
1036 [label="x[57] <= 98.141\ngini = 0.46\nsamples = 51\nvalue = [33, 59]"] ;
962 -> 1036 ;
1037 [label="x[45] <= 764249.5\ngini = 0.335\nsamples = 34\nvalue = [13, 48]"] ;
1036 -> 1037 ;
1038 [label="x[53] <= 764252.906\ngini = 0.303\nsamples = 33\nvalue = [11, 48]"] ;
1037 -> 1038 ;
1039 [label="x[9] <= 1.963\ngini = 0.5\nsamples = 4\nvalue = [3, 3]"] ;
1038 -> 1039 ;
1040 [label="gini = 0.0\nsamples = 2\nvalue = [3, 0]"] ;
1039 -> 1040 ;
1041 [label="gini = 0.0\nsamples = 2\nvalue = [0, 3]"] ;
1039 -> 1041 ;
1042 [label="x[69] <= 1528488.562\ngini = 0.256\nsamples = 29\nvalue = [8, 45]"] ;
1038 -> 1042 ;
1043 [label="x[69] <= 1528473.0\ngini = 0.303\nsamples = 23\nvalue = [8, 35]"] ;
1042 -> 1043 ;
1044 [label="x[56] <= 61.872\ngini = 0.208\nsamples = 17\nvalue = [4, 30]"] ;
1043 -> 1044 ;
1045 [label="x[53] <= 764257.562\ngini = 0.074\nsamples = 12\nvalue = [1, 25]"] ;
1044 -> 1045 ;
1046 [label="x[69] <= 1528459.062\ngini = 0.198\nsamples = 4\nvalue = [1, 8]"] ;
1045 -> 1046 ;
1047 [label="gini = 0.0\nsamples = 1\nvalue = [1, 0]"] ;
1046 -> 1047 ;
1048 [label="gini = 0.0\nsamples = 3\nvalue = [0, 8]"] ;
1046 -> 1048 ;
1049 [label="gini = 0.0\nsamples = 8\nvalue = [0, 17]"] ;
1045 -> 1049 ;
1050 [label="x[56] <= 64.653\ngini = 0.469\nsamples = 5\nvalue = [3, 5]"] ;
1044 -> 1050 ;
1051 [label="x[53] <= 764274.0\ngini = 0.444\nsamples = 2\nvalue = [2, 1]"] ;
1050 -> 1051 ;
1052 [label="gini = 0.0\nsamples = 1\nvalue = [2, 0]"] ;
1051 -> 1052 ;
1053 [label="gini = 0.0\nsamples = 1\nvalue = [0, 1]"] ;
1051 -> 1053 ;
1054 [label="x[44] <= 1528445.125\ngini = 0.32\nsamples = 3\nvalue = [1, 4]"] ;
1050 -> 1054 ;
1055 [label="gini = 0.0\nsamples = 2\nvalue = [0, 4]"] ;
1054 -> 1055 ;
1056 [label="gini = 0.0\nsamples = 1\nvalue = [1, 0]"] ;
1054 -> 1056 ;
1057 [label="x[53] <= 764272.469\ngini = 0.494\nsamples = 6\nvalue = [4, 5]"] ;
1043 -> 1057 ;
1058 [label="x[43] <= 764264.594\ngini = 0.469\nsamples = 5\nvalue = [3, 5]"] ;
1057 -> 1058 ;
1059 [label="x[46] <= 35.403\ngini = 0.444\nsamples = 2\nvalue = [2, 1]"] ;
1058 -> 1059 ;
1060 [label="gini = 0.0\nsamples = 1\nvalue = [0, 1]"] ;
1059 -> 1060 ;
1061 [label="gini = 0.0\nsamples = 1\nvalue = [2, 0]"] ;
1059 -> 1061 ;
1062 [label="x[57] <= 98.136\ngini = 0.32\nsamples = 3\nvalue = [1, 4]"] ;
1058 -> 1062 ;
1063 [label="gini = 0.0\nsamples = 1\nvalue = [1, 0]"] ;
1062 -> 1063 ;
1064 [label="gini = 0.0\nsamples = 2\nvalue = [0, 4]"] ;
1062 -> 1064 ;
1065 [label="gini = 0.0\nsamples = 1\nvalue = [1, 0]"] ;
1057 -> 1065 ;
1066 [label="gini = 0.0\nsamples = 6\nvalue = [0, 10]"] ;
1042 -> 1066 ;
1067 [label="gini = 0.0\nsamples = 1\nvalue = [2, 0]"] ;
1037 -> 1067 ;
1068 [label="x[69] <= 1528380.0\ngini = 0.458\nsamples = 17\nvalue = [20, 11]"] ;
1036 -> 1068 ;
1069 [label="x[46] <= 136.134\ngini = 0.444\nsamples = 8\nvalue = [5, 10]"] ;
1068 -> 1069 ;
1070 [label="x[69] <= 1528301.125\ngini = 0.278\nsamples = 7\nvalue = [2, 10]"] ;
1069 -> 1070 ;
1071 [label="gini = 0.0\nsamples = 1\nvalue = [0, 3]"] ;
1070 -> 1071 ;
1072 [label="x[53] <= 764258.969\ngini = 0.346\nsamples = 6\nvalue = [2, 7]"] ;
1070 -> 1072 ;
1073 [label="x[57] <= 98.145\ngini = 0.48\nsamples = 4\nvalue = [2, 3]"] ;
1072 -> 1073 ;
1074 [label="gini = 0.0\nsamples = 1\nvalue = [1, 0]"] ;
1073 -> 1074 ;
1075 [label="x[43] <= 764211.531\ngini = 0.375\nsamples = 3\nvalue = [1, 3]"] ;
1073 -> 1075 ;
1076 [label="gini = 0.0\nsamples = 1\nvalue = [0, 2]"] ;
1075 -> 1076 ;
1077 [label="x[57] <= 98.148\ngini = 0.5\nsamples = 2\nvalue = [1, 1]"] ;
1075 -> 1077 ;
1078 [label="gini = 0.0\nsamples = 1\nvalue = [0, 1]"] ;
1077 -> 1078 ;
1079 [label="gini = 0.0\nsamples = 1\nvalue = [1, 0]"] ;
1077 -> 1079 ;
1080 [label="gini = 0.0\nsamples = 2\nvalue = [0, 4]"] ;
1072 -> 1080 ;
1081 [label="gini = 0.0\nsamples = 1\nvalue = [3, 0]"] ;
1069 -> 1081 ;
1082 [label="x[2] <= 1.528\ngini = 0.117\nsamples = 9\nvalue = [15, 1]"] ;
1068 -> 1082 ;
1083 [label="x[7] <= 1.963\ngini = 0.245\nsamples = 3\nvalue = [6, 1]"] ;
1082 -> 1083 ;
1084 [label="gini = 0.0\nsamples = 1\nvalue = [0, 1]"] ;
1083 -> 1084 ;
1085 [label="gini = 0.0\nsamples = 2\nvalue = [6, 0]"] ;
1083 -> 1085 ;
1086 [label="gini = 0.0\nsamples = 6\nvalue = [9, 0]"] ;
1082 -> 1086 ;
1087 [label="x[71] <= 1528468.062\ngini = 0.487\nsamples = 165\nvalue = [142, 102]"] ;
961 -> 1087 ;
1088 [label="x[2] <= 1.528\ngini = 0.424\nsamples = 27\nvalue = [11, 25]"] ;
1087 -> 1088 ;
1089 [label="x[70] <= 1528437.562\ngini = 0.49\nsamples = 17\nvalue = [9, 12]"] ;
1088 -> 1089 ;
1090 [label="x[2] <= 1.528\ngini = 0.465\nsamples = 15\nvalue = [7, 12]"] ;
1089 -> 1090 ;
1091 [label="x[52] <= 764114.5\ngini = 0.492\nsamples = 12\nvalue = [7, 9]"] ;
1090 -> 1091 ;
1092 [label="x[54] <= 1528394.438\ngini = 0.397\nsamples = 7\nvalue = [3, 8]"] ;
1091 -> 1092 ;
1093 [label="x[44] <= 1528385.062\ngini = 0.49\nsamples = 4\nvalue = [3, 4]"] ;
1092 -> 1093 ;
1094 [label="x[46] <= 185.193\ngini = 0.32\nsamples = 3\nvalue = [1, 4]"] ;
1093 -> 1094 ;
1095 [label="gini = 0.0\nsamples = 2\nvalue = [0, 4]"] ;
1094 -> 1095 ;
1096 [label="gini = 0.0\nsamples = 1\nvalue = [1, 0]"] ;
1094 -> 1096 ;
1097 [label="gini = 0.0\nsamples = 1\nvalue = [2, 0]"] ;
1093 -> 1097 ;
1098 [label="gini = 0.0\nsamples = 3\nvalue = [0, 4]"] ;
1092 -> 1098 ;
1099 [label="x[43] <= 764293.062\ngini = 0.32\nsamples = 5\nvalue = [4, 1]"] ;
1091 -> 1099 ;
1100 [label="x[68] <= 1528410.562\ngini = 0.5\nsamples = 2\nvalue = [1, 1]"] ;
1099 -> 1100 ;
1101 [label="gini = 0.0\nsamples = 1\nvalue = [1, 0]"] ;
1100 -> 1101 ;
1102 [label="gini = 0.0\nsamples = 1\nvalue = [0, 1]"] ;
1100 -> 1102 ;
1103 [label="gini = 0.0\nsamples = 3\nvalue = [3, 0]"] ;
1099 -> 1103 ;
1104 [label="gini = 0.0\nsamples = 3\nvalue = [0, 3]"] ;
1090 -> 1104 ;
1105 [label="gini = 0.0\nsamples = 2\nvalue = [2, 0]"] ;
1089 -> 1105 ;
1106 [label="x[68] <= 1528456.938\ngini = 0.231\nsamples = 10\nvalue = [2, 13]"] ;
1088 -> 1106 ;
1107 [label="gini = 0.0\nsamples = 4\nvalue = [0, 5]"] ;
1106 -> 1107 ;
1108 [label="x[56] <= 105.451\ngini = 0.32\nsamples = 6\nvalue = [2, 8]"] ;
1106 -> 1108 ;
1109 [label="x[68] <= 1528462.0\ngini = 0.198\nsamples = 5\nvalue = [1, 8]"] ;
1108 -> 1109 ;
1110 [label="x[42] <= 764161.469\ngini = 0.375\nsamples = 2\nvalue = [1, 3]"] ;
1109 -> 1110 ;
1111 [label="gini = 0.0\nsamples = 1\nvalue = [0, 3]"] ;
1110 -> 1111 ;
1112 [label="gini = 0.0\nsamples = 1\nvalue = [1, 0]"] ;
1110 -> 1112 ;
1113 [label="gini = 0.0\nsamples = 3\nvalue = [0, 5]"] ;
1109 -> 1113 ;
1114 [label="gini = 0.0\nsamples = 1\nvalue = [1, 0]"] ;
1108 -> 1114 ;
1115 [label="x[54] <= 1528508.438\ngini = 0.466\nsamples = 138\nvalue = [131, 77]"] ;
1087 -> 1115 ;
1116 [label="x[2] <= 1.529\ngini = 0.361\nsamples = 52\nvalue = [58, 18]"] ;
1115 -> 1116 ;
1117 [label="x[56] <= 55.718\ngini = 0.429\nsamples = 32\nvalue = [31, 14]"] ;
1116 -> 1117 ;
1118 [label="gini = 0.0\nsamples = 2\nvalue = [0, 3]"] ;
1117 -> 1118 ;
1119 [label="x[9] <= 1.963\ngini = 0.387\nsamples = 30\nvalue = [31, 11]"] ;
1117 -> 1119 ;
1120 [label="gini = 0.0\nsamples = 3\nvalue = [0, 3]"] ;
1119 -> 1120 ;
1121 [label="x[54] <= 1528488.062\ngini = 0.326\nsamples = 27\nvalue = [31, 8]"] ;
1119 -> 1121 ;
1122 [label="x[57] <= 98.136\ngini = 0.391\nsamples = 21\nvalue = [22, 8]"] ;
1121 -> 1122 ;
1123 [label="gini = 0.0\nsamples = 3\nvalue = [0, 4]"] ;
1122 -> 1123 ;
1124 [label="x[71] <= 1528480.5\ngini = 0.26\nsamples = 18\nvalue = [22, 4]"] ;
1122 -> 1124 ;
1125 [label="x[53] <= 764310.5\ngini = 0.188\nsamples = 12\nvalue = [17, 2]"] ;
1124 -> 1125 ;
1126 [label="x[42] <= 764179.969\ngini = 0.105\nsamples = 11\nvalue = [17, 1]"] ;
1125 -> 1126 ;
1127 [label="x[55] <= 764235.719\ngini = 0.219\nsamples = 5\nvalue = [7, 1]"] ;
1126 -> 1127 ;
1128 [label="gini = 0.0\nsamples = 1\nvalue = [0, 1]"] ;
1127 -> 1128 ;
1129 [label="gini = 0.0\nsamples = 4\nvalue = [7, 0]"] ;
1127 -> 1129 ;
1130 [label="gini = 0.0\nsamples = 6\nvalue = [10, 0]"] ;
1126 -> 1130 ;
1131 [label="gini = 0.0\nsamples = 1\nvalue = [0, 1]"] ;
1125 -> 1131 ;
1132 [label="x[43] <= 764305.812\ngini = 0.408\nsamples = 6\nvalue = [5, 2]"] ;
1124 -> 1132 ;
1133 [label="x[71] <= 1528482.062\ngini = 0.278\nsamples = 5\nvalue = [5, 1]"] ;
1132 -> 1133 ;
1134 [label="gini = 0.0\nsamples = 1\nvalue = [0, 1]"] ;
1133 -> 1134 ;
1135 [label="gini = 0.0\nsamples = 4\nvalue = [5, 0]"] ;
1133 -> 1135 ;
1136 [label="gini = 0.0\nsamples = 1\nvalue = [0, 1]"] ;
1132 -> 1136 ;
1137 [label="gini = 0.0\nsamples = 6\nvalue = [9, 0]"] ;
1121 -> 1137 ;
1138 [label="x[54] <= 1528506.5\ngini = 0.225\nsamples = 20\nvalue = [27, 4]"] ;
1116 -> 1138 ;
1139 [label="x[46] <= 41.135\ngini = 0.147\nsamples = 16\nvalue = [23, 2]"] ;
1138 -> 1139 ;
1140 [label="x[44] <= 1528503.625\ngini = 0.5\nsamples = 4\nvalue = [2, 2]"] ;
1139 -> 1140 ;
1141 [label="gini = 0.0\nsamples = 2\nvalue = [0, 2]"] ;
1140 -> 1141 ;
1142 [label="gini = 0.0\nsamples = 2\nvalue = [2, 0]"] ;
1140 -> 1142 ;
1143 [label="gini = 0.0\nsamples = 12\nvalue = [21, 0]"] ;
1139 -> 1143 ;
1144 [label="x[68] <= 1528507.5\ngini = 0.444\nsamples = 4\nvalue = [4, 2]"] ;
1138 -> 1144 ;
1145 [label="x[56] <= 72.83\ngini = 0.444\nsamples = 2\nvalue = [2, 1]"] ;
1144 -> 1145 ;
1146 [label="gini = 0.0\nsamples = 1\nvalue = [0, 1]"] ;
1145 -> 1146 ;
1147 [label="gini = 0.0\nsamples = 1\nvalue = [2, 0]"] ;
1145 -> 1147 ;
1148 [label="x[42] <= 764206.531\ngini = 0.444\nsamples = 2\nvalue = [2, 1]"] ;
1144 -> 1148 ;
1149 [label="gini = 0.0\nsamples = 1\nvalue = [2, 0]"] ;
1148 -> 1149 ;
1150 [label="gini = 0.0\nsamples = 1\nvalue = [0, 1]"] ;
1148 -> 1150 ;
1151 [label="x[45] <= 764256.25\ngini = 0.494\nsamples = 86\nvalue = [73, 59]"] ;
1115 -> 1151 ;
1152 [label="x[2] <= 1.529\ngini = 0.245\nsamples = 11\nvalue = [2, 12]"] ;
1151 -> 1152 ;
1153 [label="gini = 0.0\nsamples = 6\nvalue = [0, 8]"] ;
1152 -> 1153 ;
1154 [label="x[56] <= 61.534\ngini = 0.444\nsamples = 5\nvalue = [2, 4]"] ;
1152 -> 1154 ;
1155 [label="gini = 0.0\nsamples = 1\nvalue = [0, 2]"] ;
1154 -> 1155 ;
1156 [label="x[52] <= 764193.531\ngini = 0.5\nsamples = 4\nvalue = [2, 2]"] ;
1154 -> 1156 ;
1157 [label="gini = 0.0\nsamples = 1\nvalue = [0, 1]"] ;
1156 -> 1157 ;
1158 [label="x[56] <= 73.673\ngini = 0.444\nsamples = 3\nvalue = [2, 1]"] ;
1156 -> 1158 ;
1159 [label="gini = 0.0\nsamples = 1\nvalue = [1, 0]"] ;
1158 -> 1159 ;
1160 [label="x[52] <= 764197.469\ngini = 0.5\nsamples = 2\nvalue = [1, 1]"] ;
1158 -> 1160 ;
1161 [label="gini = 0.0\nsamples = 1\nvalue = [1, 0]"] ;
1160 -> 1161 ;
1162 [label="gini = 0.0\nsamples = 1\nvalue = [0, 1]"] ;
1160 -> 1162 ;
1163 [label="x[70] <= 1528536.875\ngini = 0.479\nsamples = 75\nvalue = [71, 47]"] ;
1151 -> 1163 ;
1164 [label="x[56] <= 64.738\ngini = 0.465\nsamples = 69\nvalue = [69, 40]"] ;
1163 -> 1164 ;
1165 [label="x[55] <= 764267.75\ngini = 0.491\nsamples = 51\nvalue = [46, 35]"] ;
1164 -> 1165 ;
1166 [label="x[53] <= 764308.094\ngini = 0.498\nsamples = 48\nvalue = [40, 35]"] ;
1165 -> 1166 ;
1167 [label="x[52] <= 764228.094\ngini = 0.492\nsamples = 45\nvalue = [40, 31]"] ;
1166 -> 1167 ;
1168 [label="x[71] <= 1528520.438\ngini = 0.388\nsamples = 16\nvalue = [14, 5]"] ;
1167 -> 1168 ;
1169 [label="x[42] <= 764215.969\ngini = 0.469\nsamples = 6\nvalue = [5, 3]"] ;
1168 -> 1169 ;
1170 [label="gini = 0.0\nsamples = 1\nvalue = [0, 2]"] ;
1169 -> 1170 ;
1171 [label="x[55] <= 764258.969\ngini = 0.278\nsamples = 5\nvalue = [5, 1]"] ;
1169 -> 1171 ;
1172 [label="gini = 0.0\nsamples = 3\nvalue = [4, 0]"] ;
1171 -> 1172 ;
1173 [label="x[43] <= 764295.0\ngini = 0.5\nsamples = 2\nvalue = [1, 1]"] ;
1171 -> 1173 ;
1174 [label="gini = 0.0\nsamples = 1\nvalue = [0, 1]"] ;
1173 -> 1174 ;
1175 [label="gini = 0.0\nsamples = 1\nvalue = [1, 0]"] ;
1173 -> 1175 ;
1176 [label="x[70] <= 1528522.938\ngini = 0.298\nsamples = 10\nvalue = [9, 2]"] ;
1168 -> 1176 ;
1177 [label="gini = 0.0\nsamples = 2\nvalue = [3, 0]"] ;
1176 -> 1177 ;
1178 [label="x[9] <= 1.963\ngini = 0.375\nsamples = 8\nvalue = [6, 2]"] ;
1176 -> 1178 ;
1179 [label="x[45] <= 764264.062\ngini = 0.245\nsamples = 7\nvalue = [6, 1]"] ;
1178 -> 1179 ;
1180 [label="gini = 0.0\nsamples = 4\nvalue = [4, 0]"] ;
1179 -> 1180 ;
1181 [label="x[70] <= 1528528.562\ngini = 0.444\nsamples = 3\nvalue = [2, 1]"] ;
1179 -> 1181 ;
1182 [label="gini = 0.0\nsamples = 1\nvalue = [0, 1]"] ;
1181 -> 1182 ;
1183 [label="gini = 0.0\nsamples = 2\nvalue = [2, 0]"] ;
1181 -> 1183 ;
1184 [label="gini = 0.0\nsamples = 1\nvalue = [0, 1]"] ;
1178 -> 1184 ;
1185 [label="x[44] <= 1528518.938\ngini = 0.5\nsamples = 29\nvalue = [26, 26]"] ;
1167 -> 1185 ;
1186 [label="x[9] <= 1.963\ngini = 0.426\nsamples = 7\nvalue = [9, 4]"] ;
1185 -> 1186 ;
1187 [label="gini = 0.0\nsamples = 3\nvalue = [7, 0]"] ;
1186 -> 1187 ;
1188 [label="x[45] <= 764256.562\ngini = 0.444\nsamples = 4\nvalue = [2, 4]"] ;
1186 -> 1188 ;
1189 [label="gini = 0.0\nsamples = 1\nvalue = [2, 0]"] ;
1188 -> 1189 ;
1190 [label="gini = 0.0\nsamples = 3\nvalue = [0, 4]"] ;
1188 -> 1190 ;
1191 [label="x[55] <= 764263.75\ngini = 0.492\nsamples = 22\nvalue = [17, 22]"] ;
1185 -> 1191 ;
1192 [label="x[56] <= 40.208\ngini = 0.391\nsamples = 9\nvalue = [4, 11]"] ;
1191 -> 1192 ;
1193 [label="x[52] <= 764233.125\ngini = 0.18\nsamples = 6\nvalue = [1, 9]"] ;
1192 -> 1193 ;
1194 [label="gini = 0.0\nsamples = 1\nvalue = [1, 0]"] ;
1193 -> 1194 ;
1195 [label="gini = 0.0\nsamples = 5\nvalue = [0, 9]"] ;
1193 -> 1195 ;
1196 [label="x[2] <= 1.529\ngini = 0.48\nsamples = 3\nvalue = [3, 2]"] ;
1192 -> 1196 ;
1197 [label="gini = 0.0\nsamples = 2\nvalue = [0, 2]"] ;
1196 -> 1197 ;
1198 [label="gini = 0.0\nsamples = 1\nvalue = [3, 0]"] ;
1196 -> 1198 ;
1199 [label="x[7] <= 1.963\ngini = 0.497\nsamples = 13\nvalue = [13, 11]"] ;
1191 -> 1199 ;
1200 [label="x[46] <= 26.468\ngini = 0.495\nsamples = 11\nvalue = [9, 11]"] ;
1199 -> 1200 ;
1201 [label="x[2] <= 1.529\ngini = 0.444\nsamples = 4\nvalue = [6, 3]"] ;
1200 -> 1201 ;
1202 [label="x[52] <= 764248.5\ngini = 0.48\nsamples = 2\nvalue = [2, 3]"] ;
1201 -> 1202 ;
1203 [label="gini = 0.0\nsamples = 1\nvalue = [2, 0]"] ;
1202 -> 1203 ;
1204 [label="gini = 0.0\nsamples = 1\nvalue = [0, 3]"] ;
1202 -> 1204 ;
1205 [label="gini = 0.0\nsamples = 2\nvalue = [4, 0]"] ;
1201 -> 1205 ;
1206 [label="x[55] <= 764265.719\ngini = 0.397\nsamples = 7\nvalue = [3, 8]"] ;
1200 -> 1206 ;
1207 [label="gini = 0.0\nsamples = 2\nvalue = [0, 4]"] ;
1206 -> 1207 ;
1208 [label="x[54] <= 1528531.875\ngini = 0.49\nsamples = 5\nvalue = [3, 4]"] ;
1206 -> 1208 ;
1209 [label="gini = 0.0\nsamples = 1\nvalue = [2, 0]"] ;
1208 -> 1209 ;
1210 [label="x[54] <= 1528533.438\ngini = 0.32\nsamples = 4\nvalue = [1, 4]"] ;
1208 -> 1210 ;
1211 [label="gini = 0.0\nsamples = 2\nvalue = [0, 2]"] ;
1210 -> 1211 ;
1212 [label="x[53] <= 764287.938\ngini = 0.444\nsamples = 2\nvalue = [1, 2]"] ;
1210 -> 1212 ;
1213 [label="gini = 0.0\nsamples = 1\nvalue = [0, 2]"] ;
1212 -> 1213 ;
1214 [label="gini = 0.0\nsamples = 1\nvalue = [1, 0]"] ;
1212 -> 1214 ;
1215 [label="gini = 0.0\nsamples = 2\nvalue = [4, 0]"] ;
1199 -> 1215 ;
1216 [label="gini = 0.0\nsamples = 3\nvalue = [0, 4]"] ;
1166 -> 1216 ;
1217 [label="gini = 0.0\nsamples = 3\nvalue = [6, 0]"] ;
1165 -> 1217 ;
1218 [label="x[54] <= 1528513.125\ngini = 0.293\nsamples = 18\nvalue = [23, 5]"] ;
1164 -> 1218 ;
1219 [label="gini = 0.0\nsamples = 1\nvalue = [0, 1]"] ;
1218 -> 1219 ;
1220 [label="x[52] <= 764208.438\ngini = 0.252\nsamples = 17\nvalue = [23, 4]"] ;
1218 -> 1220 ;
1221 [label="x[53] <= 764317.531\ngini = 0.426\nsamples = 8\nvalue = [9, 4]"] ;
1220 -> 1221 ;
1222 [label="x[42] <= 764202.594\ngini = 0.298\nsamples = 6\nvalue = [9, 2]"] ;
1221 -> 1222 ;
1223 [label="gini = 0.0\nsamples = 3\nvalue = [6, 0]"] ;
1222 -> 1223 ;
1224 [label="x[70] <= 1528519.375\ngini = 0.48\nsamples = 3\nvalue = [3, 2]"] ;
1222 -> 1224 ;
1225 [label="x[56] <= 78.393\ngini = 0.5\nsamples = 2\nvalue = [2, 2]"] ;
1224 -> 1225 ;
1226 [label="gini = 0.0\nsamples = 1\nvalue = [2, 0]"] ;
1225 -> 1226 ;
1227 [label="gini = 0.0\nsamples = 1\nvalue = [0, 2]"] ;
1225 -> 1227 ;
1228 [label="gini = 0.0\nsamples = 1\nvalue = [1, 0]"] ;
1224 -> 1228 ;
1229 [label="gini = 0.0\nsamples = 2\nvalue = [0, 2]"] ;
1221 -> 1229 ;
1230 [label="gini = 0.0\nsamples = 9\nvalue = [14, 0]"] ;
1220 -> 1230 ;
1231 [label="x[43] <= 764306.562\ngini = 0.346\nsamples = 6\nvalue = [2, 7]"] ;
1163 -> 1231 ;
1232 [label="x[46] <= 34.392\ngini = 0.48\nsamples = 4\nvalue = [2, 3]"] ;
1231 -> 1232 ;
1233 [label="x[44] <= 1528537.5\ngini = 0.375\nsamples = 3\nvalue = [1, 3]"] ;
1232 -> 1233 ;
1234 [label="x[43] <= 764280.094\ngini = 0.444\nsamples = 2\nvalue = [1, 2]"] ;
1233 -> 1234 ;
1235 [label="gini = 0.0\nsamples = 1\nvalue = [1, 0]"] ;
1234 -> 1235 ;
1236 [label="gini = 0.0\nsamples = 1\nvalue = [0, 2]"] ;
1234 -> 1236 ;
1237 [label="gini = 0.0\nsamples = 1\nvalue = [0, 1]"] ;
1233 -> 1237 ;
1238 [label="gini = 0.0\nsamples = 1\nvalue = [1, 0]"] ;
1232 -> 1238 ;
1239 [label="gini = 0.0\nsamples = 2\nvalue = [0, 4]"] ;
1231 -> 1239 ;
