digraph Tree {
node [shape=box, fontname="helvetica"] ;
edge [fontname="helvetica"] ;
0 [label="x[4] <= 9.5\ngini = 0.126\nsamples = 245601\nvalue = [26241, 362453]"] ;
1 [label="x[69] <= 1526161.062\ngini = 0.022\nsamples = 175625\nvalue = [3101, 275057]"] ;
0 -> 1 [labeldistance=2.5, labelangle=45, headlabel="True"] ;
2 [label="x[3] <= 7.5\ngini = 0.006\nsamples = 166051\nvalue = [756, 262318]"] ;
1 -> 2 ;
3 [label="x[38] <= 200.5\ngini = 0.0\nsamples = 157112\nvalue = [53, 248784]"] ;
2 -> 3 ;
4 [label="x[70] <= 1506900.562\ngini = 0.0\nsamples = 147567\nvalue = [4, 233915]"] ;
3 -> 4 ;
5 [label="x[2] <= 0.0\ngini = 0.0\nsamples = 147538\nvalue = [1, 233877]"] ;
4 -> 5 ;
6 [label="x[13] <= 30.0\ngini = 0.0\nsamples = 26263\nvalue = [1, 41640]"] ;
5 -> 6 ;
7 [label="gini = 0.0\nsamples = 22066\nvalue = [0, 35013]"] ;
6 -> 7 ;
8 [label="x[0] <= 64524.5\ngini = 0.0\nsamples = 4197\nvalue = [1, 6627]"] ;
6 -> 8 ;
9 [label="gini = 0.0\nsamples = 4159\nvalue = [0, 6570]"] ;
8 -> 9 ;
10 [label="x[1] <= 261.5\ngini = 0.034\nsamples = 38\nvalue = [1, 57]"] ;
8 -> 10 ;
11 [label="gini = 0.0\nsamples = 20\nvalue = [0, 29]"] ;
10 -> 11 ;
12 [label="x[12] <= 36.0\ngini = 0.067\nsamples = 18\nvalue = [1, 28]"] ;
10 -> 12 ;
13 [label="x[17] <= 0.5\ngini = 0.111\nsamples = 10\nvalue = [1, 16]"] ;
12 -> 13 ;
14 [label="x[80] <= 4240.0\ngini = 0.117\nsamples = 9\nvalue = [1, 15]"] ;
13 -> 14 ;
15 [label="gini = 0.0\nsamples = 1\nvalue = [1, 0]"] ;
14 -> 15 ;
16 [label="gini = 0.0\nsamples = 8\nvalue = [0, 15]"] ;
14 -> 16 ;
17 [label="gini = 0.0\nsamples = 1\nvalue = [0, 1]"] ;
13 -> 17 ;
18 [label="gini = 0.0\nsamples = 8\nvalue = [0, 12]"] ;
12 -> 18 ;
19 [label="gini = 0.0\nsamples = 121275\nvalue = [0, 192237]"] ;
5 -> 19 ;
20 [label="x[59] <= 0.25\ngini = 0.136\nsamples = 29\nvalue = [3, 38]"] ;
4 -> 20 ;
21 [label="x[44] <= 1509335.062\ngini = 0.305\nsamples = 12\nvalue = [3, 13]"] ;
20 -> 21 ;
22 [label="gini = 0.0\nsamples = 1\nvalue = [1, 0]"] ;
21 -> 22 ;
23 [label="x[52] <= 755441.438\ngini = 0.231\nsamples = 11\nvalue = [2, 13]"] ;
21 -> 23 ;
24 [label="gini = 0.0\nsamples = 8\nvalue = [0, 9]"] ;
23 -> 24 ;
25 [label="x[53] <= 764968.531\ngini = 0.444\nsamples = 3\nvalue = [2, 4]"] ;
23 -> 25 ;
26 [label="gini = 0.0\nsamples = 2\nvalue = [2, 0]"] ;
25 -> 26 ;
27 [label="gini = 0.0\nsamples = 1\nvalue = [0, 4]"] ;
25 -> 27 ;
28 [label="gini = 0.0\nsamples = 17\nvalue = [0, 25]"] ;
20 -> 28 ;
29 [label="x[52] <= 0.954\ngini = 0.007\nsamples = 9545\nvalue = [49, 14869]"] ;
3 -> 29 ;
30 [label="x[80] <= 38.5\ngini = 0.076\nsamples = 796\nvalue = [49, 1189]"] ;
29 -> 30 ;
31 [label="x[28] <= 206.0\ngini = 0.08\nsamples = 756\nvalue = [49, 1128]"] ;
30 -> 31 ;
32 [label="gini = 0.171\nsamples = 354\nvalue = [49, 470]"] ;
31 -> 32 ;
33 [label="gini = 0.0\nsamples = 402\nvalue = [0, 658]"] ;
31 -> 33 ;
34 [label="gini = 0.0\nsamples = 40\nvalue = [0, 61]"] ;
30 -> 34 ;
35 [label="gini = 0.0\nsamples = 8749\nvalue = [0, 13680]"] ;
29 -> 35 ;
36 [label="x[20] <= 3.5\ngini = 0.094\nsamples = 8939\nvalue = [703, 13534]"] ;
2 -> 36 ;
37 [label="x[6] <= 3.5\ngini = 0.236\nsamples = 3236\nvalue = [702, 4444]"] ;
36 -> 37 ;
38 [label="gini = 0.0\nsamples = 1091\nvalue = [0, 1716]"] ;
37 -> 38 ;
39 [label="x[36] <= 959.491\ngini = 0.326\nsamples = 2145\nvalue = [702, 2728]"] ;
37 -> 39 ;
40 [label="x[29] <= 758.0\ngini = 0.369\nsamples = 1798\nvalue = [702, 2179]"] ;
39 -> 40 ;
41 [label="gini = 0.0\nsamples = 123\nvalue = [0, 180]"] ;
40 -> 41 ;
42 [label="x[71] <= 252157.453\ngini = 0.385\nsamples = 1675\nvalue = [702, 1999]"] ;
40 -> 42 ;
43 [label="x[46] <= 17797.767\ngini = 0.356\nsamples = 1268\nvalue = [474, 1571]"] ;
42 -> 43 ;
44 [label="x[7] <= 60.855\ngini = 0.071\nsamples = 31\nvalue = [2, 52]"] ;
43 -> 44 ;
45 [label="gini = 0.0\nsamples = 19\nvalue = [0, 33]"] ;
44 -> 45 ;
46 [label="x[7] <= 60.891\ngini = 0.172\nsamples = 12\nvalue = [2, 19]"] ;
44 -> 46 ;
47 [label="gini = 0.0\nsamples = 1\nvalue = [2, 0]"] ;
46 -> 47 ;
48 [label="gini = 0.0\nsamples = 11\nvalue = [0, 19]"] ;
46 -> 48 ;
49 [label="x[69] <= 131947.516\ngini = 0.362\nsamples = 1237\nvalue = [472, 1519]"] ;
43 -> 49 ;
50 [label="x[78] <= 14600.0\ngini = 0.494\nsamples = 19\nvalue = [15, 12]"] ;
49 -> 50 ;
51 [label="gini = 0.0\nsamples = 3\nvalue = [0, 3]"] ;
50 -> 51 ;
52 [label="x[45] <= 18778.512\ngini = 0.469\nsamples = 16\nvalue = [15, 9]"] ;
50 -> 52 ;
53 [label="x[2] <= 0.13\ngini = 0.496\nsamples = 9\nvalue = [5, 6]"] ;
52 -> 53 ;
54 [label="gini = 0.0\nsamples = 2\nvalue = [3, 0]"] ;
53 -> 54 ;
55 [label="x[49] <= 101983.07\ngini = 0.375\nsamples = 7\nvalue = [2, 6]"] ;
53 -> 55 ;
56 [label="gini = 0.0\nsamples = 2\nvalue = [0, 2]"] ;
55 -> 56 ;
57 [label="x[53] <= 27417.898\ngini = 0.444\nsamples = 5\nvalue = [2, 4]"] ;
55 -> 57 ;
58 [label="x[8] <= 68.646\ngini = 0.48\nsamples = 4\nvalue = [2, 3]"] ;
57 -> 58 ;
59 [label="gini = 0.444\nsamples = 2\nvalue = [1, 2]"] ;
58 -> 59 ;
60 [label="gini = 0.5\nsamples = 2\nvalue = [1, 1]"] ;
58 -> 60 ;
61 [label="gini = 0.0\nsamples = 1\nvalue = [0, 1]"] ;
57 -> 61 ;
62 [label="x[55] <= 8229.725\ngini = 0.355\nsamples = 7\nvalue = [10, 3]"] ;
52 -> 62 ;
63 [label="x[31] <= 186.697\ngini = 0.198\nsamples = 4\nvalue = [8, 1]"] ;
62 -> 63 ;
64 [label="gini = 0.0\nsamples = 2\nvalue = [6, 0]"] ;
63 -> 64 ;
65 [label="gini = 0.444\nsamples = 2\nvalue = [2, 1]"] ;
63 -> 65 ;
66 [label="x[41] <= 710.366\ngini = 0.5\nsamples = 3\nvalue = [2, 2]"] ;
62 -> 66 ;
67 [label="gini = 0.0\nsamples = 1\nvalue = [0, 1]"] ;
66 -> 67 ;
68 [label="gini = 0.444\nsamples = 2\nvalue = [2, 1]"] ;
66 -> 68 ;
69 [label="x[46] <= 48391.713\ngini = 0.357\nsamples = 1218\nvalue = [457, 1507]"] ;
49 -> 69 ;
70 [label="x[49] <= 103018.047\ngini = 0.364\nsamples = 1113\nvalue = [432, 1371]"] ;
69 -> 70 ;
71 [label="x[53] <= 27410.865\ngini = 0.48\nsamples = 15\nvalue = [15, 10]"] ;
70 -> 71 ;
72 [label="x[61] <= 4054.5\ngini = 0.32\nsamples = 3\nvalue = [1, 4]"] ;
71 -> 72 ;
73 [label="gini = 0.444\nsamples = 2\nvalue = [1, 2]"] ;
72 -> 73 ;
74 [label="gini = 0.0\nsamples = 1\nvalue = [0, 2]"] ;
72 -> 74 ;
75 [label="x[70] <= 133683.438\ngini = 0.42\nsamples = 12\nvalue = [14, 6]"] ;
71 -> 75 ;
76 [label="x[31] <= 186.142\ngini = 0.496\nsamples = 7\nvalue = [6, 5]"] ;
75 -> 76 ;
77 [label="x[43] <= 44135.57\ngini = 0.444\nsamples = 5\nvalue = [6, 3]"] ;
76 -> 77 ;
78 [label="gini = 0.0\nsamples = 1\nvalue = [1, 0]"] ;
77 -> 78 ;
79 [label="x[45] <= 19051.483\ngini = 0.469\nsamples = 4\nvalue = [5, 3]"] ;
77 -> 79 ;
80 [label="gini = 0.444\nsamples = 2\nvalue = [2, 1]"] ;
79 -> 80 ;
81 [label="gini = 0.48\nsamples = 2\nvalue = [3, 2]"] ;
79 -> 81 ;
82 [label="gini = 0.0\nsamples = 2\nvalue = [0, 2]"] ;
76 -> 82 ;
83 [label="x[9] <= 125.684\ngini = 0.198\nsamples = 5\nvalue = [8, 1]"] ;
75 -> 83 ;
84 [label="gini = 0.444\nsamples = 2\nvalue = [2, 1]"] ;
83 -> 84 ;
85 [label="gini = 0.0\nsamples = 3\nvalue = [6, 0]"] ;
83 -> 85 ;
86 [label="x[46] <= 47907.256\ngini = 0.359\nsamples = 1098\nvalue = [417, 1361]"] ;
70 -> 86 ;
87 [label="x[46] <= 18435.519\ngini = 0.352\nsamples = 1066\nvalue = [393, 1328]"] ;
86 -> 87 ;
88 [label="gini = 0.0\nsamples = 19\nvalue = [0, 33]"] ;
87 -> 88 ;
89 [label="x[0] <= 34351.0\ngini = 0.357\nsamples = 1047\nvalue = [393, 1295]"] ;
87 -> 89 ;
90 [label="x[30] <= 102.938\ngini = 0.098\nsamples = 72\nvalue = [6, 110]"] ;
89 -> 90 ;
91 [label="x[56] <= 22107.315\ngini = 0.019\nsamples = 66\nvalue = [1, 105]"] ;
90 -> 91 ;
92 [label="x[44] <= 217841.023\ngini = 0.042\nsamples = 26\nvalue = [1, 46]"] ;
91 -> 92 ;
93 [label="gini = 0.0\nsamples = 24\nvalue = [0, 44]"] ;
92 -> 93 ;
94 [label="x[68] <= 219719.047\ngini = 0.444\nsamples = 2\nvalue = [1, 2]"] ;
92 -> 94 ;
95 [label="gini = 0.0\nsamples = 1\nvalue = [1, 0]"] ;
94 -> 95 ;
96 [label="gini = 0.0\nsamples = 1\nvalue = [0, 2]"] ;
94 -> 96 ;
97 [label="gini = 0.0\nsamples = 40\nvalue = [0, 59]"] ;
91 -> 97 ;
98 [label="x[48] <= 28671.98\ngini = 0.5\nsamples = 6\nvalue = [5, 5]"] ;
90 -> 98 ;
99 [label="gini = 0.0\nsamples = 2\nvalue = [0, 4]"] ;
98 -> 99 ;
100 [label="x[2] <= 0.145\ngini = 0.278\nsamples = 4\nvalue = [5, 1]"] ;
98 -> 100 ;
101 [label="x[54] <= 138835.078\ngini = 0.375\nsamples = 3\nvalue = [3, 1]"] ;
100 -> 101 ;
102 [label="gini = 0.0\nsamples = 1\nvalue = [1, 0]"] ;
101 -> 102 ;
103 [label="gini = 0.444\nsamples = 2\nvalue = [2, 1]"] ;
101 -> 103 ;
104 [label="gini = 0.0\nsamples = 1\nvalue = [2, 0]"] ;
100 -> 104 ;
105 [label="x[50] <= 13168.812\ngini = 0.371\nsamples = 975\nvalue = [387, 1185]"] ;
89 -> 105 ;
106 [label="x[60] <= 822.5\ngini = 0.494\nsamples = 10\nvalue = [10, 8]"] ;
105 -> 106 ;
107 [label="gini = 0.0\nsamples = 3\nvalue = [0, 5]"] ;
106 -> 107 ;
108 [label="x[9] <= 126.335\ngini = 0.355\nsamples = 7\nvalue = [10, 3]"] ;
106 -> 108 ;
109 [label="gini = 0.0\nsamples = 2\nvalue = [6, 0]"] ;
108 -> 109 ;
110 [label="x[47] <= 4.53\ngini = 0.49\nsamples = 5\nvalue = [4, 3]"] ;
108 -> 110 ;
111 [label="x[56] <= 12102.443\ngini = 0.444\nsamples = 4\nvalue = [4, 2]"] ;
110 -> 111 ;
112 [label="gini = 0.375\nsamples = 2\nvalue = [3, 1]"] ;
111 -> 112 ;
113 [label="gini = 0.5\nsamples = 2\nvalue = [1, 1]"] ;
111 -> 113 ;
114 [label="gini = 0.0\nsamples = 1\nvalue = [0, 1]"] ;
110 -> 114 ;
115 [label="x[69] <= 242066.984\ngini = 0.367\nsamples = 965\nvalue = [377, 1177]"] ;
105 -> 115 ;
116 [label="x[71] <= 241521.477\ngini = 0.374\nsamples = 923\nvalue = [371, 1119]"] ;
115 -> 116 ;
117 [label="x[69] <= 196738.961\ngini = 0.371\nsamples = 915\nvalue = [363, 1114]"] ;
116 -> 117 ;
118 [label="x[42] <= 47.445\ngini = 0.294\nsamples = 169\nvalue = [51, 234]"] ;
117 -> 118 ;
119 [label="x[45] <= 20245.637\ngini = 0.34\nsamples = 127\nvalue = [47, 169]"] ;
118 -> 119 ;
120 [label="x[44] <= 141348.961\ngini = 0.447\nsamples = 53\nvalue = [29, 57]"] ;
119 -> 120 ;
121 [label="x[35] <= 462.833\ngini = 0.416\nsamples = 48\nvalue = [23, 55]"] ;
120 -> 121 ;
122 [label="x[42] <= 45.538\ngini = 0.368\nsamples = 42\nvalue = [17, 53]"] ;
121 -> 122 ;
123 [label="x[47] <= 14.901\ngini = 0.337\nsamples = 34\nvalue = [12, 44]"] ;
122 -> 123 ;
124 [label="x[50] <= 13458.431\ngini = 0.282\nsamples = 29\nvalue = [8, 39]"] ;
123 -> 124 ;
125 [label="x[9] <= 124.4\ngini = 0.426\nsamples = 16\nvalue = [8, 18]"] ;
124 -> 125 ;
126 [label="x[2] <= 0.138\ngini = 0.496\nsamples = 7\nvalue = [6, 5]"] ;
125 -> 126 ;
127 [label="x[47] <= 4.053\ngini = 0.444\nsamples = 6\nvalue = [6, 3]"] ;
126 -> 127 ;
128 [label="x[39] <= 4925.0\ngini = 0.408\nsamples = 4\nvalue = [5, 2]"] ;
127 -> 128 ;
129 [label="gini = 0.444\nsamples = 2\nvalue = [2, 1]"] ;
128 -> 129 ;
130 [label="gini = 0.375\nsamples = 2\nvalue = [3, 1]"] ;
128 -> 130 ;
131 [label="gini = 0.5\nsamples = 2\nvalue = [1, 1]"] ;
127 -> 131 ;
132 [label="gini = 0.0\nsamples = 1\nvalue = [0, 2]"] ;
126 -> 132 ;
133 [label="x[56] <= 12166.105\ngini = 0.231\nsamples = 9\nvalue = [2, 13]"] ;
125 -> 133 ;
134 [label="gini = 0.5\nsamples = 2\nvalue = [1, 1]"] ;
133 -> 134 ;
135 [label="x[7] <= 58.821\ngini = 0.142\nsamples = 7\nvalue = [1, 12]"] ;
133 -> 135 ;
136 [label="x[0] <= 37799.0\ngini = 0.278\nsamples = 3\nvalue = [1, 5]"] ;
135 -> 136 ;
137 [label="gini = 0.0\nsamples = 1\nvalue = [1, 0]"] ;
136 -> 137 ;
138 [label="gini = 0.0\nsamples = 2\nvalue = [0, 5]"] ;
136 -> 138 ;
139 [label="gini = 0.0\nsamples = 4\nvalue = [0, 7]"] ;
135 -> 139 ;
140 [label="gini = 0.0\nsamples = 13\nvalue = [0, 21]"] ;
124 -> 140 ;
141 [label="x[71] <= 138257.625\ngini = 0.494\nsamples = 5\nvalue = [4, 5]"] ;
123 -> 141 ;
142 [label="gini = 0.0\nsamples = 2\nvalue = [0, 2]"] ;
141 -> 142 ;
143 [label="x[40] <= 289.853\ngini = 0.49\nsamples = 3\nvalue = [4, 3]"] ;
141 -> 143 ;
144 [label="gini = 0.5\nsamples = 2\nvalue = [3, 3]"] ;
143 -> 144 ;
145 [label="gini = 0.0\nsamples = 1\nvalue = [1, 0]"] ;
143 -> 145 ;
146 [label="x[53] <= 27934.433\ngini = 0.459\nsamples = 8\nvalue = [5, 9]"] ;
122 -> 146 ;
147 [label="x[44] <= 138449.547\ngini = 0.494\nsamples = 5\nvalue = [5, 4]"] ;
146 -> 147 ;
148 [label="x[8] <= 65.695\ngini = 0.408\nsamples = 4\nvalue = [5, 2]"] ;
147 -> 148 ;
149 [label="gini = 0.375\nsamples = 2\nvalue = [3, 1]"] ;
148 -> 149 ;
150 [label="gini = 0.444\nsamples = 2\nvalue = [2, 1]"] ;
148 -> 150 ;
151 [label="gini = 0.0\nsamples = 1\nvalue = [0, 2]"] ;
147 -> 151 ;
152 [label="gini = 0.0\nsamples = 3\nvalue = [0, 5]"] ;
146 -> 152 ;
153 [label="x[68] <= 139918.562\ngini = 0.375\nsamples = 6\nvalue = [6, 2]"] ;
121 -> 153 ;
154 [label="x[54] <= 138644.102\ngini = 0.278\nsamples = 4\nvalue = [5, 1]"] ;
153 -> 154 ;
155 [label="gini = 0.444\nsamples = 2\nvalue = [2, 1]"] ;
154 -> 155 ;
156 [label="gini = 0.0\nsamples = 2\nvalue = [3, 0]"] ;
154 -> 156 ;
157 [label="gini = 0.5\nsamples = 2\nvalue = [1, 1]"] ;
153 -> 157 ;
158 [label="x[56] <= 12729.208\ngini = 0.375\nsamples = 5\nvalue = [6, 2]"] ;
120 -> 158 ;
159 [label="gini = 0.48\nsamples = 2\nvalue = [3, 2]"] ;
158 -> 159 ;
160 [label="gini = 0.0\nsamples = 3\nvalue = [3, 0]"] ;
158 -> 160 ;
161 [label="x[0] <= 58906.0\ngini = 0.239\nsamples = 74\nvalue = [18, 112]"] ;
119 -> 161 ;
162 [label="x[31] <= 180.921\ngini = 0.211\nsamples = 70\nvalue = [15, 110]"] ;
161 -> 162 ;
163 [label="x[48] <= 65889.48\ngini = 0.444\nsamples = 4\nvalue = [4, 2]"] ;
162 -> 163 ;
164 [label="gini = 0.0\nsamples = 2\nvalue = [4, 0]"] ;
163 -> 164 ;
165 [label="gini = 0.0\nsamples = 2\nvalue = [0, 2]"] ;
163 -> 165 ;
166 [label="x[54] <= 148432.375\ngini = 0.168\nsamples = 66\nvalue = [11, 108]"] ;
162 -> 166 ;
167 [label="x[55] <= 9090.93\ngini = 0.044\nsamples = 25\nvalue = [1, 43]"] ;
166 -> 167 ;
168 [label="gini = 0.0\nsamples = 17\nvalue = [0, 25]"] ;
167 -> 168 ;
169 [label="x[55] <= 9099.804\ngini = 0.1\nsamples = 8\nvalue = [1, 18]"] ;
167 -> 169 ;
170 [label="gini = 0.444\nsamples = 2\nvalue = [1, 2]"] ;
169 -> 170 ;
171 [label="gini = 0.0\nsamples = 6\nvalue = [0, 16]"] ;
169 -> 171 ;
172 [label="x[52] <= 9.537\ngini = 0.231\nsamples = 41\nvalue = [10, 65]"] ;
166 -> 172 ;
173 [label="x[43] <= 59193.492\ngini = 0.172\nsamples = 35\nvalue = [6, 57]"] ;
172 -> 173 ;
174 [label="x[70] <= 148854.852\ngini = 0.49\nsamples = 4\nvalue = [3, 4]"] ;
173 -> 174 ;
175 [label="gini = 0.444\nsamples = 2\nvalue = [1, 2]"] ;
174 -> 175 ;
176 [label="gini = 0.5\nsamples = 2\nvalue = [2, 2]"] ;
174 -> 176 ;
177 [label="x[0] <= 37532.0\ngini = 0.101\nsamples = 31\nvalue = [3, 53]"] ;
173 -> 177 ;
178 [label="gini = 0.0\nsamples = 1\nvalue = [1, 0]"] ;
177 -> 178 ;
179 [label="x[60] <= 771.5\ngini = 0.07\nsamples = 30\nvalue = [2, 53]"] ;
177 -> 179 ;
180 [label="x[7] <= 40.919\ngini = 0.128\nsamples = 16\nvalue = [2, 27]"] ;
179 -> 180 ;
181 [label="gini = 0.0\nsamples = 9\nvalue = [0, 17]"] ;
180 -> 181 ;
182 [label="x[68] <= 195304.039\ngini = 0.278\nsamples = 7\nvalue = [2, 10]"] ;
180 -> 182 ;
183 [label="x[52] <= 6.437\ngini = 0.165\nsamples = 6\nvalue = [1, 10]"] ;
182 -> 183 ;
184 [label="gini = 0.0\nsamples = 3\nvalue = [0, 8]"] ;
183 -> 184 ;
185 [label="x[29] <= 769.5\ngini = 0.444\nsamples = 3\nvalue = [1, 2]"] ;
183 -> 185 ;
186 [label="gini = 0.0\nsamples = 1\nvalue = [0, 1]"] ;
185 -> 186 ;
187 [label="gini = 0.5\nsamples = 2\nvalue = [1, 1]"] ;
185 -> 187 ;
188 [label="gini = 0.0\nsamples = 1\nvalue = [1, 0]"] ;
182 -> 188 ;
189 [label="gini = 0.0\nsamples = 14\nvalue = [0, 26]"] ;
179 -> 189 ;
190 [label="x[0] <= 50137.0\ngini = 0.444\nsamples = 6\nvalue = [4, 8]"] ;
172 -> 190 ;
191 [label="gini = 0.0\nsamples = 2\nvalue = [0, 4]"] ;
190 -> 191 ;
192 [label="x[2] <= 0.195\ngini = 0.5\nsamples = 4\nvalue = [4, 4]"] ;
190 -> 192 ;
193 [label="gini = 0.5\nsamples = 2\nvalue = [1, 1]"] ;
192 -> 193 ;
194 [label="gini = 0.5\nsamples = 2\nvalue = [3, 3]"] ;
192 -> 194 ;
195 [label="x[69] <= 146609.547\ngini = 0.48\nsamples = 4\nvalue = [3, 2]"] ;
161 -> 195 ;
196 [label="gini = 0.0\nsamples = 1\nvalue = [2, 0]"] ;
195 -> 196 ;
197 [label="x[50] <= 17702.43\ngini = 0.444\nsamples = 3\nvalue = [1, 2]"] ;
195 -> 197 ;
198 [label="gini = 0.5\nsamples = 2\nvalue = [1, 1]"] ;
197 -> 198 ;
199 [label="gini = 0.0\nsamples = 1\nvalue = [0, 1]"] ;
197 -> 199 ;
200 [label="x[51] <= 14686.349\ngini = 0.109\nsamples = 42\nvalue = [4, 65]"] ;
118 -> 200 ;
201 [label="gini = 0.0\nsamples = 18\nvalue = [0, 32]"] ;
200 -> 201 ;
202 [label="x[45] <= 20701.715\ngini = 0.193\nsamples = 24\nvalue = [4, 33]"] ;
200 -> 202 ;
203 [label="gini = 0.0\nsamples = 1\nvalue = [1, 0]"] ;
202 -> 203 ;
204 [label="x[50] <= 19193.187\ngini = 0.153\nsamples = 23\nvalue = [3, 33]"] ;
202 -> 204 ;
205 [label="x[70] <= 152104.492\ngini = 0.444\nsamples = 6\nvalue = [2, 4]"] ;
204 -> 205 ;
206 [label="gini = 0.0\nsamples = 1\nvalue = [0, 1]"] ;
205 -> 206 ;
207 [label="x[60] <= 825.0\ngini = 0.48\nsamples = 5\nvalue = [2, 3]"] ;
205 -> 207 ;
208 [label="gini = 0.0\nsamples = 1\nvalue = [0, 1]"] ;
207 -> 208 ;
209 [label="x[39] <= 4973.5\ngini = 0.5\nsamples = 4\nvalue = [2, 2]"] ;
207 -> 209 ;
210 [label="gini = 0.5\nsamples = 2\nvalue = [1, 1]"] ;
209 -> 210 ;
211 [label="gini = 0.5\nsamples = 2\nvalue = [1, 1]"] ;
209 -> 211 ;
212 [label="x[44] <= 195825.102\ngini = 0.064\nsamples = 17\nvalue = [1, 29]"] ;
204 -> 212 ;
213 [label="gini = 0.0\nsamples = 13\nvalue = [0, 23]"] ;
212 -> 213 ;
214 [label="x[39] <= 4882.5\ngini = 0.245\nsamples = 4\nvalue = [1, 6]"] ;
212 -> 214 ;
215 [label="gini = 0.0\nsamples = 2\nvalue = [0, 5]"] ;
214 -> 215 ;
216 [label="gini = 0.5\nsamples = 2\nvalue = [1, 1]"] ;
214 -> 216 ;
217 [label="x[2] <= 0.226\ngini = 0.386\nsamples = 746\nvalue = [312, 880]"] ;
117 -> 217 ;
218 [label="x[71] <= 224785.086\ngini = 0.414\nsamples = 372\nvalue = [177, 429]"] ;
217 -> 218 ;
219 [label="x[42] <= 33.498\ngini = 0.401\nsamples = 346\nvalue = [158, 411]"] ;
218 -> 219 ;
220 [label="x[48] <= 82990.051\ngini = 0.466\nsamples = 129\nvalue = [76, 130]"] ;
219 -> 220 ;
221 [label="x[36] <= 955.423\ngini = 0.494\nsamples = 73\nvalue = [56, 70]"] ;
220 -> 221 ;
222 [label="x[48] <= 82791.57\ngini = 0.494\nsamples = 71\nvalue = [55, 68]"] ;
221 -> 222 ;
223 [label="x[8] <= 40.611\ngini = 0.485\nsamples = 68\nvalue = [48, 68]"] ;
222 -> 223 ;
224 [label="gini = 0.0\nsamples = 3\nvalue = [5, 0]"] ;
223 -> 224 ;
225 [label="x[40] <= 286.971\ngini = 0.475\nsamples = 65\nvalue = [43, 68]"] ;
223 -> 225 ;
226 [label="x[56] <= 21878.603\ngini = 0.245\nsamples = 8\nvalue = [2, 12]"] ;
225 -> 226 ;
227 [label="gini = 0.0\nsamples = 6\nvalue = [0, 10]"] ;
226 -> 227 ;
228 [label="gini = 0.5\nsamples = 2\nvalue = [2, 2]"] ;
226 -> 228 ;
229 [label="x[29] <= 767.5\ngini = 0.488\nsamples = 57\nvalue = [41, 56]"] ;
225 -> 229 ;
230 [label="gini = 0.0\nsamples = 3\nvalue = [4, 0]"] ;
229 -> 230 ;
231 [label="x[31] <= 181.382\ngini = 0.479\nsamples = 54\nvalue = [37, 56]"] ;
229 -> 231 ;
232 [label="x[0] <= 36081.0\ngini = 0.473\nsamples = 53\nvalue = [35, 56]"] ;
231 -> 232 ;
233 [label="x[47] <= 6.437\ngini = 0.26\nsamples = 6\nvalue = [11, 2]"] ;
232 -> 233 ;
234 [label="x[53] <= 67019.461\ngini = 0.346\nsamples = 4\nvalue = [7, 2]"] ;
233 -> 234 ;
235 [label="gini = 0.0\nsamples = 1\nvalue = [3, 0]"] ;
234 -> 235 ;
236 [label="x[56] <= 19955.814\ngini = 0.444\nsamples = 3\nvalue = [4, 2]"] ;
234 -> 236 ;
237 [label="gini = 0.0\nsamples = 1\nvalue = [0, 1]"] ;
236 -> 237 ;
238 [label="gini = 0.32\nsamples = 2\nvalue = [4, 1]"] ;
236 -> 238 ;
239 [label="gini = 0.0\nsamples = 2\nvalue = [4, 0]"] ;
233 -> 239 ;
240 [label="x[50] <= 22820.442\ngini = 0.426\nsamples = 47\nvalue = [24, 54]"] ;
232 -> 240 ;
241 [label="x[43] <= 98728.059\ngini = 0.383\nsamples = 36\nvalue = [15, 43]"] ;
240 -> 241 ;
242 [label="x[41] <= 710.756\ngini = 0.497\nsamples = 10\nvalue = [6, 7]"] ;
241 -> 242 ;
243 [label="x[70] <= 196881.055\ngini = 0.444\nsamples = 7\nvalue = [6, 3]"] ;
242 -> 243 ;
244 [label="gini = 0.0\nsamples = 1\nvalue = [0, 2]"] ;
243 -> 244 ;
245 [label="x[50] <= 21115.377\ngini = 0.245\nsamples = 6\nvalue = [6, 1]"] ;
243 -> 245 ;
246 [label="gini = 0.0\nsamples = 3\nvalue = [4, 0]"] ;
245 -> 246 ;
247 [label="x[31] <= 181.163\ngini = 0.444\nsamples = 3\nvalue = [2, 1]"] ;
245 -> 247 ;
248 [label="gini = 0.5\nsamples = 2\nvalue = [1, 1]"] ;
247 -> 248 ;
249 [label="gini = 0.0\nsamples = 1\nvalue = [1, 0]"] ;
247 -> 249 ;
250 [label="gini = 0.0\nsamples = 3\nvalue = [0, 4]"] ;
242 -> 250 ;
251 [label="x[7] <= 39.159\ngini = 0.32\nsamples = 26\nvalue = [9, 36]"] ;
241 -> 251 ;
252 [label="x[29] <= 768.5\ngini = 0.111\nsamples = 11\nvalue = [1, 16]"] ;
251 -> 252 ;
253 [label="x[45] <= 30126.998\ngini = 0.32\nsamples = 3\nvalue = [1, 4]"] ;
252 -> 253 ;
254 [label="gini = 0.0\nsamples = 1\nvalue = [0, 2]"] ;
253 -> 254 ;
255 [label="gini = 0.444\nsamples = 2\nvalue = [1, 2]"] ;
253 -> 255 ;
256 [label="gini = 0.0\nsamples = 8\nvalue = [0, 12]"] ;
252 -> 256 ;
257 [label="x[70] <= 203058.484\ngini = 0.408\nsamples = 15\nvalue = [8, 20]"] ;
251 -> 257 ;
258 [label="x[51] <= 23581.843\ngini = 0.33\nsamples = 13\nvalue = [5, 19]"] ;
257 -> 258 ;
259 [label="x[70] <= 201501.484\ngini = 0.255\nsamples = 10\nvalue = [3, 17]"] ;
258 -> 259 ;
260 [label="x[9] <= 85.631\ngini = 0.142\nsamples = 7\nvalue = [1, 12]"] ;
259 -> 260 ;
261 [label="gini = 0.0\nsamples = 4\nvalue = [0, 7]"] ;
260 -> 261 ;
262 [label="x[41] <= 710.751\ngini = 0.278\nsamples = 3\nvalue = [1, 5]"] ;
260 -> 262 ;
263 [label="gini = 0.32\nsamples = 2\nvalue = [1, 4]"] ;
262 -> 263 ;
264 [label="gini = 0.0\nsamples = 1\nvalue = [0, 1]"] ;
262 -> 264 ;
265 [label="x[0] <= 41532.0\ngini = 0.408\nsamples = 3\nvalue = [2, 5]"] ;
259 -> 265 ;
266 [label="gini = 0.0\nsamples = 1\nvalue = [0, 3]"] ;
265 -> 266 ;
267 [label="gini = 0.5\nsamples = 2\nvalue = [2, 2]"] ;
265 -> 267 ;
268 [label="x[2] <= 0.201\ngini = 0.5\nsamples = 3\nvalue = [2, 2]"] ;
258 -> 268 ;
269 [label="gini = 0.0\nsamples = 1\nvalue = [2, 0]"] ;
268 -> 269 ;
270 [label="gini = 0.0\nsamples = 2\nvalue = [0, 2]"] ;
268 -> 270 ;
271 [label="gini = 0.375\nsamples = 2\nvalue = [3, 1]"] ;
257 -> 271 ;
272 [label="x[49] <= 186835.523\ngini = 0.495\nsamples = 11\nvalue = [9, 11]"] ;
240 -> 272 ;
273 [label="x[69] <= 212909.461\ngini = 0.278\nsamples = 4\nvalue = [5, 1]"] ;
272 -> 273 ;
274 [label="gini = 0.0\nsamples = 2\nvalue = [3, 0]"] ;
273 -> 274 ;
275 [label="x[49] <= 185245.508\ngini = 0.444\nsamples = 2\nvalue = [2, 1]"] ;
273 -> 275 ;
276 [label="gini = 0.0\nsamples = 1\nvalue = [0, 1]"] ;
275 -> 276 ;
277 [label="gini = 0.0\nsamples = 1\nvalue = [2, 0]"] ;
275 -> 277 ;
278 [label="x[48] <= 75513.48\ngini = 0.408\nsamples = 7\nvalue = [4, 10]"] ;
272 -> 278 ;
279 [label="gini = 0.0\nsamples = 1\nvalue = [2, 0]"] ;
278 -> 279 ;
280 [label="x[46] <= 39974.141\ngini = 0.278\nsamples = 6\nvalue = [2, 10]"] ;
278 -> 280 ;
281 [label="x[9] <= 77.999\ngini = 0.375\nsamples = 3\nvalue = [2, 6]"] ;
280 -> 281 ;
282 [label="gini = 0.408\nsamples = 2\nvalue = [2, 5]"] ;
281 -> 282 ;
283 [label="gini = 0.0\nsamples = 1\nvalue = [0, 1]"] ;
281 -> 283 ;
284 [label="gini = 0.0\nsamples = 3\nvalue = [0, 4]"] ;
280 -> 284 ;
285 [label="gini = 0.0\nsamples = 1\nvalue = [2, 0]"] ;
231 -> 285 ;
286 [label="gini = 0.0\nsamples = 3\nvalue = [7, 0]"] ;
222 -> 286 ;
287 [label="x[7] <= 38.614\ngini = 0.444\nsamples = 2\nvalue = [1, 2]"] ;
221 -> 287 ;
288 [label="gini = 0.0\nsamples = 1\nvalue = [1, 0]"] ;
287 -> 288 ;
289 [label="gini = 0.0\nsamples = 1\nvalue = [0, 2]"] ;
287 -> 289 ;
290 [label="x[43] <= 116044.879\ngini = 0.375\nsamples = 56\nvalue = [20, 60]"] ;
220 -> 290 ;
291 [label="x[69] <= 213771.461\ngini = 0.077\nsamples = 18\nvalue = [1, 24]"] ;
290 -> 291 ;
292 [label="x[46] <= 39966.014\ngini = 0.32\nsamples = 3\nvalue = [1, 4]"] ;
291 -> 292 ;
293 [label="gini = 0.375\nsamples = 2\nvalue = [1, 3]"] ;
292 -> 293 ;
294 [label="gini = 0.0\nsamples = 1\nvalue = [0, 1]"] ;
292 -> 294 ;
295 [label="gini = 0.0\nsamples = 15\nvalue = [0, 20]"] ;
291 -> 295 ;
296 [label="x[55] <= 14008.753\ngini = 0.452\nsamples = 38\nvalue = [19, 36]"] ;
290 -> 296 ;
297 [label="x[55] <= 13571.285\ngini = 0.495\nsamples = 29\nvalue = [18, 22]"] ;
296 -> 297 ;
298 [label="x[51] <= 30339.502\ngini = 0.375\nsamples = 2\nvalue = [3, 1]"] ;
297 -> 298 ;
299 [label="gini = 0.0\nsamples = 1\nvalue = [3, 0]"] ;
298 -> 299 ;
300 [label="gini = 0.0\nsamples = 1\nvalue = [0, 1]"] ;
298 -> 300 ;
301 [label="x[68] <= 223636.859\ngini = 0.486\nsamples = 27\nvalue = [15, 21]"] ;
297 -> 301 ;
302 [label="x[29] <= 770.5\ngini = 0.469\nsamples = 24\nvalue = [12, 20]"] ;
301 -> 302 ;
303 [label="x[31] <= 180.921\ngini = 0.32\nsamples = 11\nvalue = [3, 12]"] ;
302 -> 303 ;
304 [label="x[56] <= 22967.152\ngini = 0.49\nsamples = 6\nvalue = [3, 4]"] ;
303 -> 304 ;
305 [label="gini = 0.444\nsamples = 2\nvalue = [1, 2]"] ;
304 -> 305 ;
306 [label="x[0] <= 49706.0\ngini = 0.5\nsamples = 4\nvalue = [2, 2]"] ;
304 -> 306 ;
307 [label="gini = 0.5\nsamples = 2\nvalue = [1, 1]"] ;
306 -> 307 ;
308 [label="gini = 0.5\nsamples = 2\nvalue = [1, 1]"] ;
306 -> 308 ;
309 [label="gini = 0.0\nsamples = 5\nvalue = [0, 8]"] ;
303 -> 309 ;
310 [label="x[42] <= 20.504\ngini = 0.498\nsamples = 13\nvalue = [9, 8]"] ;
302 -> 310 ;
311 [label="gini = 0.0\nsamples = 2\nvalue = [3, 0]"] ;
310 -> 311 ;
312 [label="x[70] <= 218313.453\ngini = 0.49\nsamples = 11\nvalue = [6, 8]"] ;
310 -> 312 ;
313 [label="gini = 0.0\nsamples = 2\nvalue = [0, 2]"] ;
312 -> 313 ;
314 [label="x[49] <= 191735.031\ngini = 0.5\nsamples = 9\nvalue = [6, 6]"] ;
312 -> 314 ;
315 [label="x[2] <= 0.221\ngini = 0.408\nsamples = 4\nvalue = [5, 2]"] ;
314 -> 315 ;
316 [label="gini = 0.0\nsamples = 2\nvalue = [2, 0]"] ;
315 -> 316 ;
317 [label="gini = 0.48\nsamples = 2\nvalue = [3, 2]"] ;
315 -> 317 ;
318 [label="x[71] <= 223467.828\ngini = 0.32\nsamples = 5\nvalue = [1, 4]"] ;
314 -> 318 ;
319 [label="gini = 0.0\nsamples = 3\nvalue = [0, 3]"] ;
318 -> 319 ;
320 [label="gini = 0.5\nsamples = 2\nvalue = [1, 1]"] ;
318 -> 320 ;
321 [label="x[0] <= 45783.0\ngini = 0.375\nsamples = 3\nvalue = [3, 1]"] ;
301 -> 321 ;
322 [label="gini = 0.0\nsamples = 1\nvalue = [0, 1]"] ;
321 -> 322 ;
323 [label="gini = 0.0\nsamples = 2\nvalue = [3, 0]"] ;
321 -> 323 ;
324 [label="x[69] <= 224377.508\ngini = 0.124\nsamples = 9\nvalue = [1, 14]"] ;
296 -> 324 ;
325 [label="x[30] <= 96.25\ngini = 0.32\nsamples = 3\nvalue = [1, 4]"] ;
324 -> 325 ;
326 [label="gini = 0.0\nsamples = 1\nvalue = [0, 3]"] ;
325 -> 326 ;
327 [label="gini = 0.5\nsamples = 2\nvalue = [1, 1]"] ;
325 -> 327 ;
328 [label="gini = 0.0\nsamples = 6\nvalue = [0, 10]"] ;
324 -> 328 ;
329 [label="x[41] <= 710.678\ngini = 0.35\nsamples = 217\nvalue = [82, 281]"] ;
219 -> 329 ;
330 [label="gini = 0.0\nsamples = 2\nvalue = [2, 0]"] ;
329 -> 330 ;
331 [label="x[53] <= 67032.578\ngini = 0.345\nsamples = 215\nvalue = [80, 281]"] ;
329 -> 331 ;
332 [label="x[69] <= 196866.039\ngini = 0.1\nsamples = 20\nvalue = [2, 36]"] ;
331 -> 332 ;
333 [label="gini = 0.0\nsamples = 1\nvalue = [1, 0]"] ;
332 -> 333 ;
334 [label="x[7] <= 40.531\ngini = 0.053\nsamples = 19\nvalue = [1, 36]"] ;
332 -> 334 ;
335 [label="gini = 0.0\nsamples = 15\nvalue = [0, 31]"] ;
334 -> 335 ;
336 [label="x[68] <= 197309.969\ngini = 0.278\nsamples = 4\nvalue = [1, 5]"] ;
334 -> 336 ;
337 [label="gini = 0.0\nsamples = 2\nvalue = [0, 4]"] ;
336 -> 337 ;
338 [label="gini = 0.5\nsamples = 2\nvalue = [1, 1]"] ;
336 -> 338 ;
339 [label="x[51] <= 22744.628\ngini = 0.366\nsamples = 195\nvalue = [78, 245]"] ;
331 -> 339 ;
340 [label="x[54] <= 198382.5\ngini = 0.198\nsamples = 4\nvalue = [8, 1]"] ;
339 -> 340 ;
341 [label="gini = 0.32\nsamples = 2\nvalue = [4, 1]"] ;
340 -> 341 ;
342 [label="gini = 0.0\nsamples = 2\nvalue = [4, 0]"] ;
340 -> 342 ;
343 [label="x[49] <= 169031.977\ngini = 0.346\nsamples = 191\nvalue = [70, 244]"] ;
339 -> 343 ;
344 [label="x[57] <= 24513.896\ngini = 0.472\nsamples = 13\nvalue = [8, 13]"] ;
343 -> 344 ;
345 [label="gini = 0.0\nsamples = 1\nvalue = [3, 0]"] ;
344 -> 345 ;
346 [label="x[56] <= 19068.308\ngini = 0.401\nsamples = 12\nvalue = [5, 13]"] ;
344 -> 346 ;
347 [label="gini = 0.0\nsamples = 5\nvalue = [0, 7]"] ;
346 -> 347 ;
348 [label="x[49] <= 168437.961\ngini = 0.496\nsamples = 7\nvalue = [5, 6]"] ;
346 -> 348 ;
349 [label="x[70] <= 198291.188\ngini = 0.49\nsamples = 4\nvalue = [4, 3]"] ;
348 -> 349 ;
350 [label="gini = 0.5\nsamples = 2\nvalue = [2, 2]"] ;
349 -> 350 ;
351 [label="gini = 0.444\nsamples = 2\nvalue = [2, 1]"] ;
349 -> 351 ;
352 [label="x[71] <= 198392.508\ngini = 0.375\nsamples = 3\nvalue = [1, 3]"] ;
348 -> 352 ;
353 [label="gini = 0.0\nsamples = 1\nvalue = [0, 1]"] ;
352 -> 353 ;
354 [label="gini = 0.444\nsamples = 2\nvalue = [1, 2]"] ;
352 -> 354 ;
355 [label="x[48] <= 88993.547\ngini = 0.334\nsamples = 178\nvalue = [62, 231]"] ;
343 -> 355 ;
356 [label="x[42] <= 99.063\ngini = 0.302\nsamples = 152\nvalue = [47, 207]"] ;
355 -> 356 ;
357 [label="x[46] <= 35584.768\ngini = 0.266\nsamples = 137\nvalue = [35, 187]"] ;
356 -> 357 ;
358 [label="gini = 0.0\nsamples = 15\nvalue = [0, 27]"] ;
357 -> 358 ;
359 [label="x[54] <= 212528.586\ngini = 0.295\nsamples = 122\nvalue = [35, 160]"] ;
357 -> 359 ;
360 [label="x[50] <= 21754.443\ngini = 0.359\nsamples = 57\nvalue = [22, 72]"] ;
359 -> 360 ;
361 [label="x[9] <= 84.479\ngini = 0.236\nsamples = 24\nvalue = [6, 38]"] ;
360 -> 361 ;
362 [label="gini = 0.0\nsamples = 12\nvalue = [0, 25]"] ;
361 -> 362 ;
363 [label="x[51] <= 23956.24\ngini = 0.432\nsamples = 12\nvalue = [6, 13]"] ;
361 -> 363 ;
364 [label="x[48] <= 69496.988\ngini = 0.497\nsamples = 9\nvalue = [6, 7]"] ;
363 -> 364 ;
365 [label="gini = 0.444\nsamples = 2\nvalue = [2, 1]"] ;
364 -> 365 ;
366 [label="x[49] <= 170541.047\ngini = 0.48\nsamples = 7\nvalue = [4, 6]"] ;
364 -> 366 ;
367 [label="x[60] <= 771.0\ngini = 0.5\nsamples = 5\nvalue = [4, 4]"] ;
366 -> 367 ;
368 [label="x[29] <= 769.5\ngini = 0.49\nsamples = 4\nvalue = [3, 4]"] ;
367 -> 368 ;
369 [label="gini = 0.5\nsamples = 2\nvalue = [1, 1]"] ;
368 -> 369 ;
370 [label="gini = 0.48\nsamples = 2\nvalue = [2, 3]"] ;
368 -> 370 ;
371 [label="gini = 0.0\nsamples = 1\nvalue = [1, 0]"] ;
367 -> 371 ;
372 [label="gini = 0.0\nsamples = 2\nvalue = [0, 2]"] ;
366 -> 372 ;
373 [label="gini = 0.0\nsamples = 3\nvalue = [0, 6]"] ;
363 -> 373 ;
374 [label="x[51] <= 25906.66\ngini = 0.435\nsamples = 33\nvalue = [16, 34]"] ;
360 -> 374 ;
375 [label="x[42] <= 37.551\ngini = 0.484\nsamples = 25\nvalue = [16, 23]"] ;
374 -> 375 ;
376 [label="gini = 0.0\nsamples = 5\nvalue = [0, 8]"] ;
375 -> 376 ;
377 [label="x[47] <= 6.08\ngini = 0.499\nsamples = 20\nvalue = [16, 15]"] ;
375 -> 377 ;
378 [label="x[68] <= 206617.953\ngini = 0.298\nsamples = 7\nvalue = [9, 2]"] ;
377 -> 378 ;
379 [label="gini = 0.0\nsamples = 4\nvalue = [6, 0]"] ;
378 -> 379 ;
380 [label="x[51] <= 25488.978\ngini = 0.48\nsamples = 3\nvalue = [3, 2]"] ;
378 -> 380 ;
381 [label="gini = 0.0\nsamples = 2\nvalue = [0, 2]"] ;
380 -> 381 ;
382 [label="gini = 0.0\nsamples = 1\nvalue = [3, 0]"] ;
380 -> 382 ;
383 [label="x[8] <= 42.754\ngini = 0.455\nsamples = 13\nvalue = [7, 13]"] ;
377 -> 383 ;
384 [label="gini = 0.0\nsamples = 2\nvalue = [3, 0]"] ;
383 -> 384 ;
385 [label="x[2] <= 0.206\ngini = 0.36\nsamples = 11\nvalue = [4, 13]"] ;
383 -> 385 ;
386 [label="gini = 0.0\nsamples = 1\nvalue = [2, 0]"] ;
385 -> 386 ;
387 [label="x[49] <= 176983.117\ngini = 0.231\nsamples = 10\nvalue = [2, 13]"] ;
385 -> 387 ;
388 [label="gini = 0.5\nsamples = 2\nvalue = [1, 1]"] ;
387 -> 388 ;
389 [label="x[57] <= 23372.513\ngini = 0.142\nsamples = 8\nvalue = [1, 12]"] ;
387 -> 389 ;
390 [label="x[50] <= 22387.893\ngini = 0.245\nsamples = 4\nvalue = [1, 6]"] ;
389 -> 390 ;
391 [label="gini = 0.32\nsamples = 2\nvalue = [1, 4]"] ;
390 -> 391 ;
392 [label="gini = 0.0\nsamples = 2\nvalue = [0, 2]"] ;
390 -> 392 ;
393 [label="gini = 0.0\nsamples = 4\nvalue = [0, 6]"] ;
389 -> 393 ;
394 [label="gini = 0.0\nsamples = 8\nvalue = [0, 11]"] ;
374 -> 394 ;
395 [label="x[70] <= 222270.609\ngini = 0.224\nsamples = 65\nvalue = [13, 88]"] ;
359 -> 395 ;
396 [label="x[49] <= 186037.062\ngini = 0.174\nsamples = 53\nvalue = [8, 75]"] ;
395 -> 396 ;
397 [label="gini = 0.0\nsamples = 17\nvalue = [0, 27]"] ;
396 -> 397 ;
398 [label="x[69] <= 217884.422\ngini = 0.245\nsamples = 36\nvalue = [8, 48]"] ;
396 -> 398 ;
399 [label="x[54] <= 217690.945\ngini = 0.401\nsamples = 12\nvalue = [5, 13]"] ;
398 -> 399 ;
400 [label="x[49] <= 186894.055\ngini = 0.305\nsamples = 11\nvalue = [3, 13]"] ;
399 -> 400 ;
401 [label="x[52] <= 4.53\ngini = 0.5\nsamples = 4\nvalue = [2, 2]"] ;
400 -> 401 ;
402 [label="gini = 0.0\nsamples = 1\nvalue = [1, 0]"] ;
401 -> 402 ;
403 [label="x[46] <= 39417.418\ngini = 0.444\nsamples = 3\nvalue = [1, 2]"] ;
401 -> 403 ;
404 [label="gini = 0.5\nsamples = 2\nvalue = [1, 1]"] ;
403 -> 404 ;
405 [label="gini = 0.0\nsamples = 1\nvalue = [0, 1]"] ;
403 -> 405 ;
406 [label="x[30] <= 96.0\ngini = 0.153\nsamples = 7\nvalue = [1, 11]"] ;
400 -> 406 ;
407 [label="x[48] <= 81534.504\ngini = 0.278\nsamples = 4\nvalue = [1, 5]"] ;
406 -> 407 ;
408 [label="gini = 0.444\nsamples = 2\nvalue = [1, 2]"] ;
407 -> 408 ;
409 [label="gini = 0.0\nsamples = 2\nvalue = [0, 3]"] ;
407 -> 409 ;
410 [label="gini = 0.0\nsamples = 3\nvalue = [0, 6]"] ;
406 -> 410 ;
411 [label="gini = 0.0\nsamples = 1\nvalue = [2, 0]"] ;
399 -> 411 ;
412 [label="x[47] <= 23.127\ngini = 0.145\nsamples = 24\nvalue = [3, 35]"] ;
398 -> 412 ;
413 [label="x[30] <= 95.938\ngini = 0.111\nsamples = 21\nvalue = [2, 32]"] ;
412 -> 413 ;
414 [label="x[2] <= 0.221\ngini = 0.444\nsamples = 3\nvalue = [1, 2]"] ;
413 -> 414 ;
415 [label="gini = 0.5\nsamples = 2\nvalue = [1, 1]"] ;
414 -> 415 ;
416 [label="gini = 0.0\nsamples = 1\nvalue = [0, 1]"] ;
414 -> 416 ;
417 [label="x[48] <= 88019.016\ngini = 0.062\nsamples = 18\nvalue = [1, 30]"] ;
413 -> 417 ;
418 [label="gini = 0.0\nsamples = 14\nvalue = [0, 25]"] ;
417 -> 418 ;
419 [label="x[47] <= 4.053\ngini = 0.278\nsamples = 4\nvalue = [1, 5]"] ;
417 -> 419 ;
420 [label="gini = 0.375\nsamples = 2\nvalue = [1, 3]"] ;
419 -> 420 ;
421 [label="gini = 0.0\nsamples = 2\nvalue = [0, 2]"] ;
419 -> 421 ;
422 [label="x[71] <= 219007.609\ngini = 0.375\nsamples = 3\nvalue = [1, 3]"] ;
412 -> 422 ;
423 [label="gini = 0.5\nsamples = 2\nvalue = [1, 1]"] ;
422 -> 423 ;
424 [label="gini = 0.0\nsamples = 1\nvalue = [0, 2]"] ;
422 -> 424 ;
425 [label="x[50] <= 24125.248\ngini = 0.401\nsamples = 12\nvalue = [5, 13]"] ;
395 -> 425 ;
426 [label="x[41] <= 710.761\ngini = 0.375\nsamples = 3\nvalue = [3, 1]"] ;
425 -> 426 ;
427 [label="gini = 0.0\nsamples = 1\nvalue = [0, 1]"] ;
426 -> 427 ;
428 [label="gini = 0.0\nsamples = 2\nvalue = [3, 0]"] ;
426 -> 428 ;
429 [label="x[7] <= 35.755\ngini = 0.245\nsamples = 9\nvalue = [2, 12]"] ;
425 -> 429 ;
430 [label="x[69] <= 224039.555\ngini = 0.408\nsamples = 5\nvalue = [2, 5]"] ;
429 -> 430 ;
431 [label="gini = 0.444\nsamples = 2\nvalue = [2, 1]"] ;
430 -> 431 ;
432 [label="gini = 0.0\nsamples = 3\nvalue = [0, 4]"] ;
430 -> 432 ;
433 [label="gini = 0.0\nsamples = 4\nvalue = [0, 7]"] ;
429 -> 433 ;
434 [label="x[52] <= 8.464\ngini = 0.469\nsamples = 15\nvalue = [12, 20]"] ;
356 -> 434 ;
435 [label="x[52] <= 4.411\ngini = 0.417\nsamples = 10\nvalue = [8, 19]"] ;
434 -> 435 ;
436 [label="gini = 0.0\nsamples = 1\nvalue = [2, 0]"] ;
435 -> 436 ;
437 [label="x[68] <= 207555.414\ngini = 0.365\nsamples = 9\nvalue = [6, 19]"] ;
435 -> 437 ;
438 [label="x[8] <= 44.443\ngini = 0.375\nsamples = 3\nvalue = [3, 1]"] ;
437 -> 438 ;
439 [label="gini = 0.444\nsamples = 2\nvalue = [2, 1]"] ;
438 -> 439 ;
440 [label="gini = 0.0\nsamples = 1\nvalue = [1, 0]"] ;
438 -> 440 ;
441 [label="x[54] <= 216608.523\ngini = 0.245\nsamples = 6\nvalue = [3, 18]"] ;
437 -> 441 ;
442 [label="gini = 0.0\nsamples = 3\nvalue = [0, 10]"] ;
441 -> 442 ;
443 [label="x[50] <= 23899.317\ngini = 0.397\nsamples = 3\nvalue = [3, 8]"] ;
441 -> 443 ;
444 [label="gini = 0.5\nsamples = 2\nvalue = [3, 3]"] ;
443 -> 444 ;
445 [label="gini = 0.0\nsamples = 1\nvalue = [0, 5]"] ;
443 -> 445 ;
446 [label="x[42] <= 142.574\ngini = 0.32\nsamples = 5\nvalue = [4, 1]"] ;
434 -> 446 ;
447 [label="gini = 0.5\nsamples = 2\nvalue = [1, 1]"] ;
446 -> 447 ;
448 [label="gini = 0.0\nsamples = 3\nvalue = [3, 0]"] ;
446 -> 448 ;
449 [label="x[42] <= 48.399\ngini = 0.473\nsamples = 26\nvalue = [15, 24]"] ;
355 -> 449 ;
450 [label="x[40] <= 287.235\ngini = 0.5\nsamples = 16\nvalue = [11, 11]"] ;
449 -> 450 ;
451 [label="x[56] <= 23853.549\ngini = 0.48\nsamples = 12\nvalue = [6, 9]"] ;
450 -> 451 ;
452 [label="x[46] <= 42456.555\ngini = 0.278\nsamples = 5\nvalue = [1, 5]"] ;
451 -> 452 ;
453 [label="x[50] <= 24097.309\ngini = 0.5\nsamples = 2\nvalue = [1, 1]"] ;
452 -> 453 ;
454 [label="gini = 0.0\nsamples = 1\nvalue = [0, 1]"] ;
453 -> 454 ;
455 [label="gini = 0.0\nsamples = 1\nvalue = [1, 0]"] ;
453 -> 455 ;
456 [label="gini = 0.0\nsamples = 3\nvalue = [0, 4]"] ;
452 -> 456 ;
457 [label="x[46] <= 43846.391\ngini = 0.494\nsamples = 7\nvalue = [5, 4]"] ;
451 -> 457 ;
458 [label="gini = 0.0\nsamples = 2\nvalue = [3, 0]"] ;
457 -> 458 ;
459 [label="x[48] <= 93775.512\ngini = 0.444\nsamples = 5\nvalue = [2, 4]"] ;
457 -> 459 ;
460 [label="gini = 0.0\nsamples = 1\nvalue = [0, 2]"] ;
459 -> 460 ;
461 [label="x[44] <= 224202.984\ngini = 0.5\nsamples = 4\nvalue = [2, 2]"] ;
459 -> 461 ;
462 [label="gini = 0.5\nsamples = 2\nvalue = [1, 1]"] ;
461 -> 462 ;
463 [label="gini = 0.5\nsamples = 2\nvalue = [1, 1]"] ;
461 -> 463 ;
464 [label="x[56] <= 23779.018\ngini = 0.408\nsamples = 4\nvalue = [5, 2]"] ;
450 -> 464 ;
465 [label="gini = 0.0\nsamples = 2\nvalue = [2, 0]"] ;
464 -> 465 ;
466 [label="gini = 0.48\nsamples = 2\nvalue = [3, 2]"] ;
464 -> 466 ;
467 [label="x[49] <= 189522.5\ngini = 0.36\nsamples = 10\nvalue = [4, 13]"] ;
449 -> 467 ;
468 [label="gini = 0.0\nsamples = 2\nvalue = [4, 0]"] ;
467 -> 468 ;
469 [label="gini = 0.0\nsamples = 8\nvalue = [0, 13]"] ;
467 -> 469 ;
470 [label="x[51] <= 31006.799\ngini = 0.5\nsamples = 26\nvalue = [19, 18]"] ;
218 -> 470 ;
471 [label="x[46] <= 43401.979\ngini = 0.491\nsamples = 22\nvalue = [13, 17]"] ;
470 -> 471 ;
472 [label="x[41] <= 710.702\ngini = 0.491\nsamples = 16\nvalue = [13, 10]"] ;
471 -> 472 ;
473 [label="gini = 0.0\nsamples = 2\nvalue = [0, 3]"] ;
472 -> 473 ;
474 [label="x[68] <= 224840.516\ngini = 0.455\nsamples = 14\nvalue = [13, 7]"] ;
472 -> 474 ;
475 [label="gini = 0.0\nsamples = 1\nvalue = [3, 0]"] ;
474 -> 475 ;
476 [label="x[49] <= 195649.977\ngini = 0.484\nsamples = 13\nvalue = [10, 7]"] ;
474 -> 476 ;
477 [label="x[49] <= 195099.945\ngini = 0.444\nsamples = 6\nvalue = [3, 6]"] ;
476 -> 477 ;
478 [label="x[8] <= 40.014\ngini = 0.49\nsamples = 5\nvalue = [3, 4]"] ;
477 -> 478 ;
479 [label="x[44] <= 225571.039\ngini = 0.444\nsamples = 3\nvalue = [1, 2]"] ;
478 -> 479 ;
480 [label="gini = 0.0\nsamples = 1\nvalue = [0, 1]"] ;
479 -> 480 ;
481 [label="gini = 0.5\nsamples = 2\nvalue = [1, 1]"] ;
479 -> 481 ;
482 [label="gini = 0.5\nsamples = 2\nvalue = [2, 2]"] ;
478 -> 482 ;
483 [label="gini = 0.0\nsamples = 1\nvalue = [0, 2]"] ;
477 -> 483 ;
484 [label="x[50] <= 24627.373\ngini = 0.219\nsamples = 7\nvalue = [7, 1]"] ;
476 -> 484 ;
485 [label="gini = 0.0\nsamples = 5\nvalue = [6, 0]"] ;
484 -> 485 ;
486 [label="gini = 0.5\nsamples = 2\nvalue = [1, 1]"] ;
484 -> 486 ;
487 [label="gini = 0.0\nsamples = 6\nvalue = [0, 7]"] ;
471 -> 487 ;
488 [label="x[43] <= 124526.5\ngini = 0.245\nsamples = 4\nvalue = [6, 1]"] ;
470 -> 488 ;
489 [label="gini = 0.375\nsamples = 2\nvalue = [3, 1]"] ;
488 -> 489 ;
490 [label="gini = 0.0\nsamples = 2\nvalue = [3, 0]"] ;
488 -> 490 ;
491 [label="x[71] <= 227542.641\ngini = 0.355\nsamples = 374\nvalue = [135, 451]"] ;
217 -> 491 ;
492 [label="x[2] <= 0.227\ngini = 0.113\nsamples = 29\nvalue = [3, 47]"] ;
491 -> 492 ;
493 [label="x[68] <= 227159.383\ngini = 0.161\nsamples = 21\nvalue = [3, 31]"] ;
492 -> 493 ;
494 [label="x[55] <= 14150.277\ngini = 0.071\nsamples = 16\nvalue = [1, 26]"] ;
493 -> 494 ;
495 [label="x[68] <= 226345.422\ngini = 0.245\nsamples = 5\nvalue = [1, 6]"] ;
494 -> 495 ;
496 [label="gini = 0.0\nsamples = 4\nvalue = [0, 6]"] ;
495 -> 496 ;
497 [label="gini = 0.0\nsamples = 1\nvalue = [1, 0]"] ;
495 -> 497 ;
498 [label="gini = 0.0\nsamples = 11\nvalue = [0, 20]"] ;
494 -> 498 ;
499 [label="x[7] <= 35.209\ngini = 0.408\nsamples = 5\nvalue = [2, 5]"] ;
493 -> 499 ;
500 [label="x[56] <= 24516.032\ngini = 0.32\nsamples = 3\nvalue = [1, 4]"] ;
499 -> 500 ;
501 [label="gini = 0.0\nsamples = 1\nvalue = [0, 1]"] ;
500 -> 501 ;
502 [label="gini = 0.375\nsamples = 2\nvalue = [1, 3]"] ;
500 -> 502 ;
503 [label="gini = 0.5\nsamples = 2\nvalue = [1, 1]"] ;
499 -> 503 ;
504 [label="gini = 0.0\nsamples = 8\nvalue = [0, 16]"] ;
492 -> 504 ;
505 [label="x[0] <= 47752.0\ngini = 0.371\nsamples = 345\nvalue = [132, 404]"] ;
491 -> 505 ;
506 [label="x[57] <= 21423.577\ngini = 0.437\nsamples = 171\nvalue = [83, 174]"] ;
505 -> 506 ;
507 [label="x[30] <= 95.812\ngini = 0.41\nsamples = 159\nvalue = [69, 171]"] ;
506 -> 507 ;
508 [label="x[50] <= 25573.0\ngini = 0.184\nsamples = 22\nvalue = [4, 35]"] ;
507 -> 508 ;
509 [label="x[51] <= 30654.152\ngini = 0.375\nsamples = 10\nvalue = [4, 12]"] ;
508 -> 509 ;
510 [label="x[47] <= 6.557\ngini = 0.5\nsamples = 5\nvalue = [4, 4]"] ;
509 -> 510 ;
511 [label="gini = 0.0\nsamples = 2\nvalue = [2, 0]"] ;
510 -> 511 ;
512 [label="x[7] <= 34.624\ngini = 0.444\nsamples = 3\nvalue = [2, 4]"] ;
510 -> 512 ;
513 [label="gini = 0.5\nsamples = 2\nvalue = [2, 2]"] ;
512 -> 513 ;
514 [label="gini = 0.0\nsamples = 1\nvalue = [0, 2]"] ;
512 -> 514 ;
515 [label="gini = 0.0\nsamples = 5\nvalue = [0, 8]"] ;
509 -> 515 ;
516 [label="gini = 0.0\nsamples = 12\nvalue = [0, 23]"] ;
508 -> 516 ;
517 [label="x[40] <= 287.029\ngini = 0.438\nsamples = 137\nvalue = [65, 136]"] ;
507 -> 517 ;
518 [label="x[51] <= 31014.492\ngini = 0.473\nsamples = 16\nvalue = [16, 10]"] ;
517 -> 518 ;
519 [label="x[49] <= 203602.906\ngini = 0.375\nsamples = 3\nvalue = [1, 3]"] ;
518 -> 519 ;
520 [label="gini = 0.0\nsamples = 2\nvalue = [0, 3]"] ;
519 -> 520 ;
521 [label="gini = 0.0\nsamples = 1\nvalue = [1, 0]"] ;
519 -> 521 ;
522 [label="x[71] <= 241256.469\ngini = 0.434\nsamples = 13\nvalue = [15, 7]"] ;
518 -> 522 ;
523 [label="x[44] <= 233665.344\ngini = 0.375\nsamples = 12\nvalue = [15, 5]"] ;
522 -> 523 ;
524 [label="x[49] <= 202534.078\ngini = 0.375\nsamples = 4\nvalue = [1, 3]"] ;
523 -> 524 ;
525 [label="gini = 0.5\nsamples = 2\nvalue = [1, 1]"] ;
524 -> 525 ;
526 [label="gini = 0.0\nsamples = 2\nvalue = [0, 2]"] ;
524 -> 526 ;
527 [label="x[45] <= 34162.793\ngini = 0.219\nsamples = 8\nvalue = [14, 2]"] ;
523 -> 527 ;
528 [label="gini = 0.0\nsamples = 3\nvalue = [10, 0]"] ;
527 -> 528 ;
529 [label="x[54] <= 240460.508\ngini = 0.444\nsamples = 5\nvalue = [4, 2]"] ;
527 -> 529 ;
530 [label="x[50] <= 26248.634\ngini = 0.48\nsamples = 4\nvalue = [3, 2]"] ;
529 -> 530 ;
531 [label="gini = 0.444\nsamples = 2\nvalue = [2, 1]"] ;
530 -> 531 ;
532 [label="gini = 0.5\nsamples = 2\nvalue = [1, 1]"] ;
530 -> 532 ;
533 [label="gini = 0.0\nsamples = 1\nvalue = [1, 0]"] ;
529 -> 533 ;
534 [label="gini = 0.0\nsamples = 1\nvalue = [0, 2]"] ;
522 -> 534 ;
535 [label="x[0] <= 45883.0\ngini = 0.403\nsamples = 121\nvalue = [49, 126]"] ;
517 -> 535 ;
536 [label="x[56] <= 26515.166\ngini = 0.33\nsamples = 105\nvalue = [31, 118]"] ;
535 -> 536 ;
537 [label="x[0] <= 36091.0\ngini = 0.293\nsamples = 99\nvalue = [25, 115]"] ;
536 -> 537 ;
538 [label="x[69] <= 231053.953\ngini = 0.493\nsamples = 22\nvalue = [15, 19]"] ;
537 -> 538 ;
539 [label="gini = 0.0\nsamples = 3\nvalue = [6, 0]"] ;
538 -> 539 ;
540 [label="x[53] <= 102456.449\ngini = 0.436\nsamples = 19\nvalue = [9, 19]"] ;
538 -> 540 ;
541 [label="x[60] <= 774.5\ngini = 0.365\nsamples = 17\nvalue = [6, 19]"] ;
540 -> 541 ;
542 [label="x[69] <= 239513.523\ngini = 0.287\nsamples = 16\nvalue = [4, 19]"] ;
541 -> 542 ;
543 [label="x[52] <= 8.583\ngini = 0.18\nsamples = 14\nvalue = [2, 18]"] ;
542 -> 543 ;
544 [label="x[52] <= 3.934\ngini = 0.111\nsamples = 12\nvalue = [1, 16]"] ;
543 -> 544 ;
545 [label="x[31] <= 180.98\ngini = 0.375\nsamples = 3\nvalue = [1, 3]"] ;
544 -> 545 ;
546 [label="gini = 0.0\nsamples = 1\nvalue = [0, 1]"] ;
545 -> 546 ;
547 [label="gini = 0.444\nsamples = 2\nvalue = [1, 2]"] ;
545 -> 547 ;
548 [label="gini = 0.0\nsamples = 9\nvalue = [0, 13]"] ;
544 -> 548 ;
549 [label="gini = 0.444\nsamples = 2\nvalue = [1, 2]"] ;
543 -> 549 ;
550 [label="x[68] <= 240396.023\ngini = 0.444\nsamples = 2\nvalue = [2, 1]"] ;
542 -> 550 ;
551 [label="gini = 0.0\nsamples = 1\nvalue = [2, 0]"] ;
550 -> 551 ;
552 [label="gini = 0.0\nsamples = 1\nvalue = [0, 1]"] ;
550 -> 552 ;
553 [label="gini = 0.0\nsamples = 1\nvalue = [2, 0]"] ;
541 -> 553 ;
554 [label="gini = 0.0\nsamples = 2\nvalue = [3, 0]"] ;
540 -> 554 ;
555 [label="x[57] <= 20433.156\ngini = 0.171\nsamples = 77\nvalue = [10, 96]"] ;
537 -> 555 ;
556 [label="x[49] <= 210037.477\ngini = 0.408\nsamples = 12\nvalue = [4, 10]"] ;
555 -> 556 ;
557 [label="x[47] <= 12.04\ngini = 0.5\nsamples = 7\nvalue = [4, 4]"] ;
556 -> 557 ;
558 [label="x[43] <= 121770.023\ngini = 0.49\nsamples = 6\nvalue = [4, 3]"] ;
557 -> 558 ;
559 [label="gini = 0.0\nsamples = 1\nvalue = [0, 1]"] ;
558 -> 559 ;
560 [label="x[71] <= 239023.086\ngini = 0.444\nsamples = 5\nvalue = [4, 2]"] ;
558 -> 560 ;
561 [label="gini = 0.0\nsamples = 1\nvalue = [1, 0]"] ;
560 -> 561 ;
562 [label="x[60] <= 771.0\ngini = 0.48\nsamples = 4\nvalue = [3, 2]"] ;
560 -> 562 ;
563 [label="gini = 0.444\nsamples = 2\nvalue = [2, 1]"] ;
562 -> 563 ;
564 [label="gini = 0.5\nsamples = 2\nvalue = [1, 1]"] ;
562 -> 564 ;
565 [label="gini = 0.0\nsamples = 1\nvalue = [0, 1]"] ;
557 -> 565 ;
566 [label="gini = 0.0\nsamples = 5\nvalue = [0, 6]"] ;
556 -> 566 ;
567 [label="x[8] <= 38.772\ngini = 0.122\nsamples = 65\nvalue = [6, 86]"] ;
555 -> 567 ;
568 [label="x[54] <= 232259.516\ngini = 0.201\nsamples = 38\nvalue = [6, 47]"] ;
567 -> 568 ;
569 [label="gini = 0.375\nsamples = 2\nvalue = [3, 1]"] ;
568 -> 569 ;
570 [label="x[52] <= 6.08\ngini = 0.115\nsamples = 36\nvalue = [3, 46]"] ;
568 -> 570 ;
571 [label="x[55] <= 14611.401\ngini = 0.18\nsamples = 21\nvalue = [3, 27]"] ;
570 -> 571 ;
572 [label="x[8] <= 38.557\ngini = 0.42\nsamples = 7\nvalue = [3, 7]"] ;
571 -> 572 ;
573 [label="x[57] <= 20903.677\ngini = 0.48\nsamples = 3\nvalue = [3, 2]"] ;
572 -> 573 ;
574 [label="gini = 0.0\nsamples = 1\nvalue = [1, 0]"] ;
573 -> 574 ;
575 [label="gini = 0.5\nsamples = 2\nvalue = [2, 2]"] ;
573 -> 575 ;
576 [label="gini = 0.0\nsamples = 4\nvalue = [0, 5]"] ;
572 -> 576 ;
577 [label="gini = 0.0\nsamples = 14\nvalue = [0, 20]"] ;
571 -> 577 ;
578 [label="gini = 0.0\nsamples = 15\nvalue = [0, 19]"] ;
570 -> 578 ;
579 [label="gini = 0.0\nsamples = 27\nvalue = [0, 39]"] ;
567 -> 579 ;
580 [label="x[8] <= 38.529\ngini = 0.444\nsamples = 6\nvalue = [6, 3]"] ;
536 -> 580 ;
581 [label="x[50] <= 26447.937\ngini = 0.375\nsamples = 5\nvalue = [6, 2]"] ;
580 -> 581 ;
582 [label="x[31] <= 181.011\ngini = 0.278\nsamples = 3\nvalue = [5, 1]"] ;
581 -> 582 ;
583 [label="gini = 0.32\nsamples = 2\nvalue = [4, 1]"] ;
582 -> 583 ;
584 [label="gini = 0.0\nsamples = 1\nvalue = [1, 0]"] ;
582 -> 584 ;
585 [label="gini = 0.5\nsamples = 2\nvalue = [1, 1]"] ;
581 -> 585 ;
586 [label="gini = 0.0\nsamples = 1\nvalue = [0, 1]"] ;
580 -> 586 ;
587 [label="x[53] <= 89485.883\ngini = 0.426\nsamples = 16\nvalue = [18, 8]"] ;
535 -> 587 ;
588 [label="gini = 0.0\nsamples = 2\nvalue = [4, 0]"] ;
587 -> 588 ;
589 [label="x[29] <= 776.0\ngini = 0.463\nsamples = 14\nvalue = [14, 8]"] ;
587 -> 589 ;
590 [label="x[39] <= 4883.0\ngini = 0.472\nsamples = 13\nvalue = [13, 8]"] ;
589 -> 590 ;
591 [label="x[54] <= 232573.031\ngini = 0.486\nsamples = 8\nvalue = [7, 5]"] ;
590 -> 591 ;
592 [label="gini = 0.0\nsamples = 1\nvalue = [1, 0]"] ;
591 -> 592 ;
593 [label="x[45] <= 33317.498\ngini = 0.496\nsamples = 7\nvalue = [6, 5]"] ;
591 -> 593 ;
594 [label="gini = 0.48\nsamples = 2\nvalue = [3, 2]"] ;
593 -> 594 ;
595 [label="x[41] <= 710.766\ngini = 0.5\nsamples = 5\nvalue = [3, 3]"] ;
593 -> 595 ;
596 [label="gini = 0.5\nsamples = 2\nvalue = [1, 1]"] ;
595 -> 596 ;
597 [label="x[57] <= 20752.127\ngini = 0.5\nsamples = 3\nvalue = [2, 2]"] ;
595 -> 597 ;
598 [label="gini = 0.444\nsamples = 2\nvalue = [2, 1]"] ;
597 -> 598 ;
599 [label="gini = 0.0\nsamples = 1\nvalue = [0, 1]"] ;
597 -> 599 ;
600 [label="x[51] <= 31344.943\ngini = 0.444\nsamples = 5\nvalue = [6, 3]"] ;
590 -> 600 ;
601 [label="x[46] <= 43934.898\ngini = 0.469\nsamples = 4\nvalue = [5, 3]"] ;
600 -> 601 ;
602 [label="gini = 0.48\nsamples = 2\nvalue = [3, 2]"] ;
601 -> 602 ;
603 [label="gini = 0.444\nsamples = 2\nvalue = [2, 1]"] ;
601 -> 603 ;
604 [label="gini = 0.0\nsamples = 1\nvalue = [1, 0]"] ;
600 -> 604 ;
605 [label="gini = 0.0\nsamples = 1\nvalue = [1, 0]"] ;
589 -> 605 ;
606 [label="x[68] <= 230999.352\ngini = 0.291\nsamples = 12\nvalue = [14, 3]"] ;
506 -> 606 ;
607 [label="x[40] <= 287.088\ngini = 0.219\nsamples = 11\nvalue = [14, 2]"] ;
606 -> 607 ;
608 [label="x[41] <= 710.777\ngini = 0.444\nsamples = 3\nvalue = [2, 1]"] ;
607 -> 608 ;
609 [label="x[71] <= 227666.969\ngini = 0.5\nsamples = 2\nvalue = [1, 1]"] ;
608 -> 609 ;
610 [label="gini = 0.0\nsamples = 1\nvalue = [0, 1]"] ;
609 -> 610 ;
611 [label="gini = 0.0\nsamples = 1\nvalue = [1, 0]"] ;
609 -> 611 ;
612 [label="gini = 0.0\nsamples = 1\nvalue = [1, 0]"] ;
608 -> 612 ;
613 [label="x[40] <= 290.176\ngini = 0.142\nsamples = 8\nvalue = [12, 1]"] ;
607 -> 613 ;
614 [label="gini = 0.0\nsamples = 6\nvalue = [8, 0]"] ;
613 -> 614 ;
615 [label="gini = 0.32\nsamples = 2\nvalue = [4, 1]"] ;
613 -> 615 ;
616 [label="gini = 0.0\nsamples = 1\nvalue = [0, 1]"] ;
606 -> 616 ;
617 [label="x[0] <= 59024.0\ngini = 0.29\nsamples = 174\nvalue = [49, 230]"] ;
505 -> 617 ;
618 [label="x[31] <= 180.691\ngini = 0.255\nsamples = 150\nvalue = [36, 204]"] ;
617 -> 618 ;
619 [label="x[42] <= 26.941\ngini = 0.498\nsamples = 8\nvalue = [7, 8]"] ;
618 -> 619 ;
620 [label="gini = 0.0\nsamples = 1\nvalue = [2, 0]"] ;
619 -> 620 ;
621 [label="x[45] <= 33302.068\ngini = 0.473\nsamples = 7\nvalue = [5, 8]"] ;
619 -> 621 ;
622 [label="gini = 0.375\nsamples = 2\nvalue = [3, 1]"] ;
621 -> 622 ;
623 [label="x[49] <= 204255.102\ngini = 0.346\nsamples = 5\nvalue = [2, 7]"] ;
621 -> 623 ;
624 [label="gini = 0.5\nsamples = 2\nvalue = [1, 1]"] ;
623 -> 624 ;
625 [label="x[53] <= 102584.004\ngini = 0.245\nsamples = 3\nvalue = [1, 6]"] ;
623 -> 625 ;
626 [label="gini = 0.278\nsamples = 2\nvalue = [1, 5]"] ;
625 -> 626 ;
627 [label="gini = 0.0\nsamples = 1\nvalue = [0, 1]"] ;
625 -> 627 ;
628 [label="x[29] <= 767.5\ngini = 0.225\nsamples = 142\nvalue = [29, 196]"] ;
618 -> 628 ;
629 [label="gini = 0.0\nsamples = 18\nvalue = [0, 31]"] ;
628 -> 629 ;
630 [label="x[70] <= 231367.469\ngini = 0.254\nsamples = 124\nvalue = [29, 165]"] ;
628 -> 630 ;
631 [label="x[69] <= 231217.984\ngini = 0.367\nsamples = 36\nvalue = [15, 47]"] ;
630 -> 631 ;
632 [label="x[7] <= 34.694\ngini = 0.324\nsamples = 34\nvalue = [12, 47]"] ;
631 -> 632 ;
633 [label="gini = 0.0\nsamples = 5\nvalue = [0, 10]"] ;
632 -> 633 ;
634 [label="x[46] <= 43240.951\ngini = 0.37\nsamples = 29\nvalue = [12, 37]"] ;
632 -> 634 ;
635 [label="gini = 0.0\nsamples = 9\nvalue = [0, 17]"] ;
634 -> 635 ;
636 [label="x[51] <= 30145.012\ngini = 0.469\nsamples = 20\nvalue = [12, 20]"] ;
634 -> 636 ;
637 [label="gini = 0.0\nsamples = 2\nvalue = [2, 0]"] ;
636 -> 637 ;
638 [label="x[46] <= 43562.787\ngini = 0.444\nsamples = 18\nvalue = [10, 20]"] ;
636 -> 638 ;
639 [label="gini = 0.375\nsamples = 2\nvalue = [3, 1]"] ;
638 -> 639 ;
640 [label="x[43] <= 125872.016\ngini = 0.393\nsamples = 16\nvalue = [7, 19]"] ;
638 -> 640 ;
641 [label="x[43] <= 122063.516\ngini = 0.153\nsamples = 8\nvalue = [1, 11]"] ;
640 -> 641 ;
642 [label="gini = 0.375\nsamples = 2\nvalue = [1, 3]"] ;
641 -> 642 ;
643 [label="gini = 0.0\nsamples = 6\nvalue = [0, 8]"] ;
641 -> 643 ;
644 [label="x[68] <= 228312.016\ngini = 0.49\nsamples = 8\nvalue = [6, 8]"] ;
640 -> 644 ;
645 [label="gini = 0.0\nsamples = 1\nvalue = [0, 2]"] ;
644 -> 645 ;
646 [label="x[50] <= 25029.361\ngini = 0.5\nsamples = 7\nvalue = [6, 6]"] ;
644 -> 646 ;
647 [label="gini = 0.0\nsamples = 2\nvalue = [2, 0]"] ;
646 -> 647 ;
648 [label="x[57] <= 21259.409\ngini = 0.48\nsamples = 5\nvalue = [4, 6]"] ;
646 -> 648 ;
649 [label="x[8] <= 39.068\ngini = 0.444\nsamples = 4\nvalue = [3, 6]"] ;
648 -> 649 ;
650 [label="gini = 0.5\nsamples = 2\nvalue = [3, 3]"] ;
649 -> 650 ;
651 [label="gini = 0.0\nsamples = 2\nvalue = [0, 3]"] ;
649 -> 651 ;
652 [label="gini = 0.0\nsamples = 1\nvalue = [1, 0]"] ;
648 -> 652 ;
653 [label="gini = 0.0\nsamples = 2\nvalue = [3, 0]"] ;
631 -> 653 ;
654 [label="x[34] <= 4112.5\ngini = 0.19\nsamples = 88\nvalue = [14, 118]"] ;
630 -> 654 ;
655 [label="x[48] <= 83012.461\ngini = 0.18\nsamples = 86\nvalue = [13, 117]"] ;
654 -> 655 ;
656 [label="gini = 0.5\nsamples = 2\nvalue = [1, 1]"] ;
655 -> 656 ;
657 [label="x[47] <= 8.464\ngini = 0.17\nsamples = 84\nvalue = [12, 116]"] ;
655 -> 657 ;
658 [label="x[47] <= 5.484\ngini = 0.206\nsamples = 69\nvalue = [12, 91]"] ;
657 -> 658 ;
659 [label="x[49] <= 206735.016\ngini = 0.093\nsamples = 27\nvalue = [2, 39]"] ;
658 -> 659 ;
660 [label="gini = 0.0\nsamples = 14\nvalue = [0, 23]"] ;
659 -> 660 ;
661 [label="x[47] <= 3.457\ngini = 0.198\nsamples = 13\nvalue = [2, 16]"] ;
659 -> 661 ;
662 [label="gini = 0.0\nsamples = 2\nvalue = [0, 4]"] ;
661 -> 662 ;
663 [label="x[46] <= 44291.299\ngini = 0.245\nsamples = 11\nvalue = [2, 12]"] ;
661 -> 663 ;
664 [label="gini = 0.0\nsamples = 1\nvalue = [1, 0]"] ;
663 -> 664 ;
665 [label="x[54] <= 237578.508\ngini = 0.142\nsamples = 10\nvalue = [1, 12]"] ;
663 -> 665 ;
666 [label="x[29] <= 770.5\ngini = 0.32\nsamples = 5\nvalue = [1, 4]"] ;
665 -> 666 ;
667 [label="x[9] <= 71.617\ngini = 0.444\nsamples = 3\nvalue = [1, 2]"] ;
666 -> 667 ;
668 [label="gini = 0.5\nsamples = 2\nvalue = [1, 1]"] ;
667 -> 668 ;
669 [label="gini = 0.0\nsamples = 1\nvalue = [0, 1]"] ;
667 -> 669 ;
670 [label="gini = 0.0\nsamples = 2\nvalue = [0, 2]"] ;
666 -> 670 ;
671 [label="gini = 0.0\nsamples = 5\nvalue = [0, 8]"] ;
665 -> 671 ;
672 [label="x[69] <= 232993.008\ngini = 0.271\nsamples = 42\nvalue = [10, 52]"] ;
658 -> 672 ;
673 [label="x[57] <= 20972.989\ngini = 0.346\nsamples = 10\nvalue = [4, 14]"] ;
672 -> 673 ;
674 [label="gini = 0.444\nsamples = 2\nvalue = [2, 1]"] ;
673 -> 674 ;
675 [label="x[40] <= 287.088\ngini = 0.231\nsamples = 8\nvalue = [2, 13]"] ;
673 -> 675 ;
676 [label="x[69] <= 232334.016\ngini = 0.408\nsamples = 4\nvalue = [2, 5]"] ;
675 -> 676 ;
677 [label="x[51] <= 31907.599\ngini = 0.48\nsamples = 3\nvalue = [2, 3]"] ;
676 -> 677 ;
678 [label="gini = 0.0\nsamples = 1\nvalue = [1, 0]"] ;
677 -> 678 ;
679 [label="gini = 0.375\nsamples = 2\nvalue = [1, 3]"] ;
677 -> 679 ;
680 [label="gini = 0.0\nsamples = 1\nvalue = [0, 2]"] ;
676 -> 680 ;
681 [label="gini = 0.0\nsamples = 4\nvalue = [0, 8]"] ;
675 -> 681 ;
682 [label="x[51] <= 33226.715\ngini = 0.236\nsamples = 32\nvalue = [6, 38]"] ;
672 -> 682 ;
683 [label="x[44] <= 236369.492\ngini = 0.157\nsamples = 25\nvalue = [3, 32]"] ;
682 -> 683 ;
684 [label="x[43] <= 125972.031\ngini = 0.236\nsamples = 15\nvalue = [3, 19]"] ;
683 -> 684 ;
685 [label="x[0] <= 53339.0\ngini = 0.337\nsamples = 10\nvalue = [3, 11]"] ;
684 -> 685 ;
686 [label="x[30] <= 96.438\ngini = 0.48\nsamples = 4\nvalue = [2, 3]"] ;
685 -> 686 ;
687 [label="gini = 0.5\nsamples = 2\nvalue = [1, 1]"] ;
686 -> 687 ;
688 [label="gini = 0.444\nsamples = 2\nvalue = [1, 2]"] ;
686 -> 688 ;
689 [label="x[2] <= 0.236\ngini = 0.198\nsamples = 6\nvalue = [1, 8]"] ;
685 -> 689 ;
690 [label="gini = 0.0\nsamples = 4\nvalue = [0, 5]"] ;
689 -> 690 ;
691 [label="gini = 0.375\nsamples = 2\nvalue = [1, 3]"] ;
689 -> 691 ;
692 [label="gini = 0.0\nsamples = 5\nvalue = [0, 8]"] ;
684 -> 692 ;
693 [label="gini = 0.0\nsamples = 10\nvalue = [0, 13]"] ;
683 -> 693 ;
694 [label="x[49] <= 208825.469\ngini = 0.444\nsamples = 7\nvalue = [3, 6]"] ;
682 -> 694 ;
695 [label="x[2] <= 0.237\ngini = 0.32\nsamples = 4\nvalue = [1, 4]"] ;
694 -> 695 ;
696 [label="gini = 0.444\nsamples = 2\nvalue = [1, 2]"] ;
695 -> 696 ;
697 [label="gini = 0.0\nsamples = 2\nvalue = [0, 2]"] ;
695 -> 697 ;
698 [label="x[7] <= 33.426\ngini = 0.5\nsamples = 3\nvalue = [2, 2]"] ;
694 -> 698 ;
699 [label="gini = 0.444\nsamples = 2\nvalue = [1, 2]"] ;
698 -> 699 ;
700 [label="gini = 0.0\nsamples = 1\nvalue = [1, 0]"] ;
698 -> 700 ;
701 [label="gini = 0.0\nsamples = 15\nvalue = [0, 25]"] ;
657 -> 701 ;
702 [label="gini = 0.5\nsamples = 2\nvalue = [1, 1]"] ;
654 -> 702 ;
703 [label="x[42] <= 35.882\ngini = 0.444\nsamples = 24\nvalue = [13, 26]"] ;
617 -> 703 ;
704 [label="x[55] <= 14347.971\ngini = 0.491\nsamples = 15\nvalue = [13, 10]"] ;
703 -> 704 ;
705 [label="x[9] <= 74.119\ngini = 0.346\nsamples = 5\nvalue = [2, 7]"] ;
704 -> 705 ;
706 [label="gini = 0.444\nsamples = 2\nvalue = [1, 2]"] ;
705 -> 706 ;
707 [label="x[48] <= 93471.883\ngini = 0.278\nsamples = 3\nvalue = [1, 5]"] ;
705 -> 707 ;
708 [label="gini = 0.32\nsamples = 2\nvalue = [1, 4]"] ;
707 -> 708 ;
709 [label="gini = 0.0\nsamples = 1\nvalue = [0, 1]"] ;
707 -> 709 ;
710 [label="x[43] <= 131501.434\ngini = 0.337\nsamples = 10\nvalue = [11, 3]"] ;
704 -> 710 ;
711 [label="x[41] <= 710.782\ngini = 0.26\nsamples = 9\nvalue = [11, 2]"] ;
710 -> 711 ;
712 [label="x[29] <= 772.5\ngini = 0.18\nsamples = 7\nvalue = [9, 1]"] ;
711 -> 712 ;
713 [label="gini = 0.0\nsamples = 4\nvalue = [6, 0]"] ;
712 -> 713 ;
714 [label="x[52] <= 6.437\ngini = 0.375\nsamples = 3\nvalue = [3, 1]"] ;
712 -> 714 ;
715 [label="gini = 0.5\nsamples = 2\nvalue = [1, 1]"] ;
714 -> 715 ;
716 [label="gini = 0.0\nsamples = 1\nvalue = [2, 0]"] ;
714 -> 716 ;
717 [label="x[55] <= 14816.47\ngini = 0.444\nsamples = 2\nvalue = [2, 1]"] ;
711 -> 717 ;
718 [label="gini = 0.0\nsamples = 1\nvalue = [2, 0]"] ;
717 -> 718 ;
719 [label="gini = 0.0\nsamples = 1\nvalue = [0, 1]"] ;
717 -> 719 ;
720 [label="gini = 0.0\nsamples = 1\nvalue = [0, 1]"] ;
710 -> 720 ;
721 [label="gini = 0.0\nsamples = 9\nvalue = [0, 16]"] ;
703 -> 721 ;
722 [label="x[45] <= 34537.434\ngini = 0.473\nsamples = 8\nvalue = [8, 5]"] ;
116 -> 722 ;
723 [label="x[49] <= 211548.445\ngini = 0.42\nsamples = 6\nvalue = [7, 3]"] ;
722 -> 723 ;
724 [label="x[57] <= 20195.943\ngini = 0.49\nsamples = 4\nvalue = [4, 3]"] ;
723 -> 724 ;
725 [label="gini = 0.444\nsamples = 2\nvalue = [2, 1]"] ;
724 -> 725 ;
726 [label="gini = 0.5\nsamples = 2\nvalue = [2, 2]"] ;
724 -> 726 ;
727 [label="gini = 0.0\nsamples = 2\nvalue = [3, 0]"] ;
723 -> 727 ;
728 [label="x[52] <= 5.007\ngini = 0.444\nsamples = 2\nvalue = [1, 2]"] ;
722 -> 728 ;
729 [label="gini = 0.0\nsamples = 1\nvalue = [1, 0]"] ;
728 -> 729 ;
730 [label="gini = 0.0\nsamples = 1\nvalue = [0, 2]"] ;
728 -> 730 ;
731 [label="x[46] <= 47804.525\ngini = 0.17\nsamples = 42\nvalue = [6, 58]"] ;
115 -> 731 ;
732 [label="x[31] <= 180.863\ngini = 0.128\nsamples = 38\nvalue = [4, 54]"] ;
731 -> 732 ;
733 [label="x[46] <= 46287.309\ngini = 0.5\nsamples = 3\nvalue = [2, 2]"] ;
732 -> 733 ;
734 [label="gini = 0.0\nsamples = 1\nvalue = [2, 0]"] ;
733 -> 734 ;
735 [label="gini = 0.0\nsamples = 2\nvalue = [0, 2]"] ;
733 -> 735 ;
736 [label="x[51] <= 32361.892\ngini = 0.071\nsamples = 35\nvalue = [2, 52]"] ;
732 -> 736 ;
737 [label="x[50] <= 27272.046\ngini = 0.124\nsamples = 20\nvalue = [2, 28]"] ;
736 -> 737 ;
738 [label="x[51] <= 31775.598\ngini = 0.077\nsamples = 17\nvalue = [1, 24]"] ;
737 -> 738 ;
739 [label="gini = 0.0\nsamples = 12\nvalue = [0, 20]"] ;
738 -> 739 ;
740 [label="x[60] <= 768.5\ngini = 0.32\nsamples = 5\nvalue = [1, 4]"] ;
738 -> 740 ;
741 [label="gini = 0.5\nsamples = 2\nvalue = [1, 1]"] ;
740 -> 741 ;
742 [label="gini = 0.0\nsamples = 3\nvalue = [0, 3]"] ;
740 -> 742 ;
743 [label="x[48] <= 97012.52\ngini = 0.32\nsamples = 3\nvalue = [1, 4]"] ;
737 -> 743 ;
744 [label="gini = 0.0\nsamples = 1\nvalue = [0, 3]"] ;
743 -> 744 ;
745 [label="gini = 0.5\nsamples = 2\nvalue = [1, 1]"] ;
743 -> 745 ;
746 [label="gini = 0.0\nsamples = 15\nvalue = [0, 24]"] ;
736 -> 746 ;
747 [label="x[30] <= 95.938\ngini = 0.444\nsamples = 4\nvalue = [2, 4]"] ;
731 -> 747 ;
748 [label="x[49] <= 214316.008\ngini = 0.48\nsamples = 3\nvalue = [2, 3]"] ;
747 -> 748 ;
749 [label="gini = 0.5\nsamples = 2\nvalue = [2, 2]"] ;
748 -> 749 ;
750 [label="gini = 0.0\nsamples = 1\nvalue = [0, 1]"] ;
748 -> 750 ;
751 [label="gini = 0.0\nsamples = 1\nvalue = [0, 1]"] ;
747 -> 751 ;
752 [label="x[56] <= 26850.311\ngini = 0.488\nsamples = 32\nvalue = [24, 33]"] ;
86 -> 752 ;
753 [label="x[60] <= 769.5\ngini = 0.49\nsamples = 13\nvalue = [16, 12]"] ;
752 -> 753 ;
754 [label="x[39] <= 4880.0\ngini = 0.444\nsamples = 7\nvalue = [4, 8]"] ;
753 -> 754 ;
755 [label="gini = 0.0\nsamples = 1\nvalue = [1, 0]"] ;
754 -> 755 ;
756 [label="x[29] <= 765.5\ngini = 0.397\nsamples = 6\nvalue = [3, 8]"] ;
754 -> 756 ;
757 [label="gini = 0.5\nsamples = 2\nvalue = [2, 2]"] ;
756 -> 757 ;
758 [label="x[42] <= 44.584\ngini = 0.245\nsamples = 4\nvalue = [1, 6]"] ;
756 -> 758 ;
759 [label="gini = 0.0\nsamples = 2\nvalue = [0, 5]"] ;
758 -> 759 ;
760 [label="gini = 0.5\nsamples = 2\nvalue = [1, 1]"] ;
758 -> 760 ;
761 [label="x[55] <= 14927.186\ngini = 0.375\nsamples = 6\nvalue = [12, 4]"] ;
753 -> 761 ;
762 [label="gini = 0.444\nsamples = 2\nvalue = [2, 4]"] ;
761 -> 762 ;
763 [label="gini = 0.0\nsamples = 4\nvalue = [10, 0]"] ;
761 -> 763 ;
764 [label="x[70] <= 236940.867\ngini = 0.4\nsamples = 19\nvalue = [8, 21]"] ;
752 -> 764 ;
765 [label="x[49] <= 206487.531\ngini = 0.375\nsamples = 2\nvalue = [3, 1]"] ;
764 -> 765 ;
766 [label="gini = 0.0\nsamples = 1\nvalue = [0, 1]"] ;
765 -> 766 ;
767 [label="gini = 0.0\nsamples = 1\nvalue = [3, 0]"] ;
765 -> 767 ;
768 [label="x[41] <= 710.777\ngini = 0.32\nsamples = 17\nvalue = [5, 20]"] ;
764 -> 768 ;
769 [label="x[7] <= 32.866\ngini = 0.266\nsamples = 13\nvalue = [3, 16]"] ;
768 -> 769 ;
770 [label="x[46] <= 48128.451\ngini = 0.469\nsamples = 6\nvalue = [3, 5]"] ;
769 -> 770 ;
771 [label="gini = 0.0\nsamples = 2\nvalue = [2, 0]"] ;
770 -> 771 ;
772 [label="x[39] <= 4881.5\ngini = 0.278\nsamples = 4\nvalue = [1, 5]"] ;
770 -> 772 ;
773 [label="gini = 0.0\nsamples = 3\nvalue = [0, 5]"] ;
772 -> 773 ;
774 [label="gini = 0.0\nsamples = 1\nvalue = [1, 0]"] ;
772 -> 774 ;
775 [label="gini = 0.0\nsamples = 7\nvalue = [0, 11]"] ;
769 -> 775 ;
776 [label="x[69] <= 246716.016\ngini = 0.444\nsamples = 4\nvalue = [2, 4]"] ;
768 -> 776 ;
777 [label="x[52] <= 6.437\ngini = 0.444\nsamples = 2\nvalue = [2, 1]"] ;
776 -> 777 ;
778 [label="gini = 0.0\nsamples = 1\nvalue = [0, 1]"] ;
777 -> 778 ;
779 [label="gini = 0.0\nsamples = 1\nvalue = [2, 0]"] ;
777 -> 779 ;
780 [label="gini = 0.0\nsamples = 2\nvalue = [0, 3]"] ;
776 -> 780 ;
781 [label="x[8] <= 36.679\ngini = 0.262\nsamples = 105\nvalue = [25, 136]"] ;
69 -> 781 ;
782 [label="x[8] <= 36.554\ngini = 0.344\nsamples = 60\nvalue = [19, 67]"] ;
781 -> 782 ;
783 [label="x[46] <= 50727.646\ngini = 0.275\nsamples = 53\nvalue = [12, 61]"] ;
782 -> 783 ;
784 [label="x[44] <= 247417.93\ngini = 0.159\nsamples = 30\nvalue = [4, 42]"] ;
783 -> 784 ;
785 [label="x[31] <= 180.922\ngini = 0.444\nsamples = 7\nvalue = [3, 6]"] ;
784 -> 785 ;
786 [label="x[48] <= 109939.457\ngini = 0.5\nsamples = 5\nvalue = [3, 3]"] ;
785 -> 786 ;
787 [label="gini = 0.0\nsamples = 2\nvalue = [0, 2]"] ;
786 -> 787 ;
788 [label="x[2] <= 0.247\ngini = 0.375\nsamples = 3\nvalue = [3, 1]"] ;
786 -> 788 ;
789 [label="gini = 0.0\nsamples = 1\nvalue = [1, 0]"] ;
788 -> 789 ;
790 [label="gini = 0.444\nsamples = 2\nvalue = [2, 1]"] ;
788 -> 790 ;
791 [label="gini = 0.0\nsamples = 2\nvalue = [0, 3]"] ;
785 -> 791 ;
792 [label="x[52] <= 3.576\ngini = 0.053\nsamples = 23\nvalue = [1, 36]"] ;
784 -> 792 ;
793 [label="x[30] <= 96.125\ngini = 0.444\nsamples = 3\nvalue = [1, 2]"] ;
792 -> 793 ;
794 [label="gini = 0.0\nsamples = 1\nvalue = [0, 1]"] ;
793 -> 794 ;
795 [label="gini = 0.5\nsamples = 2\nvalue = [1, 1]"] ;
793 -> 795 ;
796 [label="gini = 0.0\nsamples = 20\nvalue = [0, 34]"] ;
792 -> 796 ;
797 [label="x[40] <= 287.029\ngini = 0.417\nsamples = 23\nvalue = [8, 19]"] ;
783 -> 797 ;
798 [label="gini = 0.0\nsamples = 5\nvalue = [0, 7]"] ;
797 -> 798 ;
799 [label="x[41] <= 710.746\ngini = 0.48\nsamples = 18\nvalue = [8, 12]"] ;
797 -> 799 ;
800 [label="x[60] <= 979.875\ngini = 0.375\nsamples = 3\nvalue = [3, 1]"] ;
799 -> 800 ;
801 [label="gini = 0.0\nsamples = 2\nvalue = [3, 0]"] ;
800 -> 801 ;
802 [label="gini = 0.0\nsamples = 1\nvalue = [0, 1]"] ;
800 -> 802 ;
803 [label="x[50] <= 27514.07\ngini = 0.43\nsamples = 15\nvalue = [5, 11]"] ;
799 -> 803 ;
804 [label="x[8] <= 36.321\ngini = 0.496\nsamples = 10\nvalue = [5, 6]"] ;
803 -> 804 ;
805 [label="x[35] <= 462.5\ngini = 0.469\nsamples = 8\nvalue = [5, 3]"] ;
804 -> 805 ;
806 [label="x[69] <= 251086.109\ngini = 0.49\nsamples = 7\nvalue = [4, 3]"] ;
805 -> 806 ;
807 [label="x[0] <= 37159.0\ngini = 0.5\nsamples = 6\nvalue = [3, 3]"] ;
806 -> 807 ;
808 [label="gini = 0.5\nsamples = 2\nvalue = [1, 1]"] ;
807 -> 808 ;
809 [label="x[7] <= 31.944\ngini = 0.5\nsamples = 4\nvalue = [2, 2]"] ;
807 -> 809 ;
810 [label="gini = 0.5\nsamples = 2\nvalue = [1, 1]"] ;
809 -> 810 ;
811 [label="gini = 0.5\nsamples = 2\nvalue = [1, 1]"] ;
809 -> 811 ;
812 [label="gini = 0.0\nsamples = 1\nvalue = [1, 0]"] ;
806 -> 812 ;
813 [label="gini = 0.0\nsamples = 1\nvalue = [1, 0]"] ;
805 -> 813 ;
814 [label="gini = 0.0\nsamples = 2\nvalue = [0, 3]"] ;
804 -> 814 ;
815 [label="gini = 0.0\nsamples = 5\nvalue = [0, 5]"] ;
803 -> 815 ;
816 [label="x[0] <= 37109.0\ngini = 0.497\nsamples = 7\nvalue = [7, 6]"] ;
782 -> 816 ;
817 [label="gini = 0.0\nsamples = 2\nvalue = [5, 0]"] ;
816 -> 817 ;
818 [label="x[71] <= 245451.57\ngini = 0.375\nsamples = 5\nvalue = [2, 6]"] ;
816 -> 818 ;
819 [label="gini = 0.444\nsamples = 2\nvalue = [2, 1]"] ;
818 -> 819 ;
820 [label="gini = 0.0\nsamples = 3\nvalue = [0, 5]"] ;
818 -> 820 ;
821 [label="x[50] <= 25835.127\ngini = 0.147\nsamples = 45\nvalue = [6, 69]"] ;
781 -> 821 ;
822 [label="gini = 0.0\nsamples = 1\nvalue = [1, 0]"] ;
821 -> 822 ;
823 [label="x[41] <= 710.664\ngini = 0.126\nsamples = 44\nvalue = [5, 69]"] ;
821 -> 823 ;
824 [label="gini = 0.0\nsamples = 1\nvalue = [1, 0]"] ;
823 -> 824 ;
825 [label="x[49] <= 213068.008\ngini = 0.104\nsamples = 43\nvalue = [4, 69]"] ;
823 -> 825 ;
826 [label="x[0] <= 49604.0\ngini = 0.049\nsamples = 23\nvalue = [1, 39]"] ;
825 -> 826 ;
827 [label="gini = 0.0\nsamples = 19\nvalue = [0, 34]"] ;
826 -> 827 ;
828 [label="x[52] <= 5.364\ngini = 0.278\nsamples = 4\nvalue = [1, 5]"] ;
826 -> 828 ;
829 [label="gini = 0.0\nsamples = 1\nvalue = [1, 0]"] ;
828 -> 829 ;
830 [label="gini = 0.0\nsamples = 3\nvalue = [0, 5]"] ;
828 -> 830 ;
831 [label="x[71] <= 244314.078\ngini = 0.165\nsamples = 20\nvalue = [3, 30]"] ;
825 -> 831 ;
832 [label="x[0] <= 37019.0\ngini = 0.266\nsamples = 12\nvalue = [3, 16]"] ;
831 -> 832 ;
833 [label="gini = 0.0\nsamples = 1\nvalue = [1, 0]"] ;
832 -> 833 ;
834 [label="x[29] <= 770.5\ngini = 0.198\nsamples = 11\nvalue = [2, 16]"] ;
832 -> 834 ;
835 [label="x[30] <= 95.875\ngini = 0.298\nsamples = 6\nvalue = [2, 9]"] ;
834 -> 835 ;
836 [label="gini = 0.0\nsamples = 2\nvalue = [0, 3]"] ;
835 -> 836 ;
837 [label="x[49] <= 213872.555\ngini = 0.375\nsamples = 4\nvalue = [2, 6]"] ;
835 -> 837 ;
838 [label="gini = 0.375\nsamples = 2\nvalue = [1, 3]"] ;
837 -> 838 ;
839 [label="gini = 0.375\nsamples = 2\nvalue = [1, 3]"] ;
837 -> 839 ;
840 [label="gini = 0.0\nsamples = 5\nvalue = [0, 7]"] ;
834 -> 840 ;
841 [label="gini = 0.0\nsamples = 8\nvalue = [0, 14]"] ;
831 -> 841 ;
842 [label="x[71] <= 367118.484\ngini = 0.454\nsamples = 407\nvalue = [228, 428]"] ;
42 -> 842 ;
843 [label="x[2] <= 0.252\ngini = 0.466\nsamples = 378\nvalue = [226, 385]"] ;
842 -> 843 ;
844 [label="x[55] <= 15764.646\ngini = 0.198\nsamples = 5\nvalue = [8, 1]"] ;
843 -> 844 ;
845 [label="gini = 0.444\nsamples = 2\nvalue = [2, 1]"] ;
844 -> 845 ;
846 [label="gini = 0.0\nsamples = 3\nvalue = [6, 0]"] ;
844 -> 846 ;
847 [label="x[70] <= 256416.555\ngini = 0.462\nsamples = 373\nvalue = [218, 384]"] ;
843 -> 847 ;
848 [label="x[46] <= 53756.562\ngini = 0.219\nsamples = 19\nvalue = [4, 28]"] ;
847 -> 848 ;
849 [label="x[30] <= 95.812\ngini = 0.071\nsamples = 16\nvalue = [1, 26]"] ;
848 -> 849 ;
850 [label="x[7] <= 31.423\ngini = 0.5\nsamples = 2\nvalue = [1, 1]"] ;
849 -> 850 ;
851 [label="gini = 0.0\nsamples = 1\nvalue = [0, 1]"] ;
850 -> 851 ;
852 [label="gini = 0.0\nsamples = 1\nvalue = [1, 0]"] ;
850 -> 852 ;
853 [label="gini = 0.0\nsamples = 14\nvalue = [0, 25]"] ;
849 -> 853 ;
854 [label="x[41] <= 711.48\ngini = 0.48\nsamples = 3\nvalue = [3, 2]"] ;
848 -> 854 ;
855 [label="gini = 0.0\nsamples = 2\nvalue = [3, 0]"] ;
854 -> 855 ;
856 [label="gini = 0.0\nsamples = 1\nvalue = [0, 2]"] ;
854 -> 856 ;
857 [label="x[44] <= 257490.516\ngini = 0.469\nsamples = 354\nvalue = [214, 356]"] ;
847 -> 857 ;
858 [label="x[50] <= 28299.242\ngini = 0.298\nsamples = 6\nvalue = [9, 2]"] ;
857 -> 858 ;
859 [label="gini = 0.0\nsamples = 1\nvalue = [0, 1]"] ;
858 -> 859 ;
860 [label="x[71] <= 257099.039\ngini = 0.18\nsamples = 5\nvalue = [9, 1]"] ;
858 -> 860 ;
861 [label="gini = 0.0\nsamples = 3\nvalue = [6, 0]"] ;
860 -> 861 ;
862 [label="gini = 0.375\nsamples = 2\nvalue = [3, 1]"] ;
860 -> 862 ;
863 [label="x[68] <= 336742.875\ngini = 0.464\nsamples = 348\nvalue = [205, 354]"] ;
857 -> 863 ;
864 [label="x[0] <= 34037.0\ngini = 0.456\nsamples = 332\nvalue = [187, 345]"] ;
863 -> 864 ;
865 [label="gini = 0.0\nsamples = 8\nvalue = [0, 13]"] ;
864 -> 865 ;
866 [label="x[41] <= 710.726\ngini = 0.461\nsamples = 324\nvalue = [187, 332]"] ;
864 -> 866 ;
867 [label="x[42] <= 31.471\ngini = 0.314\nsamples = 47\nvalue = [15, 62]"] ;
866 -> 867 ;
868 [label="x[47] <= 3.457\ngini = 0.153\nsamples = 23\nvalue = [3, 33]"] ;
867 -> 868 ;
869 [label="gini = 0.5\nsamples = 2\nvalue = [1, 1]"] ;
868 -> 869 ;
870 [label="x[46] <= 66867.424\ngini = 0.111\nsamples = 21\nvalue = [2, 32]"] ;
868 -> 870 ;
871 [label="x[29] <= 774.5\ngini = 0.069\nsamples = 17\nvalue = [1, 27]"] ;
870 -> 871 ;
872 [label="x[44] <= 278839.953\ngini = 0.124\nsamples = 9\nvalue = [1, 14]"] ;
871 -> 872 ;
873 [label="x[45] <= 38172.074\ngini = 0.245\nsamples = 5\nvalue = [1, 6]"] ;
872 -> 873 ;
874 [label="gini = 0.0\nsamples = 4\nvalue = [0, 6]"] ;
873 -> 874 ;
875 [label="gini = 0.0\nsamples = 1\nvalue = [1, 0]"] ;
873 -> 875 ;
876 [label="gini = 0.0\nsamples = 4\nvalue = [0, 8]"] ;
872 -> 876 ;
877 [label="gini = 0.0\nsamples = 8\nvalue = [0, 13]"] ;
871 -> 877 ;
878 [label="x[71] <= 311011.562\ngini = 0.278\nsamples = 4\nvalue = [1, 5]"] ;
870 -> 878 ;
879 [label="gini = 0.375\nsamples = 2\nvalue = [1, 3]"] ;
878 -> 879 ;
880 [label="gini = 0.0\nsamples = 2\nvalue = [0, 2]"] ;
878 -> 880 ;
881 [label="x[70] <= 261206.031\ngini = 0.414\nsamples = 24\nvalue = [12, 29]"] ;
867 -> 881 ;
882 [label="x[8] <= 34.469\ngini = 0.32\nsamples = 4\nvalue = [4, 1]"] ;
881 -> 882 ;
883 [label="gini = 0.0\nsamples = 1\nvalue = [1, 0]"] ;
882 -> 883 ;
884 [label="x[43] <= 149700.883\ngini = 0.375\nsamples = 3\nvalue = [3, 1]"] ;
882 -> 884 ;
885 [label="gini = 0.0\nsamples = 1\nvalue = [1, 0]"] ;
884 -> 885 ;
886 [label="gini = 0.444\nsamples = 2\nvalue = [2, 1]"] ;
884 -> 886 ;
887 [label="x[45] <= 41441.934\ngini = 0.346\nsamples = 20\nvalue = [8, 28]"] ;
881 -> 887 ;
888 [label="x[35] <= 456.944\ngini = 0.165\nsamples = 10\nvalue = [2, 20]"] ;
887 -> 888 ;
889 [label="x[52] <= 6.437\ngini = 0.172\nsamples = 9\nvalue = [2, 19]"] ;
888 -> 889 ;
890 [label="x[0] <= 53429.0\ngini = 0.245\nsamples = 5\nvalue = [2, 12]"] ;
889 -> 890 ;
891 [label="x[50] <= 30112.981\ngini = 0.142\nsamples = 4\nvalue = [1, 12]"] ;
890 -> 891 ;
892 [label="gini = 0.0\nsamples = 1\nvalue = [0, 4]"] ;
891 -> 892 ;
893 [label="x[52] <= 4.53\ngini = 0.198\nsamples = 3\nvalue = [1, 8]"] ;
891 -> 893 ;
894 [label="gini = 0.0\nsamples = 1\nvalue = [0, 4]"] ;
893 -> 894 ;
895 [label="gini = 0.32\nsamples = 2\nvalue = [1, 4]"] ;
893 -> 895 ;
896 [label="gini = 0.0\nsamples = 1\nvalue = [1, 0]"] ;
890 -> 896 ;
897 [label="gini = 0.0\nsamples = 4\nvalue = [0, 7]"] ;
889 -> 897 ;
898 [label="gini = 0.0\nsamples = 1\nvalue = [0, 1]"] ;
888 -> 898 ;
899 [label="x[54] <= 292416.453\ngini = 0.49\nsamples = 10\nvalue = [6, 8]"] ;
887 -> 899 ;
900 [label="x[2] <= 0.291\ngini = 0.408\nsamples = 5\nvalue = [5, 2]"] ;
899 -> 900 ;
901 [label="x[55] <= 18169.217\ngini = 0.444\nsamples = 4\nvalue = [4, 2]"] ;
900 -> 901 ;
902 [label="gini = 0.444\nsamples = 2\nvalue = [2, 1]"] ;
901 -> 902 ;
903 [label="gini = 0.444\nsamples = 2\nvalue = [2, 1]"] ;
901 -> 903 ;
904 [label="gini = 0.0\nsamples = 1\nvalue = [1, 0]"] ;
900 -> 904 ;
905 [label="x[70] <= 296517.016\ngini = 0.245\nsamples = 5\nvalue = [1, 6]"] ;
899 -> 905 ;
906 [label="gini = 0.444\nsamples = 2\nvalue = [1, 2]"] ;
905 -> 906 ;
907 [label="gini = 0.0\nsamples = 3\nvalue = [0, 4]"] ;
905 -> 907 ;
908 [label="x[61] <= 4163.0\ngini = 0.475\nsamples = 277\nvalue = [172, 270]"] ;
866 -> 908 ;
909 [label="x[43] <= 144531.133\ngini = 0.496\nsamples = 183\nvalue = [136, 164]"] ;
908 -> 909 ;
910 [label="x[7] <= 30.069\ngini = 0.302\nsamples = 17\nvalue = [5, 22]"] ;
909 -> 910 ;
911 [label="x[30] <= 95.938\ngini = 0.5\nsamples = 5\nvalue = [3, 3]"] ;
910 -> 911 ;
912 [label="gini = 0.0\nsamples = 1\nvalue = [0, 1]"] ;
911 -> 912 ;
913 [label="x[29] <= 769.0\ngini = 0.48\nsamples = 4\nvalue = [3, 2]"] ;
911 -> 913 ;
914 [label="gini = 0.0\nsamples = 1\nvalue = [1, 0]"] ;
913 -> 914 ;
915 [label="x[7] <= 29.93\ngini = 0.5\nsamples = 3\nvalue = [2, 2]"] ;
913 -> 915 ;
916 [label="gini = 0.0\nsamples = 1\nvalue = [0, 1]"] ;
915 -> 916 ;
917 [label="gini = 0.444\nsamples = 2\nvalue = [2, 1]"] ;
915 -> 917 ;
918 [label="x[7] <= 30.723\ngini = 0.172\nsamples = 12\nvalue = [2, 19]"] ;
910 -> 918 ;
919 [label="gini = 0.0\nsamples = 6\nvalue = [0, 10]"] ;
918 -> 919 ;
920 [label="x[0] <= 55605.0\ngini = 0.298\nsamples = 6\nvalue = [2, 9]"] ;
918 -> 920 ;
921 [label="gini = 0.0\nsamples = 5\nvalue = [0, 9]"] ;
920 -> 921 ;
922 [label="gini = 0.0\nsamples = 1\nvalue = [2, 0]"] ;
920 -> 922 ;
923 [label="x[7] <= 24.743\ngini = 0.499\nsamples = 166\nvalue = [131, 142]"] ;
909 -> 923 ;
924 [label="x[29] <= 771.5\ngini = 0.18\nsamples = 4\nvalue = [1, 9]"] ;
923 -> 924 ;
925 [label="gini = 0.0\nsamples = 3\nvalue = [0, 9]"] ;
924 -> 925 ;
926 [label="gini = 0.0\nsamples = 1\nvalue = [1, 0]"] ;
924 -> 926 ;
927 [label="x[54] <= 261705.992\ngini = 0.5\nsamples = 162\nvalue = [130, 133]"] ;
923 -> 927 ;
928 [label="x[71] <= 259241.102\ngini = 0.426\nsamples = 17\nvalue = [8, 18]"] ;
927 -> 928 ;
929 [label="x[57] <= 18844.629\ngini = 0.5\nsamples = 8\nvalue = [6, 6]"] ;
928 -> 929 ;
930 [label="gini = 0.0\nsamples = 2\nvalue = [3, 0]"] ;
929 -> 930 ;
931 [label="x[51] <= 38138.451\ngini = 0.444\nsamples = 6\nvalue = [3, 6]"] ;
929 -> 931 ;
932 [label="gini = 0.0\nsamples = 1\nvalue = [0, 1]"] ;
931 -> 932 ;
933 [label="x[52] <= 3.934\ngini = 0.469\nsamples = 5\nvalue = [3, 5]"] ;
931 -> 933 ;
934 [label="gini = 0.0\nsamples = 1\nvalue = [1, 0]"] ;
933 -> 934 ;
935 [label="x[31] <= 180.952\ngini = 0.408\nsamples = 4\nvalue = [2, 5]"] ;
933 -> 935 ;
936 [label="gini = 0.48\nsamples = 2\nvalue = [2, 3]"] ;
935 -> 936 ;
937 [label="gini = 0.0\nsamples = 2\nvalue = [0, 2]"] ;
935 -> 937 ;
938 [label="x[0] <= 59446.0\ngini = 0.245\nsamples = 9\nvalue = [2, 12]"] ;
928 -> 938 ;
939 [label="x[54] <= 261569.5\ngini = 0.142\nsamples = 8\nvalue = [1, 12]"] ;
938 -> 939 ;
940 [label="gini = 0.0\nsamples = 6\nvalue = [0, 9]"] ;
939 -> 940 ;
941 [label="gini = 0.375\nsamples = 2\nvalue = [1, 3]"] ;
939 -> 941 ;
942 [label="gini = 0.0\nsamples = 1\nvalue = [1, 0]"] ;
938 -> 942 ;
943 [label="x[44] <= 264346.469\ngini = 0.5\nsamples = 145\nvalue = [122, 115]"] ;
927 -> 943 ;
944 [label="x[52] <= 5.484\ngini = 0.305\nsamples = 8\nvalue = [13, 3]"] ;
943 -> 944 ;
945 [label="gini = 0.0\nsamples = 4\nvalue = [9, 0]"] ;
944 -> 945 ;
946 [label="x[43] <= 149699.57\ngini = 0.49\nsamples = 4\nvalue = [4, 3]"] ;
944 -> 946 ;
947 [label="gini = 0.5\nsamples = 2\nvalue = [1, 1]"] ;
946 -> 947 ;
948 [label="gini = 0.48\nsamples = 2\nvalue = [3, 2]"] ;
946 -> 948 ;
949 [label="x[52] <= 4.888\ngini = 0.5\nsamples = 137\nvalue = [109, 112]"] ;
943 -> 949 ;
950 [label="x[68] <= 308762.438\ngini = 0.469\nsamples = 46\nvalue = [45, 27]"] ;
949 -> 950 ;
951 [label="x[44] <= 305047.516\ngini = 0.454\nsamples = 44\nvalue = [45, 24]"] ;
950 -> 951 ;
952 [label="x[43] <= 148341.656\ngini = 0.475\nsamples = 41\nvalue = [38, 24]"] ;
951 -> 952 ;
953 [label="gini = 0.0\nsamples = 1\nvalue = [0, 2]"] ;
952 -> 953 ;
954 [label="x[71] <= 295140.031\ngini = 0.464\nsamples = 40\nvalue = [38, 22]"] ;
952 -> 954 ;
955 [label="x[40] <= 287.265\ngini = 0.414\nsamples = 27\nvalue = [29, 12]"] ;
954 -> 955 ;
956 [label="x[57] <= 18197.432\ngini = 0.399\nsamples = 26\nvalue = [29, 11]"] ;
955 -> 956 ;
957 [label="x[43] <= 171921.844\ngini = 0.411\nsamples = 25\nvalue = [27, 11]"] ;
956 -> 957 ;
958 [label="x[56] <= 32937.832\ngini = 0.451\nsamples = 22\nvalue = [21, 11]"] ;
957 -> 958 ;
959 [label="x[43] <= 157213.922\ngini = 0.5\nsamples = 5\nvalue = [3, 3]"] ;
958 -> 959 ;
960 [label="x[50] <= 29919.55\ngini = 0.48\nsamples = 4\nvalue = [3, 2]"] ;
959 -> 960 ;
961 [label="gini = 0.444\nsamples = 2\nvalue = [2, 1]"] ;
960 -> 961 ;
962 [label="gini = 0.5\nsamples = 2\nvalue = [1, 1]"] ;
960 -> 962 ;
963 [label="gini = 0.0\nsamples = 1\nvalue = [0, 1]"] ;
959 -> 963 ;
964 [label="x[55] <= 17652.154\ngini = 0.426\nsamples = 17\nvalue = [18, 8]"] ;
958 -> 964 ;
965 [label="x[9] <= 60.247\ngini = 0.486\nsamples = 9\nvalue = [7, 5]"] ;
964 -> 965 ;
966 [label="gini = 0.0\nsamples = 2\nvalue = [0, 2]"] ;
965 -> 966 ;
967 [label="x[0] <= 36961.0\ngini = 0.42\nsamples = 7\nvalue = [7, 3]"] ;
965 -> 967 ;
968 [label="gini = 0.0\nsamples = 1\nvalue = [0, 1]"] ;
967 -> 968 ;
969 [label="x[51] <= 45388.162\ngini = 0.346\nsamples = 6\nvalue = [7, 2]"] ;
967 -> 969 ;
970 [label="x[7] <= 28.37\ngini = 0.219\nsamples = 5\nvalue = [7, 1]"] ;
969 -> 970 ;
971 [label="gini = 0.375\nsamples = 2\nvalue = [3, 1]"] ;
970 -> 971 ;
972 [label="gini = 0.0\nsamples = 3\nvalue = [4, 0]"] ;
970 -> 972 ;
973 [label="gini = 0.0\nsamples = 1\nvalue = [0, 1]"] ;
969 -> 973 ;
974 [label="x[2] <= 0.284\ngini = 0.337\nsamples = 8\nvalue = [11, 3]"] ;
964 -> 974 ;
975 [label="gini = 0.0\nsamples = 2\nvalue = [4, 0]"] ;
974 -> 975 ;
976 [label="x[68] <= 286512.859\ngini = 0.42\nsamples = 6\nvalue = [7, 3]"] ;
974 -> 976 ;
977 [label="gini = 0.5\nsamples = 2\nvalue = [1, 1]"] ;
976 -> 977 ;
978 [label="x[40] <= 287.088\ngini = 0.375\nsamples = 4\nvalue = [6, 2]"] ;
976 -> 978 ;
979 [label="gini = 0.32\nsamples = 2\nvalue = [4, 1]"] ;
978 -> 979 ;
980 [label="gini = 0.444\nsamples = 2\nvalue = [2, 1]"] ;
978 -> 980 ;
981 [label="gini = 0.0\nsamples = 3\nvalue = [6, 0]"] ;
957 -> 981 ;
982 [label="gini = 0.0\nsamples = 1\nvalue = [2, 0]"] ;
956 -> 982 ;
983 [label="gini = 0.0\nsamples = 1\nvalue = [0, 1]"] ;
955 -> 983 ;
984 [label="x[43] <= 187060.477\ngini = 0.499\nsamples = 13\nvalue = [9, 10]"] ;
954 -> 984 ;
985 [label="x[39] <= 4882.5\ngini = 0.473\nsamples = 9\nvalue = [5, 8]"] ;
984 -> 985 ;
986 [label="x[2] <= 0.302\ngini = 0.278\nsamples = 4\nvalue = [1, 5]"] ;
985 -> 986 ;
987 [label="x[42] <= 20.981\ngini = 0.375\nsamples = 3\nvalue = [1, 3]"] ;
986 -> 987 ;
988 [label="gini = 0.444\nsamples = 2\nvalue = [1, 2]"] ;
987 -> 988 ;
989 [label="gini = 0.0\nsamples = 1\nvalue = [0, 1]"] ;
987 -> 989 ;
990 [label="gini = 0.0\nsamples = 1\nvalue = [0, 2]"] ;
986 -> 990 ;
991 [label="x[60] <= 771.5\ngini = 0.49\nsamples = 5\nvalue = [4, 3]"] ;
985 -> 991 ;
992 [label="x[0] <= 50351.0\ngini = 0.5\nsamples = 3\nvalue = [2, 2]"] ;
991 -> 992 ;
993 [label="gini = 0.444\nsamples = 2\nvalue = [1, 2]"] ;
992 -> 993 ;
994 [label="gini = 0.0\nsamples = 1\nvalue = [1, 0]"] ;
992 -> 994 ;
995 [label="gini = 0.444\nsamples = 2\nvalue = [2, 1]"] ;
991 -> 995 ;
996 [label="x[51] <= 54005.273\ngini = 0.444\nsamples = 4\nvalue = [4, 2]"] ;
984 -> 996 ;
997 [label="gini = 0.444\nsamples = 2\nvalue = [2, 1]"] ;
996 -> 997 ;
998 [label="gini = 0.444\nsamples = 2\nvalue = [2, 1]"] ;
996 -> 998 ;
999 [label="gini = 0.0\nsamples = 3\nvalue = [7, 0]"] ;
951 -> 999 ;
1000 [label="gini = 0.0\nsamples = 2\nvalue = [0, 3]"] ;
950 -> 1000 ;
1001 [label="x[0] <= 43657.0\ngini = 0.49\nsamples = 91\nvalue = [64, 85]"] ;
949 -> 1001 ;
1002 [label="x[68] <= 274829.984\ngini = 0.291\nsamples = 21\nvalue = [6, 28]"] ;
1001 -> 1002 ;
1003 [label="x[50] <= 30337.572\ngini = 0.469\nsamples = 7\nvalue = [5, 3]"] ;
1002 -> 1003 ;
1004 [label="x[60] <= 767.5\ngini = 0.375\nsamples = 4\nvalue = [1, 3]"] ;
1003 -> 1004 ;
1005 [label="gini = 0.0\nsamples = 2\nvalue = [0, 2]"] ;
1004 -> 1005 ;
1006 [label="x[71] <= 267305.484\ngini = 0.5\nsamples = 2\nvalue = [1, 1]"] ;
1004 -> 1006 ;
1007 [label="gini = 0.0\nsamples = 1\nvalue = [0, 1]"] ;
1006 -> 1007 ;
1008 [label="gini = 0.0\nsamples = 1\nvalue = [1, 0]"] ;
1006 -> 1008 ;
1009 [label="gini = 0.0\nsamples = 3\nvalue = [4, 0]"] ;
1003 -> 1009 ;
1010 [label="x[49] <= 279223.094\ngini = 0.074\nsamples = 14\nvalue = [1, 25]"] ;
1002 -> 1010 ;
1011 [label="gini = 0.0\nsamples = 12\nvalue = [0, 24]"] ;
1010 -> 1011 ;
1012 [label="x[7] <= 25.556\ngini = 0.5\nsamples = 2\nvalue = [1, 1]"] ;
1010 -> 1012 ;
1013 [label="gini = 0.0\nsamples = 1\nvalue = [0, 1]"] ;
1012 -> 1013 ;
1014 [label="gini = 0.0\nsamples = 1\nvalue = [1, 0]"] ;
1012 -> 1014 ;
1015 [label="x[30] <= 95.812\ngini = 0.5\nsamples = 70\nvalue = [58, 57]"] ;
1001 -> 1015 ;
1016 [label="x[7] <= 28.07\ngini = 0.432\nsamples = 13\nvalue = [6, 13]"] ;
1015 -> 1016 ;
1017 [label="x[70] <= 296689.984\ngini = 0.278\nsamples = 7\nvalue = [2, 10]"] ;
1016 -> 1017 ;
1018 [label="x[9] <= 57.723\ngini = 0.408\nsamples = 4\nvalue = [2, 5]"] ;
1017 -> 1018 ;
1019 [label="gini = 0.0\nsamples = 1\nvalue = [1, 0]"] ;
1018 -> 1019 ;
1020 [label="x[8] <= 30.949\ngini = 0.278\nsamples = 3\nvalue = [1, 5]"] ;
1018 -> 1020 ;
1021 [label="gini = 0.444\nsamples = 2\nvalue = [1, 2]"] ;
1020 -> 1021 ;
1022 [label="gini = 0.0\nsamples = 1\nvalue = [0, 3]"] ;
1020 -> 1022 ;
1023 [label="gini = 0.0\nsamples = 3\nvalue = [0, 5]"] ;
1017 -> 1023 ;
1024 [label="x[2] <= 0.273\ngini = 0.49\nsamples = 6\nvalue = [4, 3]"] ;
1016 -> 1024 ;
1025 [label="x[69] <= 268566.609\ngini = 0.375\nsamples = 4\nvalue = [1, 3]"] ;
1024 -> 1025 ;
1026 [label="x[53] <= 129336.953\ngini = 0.5\nsamples = 2\nvalue = [1, 1]"] ;
1025 -> 1026 ;
1027 [label="gini = 0.0\nsamples = 1\nvalue = [0, 1]"] ;
1026 -> 1027 ;
1028 [label="gini = 0.0\nsamples = 1\nvalue = [1, 0]"] ;
1026 -> 1028 ;
1029 [label="gini = 0.0\nsamples = 2\nvalue = [0, 2]"] ;
1025 -> 1029 ;
1030 [label="gini = 0.0\nsamples = 2\nvalue = [3, 0]"] ;
1024 -> 1030 ;
1031 [label="x[48] <= 163996.102\ngini = 0.497\nsamples = 57\nvalue = [52, 44]"] ;
1015 -> 1031 ;
1032 [label="x[56] <= 31540.95\ngini = 0.499\nsamples = 55\nvalue = [49, 44]"] ;
1031 -> 1032 ;
1033 [label="gini = 0.0\nsamples = 1\nvalue = [0, 2]"] ;
1032 -> 1033 ;
1034 [label="x[49] <= 248516.922\ngini = 0.497\nsamples = 54\nvalue = [49, 42]"] ;
1032 -> 1034 ;
1035 [label="x[53] <= 127987.027\ngini = 0.434\nsamples = 16\nvalue = [15, 7]"] ;
1034 -> 1035 ;
1036 [label="x[57] <= 18378.393\ngini = 0.5\nsamples = 9\nvalue = [6, 6]"] ;
1035 -> 1036 ;
1037 [label="x[45] <= 38328.58\ngini = 0.494\nsamples = 7\nvalue = [4, 5]"] ;
1036 -> 1037 ;
1038 [label="gini = 0.0\nsamples = 1\nvalue = [0, 2]"] ;
1037 -> 1038 ;
1039 [label="x[57] <= 17853.924\ngini = 0.49\nsamples = 6\nvalue = [4, 3]"] ;
1037 -> 1039 ;
1040 [label="gini = 0.5\nsamples = 2\nvalue = [1, 1]"] ;
1039 -> 1040 ;
1041 [label="x[51] <= 41424.777\ngini = 0.48\nsamples = 4\nvalue = [3, 2]"] ;
1039 -> 1041 ;
1042 [label="gini = 0.444\nsamples = 2\nvalue = [2, 1]"] ;
1041 -> 1042 ;
1043 [label="gini = 0.5\nsamples = 2\nvalue = [1, 1]"] ;
1041 -> 1043 ;
1044 [label="gini = 0.444\nsamples = 2\nvalue = [2, 1]"] ;
1036 -> 1044 ;
1045 [label="x[48] <= 131583.094\ngini = 0.18\nsamples = 7\nvalue = [9, 1]"] ;
1035 -> 1045 ;
1046 [label="gini = 0.0\nsamples = 3\nvalue = [3, 0]"] ;
1045 -> 1046 ;
1047 [label="x[68] <= 272964.953\ngini = 0.245\nsamples = 4\nvalue = [6, 1]"] ;
1045 -> 1047 ;
1048 [label="gini = 0.0\nsamples = 1\nvalue = [1, 0]"] ;
1047 -> 1048 ;
1049 [label="x[70] <= 277372.953\ngini = 0.278\nsamples = 3\nvalue = [5, 1]"] ;
1047 -> 1049 ;
1050 [label="gini = 0.32\nsamples = 2\nvalue = [4, 1]"] ;
1049 -> 1050 ;
1051 [label="gini = 0.0\nsamples = 1\nvalue = [1, 0]"] ;
1049 -> 1051 ;
1052 [label="x[54] <= 287919.875\ngini = 0.5\nsamples = 38\nvalue = [34, 35]"] ;
1034 -> 1052 ;
1053 [label="x[45] <= 39810.283\ngini = 0.469\nsamples = 16\nvalue = [12, 20]"] ;
1052 -> 1053 ;
1054 [label="gini = 0.0\nsamples = 2\nvalue = [0, 3]"] ;
1053 -> 1054 ;
1055 [label="x[29] <= 767.5\ngini = 0.485\nsamples = 14\nvalue = [12, 17]"] ;
1053 -> 1055 ;
1056 [label="gini = 0.375\nsamples = 2\nvalue = [3, 1]"] ;
1055 -> 1056 ;
1057 [label="x[41] <= 710.751\ngini = 0.461\nsamples = 12\nvalue = [9, 16]"] ;
1055 -> 1057 ;
1058 [label="x[55] <= 17684.788\ngini = 0.32\nsamples = 3\nvalue = [1, 4]"] ;
1057 -> 1058 ;
1059 [label="gini = 0.375\nsamples = 2\nvalue = [1, 3]"] ;
1058 -> 1059 ;
1060 [label="gini = 0.0\nsamples = 1\nvalue = [0, 1]"] ;
1058 -> 1060 ;
1061 [label="x[8] <= 31.453\ngini = 0.48\nsamples = 9\nvalue = [8, 12]"] ;
1057 -> 1061 ;
1062 [label="gini = 0.0\nsamples = 1\nvalue = [0, 1]"] ;
1061 -> 1062 ;
1063 [label="x[0] <= 51100.0\ngini = 0.488\nsamples = 8\nvalue = [8, 11]"] ;
1061 -> 1063 ;
1064 [label="gini = 0.5\nsamples = 2\nvalue = [2, 2]"] ;
1063 -> 1064 ;
1065 [label="x[49] <= 251817.461\ngini = 0.48\nsamples = 6\nvalue = [6, 9]"] ;
1063 -> 1065 ;
1066 [label="gini = 0.444\nsamples = 2\nvalue = [1, 2]"] ;
1065 -> 1066 ;
1067 [label="x[29] <= 768.5\ngini = 0.486\nsamples = 4\nvalue = [5, 7]"] ;
1065 -> 1067 ;
1068 [label="gini = 0.48\nsamples = 2\nvalue = [2, 3]"] ;
1067 -> 1068 ;
1069 [label="gini = 0.49\nsamples = 2\nvalue = [3, 4]"] ;
1067 -> 1069 ;
1070 [label="x[44] <= 292204.391\ngini = 0.482\nsamples = 22\nvalue = [22, 15]"] ;
1052 -> 1070 ;
1071 [label="gini = 0.0\nsamples = 2\nvalue = [3, 0]"] ;
1070 -> 1071 ;
1072 [label="x[55] <= 18414.587\ngini = 0.493\nsamples = 20\nvalue = [19, 15]"] ;
1070 -> 1072 ;
1073 [label="gini = 0.0\nsamples = 1\nvalue = [0, 1]"] ;
1072 -> 1073 ;
1074 [label="x[29] <= 772.5\ngini = 0.489\nsamples = 19\nvalue = [19, 14]"] ;
1072 -> 1074 ;
1075 [label="x[47] <= 7.987\ngini = 0.477\nsamples = 16\nvalue = [17, 11]"] ;
1074 -> 1075 ;
1076 [label="x[56] <= 37195.43\ngini = 0.453\nsamples = 15\nvalue = [17, 9]"] ;
1075 -> 1076 ;
1077 [label="x[51] <= 47463.168\ngini = 0.494\nsamples = 6\nvalue = [5, 4]"] ;
1076 -> 1077 ;
1078 [label="gini = 0.444\nsamples = 2\nvalue = [2, 1]"] ;
1077 -> 1078 ;
1079 [label="x[39] <= 4880.0\ngini = 0.5\nsamples = 4\nvalue = [3, 3]"] ;
1077 -> 1079 ;
1080 [label="gini = 0.5\nsamples = 2\nvalue = [1, 1]"] ;
1079 -> 1080 ;
1081 [label="gini = 0.5\nsamples = 2\nvalue = [2, 2]"] ;
1079 -> 1081 ;
1082 [label="x[45] <= 43998.139\ngini = 0.415\nsamples = 9\nvalue = [12, 5]"] ;
1076 -> 1082 ;
1083 [label="gini = 0.0\nsamples = 3\nvalue = [6, 0]"] ;
1082 -> 1083 ;
1084 [label="x[48] <= 151654.953\ngini = 0.496\nsamples = 6\nvalue = [6, 5]"] ;
1082 -> 1084 ;
1085 [label="gini = 0.48\nsamples = 2\nvalue = [3, 2]"] ;
1084 -> 1085 ;
1086 [label="x[46] <= 67257.188\ngini = 0.5\nsamples = 4\nvalue = [3, 3]"] ;
1084 -> 1086 ;
1087 [label="gini = 0.5\nsamples = 2\nvalue = [1, 1]"] ;
1086 -> 1087 ;
1088 [label="gini = 0.5\nsamples = 2\nvalue = [2, 2]"] ;
1086 -> 1088 ;
1089 [label="gini = 0.0\nsamples = 1\nvalue = [0, 2]"] ;
1075 -> 1089 ;
1090 [label="x[45] <= 42841.281\ngini = 0.48\nsamples = 3\nvalue = [2, 3]"] ;
1074 -> 1090 ;
1091 [label="gini = 0.0\nsamples = 1\nvalue = [0, 1]"] ;
1090 -> 1091 ;
1092 [label="gini = 0.5\nsamples = 2\nvalue = [2, 2]"] ;
1090 -> 1092 ;
1093 [label="gini = 0.0\nsamples = 2\nvalue = [3, 0]"] ;
1031 -> 1093 ;
1094 [label="x[55] <= 19979.276\ngini = 0.378\nsamples = 94\nvalue = [36, 106]"] ;
908 -> 1094 ;
1095 [label="x[51] <= 45631.877\ngini = 0.353\nsamples = 86\nvalue = [30, 101]"] ;
1094 -> 1095 ;
1096 [label="gini = 0.0\nsamples = 15\nvalue = [0, 21]"] ;
1095 -> 1096 ;
1097 [label="x[69] <= 304748.906\ngini = 0.397\nsamples = 71\nvalue = [30, 80]"] ;
1095 -> 1097 ;
1098 [label="x[60] <= 762.5\ngini = 0.447\nsamples = 58\nvalue = [30, 59]"] ;
1097 -> 1098 ;
1099 [label="x[45] <= 40003.861\ngini = 0.494\nsamples = 5\nvalue = [4, 5]"] ;
1098 -> 1099 ;
1100 [label="gini = 0.0\nsamples = 1\nvalue = [2, 0]"] ;
1099 -> 1100 ;
1101 [label="x[46] <= 65638.006\ngini = 0.408\nsamples = 4\nvalue = [2, 5]"] ;
1099 -> 1101 ;
1102 [label="gini = 0.0\nsamples = 2\nvalue = [0, 4]"] ;
1101 -> 1102 ;
1103 [label="gini = 0.444\nsamples = 2\nvalue = [2, 1]"] ;
1101 -> 1103 ;
1104 [label="x[54] <= 304004.438\ngini = 0.439\nsamples = 53\nvalue = [26, 54]"] ;
1098 -> 1104 ;
1105 [label="x[44] <= 291348.938\ngini = 0.419\nsamples = 51\nvalue = [23, 54]"] ;
1104 -> 1105 ;
1106 [label="x[49] <= 261071.914\ngini = 0.448\nsamples = 41\nvalue = [21, 41]"] ;
1105 -> 1106 ;
1107 [label="x[53] <= 139441.484\ngini = 0.423\nsamples = 37\nvalue = [17, 39]"] ;
1106 -> 1107 ;
1108 [label="x[49] <= 245620.008\ngini = 0.32\nsamples = 3\nvalue = [4, 1]"] ;
1107 -> 1108 ;
1109 [label="gini = 0.444\nsamples = 2\nvalue = [2, 1]"] ;
1108 -> 1109 ;
1110 [label="gini = 0.0\nsamples = 1\nvalue = [2, 0]"] ;
1108 -> 1110 ;
1111 [label="x[51] <= 46607.277\ngini = 0.38\nsamples = 34\nvalue = [13, 38]"] ;
1107 -> 1111 ;
1112 [label="gini = 0.0\nsamples = 7\nvalue = [0, 13]"] ;
1111 -> 1112 ;
1113 [label="x[0] <= 57057.0\ngini = 0.45\nsamples = 27\nvalue = [13, 25]"] ;
1111 -> 1113 ;
1114 [label="x[68] <= 285437.469\ngini = 0.478\nsamples = 23\nvalue = [13, 20]"] ;
1113 -> 1114 ;
1115 [label="x[41] <= 712.141\ngini = 0.495\nsamples = 20\nvalue = [13, 16]"] ;
1114 -> 1115 ;
1116 [label="gini = 0.0\nsamples = 1\nvalue = [0, 1]"] ;
1115 -> 1116 ;
1117 [label="x[47] <= 3.576\ngini = 0.497\nsamples = 19\nvalue = [13, 15]"] ;
1115 -> 1117 ;
1118 [label="gini = 0.0\nsamples = 1\nvalue = [0, 2]"] ;
1117 -> 1118 ;
1119 [label="x[51] <= 48497.902\ngini = 0.5\nsamples = 18\nvalue = [13, 13]"] ;
1117 -> 1119 ;
1120 [label="x[71] <= 279867.531\ngini = 0.484\nsamples = 11\nvalue = [7, 10]"] ;
1119 -> 1120 ;
1121 [label="x[7] <= 29.275\ngini = 0.5\nsamples = 7\nvalue = [6, 6]"] ;
1120 -> 1121 ;
1122 [label="x[44] <= 277755.375\ngini = 0.494\nsamples = 5\nvalue = [4, 5]"] ;
1121 -> 1122 ;
1123 [label="x[55] <= 17219.401\ngini = 0.375\nsamples = 3\nvalue = [1, 3]"] ;
1122 -> 1123 ;
1124 [label="gini = 0.5\nsamples = 2\nvalue = [1, 1]"] ;
1123 -> 1124 ;
1125 [label="gini = 0.0\nsamples = 1\nvalue = [0, 2]"] ;
1123 -> 1125 ;
1126 [label="gini = 0.48\nsamples = 2\nvalue = [3, 2]"] ;
1122 -> 1126 ;
1127 [label="gini = 0.444\nsamples = 2\nvalue = [2, 1]"] ;
1121 -> 1127 ;
1128 [label="x[30] <= 95.562\ngini = 0.32\nsamples = 4\nvalue = [1, 4]"] ;
1120 -> 1128 ;
1129 [label="x[42] <= 30.398\ngini = 0.375\nsamples = 3\nvalue = [1, 3]"] ;
1128 -> 1129 ;
1130 [label="gini = 0.0\nsamples = 1\nvalue = [0, 1]"] ;
1129 -> 1130 ;
1131 [label="gini = 0.444\nsamples = 2\nvalue = [1, 2]"] ;
1129 -> 1131 ;
1132 [label="gini = 0.0\nsamples = 1\nvalue = [0, 1]"] ;
1128 -> 1132 ;
1133 [label="x[52] <= 5.007\ngini = 0.444\nsamples = 7\nvalue = [6, 3]"] ;
1119 -> 1133 ;
1134 [label="gini = 0.5\nsamples = 2\nvalue = [1, 1]"] ;
1133 -> 1134 ;
1135 [label="x[44] <= 284234.875\ngini = 0.408\nsamples = 5\nvalue = [5, 2]"] ;
1133 -> 1135 ;
1136 [label="x[52] <= 6.557\ngini = 0.32\nsamples = 3\nvalue = [4, 1]"] ;
1135 -> 1136 ;
1137 [label="gini = 0.0\nsamples = 1\nvalue = [1, 0]"] ;
1136 -> 1137 ;
1138 [label="gini = 0.375\nsamples = 2\nvalue = [3, 1]"] ;
1136 -> 1138 ;
1139 [label="gini = 0.5\nsamples = 2\nvalue = [1, 1]"] ;
1135 -> 1139 ;
1140 [label="gini = 0.0\nsamples = 3\nvalue = [0, 4]"] ;
1114 -> 1140 ;
1141 [label="gini = 0.0\nsamples = 4\nvalue = [0, 5]"] ;
1113 -> 1141 ;
1142 [label="x[50] <= 32661.989\ngini = 0.444\nsamples = 4\nvalue = [4, 2]"] ;
1106 -> 1142 ;
1143 [label="gini = 0.0\nsamples = 1\nvalue = [3, 0]"] ;
1142 -> 1143 ;
1144 [label="x[50] <= 32682.688\ngini = 0.444\nsamples = 3\nvalue = [1, 2]"] ;
1142 -> 1144 ;
1145 [label="gini = 0.5\nsamples = 2\nvalue = [1, 1]"] ;
1144 -> 1145 ;
1146 [label="gini = 0.0\nsamples = 1\nvalue = [0, 1]"] ;
1144 -> 1146 ;
1147 [label="x[0] <= 34753.0\ngini = 0.231\nsamples = 10\nvalue = [2, 13]"] ;
1105 -> 1147 ;
1148 [label="x[55] <= 18900.968\ngini = 0.444\nsamples = 3\nvalue = [2, 1]"] ;
1147 -> 1148 ;
1149 [label="gini = 0.0\nsamples = 1\nvalue = [1, 0]"] ;
1148 -> 1149 ;
1150 [label="gini = 0.5\nsamples = 2\nvalue = [1, 1]"] ;
1148 -> 1150 ;
1151 [label="gini = 0.0\nsamples = 7\nvalue = [0, 12]"] ;
1147 -> 1151 ;
1152 [label="gini = 0.0\nsamples = 2\nvalue = [3, 0]"] ;
1104 -> 1152 ;
1153 [label="gini = 0.0\nsamples = 13\nvalue = [0, 21]"] ;
1097 -> 1153 ;
1154 [label="x[56] <= 48565.328\ngini = 0.496\nsamples = 8\nvalue = [6, 5]"] ;
1094 -> 1154 ;
1155 [label="x[49] <= 300594.578\ngini = 0.48\nsamples = 7\nvalue = [6, 4]"] ;
1154 -> 1155 ;
1156 [label="x[70] <= 326647.891\ngini = 0.5\nsamples = 3\nvalue = [2, 2]"] ;
1155 -> 1156 ;
1157 [label="gini = 0.444\nsamples = 2\nvalue = [2, 1]"] ;
1156 -> 1157 ;
1158 [label="gini = 0.0\nsamples = 1\nvalue = [0, 1]"] ;
1156 -> 1158 ;
1159 [label="x[7] <= 24.12\ngini = 0.444\nsamples = 4\nvalue = [4, 2]"] ;
1155 -> 1159 ;
1160 [label="gini = 0.5\nsamples = 2\nvalue = [1, 1]"] ;
1159 -> 1160 ;
1161 [label="gini = 0.375\nsamples = 2\nvalue = [3, 1]"] ;
1159 -> 1161 ;
1162 [label="gini = 0.0\nsamples = 1\nvalue = [0, 1]"] ;
1154 -> 1162 ;
1163 [label="x[57] <= 14295.366\ngini = 0.444\nsamples = 16\nvalue = [18, 9]"] ;
863 -> 1163 ;
1164 [label="x[42] <= 28.491\ngini = 0.498\nsamples = 10\nvalue = [9, 8]"] ;
1163 -> 1164 ;
1165 [label="x[49] <= 329092.969\ngini = 0.278\nsamples = 3\nvalue = [5, 1]"] ;
1164 -> 1165 ;
1166 [label="gini = 0.444\nsamples = 2\nvalue = [2, 1]"] ;
1165 -> 1166 ;
1167 [label="gini = 0.0\nsamples = 1\nvalue = [3, 0]"] ;
1165 -> 1167 ;
1168 [label="x[68] <= 359056.344\ngini = 0.463\nsamples = 7\nvalue = [4, 7]"] ;
1164 -> 1168 ;
1169 [label="x[39] <= 4927.0\ngini = 0.346\nsamples = 5\nvalue = [2, 7]"] ;
1168 -> 1169 ;
1170 [label="gini = 0.5\nsamples = 2\nvalue = [2, 2]"] ;
1169 -> 1170 ;
1171 [label="gini = 0.0\nsamples = 3\nvalue = [0, 5]"] ;
1169 -> 1171 ;
1172 [label="gini = 0.0\nsamples = 2\nvalue = [2, 0]"] ;
1168 -> 1172 ;
1173 [label="x[42] <= 35.882\ngini = 0.18\nsamples = 6\nvalue = [9, 1]"] ;
1163 -> 1173 ;
1174 [label="x[49] <= 309516.078\ngini = 0.5\nsamples = 2\nvalue = [1, 1]"] ;
1173 -> 1174 ;
1175 [label="gini = 0.0\nsamples = 1\nvalue = [1, 0]"] ;
1174 -> 1175 ;
1176 [label="gini = 0.0\nsamples = 1\nvalue = [0, 1]"] ;
1174 -> 1176 ;
1177 [label="gini = 0.0\nsamples = 4\nvalue = [8, 0]"] ;
1173 -> 1177 ;
1178 [label="x[41] <= 711.46\ngini = 0.085\nsamples = 29\nvalue = [2, 43]"] ;
842 -> 1178 ;
1179 [label="gini = 0.0\nsamples = 26\nvalue = [0, 39]"] ;
1178 -> 1179 ;
1180 [label="x[68] <= 375545.984\ngini = 0.444\nsamples = 3\nvalue = [2, 4]"] ;
1178 -> 1180 ;
1181 [label="gini = 0.0\nsamples = 1\nvalue = [0, 4]"] ;
1180 -> 1181 ;
1182 [label="gini = 0.0\nsamples = 2\nvalue = [2, 0]"] ;
1180 -> 1182 ;
1183 [label="gini = 0.0\nsamples = 347\nvalue = [0, 549]"] ;
39 -> 1183 ;
1184 [label="x[50] <= 53543.121\ngini = 0.0\nsamples = 5703\nvalue = [1, 9090]"] ;
36 -> 1184 ;
1185 [label="x[49] <= 425863.391\ngini = 0.001\nsamples = 978\nvalue = [1, 1550]"] ;
1184 -> 1185 ;
1186 [label="gini = 0.0\nsamples = 976\nvalue = [0, 1547]"] ;
1185 -> 1186 ;
1187 [label="gini = 0.375\nsamples = 2\nvalue = [1, 3]"] ;
1185 -> 1187 ;
1188 [label="gini = 0.0\nsamples = 4725\nvalue = [0, 7540]"] ;
1184 -> 1188 ;
1189 [label="x[70] <= 1532546.062\ngini = 0.263\nsamples = 9574\nvalue = [2345, 12739]"] ;
1 -> 1189 ;
1190 [label="x[6] <= 0.5\ngini = 0.488\nsamples = 2604\nvalue = [2342, 1704]"] ;
1189 -> 1190 ;
1191 [label="x[57] <= 98.131\ngini = 0.485\nsamples = 2575\nvalue = [2342, 1657]"] ;
1190 -> 1191 ;
1192 [label="x[71] <= 1528685.0\ngini = 0.471\nsamples = 1755\nvalue = [1694, 1036]"] ;
1191 -> 1192 ;
1193 [label="x[56] <= 329.926\ngini = 0.46\nsamples = 1359\nvalue = [1361, 761]"] ;
1192 -> 1193 ;
1194 [label="x[42] <= 764277.594\ngini = 0.458\nsamples = 1348\nvalue = [1357, 747]"] ;
1193 -> 1194 ;
1195 [label="x[55] <= 764293.0\ngini = 0.444\nsamples = 867\nvalue = [908, 454]"] ;
1194 -> 1195 ;
1196 [label="x[69] <= 1528577.875\ngini = 0.481\nsamples = 141\nvalue = [135, 91]"] ;
1195 -> 1196 ;
1197 [label="x[55] <= 764287.531\ngini = 0.375\nsamples = 57\nvalue = [66, 22]"] ;
1196 -> 1197 ;
1198 [label="x[2] <= 1.529\ngini = 0.467\nsamples = 29\nvalue = [27, 16]"] ;
1197 -> 1198 ;
1199 [label="gini = 0.0\nsamples = 2\nvalue = [4, 0]"] ;
1198 -> 1199 ;
1200 [label="x[71] <= 1528574.625\ngini = 0.484\nsamples = 27\nvalue = [23, 16]"] ;
1198 -> 1200 ;
1201 [label="x[68] <= 1528574.125\ngini = 0.476\nsamples = 16\nvalue = [14, 9]"] ;
1200 -> 1201 ;
1202 [label="x[56] <= 88.677\ngini = 0.483\nsamples = 15\nvalue = [13, 9]"] ;
1201 -> 1202 ;
1203 [label="x[7] <= 1.963\ngini = 0.219\nsamples = 6\nvalue = [7, 1]"] ;
1202 -> 1203 ;
1204 [label="gini = 0.0\nsamples = 3\nvalue = [4, 0]"] ;
1203 -> 1204 ;
1205 [label="x[45] <= 764286.438\ngini = 0.375\nsamples = 3\nvalue = [3, 1]"] ;
1203 -> 1205 ;
1206 [label="gini = 0.0\nsamples = 1\nvalue = [2, 0]"] ;
1205 -> 1206 ;
1207 [label="x[53] <= 764305.688\ngini = 0.5\nsamples = 2\nvalue = [1, 1]"] ;
1205 -> 1207 ;
1208 [label="gini = 0.0\nsamples = 1\nvalue = [1, 0]"] ;
1207 -> 1208 ;
1209 [label="gini = 0.0\nsamples = 1\nvalue = [0, 1]"] ;
1207 -> 1209 ;
1210 [label="x[56] <= 139.253\ngini = 0.49\nsamples = 9\nvalue = [6, 8]"] ;
1202 -> 1210 ;
1211 [label="x[2] <= 1.529\ngini = 0.32\nsamples = 7\nvalue = [2, 8]"] ;
1210 -> 1211 ;
1212 [label="x[54] <= 1528572.875\ngini = 0.48\nsamples = 4\nvalue = [2, 3]"] ;
1211 -> 1212 ;
1213 [label="gini = 0.0\nsamples = 1\nvalue = [0, 1]"] ;
1212 -> 1213 ;
1214 [label="x[52] <= 764203.906\ngini = 0.5\nsamples = 3\nvalue = [2, 2]"] ;
1212 -> 1214 ;
1215 [label="gini = 0.0\nsamples = 1\nvalue = [2, 0]"] ;
1214 -> 1215 ;
1216 [label="gini = 0.0\nsamples = 2\nvalue = [0, 2]"] ;
1214 -> 1216 ;
1217 [label="gini = 0.0\nsamples = 3\nvalue = [0, 5]"] ;
1211 -> 1217 ;
1218 [label="gini = 0.0\nsamples = 2\nvalue = [4, 0]"] ;
1210 -> 1218 ;
1219 [label="gini = 0.0\nsamples = 1\nvalue = [1, 0]"] ;
1201 -> 1219 ;
1220 [label="x[52] <= 764161.094\ngini = 0.492\nsamples = 11\nvalue = [9, 7]"] ;
1200 -> 1220 ;
1221 [label="x[52] <= 764149.531\ngini = 0.375\nsamples = 2\nvalue = [1, 3]"] ;
1220 -> 1221 ;
1222 [label="gini = 0.0\nsamples = 1\nvalue = [1, 0]"] ;
1221 -> 1222 ;
1223 [label="gini = 0.0\nsamples = 1\nvalue = [0, 3]"] ;
1221 -> 1223 ;
1224 [label="x[56] <= 31.189\ngini = 0.444\nsamples = 9\nvalue = [8, 4]"] ;
1220 -> 1224 ;
1225 [label="gini = 0.0\nsamples = 1\nvalue = [0, 1]"] ;
1224 -> 1225 ;
1226 [label="x[56] <= 43.833\ngini = 0.397\nsamples = 8\nvalue = [8, 3]"] ;
1224 -> 1226 ;
1227 [label="gini = 0.0\nsamples = 2\nvalue = [3, 0]"] ;
1226 -> 1227 ;
1228 [label="x[53] <= 764335.875\ngini = 0.469\nsamples = 6\nvalue = [5, 3]"] ;
1226 -> 1228 ;
1229 [label="gini = 0.0\nsamples = 2\nvalue = [0, 2]"] ;
1228 -> 1229 ;
1230 [label="x[43] <= 764337.906\ngini = 0.278\nsamples = 4\nvalue = [5, 1]"] ;
1228 -> 1230 ;
1231 [label="gini = 0.0\nsamples = 1\nvalue = [3, 0]"] ;
1230 -> 1231 ;
1232 [label="x[53] <= 764347.562\ngini = 0.444\nsamples = 3\nvalue = [2, 1]"] ;
1230 -> 1232 ;
1233 [label="gini = 0.0\nsamples = 1\nvalue = [0, 1]"] ;
1232 -> 1233 ;
1234 [label="gini = 0.0\nsamples = 2\nvalue = [2, 0]"] ;
1232 -> 1234 ;
1235 [label="x[71] <= 1528577.0\ngini = 0.231\nsamples = 28\nvalue = [39, 6]"] ;
1197 -> 1235 ;
