digraph Tree {
node [shape=box, fontname="helvetica"] ;
edge [fontname="helvetica"] ;
0 [label="x[11] <= 262.0\ngini = 0.127\nsamples = 245364\nvalue = [26385, 362309]"] ;
1 [label="x[60] <= 149.75\ngini = 0.017\nsamples = 165218\nvalue = [2288, 259261]"] ;
0 -> 1 [labeldistance=2.5, labelangle=45, headlabel="True"] ;
2 [label="x[9] <= 0.005\ngini = 0.0\nsamples = 155991\nvalue = [2, 247029]"] ;
1 -> 2 ;
3 [label="x[11] <= 30.0\ngini = 0.0\nsamples = 25251\nvalue = [2, 39792]"] ;
2 -> 3 ;
4 [label="gini = 0.0\nsamples = 21016\nvalue = [0, 33082]"] ;
3 -> 4 ;
5 [label="x[22] <= 0.5\ngini = 0.001\nsamples = 4235\nvalue = [2, 6710]"] ;
3 -> 5 ;
6 [label="gini = 0.0\nsamples = 4100\nvalue = [0, 6498]"] ;
5 -> 6 ;
7 [label="x[80] <= 287.5\ngini = 0.019\nsamples = 135\nvalue = [2, 212]"] ;
5 -> 7 ;
8 [label="gini = 0.0\nsamples = 104\nvalue = [0, 169]"] ;
7 -> 8 ;
9 [label="x[13] <= 36.0\ngini = 0.085\nsamples = 31\nvalue = [2, 43]"] ;
7 -> 9 ;
10 [label="x[1] <= 261.5\ngini = 0.087\nsamples = 30\nvalue = [2, 42]"] ;
9 -> 10 ;
11 [label="gini = 0.0\nsamples = 23\nvalue = [0, 33]"] ;
10 -> 11 ;
12 [label="x[80] <= 322.0\ngini = 0.298\nsamples = 7\nvalue = [2, 9]"] ;
10 -> 12 ;
13 [label="gini = 0.0\nsamples = 1\nvalue = [2, 0]"] ;
12 -> 13 ;
14 [label="gini = 0.0\nsamples = 6\nvalue = [0, 9]"] ;
12 -> 14 ;
15 [label="gini = 0.0\nsamples = 1\nvalue = [0, 1]"] ;
9 -> 15 ;
16 [label="gini = 0.0\nsamples = 130740\nvalue = [0, 207237]"] ;
2 -> 16 ;
17 [label="x[49] <= 5.96\ngini = 0.265\nsamples = 9227\nvalue = [2286, 12232]"] ;
1 -> 17 ;
18 [label="x[11] <= 22.0\ngini = 0.4\nsamples = 5264\nvalue = [2286, 5999]"] ;
17 -> 18 ;
19 [label="x[60] <= 199.5\ngini = 0.031\nsamples = 1952\nvalue = [48, 3015]"] ;
18 -> 19 ;
20 [label="gini = 0.0\nsamples = 1152\nvalue = [0, 1819]"] ;
19 -> 20 ;
21 [label="x[27] <= 206.0\ngini = 0.074\nsamples = 800\nvalue = [48, 1196]"] ;
19 -> 21 ;
22 [label="x[54] <= 108.48\ngini = 0.155\nsamples = 368\nvalue = [48, 518]"] ;
21 -> 22 ;
23 [label="gini = 0.163\nsamples = 347\nvalue = [48, 490]"] ;
22 -> 23 ;
24 [label="gini = 0.0\nsamples = 21\nvalue = [0, 28]"] ;
22 -> 24 ;
25 [label="gini = 0.0\nsamples = 432\nvalue = [0, 678]"] ;
21 -> 25 ;
26 [label="x[77] <= 3.878\ngini = 0.49\nsamples = 3312\nvalue = [2238, 2984]"] ;
18 -> 26 ;
27 [label="x[29] <= 225.0\ngini = 0.499\nsamples = 2954\nvalue = [2238, 2417]"] ;
26 -> 27 ;
28 [label="x[55] <= 768154.0\ngini = 0.492\nsamples = 2550\nvalue = [2238, 1745]"] ;
27 -> 28 ;
29 [label="x[45] <= 764285.25\ngini = 0.491\nsamples = 2518\nvalue = [2237, 1704]"] ;
28 -> 29 ;
30 [label="x[45] <= 764235.25\ngini = 0.5\nsamples = 788\nvalue = [635, 653]"] ;
29 -> 30 ;
31 [label="x[7] <= 1.963\ngini = 0.471\nsamples = 162\nvalue = [98, 160]"] ;
30 -> 31 ;
32 [label="x[55] <= 764234.312\ngini = 0.188\nsamples = 21\nvalue = [4, 34]"] ;
31 -> 32 ;
33 [label="x[52] <= 764066.938\ngini = 0.067\nsamples = 17\nvalue = [1, 28]"] ;
32 -> 33 ;
34 [label="x[57] <= 98.138\ngini = 0.5\nsamples = 2\nvalue = [1, 1]"] ;
33 -> 34 ;
35 [label="gini = 0.0\nsamples = 1\nvalue = [0, 1]"] ;
34 -> 35 ;
36 [label="gini = 0.0\nsamples = 1\nvalue = [1, 0]"] ;
34 -> 36 ;
37 [label="gini = 0.0\nsamples = 15\nvalue = [0, 27]"] ;
33 -> 37 ;
38 [label="x[55] <= 764234.781\ngini = 0.444\nsamples = 4\nvalue = [3, 6]"] ;
32 -> 38 ;
39 [label="x[52] <= 764149.094\ngini = 0.5\nsamples = 3\nvalue = [3, 3]"] ;
38 -> 39 ;
40 [label="gini = 0.0\nsamples = 1\nvalue = [0, 3]"] ;
39 -> 40 ;
41 [label="gini = 0.0\nsamples = 2\nvalue = [3, 0]"] ;
39 -> 41 ;
42 [label="gini = 0.0\nsamples = 1\nvalue = [0, 3]"] ;
38 -> 42 ;
43 [label="x[44] <= 1527429.938\ngini = 0.489\nsamples = 141\nvalue = [94, 126]"] ;
31 -> 43 ;
44 [label="x[56] <= 16752.192\ngini = 0.312\nsamples = 24\nvalue = [6, 25]"] ;
43 -> 44 ;
45 [label="x[71] <= 1518231.938\ngini = 0.386\nsamples = 19\nvalue = [6, 17]"] ;
44 -> 45 ;
46 [label="x[54] <= 1504489.562\ngini = 0.165\nsamples = 9\nvalue = [1, 10]"] ;
45 -> 46 ;
47 [label="gini = 0.0\nsamples = 5\nvalue = [0, 6]"] ;
46 -> 47 ;
48 [label="x[43] <= 764595.5\ngini = 0.32\nsamples = 4\nvalue = [1, 4]"] ;
46 -> 48 ;
49 [label="gini = 0.0\nsamples = 1\nvalue = [1, 0]"] ;
48 -> 49 ;
50 [label="gini = 0.0\nsamples = 3\nvalue = [0, 4]"] ;
48 -> 50 ;
51 [label="x[44] <= 1525802.0\ngini = 0.486\nsamples = 10\nvalue = [5, 7]"] ;
45 -> 51 ;
52 [label="gini = 0.0\nsamples = 3\nvalue = [4, 0]"] ;
51 -> 52 ;
53 [label="x[53] <= 764249.562\ngini = 0.219\nsamples = 7\nvalue = [1, 7]"] ;
51 -> 53 ;
54 [label="gini = 0.0\nsamples = 1\nvalue = [1, 0]"] ;
53 -> 54 ;
55 [label="gini = 0.0\nsamples = 6\nvalue = [0, 7]"] ;
53 -> 55 ;
56 [label="gini = 0.0\nsamples = 5\nvalue = [0, 8]"] ;
44 -> 56 ;
57 [label="x[54] <= 1528419.5\ngini = 0.498\nsamples = 117\nvalue = [88, 101]"] ;
43 -> 57 ;
58 [label="x[9] <= 1.963\ngini = 0.497\nsamples = 68\nvalue = [61, 52]"] ;
57 -> 58 ;
59 [label="gini = 0.0\nsamples = 7\nvalue = [11, 0]"] ;
58 -> 59 ;
60 [label="x[45] <= 764136.5\ngini = 0.5\nsamples = 61\nvalue = [50, 52]"] ;
58 -> 60 ;
61 [label="x[45] <= 764100.75\ngini = 0.408\nsamples = 9\nvalue = [10, 4]"] ;
60 -> 61 ;
62 [label="x[46] <= 336.5\ngini = 0.5\nsamples = 4\nvalue = [3, 3]"] ;
61 -> 62 ;
63 [label="gini = 0.0\nsamples = 1\nvalue = [2, 0]"] ;
62 -> 63 ;
64 [label="x[46] <= 509.05\ngini = 0.375\nsamples = 3\nvalue = [1, 3]"] ;
62 -> 64 ;
65 [label="gini = 0.0\nsamples = 2\nvalue = [0, 3]"] ;
64 -> 65 ;
66 [label="gini = 0.0\nsamples = 1\nvalue = [1, 0]"] ;
64 -> 66 ;
67 [label="x[70] <= 1528246.125\ngini = 0.219\nsamples = 5\nvalue = [7, 1]"] ;
61 -> 67 ;
68 [label="x[53] <= 764342.562\ngini = 0.375\nsamples = 3\nvalue = [3, 1]"] ;
67 -> 68 ;
69 [label="gini = 0.0\nsamples = 1\nvalue = [2, 0]"] ;
68 -> 69 ;
70 [label="x[53] <= 764385.0\ngini = 0.5\nsamples = 2\nvalue = [1, 1]"] ;
68 -> 70 ;
71 [label="gini = 0.0\nsamples = 1\nvalue = [0, 1]"] ;
70 -> 71 ;
72 [label="gini = 0.0\nsamples = 1\nvalue = [1, 0]"] ;
70 -> 72 ;
73 [label="gini = 0.0\nsamples = 2\nvalue = [4, 0]"] ;
67 -> 73 ;
74 [label="x[56] <= 115.398\ngini = 0.496\nsamples = 52\nvalue = [40, 48]"] ;
60 -> 74 ;
75 [label="x[7] <= 1.963\ngini = 0.482\nsamples = 24\nvalue = [25, 17]"] ;
74 -> 75 ;
76 [label="x[46] <= 87.581\ngini = 0.384\nsamples = 14\nvalue = [20, 7]"] ;
75 -> 76 ;
77 [label="x[53] <= 764253.5\ngini = 0.457\nsamples = 9\nvalue = [11, 6]"] ;
76 -> 77 ;
78 [label="x[53] <= 764214.531\ngini = 0.337\nsamples = 8\nvalue = [11, 3]"] ;
77 -> 78 ;
79 [label="x[68] <= 1528396.438\ngini = 0.5\nsamples = 2\nvalue = [2, 2]"] ;
78 -> 79 ;
80 [label="gini = 0.0\nsamples = 1\nvalue = [2, 0]"] ;
79 -> 80 ;
81 [label="gini = 0.0\nsamples = 1\nvalue = [0, 2]"] ;
79 -> 81 ;
82 [label="x[71] <= 1528408.062\ngini = 0.18\nsamples = 6\nvalue = [9, 1]"] ;
78 -> 82 ;
83 [label="gini = 0.0\nsamples = 4\nvalue = [5, 0]"] ;
82 -> 83 ;
84 [label="x[69] <= 1528409.5\ngini = 0.32\nsamples = 2\nvalue = [4, 1]"] ;
82 -> 84 ;
85 [label="gini = 0.0\nsamples = 1\nvalue = [0, 1]"] ;
84 -> 85 ;
86 [label="gini = 0.0\nsamples = 1\nvalue = [4, 0]"] ;
84 -> 86 ;
87 [label="gini = 0.0\nsamples = 1\nvalue = [0, 3]"] ;
77 -> 87 ;
88 [label="x[46] <= 95.926\ngini = 0.18\nsamples = 5\nvalue = [9, 1]"] ;
76 -> 88 ;
89 [label="gini = 0.0\nsamples = 2\nvalue = [5, 0]"] ;
88 -> 89 ;
90 [label="x[68] <= 1528407.938\ngini = 0.32\nsamples = 3\nvalue = [4, 1]"] ;
88 -> 90 ;
91 [label="gini = 0.0\nsamples = 2\nvalue = [4, 0]"] ;
90 -> 91 ;
92 [label="gini = 0.0\nsamples = 1\nvalue = [0, 1]"] ;
90 -> 92 ;
93 [label="x[7] <= 1.963\ngini = 0.444\nsamples = 10\nvalue = [5, 10]"] ;
75 -> 93 ;
94 [label="x[46] <= 86.317\ngini = 0.165\nsamples = 7\nvalue = [1, 10]"] ;
93 -> 94 ;
95 [label="gini = 0.0\nsamples = 5\nvalue = [0, 9]"] ;
94 -> 95 ;
96 [label="x[42] <= 764117.969\ngini = 0.5\nsamples = 2\nvalue = [1, 1]"] ;
94 -> 96 ;
97 [label="gini = 0.0\nsamples = 1\nvalue = [1, 0]"] ;
96 -> 97 ;
98 [label="gini = 0.0\nsamples = 1\nvalue = [0, 1]"] ;
96 -> 98 ;
99 [label="gini = 0.0\nsamples = 3\nvalue = [4, 0]"] ;
93 -> 99 ;
100 [label="x[42] <= 764075.625\ngini = 0.44\nsamples = 28\nvalue = [15, 31]"] ;
74 -> 100 ;
101 [label="x[2] <= 1.528\ngini = 0.478\nsamples = 23\nvalue = [15, 23]"] ;
100 -> 101 ;
102 [label="x[7] <= 1.963\ngini = 0.305\nsamples = 7\nvalue = [3, 13]"] ;
101 -> 102 ;
103 [label="gini = 0.0\nsamples = 2\nvalue = [0, 7]"] ;
102 -> 103 ;
104 [label="x[2] <= 1.528\ngini = 0.444\nsamples = 5\nvalue = [3, 6]"] ;
102 -> 104 ;
105 [label="x[56] <= 275.303\ngini = 0.245\nsamples = 4\nvalue = [1, 6]"] ;
104 -> 105 ;
106 [label="gini = 0.0\nsamples = 1\nvalue = [1, 0]"] ;
105 -> 106 ;
107 [label="gini = 0.0\nsamples = 3\nvalue = [0, 6]"] ;
105 -> 107 ;
108 [label="gini = 0.0\nsamples = 1\nvalue = [2, 0]"] ;
104 -> 108 ;
109 [label="x[57] <= 98.147\ngini = 0.496\nsamples = 16\nvalue = [12, 10]"] ;
101 -> 109 ;
110 [label="x[45] <= 764200.031\ngini = 0.484\nsamples = 13\nvalue = [7, 10]"] ;
109 -> 110 ;
111 [label="x[55] <= 764170.469\ngini = 0.5\nsamples = 12\nvalue = [7, 7]"] ;
110 -> 111 ;
112 [label="gini = 0.0\nsamples = 2\nvalue = [0, 2]"] ;
111 -> 112 ;
113 [label="x[2] <= 1.528\ngini = 0.486\nsamples = 10\nvalue = [7, 5]"] ;
111 -> 113 ;
114 [label="gini = 0.0\nsamples = 1\nvalue = [2, 0]"] ;
113 -> 114 ;
115 [label="x[56] <= 221.355\ngini = 0.5\nsamples = 9\nvalue = [5, 5]"] ;
113 -> 115 ;
116 [label="x[57] <= 98.142\ngini = 0.408\nsamples = 7\nvalue = [2, 5]"] ;
115 -> 116 ;
117 [label="gini = 0.0\nsamples = 1\nvalue = [1, 0]"] ;
116 -> 117 ;
118 [label="x[7] <= 1.963\ngini = 0.278\nsamples = 6\nvalue = [1, 5]"] ;
116 -> 118 ;
119 [label="x[71] <= 1528391.5\ngini = 0.444\nsamples = 3\nvalue = [1, 2]"] ;
118 -> 119 ;
120 [label="gini = 0.0\nsamples = 1\nvalue = [1, 0]"] ;
119 -> 120 ;
121 [label="gini = 0.0\nsamples = 2\nvalue = [0, 2]"] ;
119 -> 121 ;
122 [label="gini = 0.0\nsamples = 3\nvalue = [0, 3]"] ;
118 -> 122 ;
123 [label="gini = 0.0\nsamples = 2\nvalue = [3, 0]"] ;
115 -> 123 ;
124 [label="gini = 0.0\nsamples = 1\nvalue = [0, 3]"] ;
110 -> 124 ;
125 [label="gini = 0.0\nsamples = 3\nvalue = [5, 0]"] ;
109 -> 125 ;
126 [label="gini = 0.0\nsamples = 5\nvalue = [0, 8]"] ;
100 -> 126 ;
127 [label="x[45] <= 764219.75\ngini = 0.458\nsamples = 49\nvalue = [27, 49]"] ;
57 -> 127 ;
128 [label="x[42] <= 764194.031\ngini = 0.165\nsamples = 21\nvalue = [3, 30]"] ;
127 -> 128 ;
129 [label="x[52] <= 764134.531\ngini = 0.083\nsamples = 14\nvalue = [1, 22]"] ;
128 -> 129 ;
130 [label="x[56] <= 130.487\ngini = 0.18\nsamples = 6\nvalue = [1, 9]"] ;
129 -> 130 ;
131 [label="x[45] <= 764212.031\ngini = 0.5\nsamples = 2\nvalue = [1, 1]"] ;
130 -> 131 ;
132 [label="gini = 0.0\nsamples = 1\nvalue = [0, 1]"] ;
131 -> 132 ;
133 [label="gini = 0.0\nsamples = 1\nvalue = [1, 0]"] ;
131 -> 133 ;
134 [label="gini = 0.0\nsamples = 4\nvalue = [0, 8]"] ;
130 -> 134 ;
135 [label="gini = 0.0\nsamples = 8\nvalue = [0, 13]"] ;
129 -> 135 ;
136 [label="x[57] <= 98.14\ngini = 0.32\nsamples = 7\nvalue = [2, 8]"] ;
128 -> 136 ;
137 [label="gini = 0.0\nsamples = 1\nvalue = [1, 0]"] ;
136 -> 137 ;
138 [label="x[71] <= 1528424.938\ngini = 0.198\nsamples = 6\nvalue = [1, 8]"] ;
136 -> 138 ;
139 [label="gini = 0.0\nsamples = 1\nvalue = [1, 0]"] ;
138 -> 139 ;
140 [label="gini = 0.0\nsamples = 5\nvalue = [0, 8]"] ;
138 -> 140 ;
141 [label="x[56] <= 45.519\ngini = 0.493\nsamples = 28\nvalue = [24, 19]"] ;
127 -> 141 ;
142 [label="gini = 0.0\nsamples = 5\nvalue = [9, 0]"] ;
141 -> 142 ;
143 [label="x[52] <= 764177.094\ngini = 0.493\nsamples = 23\nvalue = [15, 19]"] ;
141 -> 143 ;
144 [label="x[43] <= 764397.031\ngini = 0.494\nsamples = 18\nvalue = [15, 12]"] ;
143 -> 144 ;
145 [label="x[57] <= 98.138\ngini = 0.5\nsamples = 16\nvalue = [12, 12]"] ;
144 -> 145 ;
146 [label="x[46] <= 145.238\ngini = 0.278\nsamples = 5\nvalue = [1, 5]"] ;
145 -> 146 ;
147 [label="gini = 0.0\nsamples = 3\nvalue = [0, 4]"] ;
146 -> 147 ;
148 [label="x[68] <= 1528457.625\ngini = 0.5\nsamples = 2\nvalue = [1, 1]"] ;
146 -> 148 ;
149 [label="gini = 0.0\nsamples = 1\nvalue = [0, 1]"] ;
148 -> 149 ;
150 [label="gini = 0.0\nsamples = 1\nvalue = [1, 0]"] ;
148 -> 150 ;
151 [label="x[56] <= 165.721\ngini = 0.475\nsamples = 11\nvalue = [11, 7]"] ;
145 -> 151 ;
152 [label="x[53] <= 764319.438\ngini = 0.43\nsamples = 10\nvalue = [11, 5]"] ;
151 -> 152 ;
153 [label="x[52] <= 764132.844\ngini = 0.486\nsamples = 8\nvalue = [7, 5]"] ;
152 -> 153 ;
154 [label="gini = 0.0\nsamples = 2\nvalue = [0, 3]"] ;
153 -> 154 ;
155 [label="x[68] <= 1528449.875\ngini = 0.346\nsamples = 6\nvalue = [7, 2]"] ;
153 -> 155 ;
156 [label="gini = 0.0\nsamples = 4\nvalue = [5, 0]"] ;
155 -> 156 ;
157 [label="x[7] <= 1.963\ngini = 0.5\nsamples = 2\nvalue = [2, 2]"] ;
155 -> 157 ;
158 [label="gini = 0.0\nsamples = 1\nvalue = [2, 0]"] ;
157 -> 158 ;
159 [label="gini = 0.0\nsamples = 1\nvalue = [0, 2]"] ;
157 -> 159 ;
160 [label="gini = 0.0\nsamples = 2\nvalue = [4, 0]"] ;
152 -> 160 ;
161 [label="gini = 0.0\nsamples = 1\nvalue = [0, 2]"] ;
151 -> 161 ;
162 [label="gini = 0.0\nsamples = 2\nvalue = [3, 0]"] ;
144 -> 162 ;
163 [label="gini = 0.0\nsamples = 5\nvalue = [0, 7]"] ;
143 -> 163 ;
164 [label="x[53] <= 764321.438\ngini = 0.499\nsamples = 626\nvalue = [537, 493]"] ;
30 -> 164 ;
165 [label="x[69] <= 1528531.438\ngini = 0.474\nsamples = 338\nvalue = [337, 212]"] ;
164 -> 165 ;
166 [label="x[45] <= 764237.281\ngini = 0.493\nsamples = 180\nvalue = [168, 132]"] ;
165 -> 166 ;
167 [label="x[53] <= 764253.969\ngini = 0.219\nsamples = 6\nvalue = [14, 2]"] ;
166 -> 167 ;
168 [label="gini = 0.0\nsamples = 3\nvalue = [8, 0]"] ;
167 -> 168 ;
169 [label="x[44] <= 1528472.062\ngini = 0.375\nsamples = 3\nvalue = [6, 2]"] ;
167 -> 169 ;
170 [label="gini = 0.0\nsamples = 1\nvalue = [0, 2]"] ;
169 -> 170 ;
171 [label="gini = 0.0\nsamples = 2\nvalue = [6, 0]"] ;
169 -> 171 ;
172 [label="x[44] <= 1528530.5\ngini = 0.496\nsamples = 174\nvalue = [154, 130]"] ;
166 -> 172 ;
173 [label="x[45] <= 764250.438\ngini = 0.494\nsamples = 170\nvalue = [153, 123]"] ;
172 -> 173 ;
174 [label="x[57] <= 98.136\ngini = 0.496\nsamples = 59\nvalue = [43, 51]"] ;
173 -> 174 ;
175 [label="x[45] <= 764248.031\ngini = 0.426\nsamples = 14\nvalue = [8, 18]"] ;
174 -> 175 ;
176 [label="gini = 0.0\nsamples = 2\nvalue = [0, 3]"] ;
175 -> 176 ;
177 [label="x[42] <= 764230.031\ngini = 0.454\nsamples = 12\nvalue = [8, 15]"] ;
175 -> 177 ;
178 [label="gini = 0.0\nsamples = 8\nvalue = [0, 15]"] ;
177 -> 178 ;
179 [label="gini = 0.0\nsamples = 4\nvalue = [8, 0]"] ;
177 -> 179 ;
180 [label="x[57] <= 98.136\ngini = 0.5\nsamples = 45\nvalue = [35, 33]"] ;
174 -> 180 ;
181 [label="gini = 0.0\nsamples = 4\nvalue = [5, 0]"] ;
180 -> 181 ;
182 [label="x[44] <= 1528485.5\ngini = 0.499\nsamples = 41\nvalue = [30, 33]"] ;
180 -> 182 ;
183 [label="x[57] <= 98.137\ngini = 0.484\nsamples = 28\nvalue = [16, 23]"] ;
182 -> 183 ;
184 [label="x[56] <= 42.737\ngini = 0.375\nsamples = 14\nvalue = [5, 15]"] ;
183 -> 184 ;
185 [label="gini = 0.0\nsamples = 5\nvalue = [0, 8]"] ;
184 -> 185 ;
186 [label="x[53] <= 764298.062\ngini = 0.486\nsamples = 9\nvalue = [5, 7]"] ;
184 -> 186 ;
187 [label="x[2] <= 1.528\ngini = 0.408\nsamples = 5\nvalue = [5, 2]"] ;
186 -> 187 ;
188 [label="x[42] <= 764194.969\ngini = 0.5\nsamples = 3\nvalue = [2, 2]"] ;
187 -> 188 ;
189 [label="gini = 0.0\nsamples = 1\nvalue = [1, 0]"] ;
188 -> 189 ;
190 [label="x[52] <= 764201.031\ngini = 0.444\nsamples = 2\nvalue = [1, 2]"] ;
188 -> 190 ;
191 [label="gini = 0.0\nsamples = 1\nvalue = [0, 2]"] ;
190 -> 191 ;
192 [label="gini = 0.0\nsamples = 1\nvalue = [1, 0]"] ;
190 -> 192 ;
193 [label="gini = 0.0\nsamples = 2\nvalue = [3, 0]"] ;
187 -> 193 ;
194 [label="gini = 0.0\nsamples = 4\nvalue = [0, 5]"] ;
186 -> 194 ;
195 [label="x[46] <= 98.624\ngini = 0.488\nsamples = 14\nvalue = [11, 8]"] ;
183 -> 195 ;
196 [label="x[69] <= 1528475.5\ngini = 0.391\nsamples = 12\nvalue = [11, 4]"] ;
195 -> 196 ;
197 [label="x[43] <= 764262.562\ngini = 0.444\nsamples = 3\nvalue = [1, 2]"] ;
196 -> 197 ;
198 [label="gini = 0.0\nsamples = 2\nvalue = [0, 2]"] ;
197 -> 198 ;
199 [label="gini = 0.0\nsamples = 1\nvalue = [1, 0]"] ;
197 -> 199 ;
200 [label="x[42] <= 764195.438\ngini = 0.278\nsamples = 9\nvalue = [10, 2]"] ;
196 -> 200 ;
201 [label="gini = 0.0\nsamples = 4\nvalue = [7, 0]"] ;
200 -> 201 ;
202 [label="x[42] <= 764208.906\ngini = 0.48\nsamples = 5\nvalue = [3, 2]"] ;
200 -> 202 ;
203 [label="gini = 0.0\nsamples = 1\nvalue = [0, 1]"] ;
202 -> 203 ;
204 [label="x[46] <= 15.847\ngini = 0.375\nsamples = 4\nvalue = [3, 1]"] ;
202 -> 204 ;
205 [label="x[44] <= 1528477.938\ngini = 0.5\nsamples = 2\nvalue = [1, 1]"] ;
204 -> 205 ;
206 [label="gini = 0.0\nsamples = 1\nvalue = [1, 0]"] ;
205 -> 206 ;
207 [label="gini = 0.0\nsamples = 1\nvalue = [0, 1]"] ;
205 -> 207 ;
208 [label="gini = 0.0\nsamples = 2\nvalue = [2, 0]"] ;
204 -> 208 ;
209 [label="gini = 0.0\nsamples = 2\nvalue = [0, 4]"] ;
195 -> 209 ;
210 [label="x[55] <= 764244.25\ngini = 0.486\nsamples = 13\nvalue = [14, 10]"] ;
182 -> 210 ;
211 [label="x[43] <= 764266.031\ngini = 0.32\nsamples = 3\nvalue = [4, 1]"] ;
210 -> 211 ;
212 [label="gini = 0.0\nsamples = 1\nvalue = [3, 0]"] ;
211 -> 212 ;
213 [label="x[42] <= 764202.094\ngini = 0.5\nsamples = 2\nvalue = [1, 1]"] ;
211 -> 213 ;
214 [label="gini = 0.0\nsamples = 1\nvalue = [1, 0]"] ;
213 -> 214 ;
215 [label="gini = 0.0\nsamples = 1\nvalue = [0, 1]"] ;
213 -> 215 ;
216 [label="x[55] <= 764244.812\ngini = 0.499\nsamples = 10\nvalue = [10, 9]"] ;
210 -> 216 ;
217 [label="x[43] <= 764268.625\ngini = 0.375\nsamples = 2\nvalue = [1, 3]"] ;
216 -> 217 ;
218 [label="gini = 0.0\nsamples = 1\nvalue = [0, 3]"] ;
217 -> 218 ;
219 [label="gini = 0.0\nsamples = 1\nvalue = [1, 0]"] ;
217 -> 219 ;
220 [label="x[71] <= 1528491.5\ngini = 0.48\nsamples = 8\nvalue = [9, 6]"] ;
216 -> 220 ;
221 [label="x[45] <= 764245.281\ngini = 0.463\nsamples = 6\nvalue = [7, 4]"] ;
220 -> 221 ;
222 [label="x[52] <= 764202.094\ngini = 0.48\nsamples = 5\nvalue = [6, 4]"] ;
221 -> 222 ;
223 [label="x[53] <= 764313.938\ngini = 0.245\nsamples = 3\nvalue = [6, 1]"] ;
222 -> 223 ;
224 [label="x[42] <= 764186.594\ngini = 0.444\nsamples = 2\nvalue = [2, 1]"] ;
223 -> 224 ;
225 [label="gini = 0.0\nsamples = 1\nvalue = [0, 1]"] ;
224 -> 225 ;
226 [label="gini = 0.0\nsamples = 1\nvalue = [2, 0]"] ;
224 -> 226 ;
227 [label="gini = 0.0\nsamples = 1\nvalue = [4, 0]"] ;
223 -> 227 ;
228 [label="gini = 0.0\nsamples = 2\nvalue = [0, 3]"] ;
222 -> 228 ;
229 [label="gini = 0.0\nsamples = 1\nvalue = [1, 0]"] ;
221 -> 229 ;
230 [label="x[53] <= 764259.0\ngini = 0.5\nsamples = 2\nvalue = [2, 2]"] ;
220 -> 230 ;
231 [label="gini = 0.0\nsamples = 1\nvalue = [2, 0]"] ;
230 -> 231 ;
232 [label="gini = 0.0\nsamples = 1\nvalue = [0, 2]"] ;
230 -> 232 ;
233 [label="x[55] <= 764253.25\ngini = 0.478\nsamples = 111\nvalue = [110, 72]"] ;
173 -> 233 ;
234 [label="x[53] <= 764261.594\ngini = 0.342\nsamples = 19\nvalue = [25, 7]"] ;
233 -> 234 ;
235 [label="x[71] <= 1528502.562\ngini = 0.32\nsamples = 3\nvalue = [1, 4]"] ;
234 -> 235 ;
236 [label="gini = 0.0\nsamples = 1\nvalue = [1, 0]"] ;
235 -> 236 ;
237 [label="gini = 0.0\nsamples = 2\nvalue = [0, 4]"] ;
235 -> 237 ;
238 [label="x[44] <= 1528503.5\ngini = 0.198\nsamples = 16\nvalue = [24, 3]"] ;
234 -> 238 ;
239 [label="x[53] <= 764301.562\ngini = 0.397\nsamples = 7\nvalue = [8, 3]"] ;
238 -> 239 ;
240 [label="x[43] <= 764276.5\ngini = 0.49\nsamples = 5\nvalue = [4, 3]"] ;
239 -> 240 ;
241 [label="gini = 0.0\nsamples = 1\nvalue = [2, 0]"] ;
240 -> 241 ;
242 [label="x[53] <= 764281.031\ngini = 0.48\nsamples = 4\nvalue = [2, 3]"] ;
240 -> 242 ;
243 [label="gini = 0.0\nsamples = 1\nvalue = [0, 2]"] ;
242 -> 243 ;
244 [label="x[70] <= 1528501.625\ngini = 0.444\nsamples = 3\nvalue = [2, 1]"] ;
242 -> 244 ;
245 [label="x[46] <= 54.454\ngini = 0.5\nsamples = 2\nvalue = [1, 1]"] ;
244 -> 245 ;
246 [label="gini = 0.0\nsamples = 1\nvalue = [1, 0]"] ;
245 -> 246 ;
247 [label="gini = 0.0\nsamples = 1\nvalue = [0, 1]"] ;
245 -> 247 ;
248 [label="gini = 0.0\nsamples = 1\nvalue = [1, 0]"] ;
244 -> 248 ;
249 [label="gini = 0.0\nsamples = 2\nvalue = [4, 0]"] ;
239 -> 249 ;
250 [label="gini = 0.0\nsamples = 9\nvalue = [16, 0]"] ;
238 -> 250 ;
251 [label="x[46] <= 5.985\ngini = 0.491\nsamples = 92\nvalue = [85, 65]"] ;
233 -> 251 ;
252 [label="gini = 0.0\nsamples = 4\nvalue = [8, 0]"] ;
251 -> 252 ;
253 [label="x[43] <= 764261.969\ngini = 0.496\nsamples = 88\nvalue = [77, 65]"] ;
251 -> 253 ;
254 [label="gini = 0.0\nsamples = 1\nvalue = [0, 6]"] ;
253 -> 254 ;
255 [label="x[44] <= 1528520.5\ngini = 0.491\nsamples = 87\nvalue = [77, 59]"] ;
253 -> 255 ;
256 [label="x[55] <= 764257.188\ngini = 0.452\nsamples = 51\nvalue = [53, 28]"] ;
255 -> 256 ;
257 [label="x[55] <= 764255.281\ngini = 0.497\nsamples = 28\nvalue = [22, 19]"] ;
256 -> 257 ;
258 [label="x[55] <= 764255.0\ngini = 0.444\nsamples = 16\nvalue = [16, 8]"] ;
257 -> 258 ;
259 [label="x[52] <= 764207.625\ngini = 0.488\nsamples = 13\nvalue = [11, 8]"] ;
258 -> 259 ;
260 [label="x[9] <= 1.963\ngini = 0.198\nsamples = 5\nvalue = [8, 1]"] ;
259 -> 260 ;
261 [label="gini = 0.0\nsamples = 1\nvalue = [0, 1]"] ;
260 -> 261 ;
262 [label="gini = 0.0\nsamples = 4\nvalue = [8, 0]"] ;
260 -> 262 ;
263 [label="x[46] <= 25.12\ngini = 0.42\nsamples = 8\nvalue = [3, 7]"] ;
259 -> 263 ;
264 [label="x[2] <= 1.529\ngini = 0.375\nsamples = 4\nvalue = [3, 1]"] ;
263 -> 264 ;
265 [label="x[54] <= 1528507.125\ngini = 0.5\nsamples = 2\nvalue = [1, 1]"] ;
264 -> 265 ;
266 [label="gini = 0.0\nsamples = 1\nvalue = [1, 0]"] ;
265 -> 266 ;
267 [label="gini = 0.0\nsamples = 1\nvalue = [0, 1]"] ;
265 -> 267 ;
268 [label="gini = 0.0\nsamples = 2\nvalue = [2, 0]"] ;
264 -> 268 ;
269 [label="gini = 0.0\nsamples = 4\nvalue = [0, 6]"] ;
263 -> 269 ;
270 [label="gini = 0.0\nsamples = 3\nvalue = [5, 0]"] ;
258 -> 270 ;
271 [label="x[71] <= 1528511.5\ngini = 0.457\nsamples = 12\nvalue = [6, 11]"] ;
257 -> 271 ;
272 [label="gini = 0.0\nsamples = 1\nvalue = [0, 1]"] ;
271 -> 272 ;
273 [label="x[9] <= 1.963\ngini = 0.469\nsamples = 11\nvalue = [6, 10]"] ;
271 -> 273 ;
274 [label="x[46] <= 41.978\ngini = 0.408\nsamples = 6\nvalue = [2, 5]"] ;
273 -> 274 ;
275 [label="gini = 0.0\nsamples = 3\nvalue = [0, 3]"] ;
274 -> 275 ;
276 [label="x[42] <= 764208.438\ngini = 0.5\nsamples = 3\nvalue = [2, 2]"] ;
274 -> 276 ;
277 [label="gini = 0.0\nsamples = 1\nvalue = [0, 2]"] ;
276 -> 277 ;
278 [label="gini = 0.0\nsamples = 2\nvalue = [2, 0]"] ;
276 -> 278 ;
279 [label="x[43] <= 764305.969\ngini = 0.494\nsamples = 5\nvalue = [4, 5]"] ;
273 -> 279 ;
280 [label="x[56] <= 21.073\ngini = 0.408\nsamples = 4\nvalue = [2, 5]"] ;
279 -> 280 ;
281 [label="gini = 0.0\nsamples = 1\nvalue = [1, 0]"] ;
280 -> 281 ;
282 [label="x[56] <= 46.699\ngini = 0.278\nsamples = 3\nvalue = [1, 5]"] ;
280 -> 282 ;
283 [label="x[53] <= 764278.531\ngini = 0.444\nsamples = 2\nvalue = [1, 2]"] ;
282 -> 283 ;
284 [label="gini = 0.0\nsamples = 1\nvalue = [0, 2]"] ;
283 -> 284 ;
285 [label="gini = 0.0\nsamples = 1\nvalue = [1, 0]"] ;
283 -> 285 ;
286 [label="gini = 0.0\nsamples = 1\nvalue = [0, 3]"] ;
282 -> 286 ;
287 [label="gini = 0.0\nsamples = 1\nvalue = [2, 0]"] ;
279 -> 287 ;
288 [label="x[45] <= 764259.062\ngini = 0.349\nsamples = 23\nvalue = [31, 9]"] ;
256 -> 288 ;
289 [label="x[69] <= 1528515.562\ngini = 0.252\nsamples = 15\nvalue = [23, 4]"] ;
288 -> 289 ;
290 [label="gini = 0.0\nsamples = 2\nvalue = [3, 0]"] ;
289 -> 290 ;
291 [label="x[69] <= 1528516.5\ngini = 0.278\nsamples = 13\nvalue = [20, 4]"] ;
289 -> 291 ;
292 [label="x[46] <= 26.974\ngini = 0.5\nsamples = 2\nvalue = [1, 1]"] ;
291 -> 292 ;
293 [label="gini = 0.0\nsamples = 1\nvalue = [1, 0]"] ;
292 -> 293 ;
294 [label="gini = 0.0\nsamples = 1\nvalue = [0, 1]"] ;
292 -> 294 ;
295 [label="x[42] <= 764215.969\ngini = 0.236\nsamples = 11\nvalue = [19, 3]"] ;
291 -> 295 ;
296 [label="gini = 0.0\nsamples = 2\nvalue = [0, 2]"] ;
295 -> 296 ;
297 [label="x[57] <= 98.134\ngini = 0.095\nsamples = 9\nvalue = [19, 1]"] ;
295 -> 297 ;
298 [label="gini = 0.0\nsamples = 3\nvalue = [7, 0]"] ;
297 -> 298 ;
299 [label="x[42] <= 764235.0\ngini = 0.142\nsamples = 6\nvalue = [12, 1]"] ;
297 -> 299 ;
300 [label="gini = 0.0\nsamples = 4\nvalue = [7, 0]"] ;
299 -> 300 ;
301 [label="gini = 0.278\nsamples = 2\nvalue = [5, 1]"] ;
299 -> 301 ;
302 [label="x[44] <= 1528518.562\ngini = 0.473\nsamples = 8\nvalue = [8, 5]"] ;
288 -> 302 ;
303 [label="gini = 0.0\nsamples = 1\nvalue = [0, 3]"] ;
302 -> 303 ;
304 [label="x[9] <= 1.963\ngini = 0.32\nsamples = 7\nvalue = [8, 2]"] ;
302 -> 304 ;
305 [label="x[57] <= 98.134\ngini = 0.32\nsamples = 3\nvalue = [4, 1]"] ;
304 -> 305 ;
306 [label="gini = 0.0\nsamples = 1\nvalue = [2, 0]"] ;
305 -> 306 ;
307 [label="x[43] <= 764301.406\ngini = 0.444\nsamples = 2\nvalue = [2, 1]"] ;
305 -> 307 ;
308 [label="gini = 0.0\nsamples = 1\nvalue = [0, 1]"] ;
307 -> 308 ;
309 [label="gini = 0.0\nsamples = 1\nvalue = [2, 0]"] ;
307 -> 309 ;
310 [label="x[46] <= 50.239\ngini = 0.32\nsamples = 4\nvalue = [4, 1]"] ;
304 -> 310 ;
311 [label="x[42] <= 764237.531\ngini = 0.5\nsamples = 2\nvalue = [1, 1]"] ;
310 -> 311 ;
312 [label="gini = 0.0\nsamples = 1\nvalue = [0, 1]"] ;
311 -> 312 ;
313 [label="gini = 0.0\nsamples = 1\nvalue = [1, 0]"] ;
311 -> 313 ;
314 [label="gini = 0.0\nsamples = 2\nvalue = [3, 0]"] ;
310 -> 314 ;
315 [label="x[52] <= 764227.625\ngini = 0.492\nsamples = 36\nvalue = [24, 31]"] ;
255 -> 315 ;
316 [label="x[54] <= 1528524.5\ngini = 0.455\nsamples = 13\nvalue = [13, 7]"] ;
315 -> 316 ;
317 [label="gini = 0.0\nsamples = 4\nvalue = [7, 0]"] ;
316 -> 317 ;
318 [label="x[42] <= 764222.5\ngini = 0.497\nsamples = 9\nvalue = [6, 7]"] ;
316 -> 318 ;
319 [label="x[52] <= 764210.594\ngini = 0.346\nsamples = 6\nvalue = [2, 7]"] ;
318 -> 319 ;
320 [label="gini = 0.0\nsamples = 3\nvalue = [0, 4]"] ;
319 -> 320 ;
321 [label="x[52] <= 764218.938\ngini = 0.48\nsamples = 3\nvalue = [2, 3]"] ;
319 -> 321 ;
322 [label="gini = 0.0\nsamples = 2\nvalue = [2, 0]"] ;
321 -> 322 ;
323 [label="gini = 0.0\nsamples = 1\nvalue = [0, 3]"] ;
321 -> 323 ;
324 [label="gini = 0.0\nsamples = 3\nvalue = [4, 0]"] ;
318 -> 324 ;
325 [label="x[44] <= 1528525.625\ngini = 0.431\nsamples = 23\nvalue = [11, 24]"] ;
315 -> 325 ;
326 [label="x[55] <= 764261.25\ngini = 0.269\nsamples = 15\nvalue = [4, 21]"] ;
325 -> 326 ;
327 [label="x[7] <= 1.963\ngini = 0.117\nsamples = 8\nvalue = [1, 15]"] ;
326 -> 327 ;
328 [label="gini = 0.0\nsamples = 4\nvalue = [0, 9]"] ;
327 -> 328 ;
329 [label="x[56] <= 8.429\ngini = 0.245\nsamples = 4\nvalue = [1, 6]"] ;
327 -> 329 ;
330 [label="gini = 0.0\nsamples = 1\nvalue = [1, 0]"] ;
329 -> 330 ;
331 [label="gini = 0.0\nsamples = 3\nvalue = [0, 6]"] ;
329 -> 331 ;
332 [label="x[46] <= 15.426\ngini = 0.444\nsamples = 7\nvalue = [3, 6]"] ;
326 -> 332 ;
333 [label="gini = 0.0\nsamples = 1\nvalue = [0, 2]"] ;
332 -> 333 ;
334 [label="x[52] <= 764238.938\ngini = 0.49\nsamples = 6\nvalue = [3, 4]"] ;
332 -> 334 ;
335 [label="x[46] <= 36.078\ngini = 0.32\nsamples = 4\nvalue = [1, 4]"] ;
334 -> 335 ;
336 [label="gini = 0.0\nsamples = 1\nvalue = [0, 2]"] ;
335 -> 336 ;
337 [label="x[9] <= 1.963\ngini = 0.444\nsamples = 3\nvalue = [1, 2]"] ;
335 -> 337 ;
338 [label="gini = 0.0\nsamples = 2\nvalue = [0, 2]"] ;
337 -> 338 ;
339 [label="gini = 0.0\nsamples = 1\nvalue = [1, 0]"] ;
337 -> 339 ;
340 [label="gini = 0.0\nsamples = 2\nvalue = [2, 0]"] ;
334 -> 340 ;
341 [label="x[57] <= 98.133\ngini = 0.42\nsamples = 8\nvalue = [7, 3]"] ;
325 -> 341 ;
342 [label="gini = 0.0\nsamples = 1\nvalue = [2, 0]"] ;
341 -> 342 ;
343 [label="x[68] <= 1528529.375\ngini = 0.469\nsamples = 7\nvalue = [5, 3]"] ;
341 -> 343 ;
344 [label="x[44] <= 1528527.5\ngini = 0.408\nsamples = 6\nvalue = [5, 2]"] ;
343 -> 344 ;
345 [label="x[46] <= 13.066\ngini = 0.48\nsamples = 4\nvalue = [3, 2]"] ;
344 -> 345 ;
346 [label="gini = 0.0\nsamples = 2\nvalue = [3, 0]"] ;
345 -> 346 ;
347 [label="gini = 0.0\nsamples = 2\nvalue = [0, 2]"] ;
345 -> 347 ;
348 [label="gini = 0.0\nsamples = 2\nvalue = [2, 0]"] ;
344 -> 348 ;
349 [label="gini = 0.0\nsamples = 1\nvalue = [0, 1]"] ;
343 -> 349 ;
350 [label="x[69] <= 1528531.0\ngini = 0.219\nsamples = 4\nvalue = [1, 7]"] ;
172 -> 350 ;
351 [label="gini = 0.0\nsamples = 1\nvalue = [0, 3]"] ;
350 -> 351 ;
352 [label="x[43] <= 764285.094\ngini = 0.32\nsamples = 3\nvalue = [1, 4]"] ;
350 -> 352 ;
353 [label="gini = 0.0\nsamples = 1\nvalue = [1, 0]"] ;
352 -> 353 ;
354 [label="gini = 0.0\nsamples = 2\nvalue = [0, 4]"] ;
352 -> 354 ;
355 [label="x[44] <= 1528563.5\ngini = 0.436\nsamples = 158\nvalue = [169, 80]"] ;
165 -> 355 ;
356 [label="x[42] <= 764231.562\ngini = 0.397\nsamples = 130\nvalue = [152, 57]"] ;
355 -> 356 ;
357 [label="x[7] <= 1.963\ngini = 0.475\nsamples = 12\nvalue = [7, 11]"] ;
356 -> 357 ;
358 [label="x[55] <= 764272.344\ngini = 0.298\nsamples = 6\nvalue = [2, 9]"] ;
357 -> 358 ;
359 [label="gini = 0.0\nsamples = 4\nvalue = [0, 9]"] ;
358 -> 359 ;
360 [label="gini = 0.0\nsamples = 2\nvalue = [2, 0]"] ;
358 -> 360 ;
361 [label="x[70] <= 1528532.5\ngini = 0.408\nsamples = 6\nvalue = [5, 2]"] ;
357 -> 361 ;
362 [label="gini = 0.0\nsamples = 2\nvalue = [0, 2]"] ;
361 -> 362 ;
363 [label="gini = 0.0\nsamples = 4\nvalue = [5, 0]"] ;
361 -> 363 ;
364 [label="x[42] <= 764248.594\ngini = 0.366\nsamples = 118\nvalue = [145, 46]"] ;
356 -> 364 ;
365 [label="x[44] <= 1528555.625\ngini = 0.219\nsamples = 42\nvalue = [63, 9]"] ;
364 -> 365 ;
366 [label="x[44] <= 1528549.938\ngini = 0.18\nsamples = 35\nvalue = [54, 6]"] ;
365 -> 366 ;
367 [label="x[43] <= 764287.938\ngini = 0.236\nsamples = 25\nvalue = [38, 6]"] ;
366 -> 367 ;
368 [label="gini = 0.0\nsamples = 1\nvalue = [0, 1]"] ;
367 -> 368 ;
369 [label="x[53] <= 764314.406\ngini = 0.206\nsamples = 24\nvalue = [38, 5]"] ;
367 -> 369 ;
370 [label="x[52] <= 764242.531\ngini = 0.172\nsamples = 23\nvalue = [38, 4]"] ;
369 -> 370 ;
371 [label="x[52] <= 764237.531\ngini = 0.278\nsamples = 15\nvalue = [20, 4]"] ;
370 -> 371 ;
372 [label="gini = 0.0\nsamples = 6\nvalue = [12, 0]"] ;
371 -> 372 ;
373 [label="x[69] <= 1528540.062\ngini = 0.444\nsamples = 9\nvalue = [8, 4]"] ;
371 -> 373 ;
374 [label="gini = 0.0\nsamples = 3\nvalue = [5, 0]"] ;
373 -> 374 ;
375 [label="x[71] <= 1528546.875\ngini = 0.49\nsamples = 6\nvalue = [3, 4]"] ;
373 -> 375 ;
376 [label="x[53] <= 764305.344\ngini = 0.32\nsamples = 4\nvalue = [1, 4]"] ;
375 -> 376 ;
377 [label="gini = 0.0\nsamples = 2\nvalue = [0, 3]"] ;
376 -> 377 ;
378 [label="x[2] <= 1.529\ngini = 0.5\nsamples = 2\nvalue = [1, 1]"] ;
376 -> 378 ;
379 [label="gini = 0.0\nsamples = 1\nvalue = [1, 0]"] ;
378 -> 379 ;
380 [label="gini = 0.0\nsamples = 1\nvalue = [0, 1]"] ;
378 -> 380 ;
381 [label="gini = 0.0\nsamples = 2\nvalue = [2, 0]"] ;
375 -> 381 ;
382 [label="gini = 0.0\nsamples = 8\nvalue = [18, 0]"] ;
370 -> 382 ;
383 [label="gini = 0.0\nsamples = 1\nvalue = [0, 1]"] ;
369 -> 383 ;
384 [label="gini = 0.0\nsamples = 10\nvalue = [16, 0]"] ;
366 -> 384 ;
385 [label="x[56] <= 56.224\ngini = 0.375\nsamples = 7\nvalue = [9, 3]"] ;
365 -> 385 ;
386 [label="x[9] <= 1.963\ngini = 0.375\nsamples = 4\nvalue = [1, 3]"] ;
385 -> 386 ;
387 [label="x[69] <= 1528559.938\ngini = 0.5\nsamples = 2\nvalue = [1, 1]"] ;
386 -> 387 ;
388 [label="gini = 0.0\nsamples = 1\nvalue = [1, 0]"] ;
387 -> 388 ;
389 [label="gini = 0.0\nsamples = 1\nvalue = [0, 1]"] ;
387 -> 389 ;
390 [label="gini = 0.0\nsamples = 2\nvalue = [0, 2]"] ;
386 -> 390 ;
391 [label="gini = 0.0\nsamples = 3\nvalue = [8, 0]"] ;
385 -> 391 ;
392 [label="x[56] <= 3.456\ngini = 0.429\nsamples = 76\nvalue = [82, 37]"] ;
364 -> 392 ;
393 [label="gini = 0.0\nsamples = 6\nvalue = [11, 0]"] ;
392 -> 393 ;
394 [label="x[70] <= 1528536.062\ngini = 0.45\nsamples = 70\nvalue = [71, 37]"] ;
392 -> 394 ;
395 [label="gini = 0.0\nsamples = 5\nvalue = [10, 0]"] ;
394 -> 395 ;
396 [label="x[43] <= 764282.469\ngini = 0.47\nsamples = 65\nvalue = [61, 37]"] ;
394 -> 396 ;
397 [label="x[44] <= 1528542.062\ngini = 0.36\nsamples = 13\nvalue = [4, 13]"] ;
396 -> 397 ;
398 [label="x[45] <= 764269.0\ngini = 0.219\nsamples = 5\nvalue = [1, 7]"] ;
397 -> 398 ;
399 [label="x[52] <= 764261.031\ngini = 0.32\nsamples = 3\nvalue = [1, 4]"] ;
398 -> 399 ;
400 [label="x[53] <= 764280.094\ngini = 0.5\nsamples = 2\nvalue = [1, 1]"] ;
399 -> 400 ;
401 [label="gini = 0.0\nsamples = 1\nvalue = [1, 0]"] ;
400 -> 401 ;
402 [label="gini = 0.0\nsamples = 1\nvalue = [0, 1]"] ;
400 -> 402 ;
403 [label="gini = 0.0\nsamples = 1\nvalue = [0, 3]"] ;
399 -> 403 ;
404 [label="gini = 0.0\nsamples = 2\nvalue = [0, 3]"] ;
398 -> 404 ;
405 [label="x[2] <= 1.529\ngini = 0.444\nsamples = 8\nvalue = [3, 6]"] ;
397 -> 405 ;
406 [label="gini = 0.0\nsamples = 2\nvalue = [2, 0]"] ;
405 -> 406 ;
407 [label="x[42] <= 764269.344\ngini = 0.245\nsamples = 6\nvalue = [1, 6]"] ;
405 -> 407 ;
408 [label="gini = 0.0\nsamples = 2\nvalue = [0, 3]"] ;
407 -> 408 ;
409 [label="x[53] <= 764280.438\ngini = 0.375\nsamples = 4\nvalue = [1, 3]"] ;
407 -> 409 ;
410 [label="gini = 0.0\nsamples = 2\nvalue = [0, 2]"] ;
409 -> 410 ;
411 [label="x[43] <= 764281.531\ngini = 0.5\nsamples = 2\nvalue = [1, 1]"] ;
409 -> 411 ;
412 [label="gini = 0.0\nsamples = 1\nvalue = [1, 0]"] ;
411 -> 412 ;
413 [label="gini = 0.0\nsamples = 1\nvalue = [0, 1]"] ;
411 -> 413 ;
414 [label="x[42] <= 764254.438\ngini = 0.417\nsamples = 52\nvalue = [57, 24]"] ;
396 -> 414 ;
415 [label="x[70] <= 1528543.5\ngini = 0.495\nsamples = 14\nvalue = [9, 11]"] ;
414 -> 415 ;
416 [label="gini = 0.0\nsamples = 2\nvalue = [2, 0]"] ;
415 -> 416 ;
417 [label="x[53] <= 764308.094\ngini = 0.475\nsamples = 12\nvalue = [7, 11]"] ;
415 -> 417 ;
418 [label="x[46] <= 28.154\ngini = 0.43\nsamples = 10\nvalue = [5, 11]"] ;
417 -> 418 ;
419 [label="gini = 0.0\nsamples = 2\nvalue = [0, 3]"] ;
418 -> 419 ;
420 [label="x[46] <= 30.261\ngini = 0.473\nsamples = 8\nvalue = [5, 8]"] ;
418 -> 420 ;
421 [label="gini = 0.0\nsamples = 1\nvalue = [2, 0]"] ;
420 -> 421 ;
422 [label="x[2] <= 1.529\ngini = 0.397\nsamples = 7\nvalue = [3, 8]"] ;
420 -> 422 ;
423 [label="x[57] <= 98.133\ngini = 0.444\nsamples = 2\nvalue = [2, 1]"] ;
422 -> 423 ;
424 [label="gini = 0.0\nsamples = 1\nvalue = [2, 0]"] ;
423 -> 424 ;
425 [label="gini = 0.0\nsamples = 1\nvalue = [0, 1]"] ;
423 -> 425 ;
426 [label="x[45] <= 764275.531\ngini = 0.219\nsamples = 5\nvalue = [1, 7]"] ;
422 -> 426 ;
427 [label="gini = 0.0\nsamples = 3\nvalue = [0, 4]"] ;
426 -> 427 ;
428 [label="x[57] <= 98.132\ngini = 0.375\nsamples = 2\nvalue = [1, 3]"] ;
426 -> 428 ;
429 [label="gini = 0.0\nsamples = 1\nvalue = [0, 3]"] ;
428 -> 429 ;
430 [label="gini = 0.0\nsamples = 1\nvalue = [1, 0]"] ;
428 -> 430 ;
431 [label="gini = 0.0\nsamples = 2\nvalue = [2, 0]"] ;
417 -> 431 ;
432 [label="x[53] <= 764285.938\ngini = 0.335\nsamples = 38\nvalue = [48, 13]"] ;
414 -> 432 ;
433 [label="gini = 0.0\nsamples = 6\nvalue = [9, 0]"] ;
432 -> 433 ;
434 [label="x[9] <= 1.963\ngini = 0.375\nsamples = 32\nvalue = [39, 13]"] ;
432 -> 434 ;
435 [label="x[53] <= 764299.406\ngini = 0.451\nsamples = 22\nvalue = [23, 12]"] ;
434 -> 435 ;
436 [label="x[52] <= 764272.469\ngini = 0.48\nsamples = 18\nvalue = [18, 12]"] ;
435 -> 436 ;
437 [label="x[55] <= 764278.75\ngini = 0.499\nsamples = 14\nvalue = [11, 12]"] ;
436 -> 437 ;
438 [label="gini = 0.0\nsamples = 1\nvalue = [0, 1]"] ;
437 -> 438 ;
439 [label="x[56] <= 20.146\ngini = 0.5\nsamples = 13\nvalue = [11, 11]"] ;
437 -> 439 ;
440 [label="x[7] <= 1.963\ngini = 0.473\nsamples = 7\nvalue = [5, 8]"] ;
439 -> 440 ;
441 [label="gini = 0.0\nsamples = 1\nvalue = [0, 2]"] ;
440 -> 441 ;
442 [label="x[52] <= 764269.938\ngini = 0.496\nsamples = 6\nvalue = [5, 6]"] ;
440 -> 442 ;
443 [label="gini = 0.0\nsamples = 3\nvalue = [0, 3]"] ;
442 -> 443 ;
444 [label="x[45] <= 764279.781\ngini = 0.469\nsamples = 3\nvalue = [5, 3]"] ;
442 -> 444 ;
445 [label="gini = 0.49\nsamples = 2\nvalue = [4, 3]"] ;
444 -> 445 ;
446 [label="gini = 0.0\nsamples = 1\nvalue = [1, 0]"] ;
444 -> 446 ;
447 [label="x[43] <= 764298.438\ngini = 0.444\nsamples = 6\nvalue = [6, 3]"] ;
439 -> 447 ;
448 [label="x[52] <= 764261.5\ngini = 0.375\nsamples = 5\nvalue = [6, 2]"] ;
447 -> 448 ;
449 [label="gini = 0.0\nsamples = 1\nvalue = [3, 0]"] ;
448 -> 449 ;
450 [label="x[2] <= 1.529\ngini = 0.48\nsamples = 4\nvalue = [3, 2]"] ;
448 -> 450 ;
451 [label="gini = 0.0\nsamples = 1\nvalue = [0, 1]"] ;
450 -> 451 ;
452 [label="x[69] <= 1528561.625\ngini = 0.375\nsamples = 3\nvalue = [3, 1]"] ;
450 -> 452 ;
453 [label="gini = 0.0\nsamples = 1\nvalue = [1, 0]"] ;
452 -> 453 ;
454 [label="gini = 0.444\nsamples = 2\nvalue = [2, 1]"] ;
452 -> 454 ;
455 [label="gini = 0.0\nsamples = 1\nvalue = [0, 1]"] ;
447 -> 455 ;
456 [label="gini = 0.0\nsamples = 4\nvalue = [7, 0]"] ;
436 -> 456 ;
457 [label="gini = 0.0\nsamples = 4\nvalue = [5, 0]"] ;
435 -> 457 ;
458 [label="x[45] <= 764274.062\ngini = 0.111\nsamples = 10\nvalue = [16, 1]"] ;
434 -> 458 ;
459 [label="x[52] <= 764257.906\ngini = 0.5\nsamples = 2\nvalue = [1, 1]"] ;
458 -> 459 ;
460 [label="gini = 0.0\nsamples = 1\nvalue = [0, 1]"] ;
459 -> 460 ;
461 [label="gini = 0.0\nsamples = 1\nvalue = [1, 0]"] ;
459 -> 461 ;
462 [label="gini = 0.0\nsamples = 8\nvalue = [15, 0]"] ;
458 -> 462 ;
463 [label="x[44] <= 1528566.0\ngini = 0.489\nsamples = 28\nvalue = [17, 23]"] ;
355 -> 463 ;
464 [label="x[57] <= 98.131\ngini = 0.497\nsamples = 10\nvalue = [7, 6]"] ;
463 -> 464 ;
465 [label="x[2] <= 1.529\ngini = 0.408\nsamples = 6\nvalue = [5, 2]"] ;
464 -> 465 ;
466 [label="x[69] <= 1528565.0\ngini = 0.375\nsamples = 4\nvalue = [3, 1]"] ;
465 -> 466 ;
467 [label="gini = 0.0\nsamples = 1\nvalue = [1, 0]"] ;
466 -> 467 ;
468 [label="x[56] <= 24.614\ngini = 0.444\nsamples = 3\nvalue = [2, 1]"] ;
466 -> 468 ;
469 [label="gini = 0.0\nsamples = 1\nvalue = [0, 1]"] ;
468 -> 469 ;
470 [label="gini = 0.0\nsamples = 2\nvalue = [2, 0]"] ;
468 -> 470 ;
471 [label="x[52] <= 764274.5\ngini = 0.444\nsamples = 2\nvalue = [2, 1]"] ;
465 -> 471 ;
472 [label="gini = 0.0\nsamples = 1\nvalue = [2, 0]"] ;
471 -> 472 ;
473 [label="gini = 0.0\nsamples = 1\nvalue = [0, 1]"] ;
471 -> 473 ;
474 [label="x[69] <= 1528564.125\ngini = 0.444\nsamples = 4\nvalue = [2, 4]"] ;
464 -> 474 ;
475 [label="x[43] <= 764311.094\ngini = 0.48\nsamples = 3\nvalue = [2, 3]"] ;
474 -> 475 ;
476 [label="x[42] <= 764258.375\ngini = 0.444\nsamples = 2\nvalue = [2, 1]"] ;
475 -> 476 ;
477 [label="gini = 0.0\nsamples = 1\nvalue = [2, 0]"] ;
476 -> 477 ;
478 [label="gini = 0.0\nsamples = 1\nvalue = [0, 1]"] ;
476 -> 478 ;
479 [label="gini = 0.0\nsamples = 1\nvalue = [0, 2]"] ;
475 -> 479 ;
480 [label="gini = 0.0\nsamples = 1\nvalue = [0, 1]"] ;
474 -> 480 ;
481 [label="x[70] <= 1528567.875\ngini = 0.466\nsamples = 18\nvalue = [10, 17]"] ;
463 -> 481 ;
482 [label="x[52] <= 764257.438\ngini = 0.375\nsamples = 11\nvalue = [4, 12]"] ;
481 -> 482 ;
483 [label="x[56] <= 45.35\ngini = 0.219\nsamples = 5\nvalue = [1, 7]"] ;
482 -> 483 ;
484 [label="gini = 0.0\nsamples = 3\nvalue = [0, 5]"] ;
483 -> 484 ;
485 [label="gini = 0.444\nsamples = 2\nvalue = [1, 2]"] ;
483 -> 485 ;
486 [label="x[70] <= 1528567.438\ngini = 0.469\nsamples = 6\nvalue = [3, 5]"] ;
482 -> 486 ;
487 [label="x[54] <= 1528566.625\ngini = 0.5\nsamples = 5\nvalue = [3, 3]"] ;
486 -> 487 ;
488 [label="x[52] <= 764260.438\ngini = 0.48\nsamples = 4\nvalue = [2, 3]"] ;
487 -> 488 ;
489 [label="gini = 0.0\nsamples = 1\nvalue = [1, 0]"] ;
488 -> 489 ;
490 [label="x[42] <= 764266.5\ngini = 0.375\nsamples = 3\nvalue = [1, 3]"] ;
488 -> 490 ;
491 [label="gini = 0.0\nsamples = 1\nvalue = [0, 2]"] ;
490 -> 491 ;
492 [label="x[56] <= 14.836\ngini = 0.5\nsamples = 2\nvalue = [1, 1]"] ;
490 -> 492 ;
493 [label="gini = 0.0\nsamples = 1\nvalue = [0, 1]"] ;
492 -> 493 ;
494 [label="gini = 0.0\nsamples = 1\nvalue = [1, 0]"] ;
492 -> 494 ;
495 [label="gini = 0.0\nsamples = 1\nvalue = [1, 0]"] ;
487 -> 495 ;
496 [label="gini = 0.0\nsamples = 1\nvalue = [0, 2]"] ;
486 -> 496 ;
497 [label="x[46] <= 46.024\ngini = 0.496\nsamples = 7\nvalue = [6, 5]"] ;
481 -> 497 ;
498 [label="x[57] <= 98.131\ngini = 0.469\nsamples = 6\nvalue = [3, 5]"] ;
497 -> 498 ;
499 [label="x[43] <= 764312.5\ngini = 0.5\nsamples = 4\nvalue = [3, 3]"] ;
498 -> 499 ;
500 [label="x[45] <= 764284.781\ngini = 0.375\nsamples = 3\nvalue = [3, 1]"] ;
499 -> 500 ;
501 [label="gini = 0.0\nsamples = 1\nvalue = [1, 0]"] ;
500 -> 501 ;
502 [label="x[43] <= 764303.438\ngini = 0.444\nsamples = 2\nvalue = [2, 1]"] ;
500 -> 502 ;
503 [label="gini = 0.0\nsamples = 1\nvalue = [0, 1]"] ;
502 -> 503 ;
504 [label="gini = 0.0\nsamples = 1\nvalue = [2, 0]"] ;
502 -> 504 ;
505 [label="gini = 0.0\nsamples = 1\nvalue = [0, 2]"] ;
499 -> 505 ;
506 [label="gini = 0.0\nsamples = 2\nvalue = [0, 2]"] ;
498 -> 506 ;
507 [label="gini = 0.0\nsamples = 1\nvalue = [3, 0]"] ;
497 -> 507 ;
508 [label="x[9] <= 1.963\ngini = 0.486\nsamples = 288\nvalue = [200, 281]"] ;
164 -> 508 ;
509 [label="x[45] <= 764255.281\ngini = 0.479\nsamples = 256\nvalue = [172, 260]"] ;
508 -> 509 ;
510 [label="x[53] <= 764374.5\ngini = 0.266\nsamples = 21\nvalue = [6, 32]"] ;
509 -> 510 ;
511 [label="x[57] <= 98.135\ngini = 0.159\nsamples = 12\nvalue = [2, 21]"] ;
510 -> 511 ;
512 [label="x[57] <= 98.135\ngini = 0.375\nsamples = 6\nvalue = [2, 6]"] ;
511 -> 512 ;
513 [label="x[56] <= 139.337\ngini = 0.245\nsamples = 5\nvalue = [1, 6]"] ;
512 -> 513 ;
514 [label="gini = 0.0\nsamples = 3\nvalue = [0, 4]"] ;
513 -> 514 ;
515 [label="x[55] <= 764254.75\ngini = 0.444\nsamples = 2\nvalue = [1, 2]"] ;
513 -> 515 ;
516 [label="gini = 0.0\nsamples = 1\nvalue = [0, 2]"] ;
515 -> 516 ;
517 [label="gini = 0.0\nsamples = 1\nvalue = [1, 0]"] ;
515 -> 517 ;
518 [label="gini = 0.0\nsamples = 1\nvalue = [1, 0]"] ;
512 -> 518 ;
519 [label="gini = 0.0\nsamples = 6\nvalue = [0, 15]"] ;
511 -> 519 ;
520 [label="x[71] <= 1528504.5\ngini = 0.391\nsamples = 9\nvalue = [4, 11]"] ;
510 -> 520 ;
521 [label="x[46] <= 186.12\ngini = 0.5\nsamples = 5\nvalue = [4, 4]"] ;
520 -> 521 ;
522 [label="gini = 0.0\nsamples = 1\nvalue = [2, 0]"] ;
521 -> 522 ;
523 [label="x[68] <= 1528503.438\ngini = 0.444\nsamples = 4\nvalue = [2, 4]"] ;
521 -> 523 ;
524 [label="gini = 0.0\nsamples = 2\nvalue = [0, 4]"] ;
523 -> 524 ;
525 [label="gini = 0.0\nsamples = 2\nvalue = [2, 0]"] ;
523 -> 525 ;
526 [label="gini = 0.0\nsamples = 4\nvalue = [0, 7]"] ;
520 -> 526 ;
527 [label="x[68] <= 1528551.562\ngini = 0.488\nsamples = 235\nvalue = [166, 228]"] ;
509 -> 527 ;
528 [label="x[56] <= 264.008\ngini = 0.5\nsamples = 116\nvalue = [91, 96]"] ;
527 -> 528 ;
529 [label="x[43] <= 764325.625\ngini = 0.497\nsamples = 111\nvalue = [81, 95]"] ;
528 -> 529 ;
530 [label="x[42] <= 764215.125\ngini = 0.278\nsamples = 10\nvalue = [3, 15]"] ;
529 -> 530 ;
531 [label="x[44] <= 1528528.438\ngini = 0.124\nsamples = 8\nvalue = [1, 14]"] ;
530 -> 531 ;
532 [label="gini = 0.0\nsamples = 4\nvalue = [0, 7]"] ;
531 -> 532 ;
533 [label="x[56] <= 80.416\ngini = 0.219\nsamples = 4\nvalue = [1, 7]"] ;
531 -> 533 ;
534 [label="gini = 0.0\nsamples = 3\nvalue = [0, 7]"] ;
533 -> 534 ;
535 [label="gini = 0.0\nsamples = 1\nvalue = [1, 0]"] ;
533 -> 535 ;
536 [label="x[70] <= 1528542.062\ngini = 0.444\nsamples = 2\nvalue = [2, 1]"] ;
530 -> 536 ;
537 [label="gini = 0.0\nsamples = 1\nvalue = [2, 0]"] ;
536 -> 537 ;
538 [label="gini = 0.0\nsamples = 1\nvalue = [0, 1]"] ;
536 -> 538 ;
539 [label="x[68] <= 1528549.562\ngini = 0.5\nsamples = 101\nvalue = [78, 80]"] ;
529 -> 539 ;
540 [label="x[42] <= 764208.094\ngini = 0.498\nsamples = 92\nvalue = [68, 77]"] ;
539 -> 540 ;
541 [label="x[45] <= 764255.75\ngini = 0.493\nsamples = 85\nvalue = [59, 75]"] ;
540 -> 541 ;
542 [label="gini = 0.0\nsamples = 2\nvalue = [4, 0]"] ;
541 -> 542 ;
543 [label="x[68] <= 1528512.5\ngini = 0.488\nsamples = 83\nvalue = [55, 75]"] ;
541 -> 543 ;
544 [label="gini = 0.0\nsamples = 3\nvalue = [0, 6]"] ;
543 -> 544 ;
545 [label="x[46] <= 109.919\ngini = 0.494\nsamples = 80\nvalue = [55, 69]"] ;
543 -> 545 ;
546 [label="x[44] <= 1528519.5\ngini = 0.382\nsamples = 20\nvalue = [9, 26]"] ;
545 -> 546 ;
547 [label="gini = 0.0\nsamples = 2\nvalue = [3, 0]"] ;
546 -> 547 ;
548 [label="x[56] <= 89.857\ngini = 0.305\nsamples = 18\nvalue = [6, 26]"] ;
546 -> 548 ;
549 [label="gini = 0.0\nsamples = 1\nvalue = [1, 0]"] ;
548 -> 549 ;
550 [label="x[68] <= 1528524.625\ngini = 0.271\nsamples = 17\nvalue = [5, 26]"] ;
548 -> 550 ;
551 [label="x[54] <= 1528522.125\ngini = 0.42\nsamples = 3\nvalue = [3, 7]"] ;
550 -> 551 ;
552 [label="gini = 0.0\nsamples = 1\nvalue = [0, 4]"] ;
551 -> 552 ;
553 [label="x[46] <= 103.175\ngini = 0.5\nsamples = 2\nvalue = [3, 3]"] ;
551 -> 553 ;
554 [label="gini = 0.0\nsamples = 1\nvalue = [3, 0]"] ;
553 -> 554 ;
555 [label="gini = 0.0\nsamples = 1\nvalue = [0, 3]"] ;
553 -> 555 ;
556 [label="x[42] <= 764194.469\ngini = 0.172\nsamples = 14\nvalue = [2, 19]"] ;
550 -> 556 ;
557 [label="x[43] <= 764339.094\ngini = 0.48\nsamples = 3\nvalue = [2, 3]"] ;
556 -> 557 ;
558 [label="gini = 0.0\nsamples = 1\nvalue = [0, 2]"] ;
557 -> 558 ;
559 [label="x[42] <= 764193.062\ngini = 0.444\nsamples = 2\nvalue = [2, 1]"] ;
557 -> 559 ;
560 [label="gini = 0.0\nsamples = 1\nvalue = [0, 1]"] ;
559 -> 560 ;
561 [label="gini = 0.0\nsamples = 1\nvalue = [2, 0]"] ;
559 -> 561 ;
562 [label="gini = 0.0\nsamples = 11\nvalue = [0, 16]"] ;
556 -> 562 ;
563 [label="x[71] <= 1528548.5\ngini = 0.499\nsamples = 60\nvalue = [46, 43]"] ;
545 -> 563 ;
564 [label="x[54] <= 1528525.625\ngini = 0.495\nsamples = 57\nvalue = [46, 38]"] ;
563 -> 564 ;
565 [label="x[43] <= 764349.938\ngini = 0.454\nsamples = 15\nvalue = [8, 15]"] ;
564 -> 565 ;
566 [label="gini = 0.0\nsamples = 4\nvalue = [6, 0]"] ;
565 -> 566 ;
567 [label="x[2] <= 1.529\ngini = 0.208\nsamples = 11\nvalue = [2, 15]"] ;
565 -> 567 ;
568 [label="gini = 0.0\nsamples = 7\nvalue = [0, 9]"] ;
567 -> 568 ;
569 [label="x[57] <= 98.134\ngini = 0.375\nsamples = 4\nvalue = [2, 6]"] ;
567 -> 569 ;
570 [label="gini = 0.0\nsamples = 3\nvalue = [0, 6]"] ;
569 -> 570 ;
571 [label="gini = 0.0\nsamples = 1\nvalue = [2, 0]"] ;
569 -> 571 ;
572 [label="x[45] <= 764267.719\ngini = 0.47\nsamples = 42\nvalue = [38, 23]"] ;
564 -> 572 ;
573 [label="x[53] <= 764368.062\ngini = 0.278\nsamples = 13\nvalue = [15, 3]"] ;
572 -> 573 ;
574 [label="gini = 0.0\nsamples = 6\nvalue = [8, 0]"] ;
573 -> 574 ;
575 [label="x[52] <= 764146.906\ngini = 0.42\nsamples = 7\nvalue = [7, 3]"] ;
573 -> 575 ;
576 [label="x[45] <= 764265.219\ngini = 0.219\nsamples = 5\nvalue = [7, 1]"] ;
575 -> 576 ;
577 [label="gini = 0.0\nsamples = 3\nvalue = [5, 0]"] ;
576 -> 577 ;
578 [label="x[42] <= 764134.406\ngini = 0.444\nsamples = 2\nvalue = [2, 1]"] ;
576 -> 578 ;
579 [label="gini = 0.0\nsamples = 1\nvalue = [0, 1]"] ;
578 -> 579 ;
580 [label="gini = 0.0\nsamples = 1\nvalue = [2, 0]"] ;
578 -> 580 ;
581 [label="gini = 0.0\nsamples = 2\nvalue = [0, 2]"] ;
575 -> 581 ;
582 [label="x[46] <= 230.965\ngini = 0.498\nsamples = 29\nvalue = [23, 20]"] ;
572 -> 582 ;
583 [label="x[53] <= 764385.594\ngini = 0.5\nsamples = 27\nvalue = [20, 20]"] ;
582 -> 583 ;
584 [label="x[7] <= 1.963\ngini = 0.471\nsamples = 19\nvalue = [18, 11]"] ;
583 -> 584 ;
585 [label="x[7] <= 1.963\ngini = 0.434\nsamples = 14\nvalue = [15, 7]"] ;
584 -> 585 ;
586 [label="x[55] <= 764273.281\ngini = 0.5\nsamples = 4\nvalue = [3, 3]"] ;
585 -> 586 ;
587 [label="gini = 0.0\nsamples = 1\nvalue = [0, 1]"] ;
586 -> 587 ;
588 [label="x[52] <= 764178.031\ngini = 0.48\nsamples = 3\nvalue = [3, 2]"] ;
586 -> 588 ;
589 [label="gini = 0.0\nsamples = 2\nvalue = [3, 0]"] ;
588 -> 589 ;
590 [label="gini = 0.0\nsamples = 1\nvalue = [0, 2]"] ;
588 -> 590 ;
591 [label="x[52] <= 764183.062\ngini = 0.375\nsamples = 10\nvalue = [12, 4]"] ;
585 -> 591 ;
592 [label="x[54] <= 1528542.5\ngini = 0.18\nsamples = 5\nvalue = [9, 1]"] ;
591 -> 592 ;
593 [label="gini = 0.0\nsamples = 3\nvalue = [7, 0]"] ;
592 -> 593 ;
594 [label="x[56] <= 151.391\ngini = 0.444\nsamples = 2\nvalue = [2, 1]"] ;
592 -> 594 ;
595 [label="gini = 0.0\nsamples = 1\nvalue = [0, 1]"] ;
594 -> 595 ;
596 [label="gini = 0.0\nsamples = 1\nvalue = [2, 0]"] ;
594 -> 596 ;
597 [label="x[9] <= 1.963\ngini = 0.5\nsamples = 5\nvalue = [3, 3]"] ;
591 -> 597 ;
598 [label="gini = 0.0\nsamples = 2\nvalue = [2, 0]"] ;
597 -> 598 ;
599 [label="x[68] <= 1528541.875\ngini = 0.375\nsamples = 3\nvalue = [1, 3]"] ;
597 -> 599 ;
600 [label="gini = 0.0\nsamples = 2\nvalue = [0, 3]"] ;
599 -> 600 ;
601 [label="gini = 0.0\nsamples = 1\nvalue = [1, 0]"] ;
599 -> 601 ;
602 [label="x[45] <= 764268.75\ngini = 0.49\nsamples = 5\nvalue = [3, 4]"] ;
584 -> 602 ;
603 [label="x[53] <= 764373.062\ngini = 0.5\nsamples = 3\nvalue = [2, 2]"] ;
602 -> 603 ;
604 [label="gini = 0.0\nsamples = 2\nvalue = [0, 2]"] ;
603 -> 604 ;
605 [label="gini = 0.0\nsamples = 1\nvalue = [2, 0]"] ;
603 -> 605 ;
606 [label="x[56] <= 158.304\ngini = 0.444\nsamples = 2\nvalue = [1, 2]"] ;
602 -> 606 ;
607 [label="gini = 0.0\nsamples = 1\nvalue = [0, 2]"] ;
606 -> 607 ;
608 [label="gini = 0.0\nsamples = 1\nvalue = [1, 0]"] ;
606 -> 608 ;
609 [label="x[54] <= 1528546.0\ngini = 0.298\nsamples = 8\nvalue = [2, 9]"] ;
583 -> 609 ;
610 [label="x[56] <= 206.435\ngini = 0.18\nsamples = 7\nvalue = [1, 9]"] ;
609 -> 610 ;
611 [label="x[42] <= 764137.875\ngini = 0.375\nsamples = 3\nvalue = [1, 3]"] ;
610 -> 611 ;
612 [label="gini = 0.0\nsamples = 1\nvalue = [1, 0]"] ;
611 -> 612 ;
613 [label="gini = 0.0\nsamples = 2\nvalue = [0, 3]"] ;
611 -> 613 ;
614 [label="gini = 0.0\nsamples = 4\nvalue = [0, 6]"] ;
610 -> 614 ;
615 [label="gini = 0.0\nsamples = 1\nvalue = [1, 0]"] ;
609 -> 615 ;
616 [label="gini = 0.0\nsamples = 2\nvalue = [3, 0]"] ;
582 -> 616 ;
617 [label="gini = 0.0\nsamples = 3\nvalue = [0, 5]"] ;
563 -> 617 ;
618 [label="x[54] <= 1528544.938\ngini = 0.298\nsamples = 7\nvalue = [9, 2]"] ;
540 -> 618 ;
619 [label="gini = 0.0\nsamples = 5\nvalue = [9, 0]"] ;
618 -> 619 ;
620 [label="gini = 0.0\nsamples = 2\nvalue = [0, 2]"] ;
618 -> 620 ;
621 [label="x[52] <= 764166.0\ngini = 0.355\nsamples = 9\nvalue = [10, 3]"] ;
539 -> 621 ;
622 [label="x[44] <= 1528550.5\ngini = 0.5\nsamples = 3\nvalue = [2, 2]"] ;
621 -> 622 ;
623 [label="x[43] <= 764412.531\ngini = 0.444\nsamples = 2\nvalue = [1, 2]"] ;
622 -> 623 ;
624 [label="gini = 0.0\nsamples = 1\nvalue = [0, 2]"] ;
623 -> 624 ;
625 [label="gini = 0.0\nsamples = 1\nvalue = [1, 0]"] ;
623 -> 625 ;
626 [label="gini = 0.0\nsamples = 1\nvalue = [1, 0]"] ;
622 -> 626 ;
627 [label="x[42] <= 764189.0\ngini = 0.198\nsamples = 6\nvalue = [8, 1]"] ;
621 -> 627 ;
628 [label="gini = 0.0\nsamples = 2\nvalue = [4, 0]"] ;
627 -> 628 ;
629 [label="x[43] <= 764350.906\ngini = 0.32\nsamples = 4\nvalue = [4, 1]"] ;
627 -> 629 ;
630 [label="gini = 0.0\nsamples = 3\nvalue = [4, 0]"] ;
629 -> 630 ;
631 [label="gini = 0.0\nsamples = 1\nvalue = [0, 1]"] ;
629 -> 631 ;
632 [label="x[53] <= 764474.031\ngini = 0.165\nsamples = 5\nvalue = [10, 1]"] ;
528 -> 632 ;
633 [label="gini = 0.0\nsamples = 2\nvalue = [6, 0]"] ;
632 -> 633 ;
634 [label="x[43] <= 764505.031\ngini = 0.32\nsamples = 3\nvalue = [4, 1]"] ;
632 -> 634 ;
635 [label="gini = 0.0\nsamples = 1\nvalue = [0, 1]"] ;
634 -> 635 ;
636 [label="gini = 0.0\nsamples = 2\nvalue = [4, 0]"] ;
634 -> 636 ;
637 [label="x[52] <= 764156.938\ngini = 0.462\nsamples = 119\nvalue = [75, 132]"] ;
527 -> 637 ;
638 [label="x[55] <= 764277.5\ngini = 0.489\nsamples = 23\nvalue = [23, 17]"] ;
637 -> 638 ;
639 [label="gini = 0.0\nsamples = 5\nvalue = [0, 7]"] ;
638 -> 639 ;
640 [label="x[43] <= 764413.0\ngini = 0.422\nsamples = 18\nvalue = [23, 10]"] ;
638 -> 640 ;
641 [label="gini = 0.0\nsamples = 4\nvalue = [8, 0]"] ;
640 -> 641 ;
642 [label="x[69] <= 1528563.5\ngini = 0.48\nsamples = 14\nvalue = [15, 10]"] ;
640 -> 642 ;
643 [label="x[46] <= 206.435\ngini = 0.459\nsamples = 7\nvalue = [5, 9]"] ;
642 -> 643 ;
644 [label="gini = 0.0\nsamples = 4\nvalue = [0, 6]"] ;
643 -> 644 ;
645 [label="x[56] <= 210.313\ngini = 0.469\nsamples = 3\nvalue = [5, 3]"] ;
643 -> 645 ;
646 [label="gini = 0.0\nsamples = 1\nvalue = [3, 0]"] ;
645 -> 646 ;
647 [label="x[71] <= 1528557.188\ngini = 0.48\nsamples = 2\nvalue = [2, 3]"] ;
645 -> 647 ;
648 [label="gini = 0.0\nsamples = 1\nvalue = [2, 0]"] ;
647 -> 648 ;
649 [label="gini = 0.0\nsamples = 1\nvalue = [0, 3]"] ;
647 -> 649 ;
650 [label="x[46] <= 313.825\ngini = 0.165\nsamples = 7\nvalue = [10, 1]"] ;
642 -> 650 ;
651 [label="gini = 0.0\nsamples = 6\nvalue = [10, 0]"] ;
650 -> 651 ;
652 [label="gini = 0.0\nsamples = 1\nvalue = [0, 1]"] ;
650 -> 652 ;
653 [label="x[70] <= 1528566.375\ngini = 0.429\nsamples = 96\nvalue = [52, 115]"] ;
637 -> 653 ;
654 [label="x[46] <= 59.68\ngini = 0.446\nsamples = 74\nvalue = [44, 87]"] ;
653 -> 654 ;
655 [label="gini = 0.0\nsamples = 2\nvalue = [0, 6]"] ;
654 -> 655 ;
656 [label="x[57] <= 98.131\ngini = 0.456\nsamples = 72\nvalue = [44, 81]"] ;
654 -> 656 ;
657 [label="gini = 0.0\nsamples = 3\nvalue = [4, 0]"] ;
656 -> 657 ;
658 [label="x[43] <= 764357.562\ngini = 0.443\nsamples = 69\nvalue = [40, 81]"] ;
656 -> 658 ;
659 [label="x[44] <= 1528555.5\ngini = 0.472\nsamples = 47\nvalue = [31, 50]"] ;
658 -> 659 ;
660 [label="x[9] <= 1.963\ngini = 0.355\nsamples = 14\nvalue = [6, 20]"] ;
659 -> 660 ;
661 [label="x[54] <= 1528555.0\ngini = 0.298\nsamples = 6\nvalue = [2, 9]"] ;
660 -> 661 ;
662 [label="x[52] <= 764205.312\ngini = 0.245\nsamples = 3\nvalue = [1, 6]"] ;
661 -> 662 ;
663 [label="gini = 0.0\nsamples = 1\nvalue = [1, 0]"] ;
662 -> 663 ;
664 [label="gini = 0.0\nsamples = 2\nvalue = [0, 6]"] ;
662 -> 664 ;
665 [label="x[43] <= 764326.594\ngini = 0.375\nsamples = 3\nvalue = [1, 3]"] ;
661 -> 665 ;
666 [label="gini = 0.0\nsamples = 1\nvalue = [1, 0]"] ;
665 -> 666 ;
667 [label="gini = 0.0\nsamples = 2\nvalue = [0, 3]"] ;
665 -> 667 ;
668 [label="x[68] <= 1528552.5\ngini = 0.391\nsamples = 8\nvalue = [4, 11]"] ;
660 -> 668 ;
669 [label="x[52] <= 764199.969\ngini = 0.32\nsamples = 5\nvalue = [2, 8]"] ;
668 -> 669 ;
670 [label="gini = 0.0\nsamples = 1\nvalue = [2, 0]"] ;
669 -> 670 ;
671 [label="gini = 0.0\nsamples = 4\nvalue = [0, 8]"] ;
669 -> 671 ;
672 [label="x[42] <= 764214.531\ngini = 0.48\nsamples = 3\nvalue = [2, 3]"] ;
668 -> 672 ;
673 [label="gini = 0.0\nsamples = 1\nvalue = [1, 0]"] ;
672 -> 673 ;
674 [label="x[42] <= 764222.969\ngini = 0.375\nsamples = 2\nvalue = [1, 3]"] ;
672 -> 674 ;
675 [label="gini = 0.0\nsamples = 1\nvalue = [0, 3]"] ;
674 -> 675 ;
676 [label="gini = 0.0\nsamples = 1\nvalue = [1, 0]"] ;
674 -> 676 ;
677 [label="x[56] <= 90.194\ngini = 0.496\nsamples = 33\nvalue = [25, 30]"] ;
659 -> 677 ;
678 [label="x[2] <= 1.529\ngini = 0.465\nsamples = 22\nvalue = [14, 24]"] ;
677 -> 678 ;
679 [label="x[56] <= 82.608\ngini = 0.499\nsamples = 12\nvalue = [10, 9]"] ;
678 -> 679 ;
680 [label="x[46] <= 63.642\ngini = 0.426\nsamples = 8\nvalue = [9, 4]"] ;
679 -> 680 ;
681 [label="gini = 0.0\nsamples = 1\nvalue = [0, 2]"] ;
680 -> 681 ;
682 [label="x[2] <= 1.529\ngini = 0.298\nsamples = 7\nvalue = [9, 2]"] ;
680 -> 682 ;
683 [label="x[70] <= 1528557.438\ngini = 0.375\nsamples = 6\nvalue = [6, 2]"] ;
682 -> 683 ;
684 [label="gini = 0.0\nsamples = 2\nvalue = [2, 0]"] ;
683 -> 684 ;
685 [label="x[46] <= 79.742\ngini = 0.444\nsamples = 4\nvalue = [4, 2]"] ;
683 -> 685 ;
686 [label="gini = 0.0\nsamples = 2\nvalue = [0, 2]"] ;
685 -> 686 ;
687 [label="gini = 0.0\nsamples = 2\nvalue = [4, 0]"] ;
685 -> 687 ;
688 [label="gini = 0.0\nsamples = 1\nvalue = [3, 0]"] ;
682 -> 688 ;
689 [label="x[57] <= 98.132\ngini = 0.278\nsamples = 4\nvalue = [1, 5]"] ;
679 -> 689 ;
690 [label="gini = 0.0\nsamples = 3\nvalue = [0, 5]"] ;
689 -> 690 ;
691 [label="gini = 0.0\nsamples = 1\nvalue = [1, 0]"] ;
689 -> 691 ;
692 [label="x[9] <= 1.963\ngini = 0.332\nsamples = 10\nvalue = [4, 15]"] ;
678 -> 692 ;
693 [label="x[68] <= 1528563.5\ngini = 0.305\nsamples = 8\nvalue = [3, 13]"] ;
692 -> 693 ;
694 [label="gini = 0.0\nsamples = 3\nvalue = [0, 4]"] ;
693 -> 694 ;
695 [label="x[43] <= 764343.5\ngini = 0.375\nsamples = 5\nvalue = [3, 9]"] ;
693 -> 695 ;
696 [label="x[69] <= 1528564.438\ngini = 0.375\nsamples = 3\nvalue = [3, 1]"] ;
695 -> 696 ;
697 [label="x[56] <= 72.83\ngini = 0.444\nsamples = 2\nvalue = [2, 1]"] ;
696 -> 697 ;
698 [label="gini = 0.0\nsamples = 1\nvalue = [0, 1]"] ;
697 -> 698 ;
699 [label="gini = 0.0\nsamples = 1\nvalue = [2, 0]"] ;
697 -> 699 ;
700 [label="gini = 0.0\nsamples = 1\nvalue = [1, 0]"] ;
696 -> 700 ;
701 [label="gini = 0.0\nsamples = 2\nvalue = [0, 8]"] ;
695 -> 701 ;
702 [label="x[56] <= 75.696\ngini = 0.444\nsamples = 2\nvalue = [1, 2]"] ;
692 -> 702 ;
703 [label="gini = 0.0\nsamples = 1\nvalue = [1, 0]"] ;
702 -> 703 ;
704 [label="gini = 0.0\nsamples = 1\nvalue = [0, 2]"] ;
702 -> 704 ;
705 [label="x[56] <= 94.999\ngini = 0.457\nsamples = 11\nvalue = [11, 6]"] ;
677 -> 705 ;
706 [label="gini = 0.0\nsamples = 7\nvalue = [10, 0]"] ;
705 -> 706 ;
707 [label="x[55] <= 764280.031\ngini = 0.245\nsamples = 4\nvalue = [1, 6]"] ;
705 -> 707 ;
708 [label="x[54] <= 1528557.938\ngini = 0.5\nsamples = 2\nvalue = [1, 1]"] ;
707 -> 708 ;
709 [label="gini = 0.0\nsamples = 1\nvalue = [0, 1]"] ;
708 -> 709 ;
710 [label="gini = 0.0\nsamples = 1\nvalue = [1, 0]"] ;
708 -> 710 ;
711 [label="gini = 0.0\nsamples = 2\nvalue = [0, 5]"] ;
707 -> 711 ;
712 [label="x[46] <= 125.345\ngini = 0.349\nsamples = 22\nvalue = [9, 31]"] ;
658 -> 712 ;
713 [label="gini = 0.0\nsamples = 5\nvalue = [0, 15]"] ;
712 -> 713 ;
714 [label="x[46] <= 130.487\ngini = 0.461\nsamples = 17\nvalue = [9, 16]"] ;
712 -> 714 ;
715 [label="gini = 0.0\nsamples = 4\nvalue = [5, 0]"] ;
714 -> 715 ;
716 [label="x[54] <= 1528564.438\ngini = 0.32\nsamples = 13\nvalue = [4, 16]"] ;
714 -> 716 ;
717 [label="x[46] <= 147.935\ngini = 0.266\nsamples = 12\nvalue = [3, 16]"] ;
716 -> 717 ;
718 [label="gini = 0.0\nsamples = 5\nvalue = [0, 10]"] ;
717 -> 718 ;
719 [label="x[56] <= 152.656\ngini = 0.444\nsamples = 7\nvalue = [3, 6]"] ;
717 -> 719 ;
720 [label="x[43] <= 764385.469\ngini = 0.48\nsamples = 3\nvalue = [3, 2]"] ;
719 -> 720 ;
721 [label="x[68] <= 1528557.062\ngini = 0.444\nsamples = 2\nvalue = [1, 2]"] ;
720 -> 721 ;
722 [label="gini = 0.0\nsamples = 1\nvalue = [0, 2]"] ;
721 -> 722 ;
723 [label="gini = 0.0\nsamples = 1\nvalue = [1, 0]"] ;
721 -> 723 ;
724 [label="gini = 0.0\nsamples = 1\nvalue = [2, 0]"] ;
720 -> 724 ;
725 [label="gini = 0.0\nsamples = 4\nvalue = [0, 4]"] ;
719 -> 725 ;
726 [label="gini = 0.0\nsamples = 1\nvalue = [1, 0]"] ;
716 -> 726 ;
727 [label="x[45] <= 764284.562\ngini = 0.346\nsamples = 22\nvalue = [8, 28]"] ;
653 -> 727 ;
728 [label="x[70] <= 1528567.438\ngini = 0.245\nsamples = 16\nvalue = [4, 24]"] ;
727 -> 728 ;
729 [label="gini = 0.0\nsamples = 3\nvalue = [0, 6]"] ;
728 -> 729 ;
730 [label="x[43] <= 764352.562\ngini = 0.298\nsamples = 13\nvalue = [4, 18]"] ;
728 -> 730 ;
731 [label="x[55] <= 764284.25\ngini = 0.1\nsamples = 11\nvalue = [1, 18]"] ;
730 -> 731 ;
732 [label="gini = 0.0\nsamples = 7\nvalue = [0, 12]"] ;
731 -> 732 ;
733 [label="x[52] <= 764237.406\ngini = 0.245\nsamples = 4\nvalue = [1, 6]"] ;
731 -> 733 ;
734 [label="gini = 0.0\nsamples = 3\nvalue = [0, 6]"] ;
733 -> 734 ;
735 [label="gini = 0.0\nsamples = 1\nvalue = [1, 0]"] ;
733 -> 735 ;
736 [label="gini = 0.0\nsamples = 2\nvalue = [3, 0]"] ;
730 -> 736 ;
737 [label="x[44] <= 1528569.562\ngini = 0.5\nsamples = 6\nvalue = [4, 4]"] ;
727 -> 737 ;
738 [label="gini = 0.0\nsamples = 1\nvalue = [2, 0]"] ;
737 -> 738 ;
739 [label="x[71] <= 1528570.0\ngini = 0.444\nsamples = 5\nvalue = [2, 4]"] ;
737 -> 739 ;
740 [label="x[43] <= 764344.344\ngini = 0.444\nsamples = 2\nvalue = [1, 2]"] ;
739 -> 740 ;
741 [label="gini = 0.0\nsamples = 1\nvalue = [1, 0]"] ;
740 -> 741 ;
742 [label="gini = 0.0\nsamples = 1\nvalue = [0, 2]"] ;
740 -> 742 ;
743 [label="x[56] <= 129.307\ngini = 0.444\nsamples = 3\nvalue = [1, 2]"] ;
739 -> 743 ;
744 [label="gini = 0.5\nsamples = 2\nvalue = [1, 1]"] ;
743 -> 744 ;
745 [label="gini = 0.0\nsamples = 1\nvalue = [0, 1]"] ;
743 -> 745 ;
746 [label="x[52] <= 764073.844\ngini = 0.49\nsamples = 32\nvalue = [28, 21]"] ;
508 -> 746 ;
747 [label="gini = 0.0\nsamples = 5\nvalue = [9, 0]"] ;
746 -> 747 ;
748 [label="x[70] <= 1528490.562\ngini = 0.499\nsamples = 27\nvalue = [19, 21]"] ;
746 -> 748 ;
749 [label="x[69] <= 1528479.562\ngini = 0.408\nsamples = 18\nvalue = [8, 20]"] ;
748 -> 749 ;
750 [label="x[46] <= 180.557\ngini = 0.496\nsamples = 8\nvalue = [6, 5]"] ;
749 -> 750 ;
751 [label="x[69] <= 1528474.562\ngini = 0.375\nsamples = 5\nvalue = [6, 2]"] ;
750 -> 751 ;
752 [label="x[7] <= 1.963\ngini = 0.5\nsamples = 3\nvalue = [2, 2]"] ;
751 -> 752 ;
753 [label="gini = 0.0\nsamples = 1\nvalue = [0, 2]"] ;
752 -> 753 ;
754 [label="gini = 0.0\nsamples = 2\nvalue = [2, 0]"] ;
752 -> 754 ;
755 [label="gini = 0.0\nsamples = 2\nvalue = [4, 0]"] ;
751 -> 755 ;
756 [label="gini = 0.0\nsamples = 3\nvalue = [0, 3]"] ;
750 -> 756 ;
757 [label="x[69] <= 1528486.5\ngini = 0.208\nsamples = 10\nvalue = [2, 15]"] ;
749 -> 757 ;
758 [label="x[2] <= 1.528\ngini = 0.124\nsamples = 8\nvalue = [1, 14]"] ;
757 -> 758 ;
759 [label="x[56] <= 152.909\ngini = 0.375\nsamples = 2\nvalue = [1, 3]"] ;
758 -> 759 ;
760 [label="gini = 0.0\nsamples = 1\nvalue = [1, 0]"] ;
759 -> 760 ;
761 [label="gini = 0.0\nsamples = 1\nvalue = [0, 3]"] ;
759 -> 761 ;
762 [label="gini = 0.0\nsamples = 6\nvalue = [0, 11]"] ;
758 -> 762 ;
763 [label="x[70] <= 1528488.562\ngini = 0.5\nsamples = 2\nvalue = [1, 1]"] ;
757 -> 763 ;
764 [label="gini = 0.0\nsamples = 1\nvalue = [1, 0]"] ;
763 -> 764 ;
765 [label="gini = 0.0\nsamples = 1\nvalue = [0, 1]"] ;
763 -> 765 ;
766 [label="x[9] <= 1.963\ngini = 0.153\nsamples = 9\nvalue = [11, 1]"] ;
748 -> 766 ;
767 [label="x[44] <= 1528498.0\ngini = 0.278\nsamples = 5\nvalue = [5, 1]"] ;
766 -> 767 ;
768 [label="x[52] <= 764115.906\ngini = 0.5\nsamples = 2\nvalue = [1, 1]"] ;
767 -> 768 ;
769 [label="gini = 0.0\nsamples = 1\nvalue = [0, 1]"] ;
768 -> 769 ;
770 [label="gini = 0.0\nsamples = 1\nvalue = [1, 0]"] ;
768 -> 770 ;
771 [label="gini = 0.0\nsamples = 3\nvalue = [4, 0]"] ;
767 -> 771 ;
772 [label="gini = 0.0\nsamples = 4\nvalue = [6, 0]"] ;
766 -> 772 ;
773 [label="x[55] <= 764333.25\ngini = 0.478\nsamples = 1730\nvalue = [1602, 1051]"] ;
29 -> 773 ;
774 [label="x[46] <= 117.421\ngini = 0.457\nsamples = 1181\nvalue = [1172, 642]"] ;
773 -> 774 ;
775 [label="x[54] <= 1528580.125\ngini = 0.44\nsamples = 914\nvalue = [946, 459]"] ;
774 -> 775 ;
776 [label="x[7] <= 1.963\ngini = 0.491\nsamples = 73\nvalue = [65, 50]"] ;
775 -> 776 ;
777 [label="x[52] <= 764217.969\ngini = 0.435\nsamples = 19\nvalue = [8, 17]"] ;
776 -> 777 ;
778 [label="gini = 0.0\nsamples = 1\nvalue = [1, 0]"] ;
777 -> 778 ;
779 [label="x[46] <= 52.431\ngini = 0.413\nsamples = 18\nvalue = [7, 17]"] ;
777 -> 779 ;
780 [label="x[42] <= 764259.0\ngini = 0.496\nsamples = 8\nvalue = [5, 6]"] ;
779 -> 780 ;
781 [label="gini = 0.0\nsamples = 1\nvalue = [2, 0]"] ;
780 -> 781 ;
782 [label="x[71] <= 1528579.5\ngini = 0.444\nsamples = 7\nvalue = [3, 6]"] ;
780 -> 782 ;
783 [label="x[68] <= 1528578.5\ngini = 0.5\nsamples = 5\nvalue = [3, 3]"] ;
782 -> 783 ;
784 [label="x[52] <= 764281.531\ngini = 0.48\nsamples = 4\nvalue = [2, 3]"] ;
783 -> 784 ;
785 [label="x[56] <= 23.265\ngini = 0.375\nsamples = 3\nvalue = [1, 3]"] ;
784 -> 785 ;
786 [label="gini = 0.0\nsamples = 1\nvalue = [0, 1]"] ;
785 -> 786 ;
787 [label="gini = 0.444\nsamples = 2\nvalue = [1, 2]"] ;
785 -> 787 ;
788 [label="gini = 0.0\nsamples = 1\nvalue = [1, 0]"] ;
784 -> 788 ;
789 [label="gini = 0.0\nsamples = 1\nvalue = [1, 0]"] ;
783 -> 789 ;
790 [label="gini = 0.0\nsamples = 2\nvalue = [0, 3]"] ;
782 -> 790 ;
791 [label="x[68] <= 1528578.5\ngini = 0.26\nsamples = 10\nvalue = [2, 11]"] ;
779 -> 791 ;
792 [label="gini = 0.0\nsamples = 2\nvalue = [0, 3]"] ;
791 -> 792 ;
793 [label="x[56] <= 73.336\ngini = 0.32\nsamples = 8\nvalue = [2, 8]"] ;
791 -> 793 ;
794 [label="gini = 0.0\nsamples = 4\nvalue = [0, 5]"] ;
793 -> 794 ;
795 [label="x[42] <= 764229.062\ngini = 0.48\nsamples = 4\nvalue = [2, 3]"] ;
793 -> 795 ;
796 [label="gini = 0.0\nsamples = 1\nvalue = [0, 2]"] ;
795 -> 796 ;
797 [label="x[55] <= 764289.75\ngini = 0.444\nsamples = 3\nvalue = [2, 1]"] ;
795 -> 797 ;
798 [label="x[52] <= 764235.969\ngini = 0.5\nsamples = 2\nvalue = [1, 1]"] ;
797 -> 798 ;
799 [label="gini = 0.0\nsamples = 1\nvalue = [0, 1]"] ;
798 -> 799 ;
800 [label="gini = 0.0\nsamples = 1\nvalue = [1, 0]"] ;
798 -> 800 ;
801 [label="gini = 0.0\nsamples = 1\nvalue = [1, 0]"] ;
797 -> 801 ;
802 [label="x[42] <= 764282.469\ngini = 0.464\nsamples = 54\nvalue = [57, 33]"] ;
776 -> 802 ;
803 [label="x[53] <= 764350.406\ngini = 0.439\nsamples = 48\nvalue = [56, 27]"] ;
802 -> 803 ;
804 [label="x[9] <= 1.963\ngini = 0.405\nsamples = 41\nvalue = [51, 20]"] ;
803 -> 804 ;
805 [label="x[71] <= 1528576.0\ngini = 0.328\nsamples = 18\nvalue = [23, 6]"] ;
804 -> 805 ;
806 [label="gini = 0.0\nsamples = 5\nvalue = [6, 0]"] ;
805 -> 806 ;
807 [label="x[70] <= 1528577.438\ngini = 0.386\nsamples = 13\nvalue = [17, 6]"] ;
805 -> 807 ;
808 [label="x[70] <= 1528576.5\ngini = 0.397\nsamples = 12\nvalue = [16, 6]"] ;
807 -> 808 ;
809 [label="x[46] <= 40.292\ngini = 0.42\nsamples = 5\nvalue = [7, 3]"] ;
808 -> 809 ;
810 [label="gini = 0.0\nsamples = 2\nvalue = [5, 0]"] ;
809 -> 810 ;
811 [label="x[56] <= 41.641\ngini = 0.48\nsamples = 3\nvalue = [2, 3]"] ;
809 -> 811 ;
812 [label="gini = 0.0\nsamples = 1\nvalue = [0, 2]"] ;
811 -> 812 ;
813 [label="x[53] <= 764323.0\ngini = 0.444\nsamples = 2\nvalue = [2, 1]"] ;
811 -> 813 ;
814 [label="gini = 0.0\nsamples = 1\nvalue = [2, 0]"] ;
813 -> 814 ;
815 [label="gini = 0.0\nsamples = 1\nvalue = [0, 1]"] ;
813 -> 815 ;
816 [label="x[42] <= 764271.969\ngini = 0.375\nsamples = 7\nvalue = [9, 3]"] ;
808 -> 816 ;
817 [label="x[45] <= 764288.5\ngini = 0.298\nsamples = 6\nvalue = [9, 2]"] ;
816 -> 817 ;
818 [label="gini = 0.0\nsamples = 2\nvalue = [2, 0]"] ;
817 -> 818 ;
819 [label="x[53] <= 764327.031\ngini = 0.346\nsamples = 4\nvalue = [7, 2]"] ;
817 -> 819 ;
820 [label="gini = 0.0\nsamples = 2\nvalue = [4, 0]"] ;
819 -> 820 ;
821 [label="x[42] <= 764241.094\ngini = 0.48\nsamples = 2\nvalue = [3, 2]"] ;
819 -> 821 ;
822 [label="gini = 0.0\nsamples = 1\nvalue = [3, 0]"] ;
821 -> 822 ;
823 [label="gini = 0.0\nsamples = 1\nvalue = [0, 2]"] ;
821 -> 823 ;
824 [label="gini = 0.0\nsamples = 1\nvalue = [0, 1]"] ;
816 -> 824 ;
825 [label="gini = 0.0\nsamples = 1\nvalue = [1, 0]"] ;
807 -> 825 ;
826 [label="x[68] <= 1528574.5\ngini = 0.444\nsamples = 23\nvalue = [28, 14]"] ;
804 -> 826 ;
827 [label="x[7] <= 1.963\ngini = 0.368\nsamples = 20\nvalue = [28, 9]"] ;
826 -> 827 ;
828 [label="gini = 0.0\nsamples = 4\nvalue = [6, 0]"] ;
827 -> 828 ;
829 [label="x[43] <= 764326.938\ngini = 0.412\nsamples = 16\nvalue = [22, 9]"] ;
827 -> 829 ;
830 [label="x[71] <= 1528572.438\ngini = 0.492\nsamples = 9\nvalue = [7, 9]"] ;
829 -> 830 ;
831 [label="x[71] <= 1528571.375\ngini = 0.486\nsamples = 5\nvalue = [5, 7]"] ;
830 -> 831 ;
832 [label="x[43] <= 764294.375\ngini = 0.5\nsamples = 2\nvalue = [1, 1]"] ;
831 -> 832 ;
833 [label="gini = 0.0\nsamples = 1\nvalue = [1, 0]"] ;
832 -> 833 ;
834 [label="gini = 0.0\nsamples = 1\nvalue = [0, 1]"] ;
832 -> 834 ;
835 [label="x[52] <= 764255.406\ngini = 0.48\nsamples = 3\nvalue = [4, 6]"] ;
831 -> 835 ;
836 [label="gini = 0.0\nsamples = 1\nvalue = [0, 6]"] ;
835 -> 836 ;
837 [label="gini = 0.0\nsamples = 2\nvalue = [4, 0]"] ;
835 -> 837 ;
838 [label="x[53] <= 764303.656\ngini = 0.5\nsamples = 4\nvalue = [2, 2]"] ;
830 -> 838 ;
839 [label="gini = 0.0\nsamples = 1\nvalue = [1, 0]"] ;
838 -> 839 ;
840 [label="x[46] <= 40.461\ngini = 0.444\nsamples = 3\nvalue = [1, 2]"] ;
838 -> 840 ;
841 [label="gini = 0.0\nsamples = 2\nvalue = [0, 2]"] ;
840 -> 841 ;
842 [label="gini = 0.0\nsamples = 1\nvalue = [1, 0]"] ;
840 -> 842 ;
843 [label="gini = 0.0\nsamples = 7\nvalue = [15, 0]"] ;
829 -> 843 ;
844 [label="gini = 0.0\nsamples = 3\nvalue = [0, 5]"] ;
826 -> 844 ;
845 [label="x[7] <= 1.963\ngini = 0.486\nsamples = 7\nvalue = [5, 7]"] ;
803 -> 845 ;
846 [label="x[46] <= 94.578\ngini = 0.346\nsamples = 5\nvalue = [2, 7]"] ;
845 -> 846 ;
847 [label="gini = 0.0\nsamples = 2\nvalue = [0, 5]"] ;
846 -> 847 ;
848 [label="x[44] <= 1528574.0\ngini = 0.5\nsamples = 3\nvalue = [2, 2]"] ;
846 -> 848 ;
849 [label="gini = 0.0\nsamples = 1\nvalue = [0, 1]"] ;
848 -> 849 ;
850 [label="x[2] <= 1.529\ngini = 0.444\nsamples = 2\nvalue = [2, 1]"] ;
848 -> 850 ;
851 [label="gini = 0.0\nsamples = 1\nvalue = [2, 0]"] ;
850 -> 851 ;
852 [label="gini = 0.0\nsamples = 1\nvalue = [0, 1]"] ;
850 -> 852 ;
853 [label="gini = 0.0\nsamples = 2\nvalue = [3, 0]"] ;
845 -> 853 ;
854 [label="x[55] <= 764288.25\ngini = 0.245\nsamples = 6\nvalue = [1, 6]"] ;
802 -> 854 ;
855 [label="gini = 0.0\nsamples = 5\nvalue = [0, 6]"] ;
854 -> 855 ;
856 [label="gini = 0.0\nsamples = 1\nvalue = [1, 0]"] ;
854 -> 856 ;
857 [label="x[68] <= 1528582.875\ngini = 0.433\nsamples = 841\nvalue = [881, 409]"] ;
775 -> 857 ;
858 [label="x[52] <= 764258.031\ngini = 0.176\nsamples = 25\nvalue = [37, 4]"] ;
857 -> 858 ;
859 [label="x[56] <= 93.397\ngini = 0.077\nsamples = 15\nvalue = [24, 1]"] ;
858 -> 859 ;
860 [label="gini = 0.0\nsamples = 12\nvalue = [21, 0]"] ;
859 -> 860 ;
861 [label="x[69] <= 1528581.625\ngini = 0.375\nsamples = 3\nvalue = [3, 1]"] ;
859 -> 861 ;
862 [label="gini = 0.0\nsamples = 1\nvalue = [0, 1]"] ;
861 -> 862 ;
863 [label="gini = 0.0\nsamples = 2\nvalue = [3, 0]"] ;
861 -> 863 ;
864 [label="x[9] <= 1.963\ngini = 0.305\nsamples = 10\nvalue = [13, 3]"] ;
858 -> 864 ;
865 [label="x[46] <= 45.603\ngini = 0.245\nsamples = 8\nvalue = [12, 2]"] ;
864 -> 865 ;
866 [label="x[2] <= 1.529\ngini = 0.142\nsamples = 7\nvalue = [12, 1]"] ;
865 -> 866 ;
867 [label="x[70] <= 1528582.0\ngini = 0.153\nsamples = 6\nvalue = [11, 1]"] ;
866 -> 867 ;
868 [label="x[46] <= 19.05\ngini = 0.32\nsamples = 3\nvalue = [4, 1]"] ;
867 -> 868 ;
869 [label="gini = 0.0\nsamples = 1\nvalue = [3, 0]"] ;
868 -> 869 ;
870 [label="x[53] <= 764309.406\ngini = 0.5\nsamples = 2\nvalue = [1, 1]"] ;
868 -> 870 ;
871 [label="gini = 0.0\nsamples = 1\nvalue = [0, 1]"] ;
870 -> 871 ;
872 [label="gini = 0.0\nsamples = 1\nvalue = [1, 0]"] ;
870 -> 872 ;
873 [label="gini = 0.0\nsamples = 3\nvalue = [7, 0]"] ;
867 -> 873 ;
874 [label="gini = 0.0\nsamples = 1\nvalue = [1, 0]"] ;
866 -> 874 ;
875 [label="gini = 0.0\nsamples = 1\nvalue = [0, 1]"] ;
865 -> 875 ;
876 [label="x[55] <= 764290.5\ngini = 0.5\nsamples = 2\nvalue = [1, 1]"] ;
864 -> 876 ;
877 [label="gini = 0.0\nsamples = 1\nvalue = [1, 0]"] ;
876 -> 877 ;
878 [label="gini = 0.0\nsamples = 1\nvalue = [0, 1]"] ;
876 -> 878 ;
879 [label="x[68] <= 1528629.875\ngini = 0.438\nsamples = 816\nvalue = [844, 405]"] ;
857 -> 879 ;
880 [label="x[71] <= 1528623.938\ngini = 0.425\nsamples = 479\nvalue = [497, 219]"] ;
879 -> 880 ;
881 [label="x[46] <= 102.501\ngini = 0.438\nsamples = 428\nvalue = [429, 206]"] ;
880 -> 881 ;
882 [label="x[56] <= 98.202\ngini = 0.451\nsamples = 387\nvalue = [376, 197]"] ;
881 -> 882 ;
883 [label="x[44] <= 1528590.562\ngini = 0.445\nsamples = 375\nvalue = [370, 186]"] ;
882 -> 883 ;
884 [label="x[57] <= 98.13\ngini = 0.485\nsamples = 69\nvalue = [61, 43]"] ;
883 -> 884 ;
885 [label="x[69] <= 1528589.5\ngini = 0.444\nsamples = 20\nvalue = [8, 16]"] ;
884 -> 885 ;
886 [label="x[53] <= 764299.031\ngini = 0.153\nsamples = 9\nvalue = [1, 11]"] ;
885 -> 886 ;
887 [label="gini = 0.0\nsamples = 1\nvalue = [1, 0]"] ;
886 -> 887 ;
888 [label="gini = 0.0\nsamples = 8\nvalue = [0, 11]"] ;
886 -> 888 ;
889 [label="x[56] <= 13.993\ngini = 0.486\nsamples = 11\nvalue = [7, 5]"] ;
885 -> 889 ;
890 [label="gini = 0.0\nsamples = 1\nvalue = [2, 0]"] ;
889 -> 890 ;
891 [label="x[45] <= 764295.062\ngini = 0.5\nsamples = 10\nvalue = [5, 5]"] ;
889 -> 891 ;
892 [label="x[53] <= 764306.906\ngini = 0.494\nsamples = 9\nvalue = [5, 4]"] ;
891 -> 892 ;
893 [label="gini = 0.0\nsamples = 1\nvalue = [0, 1]"] ;
892 -> 893 ;
894 [label="x[53] <= 764343.5\ngini = 0.469\nsamples = 8\nvalue = [5, 3]"] ;
892 -> 894 ;
895 [label="x[46] <= 34.729\ngini = 0.408\nsamples = 7\nvalue = [5, 2]"] ;
894 -> 895 ;
896 [label="gini = 0.0\nsamples = 2\nvalue = [2, 0]"] ;
895 -> 896 ;
897 [label="x[56] <= 44.676\ngini = 0.48\nsamples = 5\nvalue = [3, 2]"] ;
895 -> 897 ;
898 [label="gini = 0.0\nsamples = 1\nvalue = [0, 1]"] ;
897 -> 898 ;
899 [label="x[52] <= 764250.531\ngini = 0.375\nsamples = 4\nvalue = [3, 1]"] ;
897 -> 899 ;
900 [label="gini = 0.0\nsamples = 1\nvalue = [1, 0]"] ;
899 -> 900 ;
901 [label="x[52] <= 764254.938\ngini = 0.444\nsamples = 3\nvalue = [2, 1]"] ;
899 -> 901 ;
902 [label="gini = 0.5\nsamples = 2\nvalue = [1, 1]"] ;
901 -> 902 ;
903 [label="gini = 0.0\nsamples = 1\nvalue = [1, 0]"] ;
901 -> 903 ;
904 [label="gini = 0.0\nsamples = 1\nvalue = [0, 1]"] ;
894 -> 904 ;
905 [label="gini = 0.0\nsamples = 1\nvalue = [0, 1]"] ;
891 -> 905 ;
906 [label="x[43] <= 764295.594\ngini = 0.447\nsamples = 49\nvalue = [53, 27]"] ;
884 -> 906 ;
907 [label="x[2] <= 1.529\ngini = 0.142\nsamples = 6\nvalue = [12, 1]"] ;
906 -> 907 ;
908 [label="gini = 0.0\nsamples = 5\nvalue = [12, 0]"] ;
907 -> 908 ;
909 [label="gini = 0.0\nsamples = 1\nvalue = [0, 1]"] ;
907 -> 909 ;
910 [label="x[69] <= 1528586.0\ngini = 0.475\nsamples = 43\nvalue = [41, 26]"] ;
906 -> 910 ;
911 [label="x[70] <= 1528583.5\ngini = 0.498\nsamples = 20\nvalue = [16, 14]"] ;
910 -> 911 ;
912 [label="x[42] <= 764284.156\ngini = 0.42\nsamples = 6\nvalue = [7, 3]"] ;
911 -> 912 ;
913 [label="gini = 0.0\nsamples = 5\nvalue = [7, 0]"] ;
912 -> 913 ;
914 [label="gini = 0.0\nsamples = 1\nvalue = [0, 3]"] ;
912 -> 914 ;
915 [label="x[46] <= 21.579\ngini = 0.495\nsamples = 14\nvalue = [9, 11]"] ;
911 -> 915 ;
916 [label="x[52] <= 764278.406\ngini = 0.245\nsamples = 4\nvalue = [1, 6]"] ;
915 -> 916 ;
917 [label="gini = 0.0\nsamples = 2\nvalue = [0, 4]"] ;
916 -> 917 ;
918 [label="x[68] <= 1528584.938\ngini = 0.444\nsamples = 2\nvalue = [1, 2]"] ;
916 -> 918 ;
919 [label="gini = 0.0\nsamples = 1\nvalue = [0, 2]"] ;
918 -> 919 ;
920 [label="gini = 0.0\nsamples = 1\nvalue = [1, 0]"] ;
918 -> 920 ;
921 [label="x[54] <= 1528584.5\ngini = 0.473\nsamples = 10\nvalue = [8, 5]"] ;
915 -> 921 ;
922 [label="x[46] <= 48.216\ngini = 0.5\nsamples = 3\nvalue = [2, 2]"] ;
921 -> 922 ;
923 [label="gini = 0.0\nsamples = 1\nvalue = [1, 0]"] ;
922 -> 923 ;
924 [label="x[43] <= 764352.094\ngini = 0.444\nsamples = 2\nvalue = [1, 2]"] ;
922 -> 924 ;
925 [label="gini = 0.0\nsamples = 1\nvalue = [0, 2]"] ;
924 -> 925 ;
926 [label="gini = 0.0\nsamples = 1\nvalue = [1, 0]"] ;
924 -> 926 ;
927 [label="x[68] <= 1528585.438\ngini = 0.444\nsamples = 7\nvalue = [6, 3]"] ;
921 -> 927 ;
928 [label="x[43] <= 764317.531\ngini = 0.408\nsamples = 5\nvalue = [5, 2]"] ;
927 -> 928 ;
929 [label="gini = 0.0\nsamples = 1\nvalue = [2, 0]"] ;
928 -> 929 ;
930 [label="x[52] <= 764256.5\ngini = 0.48\nsamples = 4\nvalue = [3, 2]"] ;
928 -> 930 ;
931 [label="x[42] <= 764246.0\ngini = 0.375\nsamples = 3\nvalue = [3, 1]"] ;
930 -> 931 ;
932 [label="x[56] <= 81.428\ngini = 0.5\nsamples = 2\nvalue = [1, 1]"] ;
931 -> 932 ;
933 [label="gini = 0.0\nsamples = 1\nvalue = [0, 1]"] ;
932 -> 933 ;
934 [label="gini = 0.0\nsamples = 1\nvalue = [1, 0]"] ;
932 -> 934 ;
935 [label="gini = 0.0\nsamples = 1\nvalue = [2, 0]"] ;
931 -> 935 ;
936 [label="gini = 0.0\nsamples = 1\nvalue = [0, 1]"] ;
930 -> 936 ;
937 [label="x[52] <= 764250.969\ngini = 0.5\nsamples = 2\nvalue = [1, 1]"] ;
927 -> 937 ;
938 [label="gini = 0.0\nsamples = 1\nvalue = [1, 0]"] ;
937 -> 938 ;
939 [label="gini = 0.0\nsamples = 1\nvalue = [0, 1]"] ;
937 -> 939 ;
940 [label="x[70] <= 1528587.5\ngini = 0.438\nsamples = 23\nvalue = [25, 12]"] ;
910 -> 940 ;
941 [label="x[45] <= 764293.25\ngini = 0.375\nsamples = 15\nvalue = [15, 5]"] ;
940 -> 941 ;
942 [label="x[53] <= 764307.125\ngini = 0.444\nsamples = 7\nvalue = [6, 3]"] ;
941 -> 942 ;
943 [label="x[52] <= 764284.0\ngini = 0.375\nsamples = 3\nvalue = [1, 3]"] ;
942 -> 943 ;
944 [label="gini = 0.0\nsamples = 1\nvalue = [0, 2]"] ;
943 -> 944 ;
945 [label="x[43] <= 764298.562\ngini = 0.5\nsamples = 2\nvalue = [1, 1]"] ;
943 -> 945 ;
946 [label="gini = 0.0\nsamples = 1\nvalue = [0, 1]"] ;
945 -> 946 ;
947 [label="gini = 0.0\nsamples = 1\nvalue = [1, 0]"] ;
945 -> 947 ;
948 [label="gini = 0.0\nsamples = 4\nvalue = [5, 0]"] ;
942 -> 948 ;
949 [label="x[43] <= 764360.406\ngini = 0.298\nsamples = 8\nvalue = [9, 2]"] ;
941 -> 949 ;
950 [label="gini = 0.0\nsamples = 7\nvalue = [9, 0]"] ;
949 -> 950 ;
951 [label="gini = 0.0\nsamples = 1\nvalue = [0, 2]"] ;
949 -> 951 ;
952 [label="x[46] <= 55.128\ngini = 0.484\nsamples = 8\nvalue = [10, 7]"] ;
940 -> 952 ;
953 [label="x[42] <= 764286.031\ngini = 0.32\nsamples = 4\nvalue = [8, 2]"] ;
952 -> 953 ;
954 [label="gini = 0.0\nsamples = 3\nvalue = [8, 0]"] ;
953 -> 954 ;
955 [label="gini = 0.0\nsamples = 1\nvalue = [0, 2]"] ;
953 -> 955 ;
956 [label="x[68] <= 1528587.938\ngini = 0.408\nsamples = 4\nvalue = [2, 5]"] ;
952 -> 956 ;
957 [label="gini = 0.0\nsamples = 2\nvalue = [0, 4]"] ;
956 -> 957 ;
958 [label="x[52] <= 764242.062\ngini = 0.444\nsamples = 2\nvalue = [2, 1]"] ;
956 -> 958 ;
959 [label="gini = 0.0\nsamples = 1\nvalue = [0, 1]"] ;
958 -> 959 ;
960 [label="gini = 0.0\nsamples = 1\nvalue = [2, 0]"] ;
958 -> 960 ;
961 [label="x[56] <= 50.998\ngini = 0.433\nsamples = 306\nvalue = [309, 143]"] ;
883 -> 961 ;
962 [label="x[44] <= 1528615.5\ngini = 0.473\nsamples = 168\nvalue = [146, 91]"] ;
961 -> 962 ;
963 [label="x[71] <= 1528598.562\ngini = 0.447\nsamples = 120\nvalue = [112, 57]"] ;
962 -> 963 ;
964 [label="x[55] <= 764298.5\ngini = 0.492\nsamples = 43\nvalue = [32, 25]"] ;
963 -> 964 ;
965 [label="x[54] <= 1528592.5\ngini = 0.457\nsamples = 36\nvalue = [31, 17]"] ;
964 -> 965 ;
966 [label="x[70] <= 1528591.5\ngini = 0.337\nsamples = 10\nvalue = [11, 3]"] ;
965 -> 966 ;
967 [label="x[68] <= 1528591.0\ngini = 0.444\nsamples = 2\nvalue = [1, 2]"] ;
966 -> 967 ;
968 [label="gini = 0.0\nsamples = 1\nvalue = [1, 0]"] ;
967 -> 968 ;
969 [label="gini = 0.0\nsamples = 1\nvalue = [0, 2]"] ;
967 -> 969 ;
970 [label="x[54] <= 1528592.0\ngini = 0.165\nsamples = 8\nvalue = [10, 1]"] ;
966 -> 970 ;
971 [label="gini = 0.0\nsamples = 3\nvalue = [4, 0]"] ;
970 -> 971 ;
972 [label="x[53] <= 764301.531\ngini = 0.245\nsamples = 5\nvalue = [6, 1]"] ;
970 -> 972 ;
973 [label="gini = 0.0\nsamples = 1\nvalue = [0, 1]"] ;
972 -> 973 ;
974 [label="gini = 0.0\nsamples = 4\nvalue = [6, 0]"] ;
972 -> 974 ;
975 [label="x[53] <= 764331.938\ngini = 0.484\nsamples = 26\nvalue = [20, 14]"] ;
965 -> 975 ;
976 [label="x[71] <= 1528595.438\ngini = 0.444\nsamples = 23\nvalue = [20, 10]"] ;
975 -> 976 ;
977 [label="x[56] <= 22.001\ngini = 0.499\nsamples = 15\nvalue = [10, 9]"] ;
976 -> 977 ;
978 [label="x[56] <= 11.97\ngini = 0.473\nsamples = 9\nvalue = [5, 8]"] ;
977 -> 978 ;
979 [label="x[2] <= 1.529\ngini = 0.469\nsamples = 6\nvalue = [5, 3]"] ;
978 -> 979 ;
980 [label="gini = 0.0\nsamples = 2\nvalue = [0, 2]"] ;
979 -> 980 ;
981 [label="x[69] <= 1528593.875\ngini = 0.278\nsamples = 4\nvalue = [5, 1]"] ;
979 -> 981 ;
982 [label="gini = 0.0\nsamples = 1\nvalue = [2, 0]"] ;
981 -> 982 ;
983 [label="x[56] <= 4.889\ngini = 0.375\nsamples = 3\nvalue = [3, 1]"] ;
981 -> 983 ;
984 [label="x[9] <= 1.963\ngini = 0.5\nsamples = 2\nvalue = [1, 1]"] ;
983 -> 984 ;
985 [label="gini = 0.0\nsamples = 1\nvalue = [1, 0]"] ;
984 -> 985 ;
986 [label="gini = 0.0\nsamples = 1\nvalue = [0, 1]"] ;
984 -> 986 ;
987 [label="gini = 0.0\nsamples = 1\nvalue = [2, 0]"] ;
983 -> 987 ;
988 [label="gini = 0.0\nsamples = 3\nvalue = [0, 5]"] ;
978 -> 988 ;
989 [label="x[53] <= 764328.125\ngini = 0.278\nsamples = 6\nvalue = [5, 1]"] ;
977 -> 989 ;
990 [label="gini = 0.0\nsamples = 4\nvalue = [4, 0]"] ;
989 -> 990 ;
991 [label="x[52] <= 764262.562\ngini = 0.5\nsamples = 2\nvalue = [1, 1]"] ;
989 -> 991 ;
992 [label="gini = 0.0\nsamples = 1\nvalue = [1, 0]"] ;
991 -> 992 ;
993 [label="gini = 0.0\nsamples = 1\nvalue = [0, 1]"] ;
991 -> 993 ;
994 [label="x[42] <= 764284.031\ngini = 0.165\nsamples = 8\nvalue = [10, 1]"] ;
976 -> 994 ;
995 [label="x[2] <= 1.529\ngini = 0.32\nsamples = 4\nvalue = [4, 1]"] ;
994 -> 995 ;
996 [label="gini = 0.0\nsamples = 2\nvalue = [3, 0]"] ;
995 -> 996 ;
997 [label="x[46] <= 34.729\ngini = 0.5\nsamples = 2\nvalue = [1, 1]"] ;
995 -> 997 ;
998 [label="gini = 0.0\nsamples = 1\nvalue = [0, 1]"] ;
997 -> 998 ;
999 [label="gini = 0.0\nsamples = 1\nvalue = [1, 0]"] ;
997 -> 999 ;
1000 [label="gini = 0.0\nsamples = 4\nvalue = [6, 0]"] ;
994 -> 1000 ;
1001 [label="gini = 0.0\nsamples = 3\nvalue = [0, 4]"] ;
975 -> 1001 ;
1002 [label="x[43] <= 764310.5\ngini = 0.198\nsamples = 7\nvalue = [1, 8]"] ;
964 -> 1002 ;
1003 [label="gini = 0.0\nsamples = 3\nvalue = [0, 4]"] ;
1002 -> 1003 ;
1004 [label="x[68] <= 1528597.5\ngini = 0.32\nsamples = 4\nvalue = [1, 4]"] ;
1002 -> 1004 ;
1005 [label="gini = 0.0\nsamples = 1\nvalue = [1, 0]"] ;
1004 -> 1005 ;
1006 [label="gini = 0.0\nsamples = 3\nvalue = [0, 4]"] ;
1004 -> 1006 ;
1007 [label="x[46] <= 20.821\ngini = 0.408\nsamples = 77\nvalue = [80, 32]"] ;
963 -> 1007 ;
1008 [label="x[52] <= 764293.438\ngini = 0.289\nsamples = 35\nvalue = [47, 10]"] ;
1007 -> 1008 ;
1009 [label="gini = 0.0\nsamples = 14\nvalue = [26, 0]"] ;
1008 -> 1009 ;
1010 [label="x[9] <= 1.963\ngini = 0.437\nsamples = 21\nvalue = [21, 10]"] ;
1008 -> 1010 ;
1011 [label="x[9] <= 1.963\ngini = 0.33\nsamples = 16\nvalue = [19, 5]"] ;
1010 -> 1011 ;
1012 [label="gini = 0.0\nsamples = 2\nvalue = [2, 0]"] ;
1011 -> 1012 ;
1013 [label="x[68] <= 1528613.062\ngini = 0.351\nsamples = 14\nvalue = [17, 5]"] ;
1011 -> 1013 ;
1014 [label="x[70] <= 1528605.625\ngini = 0.308\nsamples = 13\nvalue = [17, 4]"] ;
1013 -> 1014 ;
1015 [label="x[53] <= 764306.062\ngini = 0.5\nsamples = 2\nvalue = [1, 1]"] ;
1014 -> 1015 ;
1016 [label="gini = 0.0\nsamples = 1\nvalue = [0, 1]"] ;
1015 -> 1016 ;
1017 [label="gini = 0.0\nsamples = 1\nvalue = [1, 0]"] ;
1015 -> 1017 ;
1018 [label="x[54] <= 1528609.5\ngini = 0.266\nsamples = 11\nvalue = [16, 3]"] ;
1014 -> 1018 ;
1019 [label="gini = 0.0\nsamples = 3\nvalue = [6, 0]"] ;
1018 -> 1019 ;
1020 [label="x[7] <= 1.963\ngini = 0.355\nsamples = 8\nvalue = [10, 3]"] ;
1018 -> 1020 ;
1021 [label="gini = 0.0\nsamples = 1\nvalue = [3, 0]"] ;
1020 -> 1021 ;
1022 [label="x[9] <= 1.963\ngini = 0.42\nsamples = 7\nvalue = [7, 3]"] ;
1020 -> 1022 ;
1023 [label="x[46] <= 7.249\ngini = 0.408\nsamples = 5\nvalue = [5, 2]"] ;
1022 -> 1023 ;
1024 [label="gini = 0.0\nsamples = 3\nvalue = [5, 0]"] ;
1023 -> 1024 ;
1025 [label="gini = 0.0\nsamples = 2\nvalue = [0, 2]"] ;
1023 -> 1025 ;
1026 [label="x[46] <= 6.912\ngini = 0.444\nsamples = 2\nvalue = [2, 1]"] ;
1022 -> 1026 ;
1027 [label="gini = 0.0\nsamples = 1\nvalue = [2, 0]"] ;
1026 -> 1027 ;
1028 [label="gini = 0.0\nsamples = 1\nvalue = [0, 1]"] ;
1026 -> 1028 ;
1029 [label="gini = 0.0\nsamples = 1\nvalue = [0, 1]"] ;
1013 -> 1029 ;
1030 [label="x[69] <= 1528603.0\ngini = 0.408\nsamples = 5\nvalue = [2, 5]"] ;
1010 -> 1030 ;
1031 [label="x[44] <= 1528602.0\ngini = 0.278\nsamples = 4\nvalue = [1, 5]"] ;
1030 -> 1031 ;
1032 [label="x[46] <= 1.096\ngini = 0.444\nsamples = 2\nvalue = [1, 2]"] ;
1031 -> 1032 ;
1033 [label="gini = 0.0\nsamples = 1\nvalue = [1, 0]"] ;
1032 -> 1033 ;
1034 [label="gini = 0.0\nsamples = 1\nvalue = [0, 2]"] ;
1032 -> 1034 ;
1035 [label="gini = 0.0\nsamples = 2\nvalue = [0, 3]"] ;
1031 -> 1035 ;
1036 [label="gini = 0.0\nsamples = 1\nvalue = [1, 0]"] ;
1030 -> 1036 ;
1037 [label="x[44] <= 1528613.0\ngini = 0.48\nsamples = 42\nvalue = [33, 22]"] ;
1007 -> 1037 ;
1038 [label="x[70] <= 1528609.5\ngini = 0.491\nsamples = 38\nvalue = [29, 22]"] ;
1037 -> 1038 ;
1039 [label="x[69] <= 1528599.5\ngini = 0.43\nsamples = 22\nvalue = [22, 10]"] ;
1038 -> 1039 ;
1040 [label="gini = 0.0\nsamples = 2\nvalue = [3, 0]"] ;
1039 -> 1040 ;
1041 [label="x[53] <= 764316.906\ngini = 0.452\nsamples = 20\nvalue = [19, 10]"] ;
1039 -> 1041 ;
1042 [label="gini = 0.0\nsamples = 1\nvalue = [0, 2]"] ;
1041 -> 1042 ;
1043 [label="x[42] <= 764272.906\ngini = 0.417\nsamples = 19\nvalue = [19, 8]"] ;
1041 -> 1043 ;
1044 [label="x[68] <= 1528600.438\ngini = 0.494\nsamples = 7\nvalue = [4, 5]"] ;
1043 -> 1044 ;
1045 [label="gini = 0.0\nsamples = 1\nvalue = [0, 2]"] ;
1044 -> 1045 ;
1046 [label="x[52] <= 764270.906\ngini = 0.49\nsamples = 6\nvalue = [4, 3]"] ;
1044 -> 1046 ;
1047 [label="gini = 0.0\nsamples = 4\nvalue = [4, 0]"] ;
1046 -> 1047 ;
1048 [label="gini = 0.0\nsamples = 2\nvalue = [0, 3]"] ;
1046 -> 1048 ;
1049 [label="x[2] <= 1.529\ngini = 0.278\nsamples = 12\nvalue = [15, 3]"] ;
1043 -> 1049 ;
1050 [label="gini = 0.0\nsamples = 3\nvalue = [6, 0]"] ;
1049 -> 1050 ;
1051 [label="x[70] <= 1528603.562\ngini = 0.375\nsamples = 9\nvalue = [9, 3]"] ;
1049 -> 1051 ;
1052 [label="gini = 0.0\nsamples = 1\nvalue = [0, 1]"] ;
1051 -> 1052 ;
1053 [label="x[71] <= 1528605.5\ngini = 0.298\nsamples = 8\nvalue = [9, 2]"] ;
1051 -> 1053 ;
1054 [label="gini = 0.0\nsamples = 3\nvalue = [3, 0]"] ;
1053 -> 1054 ;
1055 [label="x[70] <= 1528608.438\ngini = 0.375\nsamples = 5\nvalue = [6, 2]"] ;
1053 -> 1055 ;
1056 [label="x[44] <= 1528607.0\ngini = 0.48\nsamples = 4\nvalue = [3, 2]"] ;
1055 -> 1056 ;
1057 [label="x[44] <= 1528606.062\ngini = 0.375\nsamples = 3\nvalue = [3, 1]"] ;
1056 -> 1057 ;
1058 [label="x[52] <= 764281.844\ngini = 0.5\nsamples = 2\nvalue = [1, 1]"] ;
1057 -> 1058 ;
1059 [label="gini = 0.0\nsamples = 1\nvalue = [1, 0]"] ;
1058 -> 1059 ;
1060 [label="gini = 0.0\nsamples = 1\nvalue = [0, 1]"] ;
1058 -> 1060 ;
1061 [label="gini = 0.0\nsamples = 1\nvalue = [2, 0]"] ;
1057 -> 1061 ;
1062 [label="gini = 0.0\nsamples = 1\nvalue = [0, 1]"] ;
1056 -> 1062 ;
1063 [label="gini = 0.0\nsamples = 1\nvalue = [3, 0]"] ;
1055 -> 1063 ;
1064 [label="x[56] <= 38.522\ngini = 0.465\nsamples = 16\nvalue = [7, 12]"] ;
1038 -> 1064 ;
1065 [label="x[2] <= 1.529\ngini = 0.245\nsamples = 11\nvalue = [2, 12]"] ;
1064 -> 1065 ;
1066 [label="x[42] <= 764288.438\ngini = 0.298\nsamples = 9\nvalue = [2, 9]"] ;
1065 -> 1066 ;
1067 [label="x[9] <= 1.963\ngini = 0.198\nsamples = 7\nvalue = [1, 8]"] ;
1066 -> 1067 ;
1068 [label="gini = 0.0\nsamples = 1\nvalue = [0, 1]"] ;
1067 -> 1068 ;
1069 [label="x[52] <= 764281.531\ngini = 0.219\nsamples = 6\nvalue = [1, 7]"] ;
1067 -> 1069 ;
1070 [label="x[53] <= 764329.906\ngini = 0.5\nsamples = 2\nvalue = [1, 1]"] ;
1069 -> 1070 ;
1071 [label="gini = 0.0\nsamples = 1\nvalue = [1, 0]"] ;
1070 -> 1071 ;
1072 [label="gini = 0.0\nsamples = 1\nvalue = [0, 1]"] ;
1070 -> 1072 ;
1073 [label="gini = 0.0\nsamples = 4\nvalue = [0, 6]"] ;
1069 -> 1073 ;
1074 [label="x[43] <= 764320.969\ngini = 0.5\nsamples = 2\nvalue = [1, 1]"] ;
1066 -> 1074 ;
1075 [label="gini = 0.0\nsamples = 1\nvalue = [0, 1]"] ;
1074 -> 1075 ;
1076 [label="gini = 0.0\nsamples = 1\nvalue = [1, 0]"] ;
1074 -> 1076 ;
1077 [label="gini = 0.0\nsamples = 2\nvalue = [0, 3]"] ;
1065 -> 1077 ;
1078 [label="gini = 0.0\nsamples = 5\nvalue = [5, 0]"] ;
1064 -> 1078 ;
1079 [label="gini = 0.0\nsamples = 4\nvalue = [4, 0]"] ;
1037 -> 1079 ;
1080 [label="x[45] <= 764308.75\ngini = 0.5\nsamples = 48\nvalue = [34, 34]"] ;
962 -> 1080 ;
1081 [label="x[54] <= 1528617.0\ngini = 0.444\nsamples = 14\nvalue = [7, 14]"] ;
1080 -> 1081 ;
1082 [label="x[52] <= 764301.406\ngini = 0.457\nsamples = 12\nvalue = [6, 11]"] ;
1081 -> 1082 ;
1083 [label="x[42] <= 764295.938\ngini = 0.43\nsamples = 11\nvalue = [5, 11]"] ;
1082 -> 1083 ;
1084 [label="x[7] <= 1.963\ngini = 0.496\nsamples = 10\nvalue = [5, 6]"] ;
1083 -> 1084 ;
1085 [label="gini = 0.0\nsamples = 2\nvalue = [0, 2]"] ;
1084 -> 1085 ;
1086 [label="x[46] <= 21.242\ngini = 0.494\nsamples = 8\nvalue = [5, 4]"] ;
1084 -> 1086 ;
1087 [label="gini = 0.0\nsamples = 1\nvalue = [2, 0]"] ;
1086 -> 1087 ;
1088 [label="x[52] <= 764282.469\ngini = 0.49\nsamples = 7\nvalue = [3, 4]"] ;
1086 -> 1088 ;
1089 [label="x[46] <= 48.722\ngini = 0.444\nsamples = 3\nvalue = [2, 1]"] ;
1088 -> 1089 ;
1090 [label="gini = 0.0\nsamples = 2\nvalue = [2, 0]"] ;
1089 -> 1090 ;
1091 [label="gini = 0.0\nsamples = 1\nvalue = [0, 1]"] ;
1089 -> 1091 ;
1092 [label="x[56] <= 30.346\ngini = 0.375\nsamples = 4\nvalue = [1, 3]"] ;
1088 -> 1092 ;
1093 [label="x[53] <= 764325.969\ngini = 0.5\nsamples = 2\nvalue = [1, 1]"] ;
1092 -> 1093 ;
1094 [label="gini = 0.0\nsamples = 1\nvalue = [0, 1]"] ;
1093 -> 1094 ;
1095 [label="gini = 0.0\nsamples = 1\nvalue = [1, 0]"] ;
1093 -> 1095 ;
1096 [label="gini = 0.0\nsamples = 2\nvalue = [0, 2]"] ;
1092 -> 1096 ;
1097 [label="gini = 0.0\nsamples = 1\nvalue = [0, 5]"] ;
1083 -> 1097 ;
1098 [label="gini = 0.0\nsamples = 1\nvalue = [1, 0]"] ;
1082 -> 1098 ;
1099 [label="x[42] <= 764286.625\ngini = 0.375\nsamples = 2\nvalue = [1, 3]"] ;
1081 -> 1099 ;
1100 [label="gini = 0.0\nsamples = 1\nvalue = [1, 0]"] ;
1099 -> 1100 ;
1101 [label="gini = 0.0\nsamples = 1\nvalue = [0, 3]"] ;
1099 -> 1101 ;
1102 [label="x[70] <= 1528621.562\ngini = 0.489\nsamples = 34\nvalue = [27, 20]"] ;
1080 -> 1102 ;
1103 [label="x[42] <= 764308.938\ngini = 0.464\nsamples = 22\nvalue = [19, 11]"] ;
1102 -> 1103 ;
1104 [label="x[9] <= 1.963\ngini = 0.452\nsamples = 21\nvalue = [19, 10]"] ;
1103 -> 1104 ;
1105 [label="gini = 0.0\nsamples = 3\nvalue = [3, 0]"] ;
1104 -> 1105 ;
1106 [label="x[46] <= 5.563\ngini = 0.473\nsamples = 18\nvalue = [16, 10]"] ;
1104 -> 1106 ;
1107 [label="gini = 0.0\nsamples = 2\nvalue = [4, 0]"] ;
1106 -> 1107 ;
1108 [label="x[45] <= 764309.0\ngini = 0.496\nsamples = 16\nvalue = [12, 10]"] ;
1106 -> 1108 ;
1109 [label="x[53] <= 764323.938\ngini = 0.444\nsamples = 2\nvalue = [2, 1]"] ;
1108 -> 1109 ;
1110 [label="gini = 0.0\nsamples = 1\nvalue = [0, 1]"] ;
1109 -> 1110 ;
1111 [label="gini = 0.0\nsamples = 1\nvalue = [2, 0]"] ;
1109 -> 1111 ;
1112 [label="x[70] <= 1528619.5\ngini = 0.499\nsamples = 14\nvalue = [10, 9]"] ;
1108 -> 1112 ;
1113 [label="x[70] <= 1528618.562\ngini = 0.496\nsamples = 8\nvalue = [6, 5]"] ;
1112 -> 1113 ;
1114 [label="x[52] <= 764285.594\ngini = 0.5\nsamples = 2\nvalue = [1, 1]"] ;
1113 -> 1114 ;
1115 [label="gini = 0.0\nsamples = 1\nvalue = [1, 0]"] ;
1114 -> 1115 ;
1116 [label="gini = 0.0\nsamples = 1\nvalue = [0, 1]"] ;
1114 -> 1116 ;
1117 [label="x[42] <= 764290.594\ngini = 0.494\nsamples = 6\nvalue = [5, 4]"] ;
1113 -> 1117 ;
1118 [label="gini = 0.0\nsamples = 1\nvalue = [0, 1]"] ;
1117 -> 1118 ;
1119 [label="x[42] <= 764297.969\ngini = 0.469\nsamples = 5\nvalue = [5, 3]"] ;
1117 -> 1119 ;
1120 [label="gini = 0.0\nsamples = 2\nvalue = [3, 0]"] ;
1119 -> 1120 ;
1121 [label="x[43] <= 764316.562\ngini = 0.48\nsamples = 3\nvalue = [2, 3]"] ;
1119 -> 1121 ;
1122 [label="gini = 0.444\nsamples = 2\nvalue = [2, 1]"] ;
1121 -> 1122 ;
1123 [label="gini = 0.0\nsamples = 1\nvalue = [0, 2]"] ;
1121 -> 1123 ;
1124 [label="x[43] <= 764316.906\ngini = 0.5\nsamples = 6\nvalue = [4, 4]"] ;
1112 -> 1124 ;
1125 [label="gini = 0.0\nsamples = 1\nvalue = [0, 1]"] ;
1124 -> 1125 ;
1126 [label="x[52] <= 764287.469\ngini = 0.49\nsamples = 5\nvalue = [4, 3]"] ;
1124 -> 1126 ;
1127 [label="x[53] <= 764338.969\ngini = 0.48\nsamples = 3\nvalue = [2, 3]"] ;
1126 -> 1127 ;
1128 [label="gini = 0.375\nsamples = 2\nvalue = [1, 3]"] ;
1127 -> 1128 ;
1129 [label="gini = 0.0\nsamples = 1\nvalue = [1, 0]"] ;
1127 -> 1129 ;
1130 [label="gini = 0.0\nsamples = 2\nvalue = [2, 0]"] ;
1126 -> 1130 ;
1131 [label="gini = 0.0\nsamples = 1\nvalue = [0, 1]"] ;
1103 -> 1131 ;
1132 [label="x[42] <= 764293.562\ngini = 0.498\nsamples = 12\nvalue = [8, 9]"] ;
1102 -> 1132 ;
1133 [label="x[43] <= 764336.938\ngini = 0.42\nsamples = 8\nvalue = [3, 7]"] ;
1132 -> 1133 ;
1134 [label="gini = 0.0\nsamples = 4\nvalue = [0, 5]"] ;
1133 -> 1134 ;
1135 [label="x[42] <= 764283.531\ngini = 0.48\nsamples = 4\nvalue = [3, 2]"] ;
1133 -> 1135 ;
1136 [label="x[43] <= 764344.938\ngini = 0.444\nsamples = 3\nvalue = [1, 2]"] ;
1135 -> 1136 ;
1137 [label="gini = 0.0\nsamples = 2\nvalue = [0, 2]"] ;
1136 -> 1137 ;
1138 [label="gini = 0.0\nsamples = 1\nvalue = [1, 0]"] ;
1136 -> 1138 ;
1139 [label="gini = 0.0\nsamples = 1\nvalue = [2, 0]"] ;
1135 -> 1139 ;
1140 [label="x[9] <= 1.963\ngini = 0.408\nsamples = 4\nvalue = [5, 2]"] ;
1132 -> 1140 ;
1141 [label="gini = 0.0\nsamples = 2\nvalue = [4, 0]"] ;
1140 -> 1141 ;
1142 [label="x[52] <= 764308.938\ngini = 0.444\nsamples = 2\nvalue = [1, 2]"] ;
1140 -> 1142 ;
1143 [label="gini = 0.0\nsamples = 1\nvalue = [0, 2]"] ;
1142 -> 1143 ;
1144 [label="gini = 0.0\nsamples = 1\nvalue = [1, 0]"] ;
1142 -> 1144 ;
1145 [label="x[43] <= 764349.594\ngini = 0.367\nsamples = 138\nvalue = [163, 52]"] ;
961 -> 1145 ;
1146 [label="x[55] <= 764306.0\ngini = 0.258\nsamples = 50\nvalue = [67, 12]"] ;
1145 -> 1146 ;
1147 [label="x[43] <= 764347.438\ngini = 0.291\nsamples = 44\nvalue = [56, 12]"] ;
1146 -> 1147 ;
1148 [label="x[56] <= 64.738\ngini = 0.365\nsamples = 34\nvalue = [38, 12]"] ;
1147 -> 1148 ;
1149 [label="x[53] <= 764344.469\ngini = 0.255\nsamples = 26\nvalue = [34, 6]"] ;
1148 -> 1149 ;
1150 [label="x[44] <= 1528594.5\ngini = 0.074\nsamples = 18\nvalue = [25, 1]"] ;
1149 -> 1150 ;
1151 [label="x[9] <= 1.963\ngini = 0.219\nsamples = 7\nvalue = [7, 1]"] ;
1150 -> 1151 ;
1152 [label="x[42] <= 764256.594\ngini = 0.5\nsamples = 2\nvalue = [1, 1]"] ;
1151 -> 1152 ;
1153 [label="gini = 0.0\nsamples = 1\nvalue = [0, 1]"] ;
1152 -> 1153 ;
1154 [label="gini = 0.0\nsamples = 1\nvalue = [1, 0]"] ;
1152 -> 1154 ;
1155 [label="gini = 0.0\nsamples = 5\nvalue = [6, 0]"] ;
1151 -> 1155 ;
1156 [label="gini = 0.0\nsamples = 11\nvalue = [18, 0]"] ;
1150 -> 1156 ;
1157 [label="x[44] <= 1528610.938\ngini = 0.459\nsamples = 8\nvalue = [9, 5]"] ;
1149 -> 1157 ;
1158 [label="x[71] <= 1528605.0\ngini = 0.375\nsamples = 7\nvalue = [9, 3]"] ;
1157 -> 1158 ;
1159 [label="gini = 0.0\nsamples = 2\nvalue = [3, 0]"] ;
1158 -> 1159 ;
1160 [label="x[55] <= 764303.469\ngini = 0.444\nsamples = 5\nvalue = [6, 3]"] ;
1158 -> 1160 ;
1161 [label="gini = 0.0\nsamples = 1\nvalue = [0, 2]"] ;
1160 -> 1161 ;
1162 [label="x[69] <= 1528608.562\ngini = 0.245\nsamples = 4\nvalue = [6, 1]"] ;
1160 -> 1162 ;
1163 [label="gini = 0.0\nsamples = 2\nvalue = [4, 0]"] ;
1162 -> 1163 ;
1164 [label="x[7] <= 1.963\ngini = 0.444\nsamples = 2\nvalue = [2, 1]"] ;
1162 -> 1164 ;
1165 [label="gini = 0.0\nsamples = 1\nvalue = [2, 0]"] ;
1164 -> 1165 ;
1166 [label="gini = 0.0\nsamples = 1\nvalue = [0, 1]"] ;
1164 -> 1166 ;
1167 [label="gini = 0.0\nsamples = 1\nvalue = [0, 2]"] ;
1157 -> 1167 ;
1168 [label="x[54] <= 1528593.438\ngini = 0.48\nsamples = 8\nvalue = [4, 6]"] ;
1148 -> 1168 ;
1169 [label="x[54] <= 1528591.5\ngini = 0.32\nsamples = 4\nvalue = [1, 4]"] ;
1168 -> 1169 ;
1170 [label="x[43] <= 764346.344\ngini = 0.5\nsamples = 2\nvalue = [1, 1]"] ;
1169 -> 1170 ;
1171 [label="gini = 0.0\nsamples = 1\nvalue = [1, 0]"] ;
1170 -> 1171 ;
1172 [label="gini = 0.0\nsamples = 1\nvalue = [0, 1]"] ;
1170 -> 1172 ;
1173 [label="gini = 0.0\nsamples = 2\nvalue = [0, 3]"] ;
1169 -> 1173 ;
1174 [label="x[57] <= 98.129\ngini = 0.48\nsamples = 4\nvalue = [3, 2]"] ;
1168 -> 1174 ;
1175 [label="gini = 0.0\nsamples = 1\nvalue = [0, 1]"] ;
1174 -> 1175 ;
1176 [label="x[70] <= 1528594.625\ngini = 0.375\nsamples = 3\nvalue = [3, 1]"] ;
1174 -> 1176 ;
1177 [label="x[56] <= 69.795\ngini = 0.5\nsamples = 2\nvalue = [1, 1]"] ;
1176 -> 1177 ;
1178 [label="gini = 0.0\nsamples = 1\nvalue = [0, 1]"] ;
1177 -> 1178 ;
1179 [label="gini = 0.0\nsamples = 1\nvalue = [1, 0]"] ;
1177 -> 1179 ;
1180 [label="gini = 0.0\nsamples = 1\nvalue = [2, 0]"] ;
1176 -> 1180 ;
1181 [label="gini = 0.0\nsamples = 10\nvalue = [18, 0]"] ;
1147 -> 1181 ;
1182 [label="gini = 0.0\nsamples = 6\nvalue = [11, 0]"] ;
1146 -> 1182 ;
1183 [label="x[71] <= 1528608.562\ngini = 0.415\nsamples = 88\nvalue = [96, 40]"] ;
1145 -> 1183 ;
1184 [label="x[7] <= 1.963\ngini = 0.475\nsamples = 41\nvalue = [44, 28]"] ;
1183 -> 1184 ;
1185 [label="x[56] <= 81.006\ngini = 0.496\nsamples = 25\nvalue = [25, 21]"] ;
1184 -> 1185 ;
1186 [label="x[42] <= 764247.531\ngini = 0.483\nsamples = 11\nvalue = [9, 13]"] ;
1185 -> 1186 ;
1187 [label="x[46] <= 79.152\ngini = 0.219\nsamples = 4\nvalue = [1, 7]"] ;
1186 -> 1187 ;
1188 [label="x[46] <= 76.96\ngini = 0.444\nsamples = 2\nvalue = [1, 2]"] ;
1187 -> 1188 ;
1189 [label="gini = 0.0\nsamples = 1\nvalue = [0, 2]"] ;
1188 -> 1189 ;
1190 [label="gini = 0.0\nsamples = 1\nvalue = [1, 0]"] ;
1188 -> 1190 ;
1191 [label="gini = 0.0\nsamples = 2\nvalue = [0, 5]"] ;
1187 -> 1191 ;
1192 [label="x[9] <= 1.963\ngini = 0.49\nsamples = 7\nvalue = [8, 6]"] ;
1186 -> 1192 ;
1193 [label="x[43] <= 764352.438\ngini = 0.375\nsamples = 2\nvalue = [1, 3]"] ;
1192 -> 1193 ;
1194 [label="gini = 0.0\nsamples = 1\nvalue = [1, 0]"] ;
1193 -> 1194 ;
1195 [label="gini = 0.0\nsamples = 1\nvalue = [0, 3]"] ;
1193 -> 1195 ;
1196 [label="x[2] <= 1.529\ngini = 0.42\nsamples = 5\nvalue = [7, 3]"] ;
1192 -> 1196 ;
1197 [label="gini = 0.0\nsamples = 1\nvalue = [0, 1]"] ;
1196 -> 1197 ;
1198 [label="x[52] <= 764252.906\ngini = 0.346\nsamples = 4\nvalue = [7, 2]"] ;
1196 -> 1198 ;
1199 [label="gini = 0.0\nsamples = 3\nvalue = [7, 0]"] ;
1198 -> 1199 ;
1200 [label="gini = 0.0\nsamples = 1\nvalue = [0, 2]"] ;
1198 -> 1200 ;
1201 [label="x[52] <= 764242.656\ngini = 0.444\nsamples = 14\nvalue = [16, 8]"] ;
1185 -> 1201 ;
1202 [label="x[53] <= 764370.438\ngini = 0.488\nsamples = 11\nvalue = [11, 8]"] ;
1201 -> 1202 ;
1203 [label="x[55] <= 764302.844\ngini = 0.498\nsamples = 9\nvalue = [7, 8]"] ;
1202 -> 1203 ;
1204 [label="x[53] <= 764362.094\ngini = 0.48\nsamples = 6\nvalue = [6, 4]"] ;
1203 -> 1204 ;
1205 [label="x[53] <= 764360.531\ngini = 0.48\nsamples = 3\nvalue = [2, 3]"] ;
1204 -> 1205 ;
1206 [label="gini = 0.0\nsamples = 1\nvalue = [0, 1]"] ;
1205 -> 1206 ;
1207 [label="gini = 0.5\nsamples = 2\nvalue = [2, 2]"] ;
1205 -> 1207 ;
1208 [label="x[2] <= 1.529\ngini = 0.32\nsamples = 3\nvalue = [4, 1]"] ;
1204 -> 1208 ;
1209 [label="x[71] <= 1528601.0\ngini = 0.444\nsamples = 2\nvalue = [2, 1]"] ;
1208 -> 1209 ;
1210 [label="gini = 0.0\nsamples = 1\nvalue = [0, 1]"] ;
1209 -> 1210 ;
1211 [label="gini = 0.0\nsamples = 1\nvalue = [2, 0]"] ;
1209 -> 1211 ;
1212 [label="gini = 0.0\nsamples = 1\nvalue = [2, 0]"] ;
1208 -> 1212 ;
1213 [label="x[52] <= 764239.094\ngini = 0.32\nsamples = 3\nvalue = [1, 4]"] ;
1203 -> 1213 ;
1214 [label="gini = 0.0\nsamples = 1\nvalue = [0, 2]"] ;
1213 -> 1214 ;
1215 [label="x[46] <= 88.003\ngini = 0.444\nsamples = 2\nvalue = [1, 2]"] ;
1213 -> 1215 ;
1216 [label="gini = 0.0\nsamples = 1\nvalue = [0, 2]"] ;
1215 -> 1216 ;
1217 [label="gini = 0.0\nsamples = 1\nvalue = [1, 0]"] ;
1215 -> 1217 ;
1218 [label="gini = 0.0\nsamples = 2\nvalue = [4, 0]"] ;
1202 -> 1218 ;
1219 [label="gini = 0.0\nsamples = 3\nvalue = [5, 0]"] ;
1201 -> 1219 ;
1220 [label="x[53] <= 764361.0\ngini = 0.393\nsamples = 16\nvalue = [19, 7]"] ;
1184 -> 1220 ;
1221 [label="x[56] <= 77.213\ngini = 0.465\nsamples = 10\nvalue = [12, 7]"] ;
1220 -> 1221 ;
1222 [label="gini = 0.0\nsamples = 2\nvalue = [7, 0]"] ;
1221 -> 1222 ;
1223 [label="x[52] <= 764240.5\ngini = 0.486\nsamples = 8\nvalue = [5, 7]"] ;
1221 -> 1223 ;
1224 [label="x[68] <= 1528592.5\ngini = 0.444\nsamples = 5\nvalue = [4, 2]"] ;
1223 -> 1224 ;
1225 [label="gini = 0.0\nsamples = 1\nvalue = [0, 1]"] ;
1224 -> 1225 ;
1226 [label="x[52] <= 764234.062\ngini = 0.32\nsamples = 4\nvalue = [4, 1]"] ;
1224 -> 1226 ;
1227 [label="x[7] <= 1.963\ngini = 0.5\nsamples = 2\nvalue = [1, 1]"] ;
1226 -> 1227 ;
1228 [label="gini = 0.0\nsamples = 1\nvalue = [0, 1]"] ;
1227 -> 1228 ;
1229 [label="gini = 0.0\nsamples = 1\nvalue = [1, 0]"] ;
1227 -> 1229 ;
1230 [label="gini = 0.0\nsamples = 2\nvalue = [3, 0]"] ;
1226 -> 1230 ;
1231 [label="x[70] <= 1528595.125\ngini = 0.278\nsamples = 3\nvalue = [1, 5]"] ;
1223 -> 1231 ;
1232 [label="gini = 0.375\nsamples = 2\nvalue = [1, 3]"] ;
1231 -> 1232 ;
1233 [label="gini = 0.0\nsamples = 1\nvalue = [0, 2]"] ;
1231 -> 1233 ;
1234 [label="gini = 0.0\nsamples = 6\nvalue = [7, 0]"] ;
1220 -> 1234 ;
1235 [label="x[44] <= 1528623.5\ngini = 0.305\nsamples = 47\nvalue = [52, 12]"] ;
1183 -> 1235 ;
1236 [label="x[54] <= 1528621.438\ngini = 0.288\nsamples = 46\nvalue = [52, 11]"] ;
1235 -> 1236 ;
1237 [label="x[68] <= 1528618.5\ngini = 0.33\nsamples = 34\nvalue = [38, 10]"] ;
1236 -> 1237 ;
