digraph Tree {
node [shape=box, fontname="helvetica"] ;
edge [fontname="helvetica"] ;
0 [label="x[5] <= 2.5\ngini = 0.127\nsamples = 245713\nvalue = [26467, 362227]"] ;
1 [label="x[38] <= 200.5\ngini = 0.0\nsamples = 159426\nvalue = [63, 252008]"] ;
0 -> 1 [labeldistance=2.5, labelangle=45, headlabel="True"] ;
2 [label="x[16] <= 4.0\ngini = 0.0\nsamples = 148541\nvalue = [3, 234861]"] ;
1 -> 2 ;
3 [label="x[53] <= 5.96\ngini = 0.0\nsamples = 31124\nvalue = [3, 49333]"] ;
2 -> 3 ;
4 [label="x[38] <= 0.5\ngini = 0.0\nsamples = 26057\nvalue = [3, 41227]"] ;
3 -> 4 ;
5 [label="x[78] <= 292.5\ngini = 0.001\nsamples = 7387\nvalue = [3, 11791]"] ;
4 -> 5 ;
6 [label="x[18] <= 0.5\ngini = 0.025\nsamples = 156\nvalue = [3, 232]"] ;
5 -> 6 ;
7 [label="x[78] <= 287.5\ngini = 0.031\nsamples = 128\nvalue = [3, 190]"] ;
6 -> 7 ;
8 [label="x[11] <= 26.0\ngini = 0.01\nsamples = 126\nvalue = [1, 189]"] ;
7 -> 8 ;
9 [label="gini = 0.0\nsamples = 17\nvalue = [0, 22]"] ;
8 -> 9 ;
10 [label="x[1] <= 261.5\ngini = 0.012\nsamples = 109\nvalue = [1, 167]"] ;
8 -> 10 ;
11 [label="gini = 0.0\nsamples = 103\nvalue = [0, 160]"] ;
10 -> 11 ;
12 [label="x[17] <= 0.5\ngini = 0.219\nsamples = 6\nvalue = [1, 7]"] ;
10 -> 12 ;
13 [label="x[78] <= 228.5\ngini = 0.278\nsamples = 4\nvalue = [1, 5]"] ;
12 -> 13 ;
14 [label="gini = 0.0\nsamples = 2\nvalue = [0, 4]"] ;
13 -> 14 ;
15 [label="gini = 0.5\nsamples = 2\nvalue = [1, 1]"] ;
13 -> 15 ;
16 [label="gini = 0.0\nsamples = 2\nvalue = [0, 2]"] ;
12 -> 16 ;
17 [label="gini = 0.444\nsamples = 2\nvalue = [2, 1]"] ;
7 -> 17 ;
18 [label="gini = 0.0\nsamples = 28\nvalue = [0, 42]"] ;
6 -> 18 ;
19 [label="gini = 0.0\nsamples = 7231\nvalue = [0, 11559]"] ;
5 -> 19 ;
20 [label="gini = 0.0\nsamples = 18670\nvalue = [0, 29436]"] ;
4 -> 20 ;
21 [label="gini = 0.0\nsamples = 5067\nvalue = [0, 8106]"] ;
3 -> 21 ;
22 [label="gini = 0.0\nsamples = 117417\nvalue = [0, 185528]"] ;
2 -> 22 ;
23 [label="x[33] <= 3.5\ngini = 0.007\nsamples = 10885\nvalue = [60, 17147]"] ;
1 -> 23 ;
24 [label="x[28] <= 206.0\ngini = 0.084\nsamples = 869\nvalue = [60, 1309]"] ;
23 -> 24 ;
25 [label="gini = 0.201\nsamples = 339\nvalue = [60, 470]"] ;
24 -> 25 ;
26 [label="gini = 0.0\nsamples = 530\nvalue = [0, 839]"] ;
24 -> 26 ;
27 [label="gini = 0.0\nsamples = 10016\nvalue = [0, 15838]"] ;
23 -> 27 ;
28 [label="x[43] <= 18862992.0\ngini = 0.312\nsamples = 86287\nvalue = [26404, 110219]"] ;
0 -> 28 [labeldistance=2.5, labelangle=-45, headlabel="False"] ;
29 [label="x[7] <= 51.211\ngini = 0.338\nsamples = 76677\nvalue = [26183, 95163]"] ;
28 -> 29 ;
30 [label="x[47] <= 27.537\ngini = 0.359\nsamples = 69430\nvalue = [25763, 84049]"] ;
29 -> 30 ;
31 [label="x[80] <= 30.0\ngini = 0.395\nsamples = 58525\nvalue = [25026, 67547]"] ;
30 -> 31 ;
32 [label="x[31] <= 242.679\ngini = 0.487\nsamples = 16011\nvalue = [10597, 14759]"] ;
31 -> 32 ;
33 [label="x[29] <= 1609.5\ngini = 0.489\nsamples = 15743\nvalue = [10597, 14344]"] ;
32 -> 33 ;
34 [label="x[46] <= 5052.143\ngini = 0.437\nsamples = 5016\nvalue = [2560, 5368]"] ;
33 -> 34 ;
35 [label="x[30] <= 92.0\ngini = 0.495\nsamples = 2488\nvalue = [2179, 1777]"] ;
34 -> 35 ;
36 [label="x[70] <= 1528685.0\ngini = 0.495\nsamples = 2484\nvalue = [2179, 1773]"] ;
35 -> 36 ;
37 [label="x[57] <= 98.131\ngini = 0.491\nsamples = 2096\nvalue = [1892, 1436]"] ;
36 -> 37 ;
38 [label="x[43] <= 764462.594\ngini = 0.476\nsamples = 1321\nvalue = [1303, 835]"] ;
37 -> 38 ;
39 [label="x[68] <= 1528683.5\ngini = 0.473\nsamples = 1260\nvalue = [1260, 783]"] ;
38 -> 39 ;
40 [label="x[52] <= 764278.062\ngini = 0.474\nsamples = 1250\nvalue = [1244, 781]"] ;
39 -> 40 ;
41 [label="x[44] <= 1528681.062\ngini = 0.462\nsamples = 792\nvalue = [823, 467]"] ;
40 -> 41 ;
42 [label="x[53] <= 764307.5\ngini = 0.461\nsamples = 789\nvalue = [823, 462]"] ;
41 -> 42 ;
43 [label="gini = 0.0\nsamples = 8\nvalue = [16, 0]"] ;
42 -> 43 ;
44 [label="x[42] <= 764157.531\ngini = 0.463\nsamples = 781\nvalue = [807, 462]"] ;
42 -> 44 ;
45 [label="x[55] <= 764290.5\ngini = 0.488\nsamples = 11\nvalue = [8, 11]"] ;
44 -> 45 ;
46 [label="gini = 0.0\nsamples = 3\nvalue = [7, 0]"] ;
45 -> 46 ;
47 [label="x[7] <= 1.963\ngini = 0.153\nsamples = 8\nvalue = [1, 11]"] ;
45 -> 47 ;
48 [label="x[55] <= 764302.781\ngini = 0.5\nsamples = 2\nvalue = [1, 1]"] ;
47 -> 48 ;
49 [label="gini = 0.0\nsamples = 1\nvalue = [1, 0]"] ;
48 -> 49 ;
50 [label="gini = 0.0\nsamples = 1\nvalue = [0, 1]"] ;
48 -> 50 ;
51 [label="gini = 0.0\nsamples = 6\nvalue = [0, 10]"] ;
47 -> 51 ;
52 [label="x[7] <= 1.963\ngini = 0.461\nsamples = 770\nvalue = [799, 451]"] ;
44 -> 52 ;
53 [label="x[45] <= 764298.0\ngini = 0.445\nsamples = 558\nvalue = [609, 306]"] ;
52 -> 53 ;
54 [label="x[54] <= 1528595.125\ngini = 0.304\nsamples = 39\nvalue = [61, 14]"] ;
53 -> 54 ;
55 [label="x[2] <= 1.529\ngini = 0.39\nsamples = 27\nvalue = [36, 13]"] ;
54 -> 55 ;
56 [label="x[45] <= 764296.938\ngini = 0.302\nsamples = 15\nvalue = [22, 5]"] ;
55 -> 56 ;
57 [label="gini = 0.0\nsamples = 2\nvalue = [3, 0]"] ;
56 -> 57 ;
58 [label="x[42] <= 764207.0\ngini = 0.33\nsamples = 13\nvalue = [19, 5]"] ;
56 -> 58 ;
59 [label="gini = 0.0\nsamples = 1\nvalue = [0, 1]"] ;
58 -> 59 ;
60 [label="x[52] <= 764247.656\ngini = 0.287\nsamples = 12\nvalue = [19, 4]"] ;
58 -> 60 ;
61 [label="gini = 0.0\nsamples = 5\nvalue = [11, 0]"] ;
60 -> 61 ;
62 [label="x[56] <= 44.001\ngini = 0.444\nsamples = 7\nvalue = [8, 4]"] ;
60 -> 62 ;
63 [label="gini = 0.0\nsamples = 2\nvalue = [5, 0]"] ;
62 -> 63 ;
64 [label="x[46] <= 48.722\ngini = 0.49\nsamples = 5\nvalue = [3, 4]"] ;
62 -> 64 ;
65 [label="gini = 0.0\nsamples = 1\nvalue = [0, 2]"] ;
64 -> 65 ;
66 [label="x[43] <= 764331.938\ngini = 0.48\nsamples = 4\nvalue = [3, 2]"] ;
64 -> 66 ;
67 [label="gini = 0.0\nsamples = 1\nvalue = [2, 0]"] ;
66 -> 67 ;
68 [label="x[52] <= 764250.5\ngini = 0.444\nsamples = 3\nvalue = [1, 2]"] ;
66 -> 68 ;
69 [label="gini = 0.0\nsamples = 1\nvalue = [0, 1]"] ;
68 -> 69 ;
70 [label="x[53] <= 764336.594\ngini = 0.5\nsamples = 2\nvalue = [1, 1]"] ;
68 -> 70 ;
71 [label="gini = 0.0\nsamples = 1\nvalue = [0, 1]"] ;
70 -> 71 ;
72 [label="gini = 0.0\nsamples = 1\nvalue = [1, 0]"] ;
70 -> 72 ;
73 [label="x[46] <= 52.936\ngini = 0.463\nsamples = 12\nvalue = [14, 8]"] ;
55 -> 73 ;
74 [label="x[56] <= 43.158\ngini = 0.444\nsamples = 2\nvalue = [1, 2]"] ;
73 -> 74 ;
75 [label="gini = 0.0\nsamples = 1\nvalue = [1, 0]"] ;
74 -> 75 ;
76 [label="gini = 0.0\nsamples = 1\nvalue = [0, 2]"] ;
74 -> 76 ;
77 [label="x[43] <= 764381.531\ngini = 0.432\nsamples = 10\nvalue = [13, 6]"] ;
73 -> 77 ;
78 [label="x[43] <= 764350.406\ngini = 0.219\nsamples = 4\nvalue = [7, 1]"] ;
77 -> 78 ;
79 [label="x[43] <= 764338.844\ngini = 0.375\nsamples = 2\nvalue = [3, 1]"] ;
78 -> 79 ;
80 [label="gini = 0.0\nsamples = 1\nvalue = [3, 0]"] ;
79 -> 80 ;
81 [label="gini = 0.0\nsamples = 1\nvalue = [0, 1]"] ;
79 -> 81 ;
82 [label="gini = 0.0\nsamples = 2\nvalue = [4, 0]"] ;
78 -> 82 ;
83 [label="x[42] <= 764210.938\ngini = 0.496\nsamples = 6\nvalue = [6, 5]"] ;
77 -> 83 ;
84 [label="x[43] <= 764402.156\ngini = 0.375\nsamples = 5\nvalue = [6, 2]"] ;
83 -> 84 ;
85 [label="gini = 0.0\nsamples = 2\nvalue = [5, 0]"] ;
84 -> 85 ;
86 [label="x[52] <= 764177.438\ngini = 0.444\nsamples = 3\nvalue = [1, 2]"] ;
84 -> 86 ;
87 [label="gini = 0.0\nsamples = 1\nvalue = [1, 0]"] ;
86 -> 87 ;
88 [label="gini = 0.0\nsamples = 2\nvalue = [0, 2]"] ;
86 -> 88 ;
89 [label="gini = 0.0\nsamples = 1\nvalue = [0, 3]"] ;
83 -> 89 ;
90 [label="x[68] <= 1528595.562\ngini = 0.074\nsamples = 12\nvalue = [25, 1]"] ;
54 -> 90 ;
91 [label="x[52] <= 764196.625\ngini = 0.219\nsamples = 3\nvalue = [7, 1]"] ;
90 -> 91 ;
92 [label="gini = 0.0\nsamples = 2\nvalue = [7, 0]"] ;
91 -> 92 ;
93 [label="gini = 0.0\nsamples = 1\nvalue = [0, 1]"] ;
91 -> 93 ;
94 [label="gini = 0.0\nsamples = 9\nvalue = [18, 0]"] ;
90 -> 94 ;
95 [label="x[43] <= 764453.406\ngini = 0.454\nsamples = 519\nvalue = [548, 292]"] ;
53 -> 95 ;
96 [label="x[46] <= 112.363\ngini = 0.458\nsamples = 507\nvalue = [530, 291]"] ;
95 -> 96 ;
97 [label="x[57] <= 98.127\ngini = 0.434\nsamples = 311\nvalue = [345, 161]"] ;
96 -> 97 ;
98 [label="x[45] <= 764324.25\ngini = 0.471\nsamples = 119\nvalue = [123, 75]"] ;
97 -> 98 ;
99 [label="x[9] <= 1.963\ngini = 0.5\nsamples = 61\nvalue = [50, 50]"] ;
98 -> 99 ;
100 [label="x[2] <= 1.529\ngini = 0.49\nsamples = 47\nvalue = [41, 31]"] ;
99 -> 100 ;
101 [label="x[55] <= 764317.281\ngini = 0.231\nsamples = 9\nvalue = [13, 2]"] ;
100 -> 101 ;
102 [label="x[43] <= 764377.938\ngini = 0.444\nsamples = 2\nvalue = [2, 1]"] ;
101 -> 102 ;
103 [label="gini = 0.0\nsamples = 1\nvalue = [2, 0]"] ;
102 -> 103 ;
104 [label="gini = 0.0\nsamples = 1\nvalue = [0, 1]"] ;
102 -> 104 ;
105 [label="x[44] <= 1528635.5\ngini = 0.153\nsamples = 7\nvalue = [11, 1]"] ;
101 -> 105 ;
106 [label="gini = 0.0\nsamples = 3\nvalue = [6, 0]"] ;
105 -> 106 ;
107 [label="x[43] <= 764366.375\ngini = 0.278\nsamples = 4\nvalue = [5, 1]"] ;
105 -> 107 ;
108 [label="gini = 0.0\nsamples = 1\nvalue = [0, 1]"] ;
107 -> 108 ;
109 [label="gini = 0.0\nsamples = 3\nvalue = [5, 0]"] ;
107 -> 109 ;
110 [label="x[52] <= 764249.438\ngini = 0.5\nsamples = 38\nvalue = [28, 29]"] ;
100 -> 110 ;
111 [label="x[7] <= 1.963\ngini = 0.32\nsamples = 6\nvalue = [8, 2]"] ;
110 -> 111 ;
112 [label="x[53] <= 764398.594\ngini = 0.5\nsamples = 3\nvalue = [2, 2]"] ;
111 -> 112 ;
113 [label="gini = 0.0\nsamples = 1\nvalue = [0, 1]"] ;
112 -> 113 ;
114 [label="x[2] <= 1.529\ngini = 0.444\nsamples = 2\nvalue = [2, 1]"] ;
112 -> 114 ;
115 [label="gini = 0.0\nsamples = 1\nvalue = [0, 1]"] ;
114 -> 115 ;
116 [label="gini = 0.0\nsamples = 1\nvalue = [2, 0]"] ;
114 -> 116 ;
117 [label="gini = 0.0\nsamples = 3\nvalue = [6, 0]"] ;
111 -> 117 ;
118 [label="x[71] <= 1528637.625\ngini = 0.489\nsamples = 32\nvalue = [20, 27]"] ;
110 -> 118 ;
119 [label="gini = 0.0\nsamples = 3\nvalue = [0, 4]"] ;
118 -> 119 ;
120 [label="x[43] <= 764369.969\ngini = 0.498\nsamples = 29\nvalue = [20, 23]"] ;
118 -> 120 ;
121 [label="x[68] <= 1528640.062\ngini = 0.198\nsamples = 6\nvalue = [8, 1]"] ;
120 -> 121 ;
122 [label="gini = 0.0\nsamples = 3\nvalue = [5, 0]"] ;
121 -> 122 ;
123 [label="x[2] <= 1.529\ngini = 0.375\nsamples = 3\nvalue = [3, 1]"] ;
121 -> 123 ;
124 [label="gini = 0.0\nsamples = 1\nvalue = [0, 1]"] ;
123 -> 124 ;
125 [label="gini = 0.0\nsamples = 2\nvalue = [3, 0]"] ;
123 -> 125 ;
126 [label="x[56] <= 83.029\ngini = 0.457\nsamples = 23\nvalue = [12, 22]"] ;
120 -> 126 ;
127 [label="x[44] <= 1528644.0\ngini = 0.305\nsamples = 11\nvalue = [3, 13]"] ;
126 -> 127 ;
128 [label="x[69] <= 1528641.0\ngini = 0.469\nsamples = 6\nvalue = [3, 5]"] ;
127 -> 128 ;
129 [label="x[43] <= 764374.5\ngini = 0.278\nsamples = 5\nvalue = [1, 5]"] ;
128 -> 129 ;
130 [label="x[2] <= 1.529\ngini = 0.444\nsamples = 3\nvalue = [1, 2]"] ;
129 -> 130 ;
131 [label="gini = 0.0\nsamples = 1\nvalue = [0, 1]"] ;
130 -> 131 ;
132 [label="x[43] <= 764373.531\ngini = 0.5\nsamples = 2\nvalue = [1, 1]"] ;
130 -> 132 ;
133 [label="gini = 0.0\nsamples = 1\nvalue = [0, 1]"] ;
132 -> 133 ;
134 [label="gini = 0.0\nsamples = 1\nvalue = [1, 0]"] ;
132 -> 134 ;
135 [label="gini = 0.0\nsamples = 2\nvalue = [0, 3]"] ;
129 -> 135 ;
136 [label="gini = 0.0\nsamples = 1\nvalue = [2, 0]"] ;
128 -> 136 ;
137 [label="gini = 0.0\nsamples = 5\nvalue = [0, 8]"] ;
127 -> 137 ;
138 [label="x[45] <= 764321.312\ngini = 0.5\nsamples = 12\nvalue = [9, 9]"] ;
126 -> 138 ;
139 [label="x[45] <= 764320.5\ngini = 0.346\nsamples = 6\nvalue = [2, 7]"] ;
138 -> 139 ;
140 [label="x[44] <= 1528638.625\ngini = 0.48\nsamples = 4\nvalue = [2, 3]"] ;
139 -> 140 ;
141 [label="gini = 0.0\nsamples = 1\nvalue = [0, 2]"] ;
140 -> 141 ;
142 [label="x[56] <= 85.98\ngini = 0.444\nsamples = 3\nvalue = [2, 1]"] ;
140 -> 142 ;
143 [label="gini = 0.0\nsamples = 1\nvalue = [0, 1]"] ;
142 -> 143 ;
144 [label="gini = 0.0\nsamples = 2\nvalue = [2, 0]"] ;
142 -> 144 ;
145 [label="gini = 0.0\nsamples = 2\nvalue = [0, 4]"] ;
139 -> 145 ;
146 [label="x[55] <= 764323.531\ngini = 0.346\nsamples = 6\nvalue = [7, 2]"] ;
138 -> 146 ;
147 [label="gini = 0.0\nsamples = 4\nvalue = [5, 0]"] ;
146 -> 147 ;
148 [label="x[46] <= 86.317\ngini = 0.5\nsamples = 2\nvalue = [2, 2]"] ;
146 -> 148 ;
149 [label="gini = 0.0\nsamples = 1\nvalue = [2, 0]"] ;
148 -> 149 ;
150 [label="gini = 0.0\nsamples = 1\nvalue = [0, 2]"] ;
148 -> 150 ;
151 [label="x[71] <= 1528633.0\ngini = 0.436\nsamples = 14\nvalue = [9, 19]"] ;
99 -> 151 ;
152 [label="x[46] <= 94.915\ngini = 0.49\nsamples = 12\nvalue = [9, 12]"] ;
151 -> 152 ;
153 [label="x[53] <= 764372.938\ngini = 0.415\nsamples = 9\nvalue = [5, 12]"] ;
152 -> 153 ;
154 [label="gini = 0.0\nsamples = 3\nvalue = [0, 6]"] ;
153 -> 154 ;
155 [label="x[69] <= 1528631.125\ngini = 0.496\nsamples = 6\nvalue = [5, 6]"] ;
153 -> 155 ;
156 [label="gini = 0.0\nsamples = 1\nvalue = [0, 2]"] ;
155 -> 156 ;
157 [label="x[43] <= 764382.344\ngini = 0.494\nsamples = 5\nvalue = [5, 4]"] ;
155 -> 157 ;
158 [label="x[9] <= 1.963\ngini = 0.408\nsamples = 4\nvalue = [5, 2]"] ;
157 -> 158 ;
159 [label="gini = 0.0\nsamples = 1\nvalue = [2, 0]"] ;
158 -> 159 ;
160 [label="x[52] <= 764255.156\ngini = 0.48\nsamples = 3\nvalue = [3, 2]"] ;
158 -> 160 ;
161 [label="x[53] <= 764378.531\ngini = 0.444\nsamples = 2\nvalue = [1, 2]"] ;
160 -> 161 ;
162 [label="gini = 0.0\nsamples = 1\nvalue = [0, 2]"] ;
161 -> 162 ;
163 [label="gini = 0.0\nsamples = 1\nvalue = [1, 0]"] ;
161 -> 163 ;
164 [label="gini = 0.0\nsamples = 1\nvalue = [2, 0]"] ;
160 -> 164 ;
165 [label="gini = 0.0\nsamples = 1\nvalue = [0, 2]"] ;
157 -> 165 ;
166 [label="gini = 0.0\nsamples = 3\nvalue = [4, 0]"] ;
152 -> 166 ;
167 [label="gini = 0.0\nsamples = 2\nvalue = [0, 7]"] ;
151 -> 167 ;
168 [label="x[68] <= 1528672.438\ngini = 0.38\nsamples = 58\nvalue = [73, 25]"] ;
98 -> 168 ;
169 [label="x[53] <= 764404.531\ngini = 0.334\nsamples = 52\nvalue = [67, 18]"] ;
168 -> 169 ;
170 [label="x[53] <= 764403.469\ngini = 0.398\nsamples = 37\nvalue = [45, 17]"] ;
169 -> 170 ;
171 [label="x[45] <= 764329.969\ngini = 0.362\nsamples = 35\nvalue = [45, 14]"] ;
170 -> 171 ;
172 [label="x[2] <= 1.529\ngini = 0.185\nsamples = 15\nvalue = [26, 3]"] ;
171 -> 172 ;
173 [label="gini = 0.0\nsamples = 3\nvalue = [9, 0]"] ;
172 -> 173 ;
174 [label="x[43] <= 764380.469\ngini = 0.255\nsamples = 12\nvalue = [17, 3]"] ;
172 -> 174 ;
175 [label="x[69] <= 1528651.938\ngini = 0.48\nsamples = 3\nvalue = [3, 2]"] ;
174 -> 175 ;
176 [label="x[43] <= 764379.5\ngini = 0.5\nsamples = 2\nvalue = [2, 2]"] ;
175 -> 176 ;
177 [label="gini = 0.0\nsamples = 1\nvalue = [2, 0]"] ;
176 -> 177 ;
178 [label="gini = 0.0\nsamples = 1\nvalue = [0, 2]"] ;
176 -> 178 ;
179 [label="gini = 0.0\nsamples = 1\nvalue = [1, 0]"] ;
175 -> 179 ;
180 [label="x[45] <= 764328.25\ngini = 0.124\nsamples = 9\nvalue = [14, 1]"] ;
174 -> 180 ;
181 [label="gini = 0.0\nsamples = 5\nvalue = [9, 0]"] ;
180 -> 181 ;
182 [label="x[54] <= 1528657.938\ngini = 0.278\nsamples = 4\nvalue = [5, 1]"] ;
180 -> 182 ;
183 [label="x[56] <= 87.834\ngini = 0.32\nsamples = 3\nvalue = [4, 1]"] ;
182 -> 183 ;
184 [label="gini = 0.0\nsamples = 1\nvalue = [2, 0]"] ;
183 -> 184 ;
185 [label="x[53] <= 764400.969\ngini = 0.444\nsamples = 2\nvalue = [2, 1]"] ;
183 -> 185 ;
186 [label="gini = 0.0\nsamples = 1\nvalue = [0, 1]"] ;
185 -> 186 ;
187 [label="gini = 0.0\nsamples = 1\nvalue = [2, 0]"] ;
185 -> 187 ;
188 [label="gini = 0.0\nsamples = 1\nvalue = [1, 0]"] ;
182 -> 188 ;
189 [label="x[56] <= 98.961\ngini = 0.464\nsamples = 20\nvalue = [19, 11]"] ;
171 -> 189 ;
190 [label="x[56] <= 87.244\ngini = 0.393\nsamples = 17\nvalue = [19, 7]"] ;
189 -> 190 ;
191 [label="x[46] <= 86.654\ngini = 0.496\nsamples = 7\nvalue = [5, 6]"] ;
190 -> 191 ;
192 [label="x[46] <= 80.669\ngini = 0.469\nsamples = 6\nvalue = [5, 3]"] ;
191 -> 192 ;
193 [label="gini = 0.0\nsamples = 2\nvalue = [2, 0]"] ;
192 -> 193 ;
194 [label="x[46] <= 85.727\ngini = 0.5\nsamples = 4\nvalue = [3, 3]"] ;
192 -> 194 ;
195 [label="x[46] <= 83.872\ngini = 0.375\nsamples = 3\nvalue = [1, 3]"] ;
194 -> 195 ;
196 [label="x[2] <= 1.529\ngini = 0.5\nsamples = 2\nvalue = [1, 1]"] ;
195 -> 196 ;
197 [label="gini = 0.0\nsamples = 1\nvalue = [0, 1]"] ;
196 -> 197 ;
198 [label="gini = 0.0\nsamples = 1\nvalue = [1, 0]"] ;
196 -> 198 ;
199 [label="gini = 0.0\nsamples = 1\nvalue = [0, 2]"] ;
195 -> 199 ;
200 [label="gini = 0.0\nsamples = 1\nvalue = [2, 0]"] ;
194 -> 200 ;
201 [label="gini = 0.0\nsamples = 1\nvalue = [0, 3]"] ;
191 -> 201 ;
202 [label="x[70] <= 1528664.938\ngini = 0.124\nsamples = 10\nvalue = [14, 1]"] ;
190 -> 202 ;
203 [label="gini = 0.0\nsamples = 4\nvalue = [6, 0]"] ;
202 -> 203 ;
204 [label="x[69] <= 1528666.938\ngini = 0.198\nsamples = 6\nvalue = [8, 1]"] ;
202 -> 204 ;
205 [label="x[46] <= 91.88\ngini = 0.444\nsamples = 3\nvalue = [2, 1]"] ;
204 -> 205 ;
206 [label="gini = 0.0\nsamples = 1\nvalue = [1, 0]"] ;
205 -> 206 ;
207 [label="x[42] <= 764265.531\ngini = 0.5\nsamples = 2\nvalue = [1, 1]"] ;
205 -> 207 ;
208 [label="gini = 0.0\nsamples = 1\nvalue = [1, 0]"] ;
207 -> 208 ;
209 [label="gini = 0.0\nsamples = 1\nvalue = [0, 1]"] ;
207 -> 209 ;
210 [label="gini = 0.0\nsamples = 3\nvalue = [6, 0]"] ;
204 -> 210 ;
211 [label="gini = 0.0\nsamples = 3\nvalue = [0, 4]"] ;
189 -> 211 ;
212 [label="gini = 0.0\nsamples = 2\nvalue = [0, 3]"] ;
170 -> 212 ;
213 [label="x[56] <= 107.474\ngini = 0.083\nsamples = 15\nvalue = [22, 1]"] ;
169 -> 213 ;
214 [label="x[46] <= 106.716\ngini = 0.165\nsamples = 7\nvalue = [10, 1]"] ;
213 -> 214 ;
215 [label="gini = 0.0\nsamples = 6\nvalue = [10, 0]"] ;
214 -> 215 ;
216 [label="gini = 0.0\nsamples = 1\nvalue = [0, 1]"] ;
214 -> 216 ;
217 [label="gini = 0.0\nsamples = 8\nvalue = [12, 0]"] ;
213 -> 217 ;
218 [label="x[43] <= 764406.438\ngini = 0.497\nsamples = 6\nvalue = [6, 7]"] ;
168 -> 218 ;
219 [label="x[57] <= 98.124\ngini = 0.219\nsamples = 3\nvalue = [1, 7]"] ;
218 -> 219 ;
220 [label="x[54] <= 1528677.938\ngini = 0.5\nsamples = 2\nvalue = [1, 1]"] ;
219 -> 220 ;
221 [label="gini = 0.0\nsamples = 1\nvalue = [1, 0]"] ;
220 -> 221 ;
222 [label="gini = 0.0\nsamples = 1\nvalue = [0, 1]"] ;
220 -> 222 ;
223 [label="gini = 0.0\nsamples = 1\nvalue = [0, 6]"] ;
219 -> 223 ;
224 [label="gini = 0.0\nsamples = 3\nvalue = [5, 0]"] ;
218 -> 224 ;
225 [label="x[71] <= 1528615.5\ngini = 0.403\nsamples = 192\nvalue = [222, 86]"] ;
97 -> 225 ;
226 [label="x[44] <= 1528598.562\ngini = 0.455\nsamples = 125\nvalue = [132, 71]"] ;
225 -> 226 ;
227 [label="x[45] <= 764298.75\ngini = 0.495\nsamples = 14\nvalue = [9, 11]"] ;
226 -> 227 ;
228 [label="x[52] <= 764259.094\ngini = 0.426\nsamples = 9\nvalue = [9, 4]"] ;
227 -> 228 ;
229 [label="x[70] <= 1528596.5\ngini = 0.18\nsamples = 7\nvalue = [9, 1]"] ;
228 -> 229 ;
230 [label="gini = 0.0\nsamples = 2\nvalue = [3, 0]"] ;
229 -> 230 ;
231 [label="x[52] <= 764246.438\ngini = 0.245\nsamples = 5\nvalue = [6, 1]"] ;
229 -> 231 ;
232 [label="x[52] <= 764235.969\ngini = 0.444\nsamples = 2\nvalue = [2, 1]"] ;
231 -> 232 ;
233 [label="gini = 0.0\nsamples = 1\nvalue = [2, 0]"] ;
232 -> 233 ;
234 [label="gini = 0.0\nsamples = 1\nvalue = [0, 1]"] ;
232 -> 234 ;
235 [label="gini = 0.0\nsamples = 3\nvalue = [4, 0]"] ;
231 -> 235 ;
236 [label="gini = 0.0\nsamples = 2\nvalue = [0, 3]"] ;
228 -> 236 ;
237 [label="gini = 0.0\nsamples = 5\nvalue = [0, 7]"] ;
227 -> 237 ;
238 [label="x[45] <= 764306.781\ngini = 0.441\nsamples = 111\nvalue = [123, 60]"] ;
226 -> 238 ;
239 [label="x[53] <= 764376.406\ngini = 0.426\nsamples = 98\nvalue = [108, 48]"] ;
238 -> 239 ;
240 [label="x[53] <= 764356.5\ngini = 0.449\nsamples = 85\nvalue = [91, 47]"] ;
239 -> 240 ;
241 [label="x[55] <= 764303.5\ngini = 0.365\nsamples = 48\nvalue = [60, 19]"] ;
240 -> 241 ;
242 [label="x[9] <= 1.963\ngini = 0.46\nsamples = 24\nvalue = [25, 14]"] ;
241 -> 242 ;
243 [label="gini = 0.0\nsamples = 2\nvalue = [0, 6]"] ;
242 -> 243 ;
244 [label="x[43] <= 764342.906\ngini = 0.367\nsamples = 22\nvalue = [25, 8]"] ;
242 -> 244 ;
245 [label="x[42] <= 764268.969\ngini = 0.198\nsamples = 11\nvalue = [16, 2]"] ;
244 -> 245 ;
246 [label="gini = 0.0\nsamples = 5\nvalue = [9, 0]"] ;
245 -> 246 ;
247 [label="x[9] <= 1.963\ngini = 0.346\nsamples = 6\nvalue = [7, 2]"] ;
245 -> 247 ;
248 [label="gini = 0.0\nsamples = 2\nvalue = [4, 0]"] ;
247 -> 248 ;
249 [label="x[43] <= 764329.062\ngini = 0.48\nsamples = 4\nvalue = [3, 2]"] ;
247 -> 249 ;
250 [label="gini = 0.0\nsamples = 3\nvalue = [3, 0]"] ;
249 -> 250 ;
251 [label="gini = 0.0\nsamples = 1\nvalue = [0, 2]"] ;
249 -> 251 ;
252 [label="x[45] <= 764301.469\ngini = 0.48\nsamples = 11\nvalue = [9, 6]"] ;
244 -> 252 ;
253 [label="x[43] <= 764346.0\ngini = 0.444\nsamples = 5\nvalue = [2, 4]"] ;
252 -> 253 ;
254 [label="gini = 0.0\nsamples = 1\nvalue = [1, 0]"] ;
253 -> 254 ;
255 [label="x[53] <= 764353.031\ngini = 0.32\nsamples = 4\nvalue = [1, 4]"] ;
253 -> 255 ;
256 [label="gini = 0.0\nsamples = 3\nvalue = [0, 4]"] ;
255 -> 256 ;
257 [label="gini = 0.0\nsamples = 1\nvalue = [1, 0]"] ;
255 -> 257 ;
258 [label="x[69] <= 1528605.0\ngini = 0.346\nsamples = 6\nvalue = [7, 2]"] ;
252 -> 258 ;
259 [label="gini = 0.0\nsamples = 2\nvalue = [3, 0]"] ;
258 -> 259 ;
260 [label="x[43] <= 764349.0\ngini = 0.444\nsamples = 4\nvalue = [4, 2]"] ;
258 -> 260 ;
261 [label="gini = 0.0\nsamples = 1\nvalue = [0, 2]"] ;
260 -> 261 ;
262 [label="gini = 0.0\nsamples = 3\nvalue = [4, 0]"] ;
260 -> 262 ;
263 [label="x[46] <= 54.117\ngini = 0.219\nsamples = 24\nvalue = [35, 5]"] ;
241 -> 263 ;
264 [label="gini = 0.0\nsamples = 10\nvalue = [19, 0]"] ;
263 -> 264 ;
265 [label="x[71] <= 1528612.0\ngini = 0.363\nsamples = 14\nvalue = [16, 5]"] ;
263 -> 265 ;
266 [label="x[71] <= 1528608.562\ngini = 0.444\nsamples = 10\nvalue = [10, 5]"] ;
265 -> 266 ;
267 [label="gini = 0.0\nsamples = 4\nvalue = [4, 0]"] ;
266 -> 267 ;
268 [label="x[52] <= 764255.531\ngini = 0.496\nsamples = 6\nvalue = [6, 5]"] ;
266 -> 268 ;
269 [label="gini = 0.0\nsamples = 2\nvalue = [4, 0]"] ;
268 -> 269 ;
270 [label="x[45] <= 764305.531\ngini = 0.408\nsamples = 4\nvalue = [2, 5]"] ;
268 -> 270 ;
271 [label="gini = 0.0\nsamples = 2\nvalue = [0, 4]"] ;
270 -> 271 ;
272 [label="x[7] <= 1.963\ngini = 0.444\nsamples = 2\nvalue = [2, 1]"] ;
270 -> 272 ;
273 [label="gini = 0.0\nsamples = 1\nvalue = [0, 1]"] ;
272 -> 273 ;
274 [label="gini = 0.0\nsamples = 1\nvalue = [2, 0]"] ;
272 -> 274 ;
275 [label="gini = 0.0\nsamples = 4\nvalue = [6, 0]"] ;
265 -> 275 ;
276 [label="x[9] <= 1.963\ngini = 0.499\nsamples = 37\nvalue = [31, 28]"] ;
240 -> 276 ;
277 [label="x[55] <= 764306.5\ngini = 0.498\nsamples = 33\nvalue = [24, 27]"] ;
276 -> 277 ;
278 [label="x[45] <= 764306.25\ngini = 0.495\nsamples = 31\nvalue = [22, 27]"] ;
277 -> 278 ;
279 [label="x[7] <= 1.963\ngini = 0.5\nsamples = 28\nvalue = [22, 22]"] ;
278 -> 279 ;
280 [label="gini = 0.0\nsamples = 2\nvalue = [3, 0]"] ;
279 -> 280 ;
281 [label="x[46] <= 84.799\ngini = 0.497\nsamples = 26\nvalue = [19, 22]"] ;
279 -> 281 ;
282 [label="x[54] <= 1528610.0\ngini = 0.219\nsamples = 5\nvalue = [1, 7]"] ;
281 -> 282 ;
283 [label="gini = 0.0\nsamples = 4\nvalue = [0, 7]"] ;
282 -> 283 ;
284 [label="gini = 0.0\nsamples = 1\nvalue = [1, 0]"] ;
282 -> 284 ;
285 [label="x[7] <= 1.963\ngini = 0.496\nsamples = 21\nvalue = [18, 15]"] ;
281 -> 285 ;
286 [label="gini = 0.0\nsamples = 4\nvalue = [0, 6]"] ;
285 -> 286 ;
287 [label="x[2] <= 1.529\ngini = 0.444\nsamples = 17\nvalue = [18, 9]"] ;
285 -> 287 ;
288 [label="x[52] <= 764237.656\ngini = 0.495\nsamples = 14\nvalue = [11, 9]"] ;
287 -> 288 ;
289 [label="x[69] <= 1528603.0\ngini = 0.459\nsamples = 10\nvalue = [5, 9]"] ;
288 -> 289 ;
290 [label="x[70] <= 1528601.5\ngini = 0.375\nsamples = 3\nvalue = [3, 1]"] ;
289 -> 290 ;
291 [label="gini = 0.0\nsamples = 1\nvalue = [0, 1]"] ;
290 -> 291 ;
292 [label="gini = 0.0\nsamples = 2\nvalue = [3, 0]"] ;
290 -> 292 ;
293 [label="x[68] <= 1528605.062\ngini = 0.32\nsamples = 7\nvalue = [2, 8]"] ;
289 -> 293 ;
294 [label="x[55] <= 764301.719\ngini = 0.346\nsamples = 6\nvalue = [2, 7]"] ;
293 -> 294 ;
295 [label="x[53] <= 764370.438\ngini = 0.375\nsamples = 2\nvalue = [1, 3]"] ;
294 -> 295 ;
296 [label="gini = 0.0\nsamples = 1\nvalue = [1, 0]"] ;
295 -> 296 ;
297 [label="gini = 0.0\nsamples = 1\nvalue = [0, 3]"] ;
295 -> 297 ;
298 [label="x[69] <= 1528603.875\ngini = 0.32\nsamples = 4\nvalue = [1, 4]"] ;
294 -> 298 ;
299 [label="gini = 0.0\nsamples = 1\nvalue = [0, 1]"] ;
298 -> 299 ;
300 [label="x[52] <= 764229.062\ngini = 0.375\nsamples = 3\nvalue = [1, 3]"] ;
298 -> 300 ;
301 [label="gini = 0.444\nsamples = 2\nvalue = [1, 2]"] ;
300 -> 301 ;
302 [label="gini = 0.0\nsamples = 1\nvalue = [0, 1]"] ;
300 -> 302 ;
303 [label="gini = 0.0\nsamples = 1\nvalue = [0, 1]"] ;
293 -> 303 ;
304 [label="gini = 0.0\nsamples = 4\nvalue = [6, 0]"] ;
288 -> 304 ;
305 [label="gini = 0.0\nsamples = 3\nvalue = [7, 0]"] ;
287 -> 305 ;
306 [label="gini = 0.0\nsamples = 3\nvalue = [0, 5]"] ;
278 -> 306 ;
307 [label="gini = 0.0\nsamples = 2\nvalue = [2, 0]"] ;
277 -> 307 ;
308 [label="x[68] <= 1528599.5\ngini = 0.219\nsamples = 4\nvalue = [7, 1]"] ;
276 -> 308 ;
309 [label="gini = 0.0\nsamples = 1\nvalue = [0, 1]"] ;
308 -> 309 ;
310 [label="gini = 0.0\nsamples = 3\nvalue = [7, 0]"] ;
308 -> 310 ;
311 [label="x[57] <= 98.128\ngini = 0.105\nsamples = 13\nvalue = [17, 1]"] ;
239 -> 311 ;
312 [label="x[57] <= 98.128\ngini = 0.219\nsamples = 6\nvalue = [7, 1]"] ;
311 -> 312 ;
313 [label="gini = 0.0\nsamples = 4\nvalue = [5, 0]"] ;
312 -> 313 ;
314 [label="x[56] <= 110.931\ngini = 0.444\nsamples = 2\nvalue = [2, 1]"] ;
312 -> 314 ;
315 [label="gini = 0.0\nsamples = 1\nvalue = [0, 1]"] ;
314 -> 315 ;
316 [label="gini = 0.0\nsamples = 1\nvalue = [2, 0]"] ;
314 -> 316 ;
317 [label="gini = 0.0\nsamples = 7\nvalue = [10, 0]"] ;
311 -> 317 ;
318 [label="x[53] <= 764358.875\ngini = 0.494\nsamples = 13\nvalue = [15, 12]"] ;
238 -> 318 ;
319 [label="x[2] <= 1.529\ngini = 0.245\nsamples = 6\nvalue = [12, 2]"] ;
318 -> 319 ;
320 [label="x[43] <= 764352.469\ngini = 0.444\nsamples = 2\nvalue = [2, 1]"] ;
319 -> 320 ;
321 [label="gini = 0.0\nsamples = 1\nvalue = [2, 0]"] ;
320 -> 321 ;
322 [label="gini = 0.0\nsamples = 1\nvalue = [0, 1]"] ;
320 -> 322 ;
323 [label="x[46] <= 52.431\ngini = 0.165\nsamples = 4\nvalue = [10, 1]"] ;
319 -> 323 ;
324 [label="gini = 0.0\nsamples = 2\nvalue = [7, 0]"] ;
323 -> 324 ;
325 [label="x[42] <= 764262.531\ngini = 0.375\nsamples = 2\nvalue = [3, 1]"] ;
323 -> 325 ;
326 [label="gini = 0.0\nsamples = 1\nvalue = [3, 0]"] ;
325 -> 326 ;
327 [label="gini = 0.0\nsamples = 1\nvalue = [0, 1]"] ;
325 -> 327 ;
328 [label="x[46] <= 80.248\ngini = 0.355\nsamples = 7\nvalue = [3, 10]"] ;
318 -> 328 ;
329 [label="gini = 0.0\nsamples = 2\nvalue = [0, 5]"] ;
328 -> 329 ;
330 [label="x[56] <= 104.187\ngini = 0.469\nsamples = 5\nvalue = [3, 5]"] ;
328 -> 330 ;
331 [label="x[2] <= 1.529\ngini = 0.48\nsamples = 4\nvalue = [3, 2]"] ;
330 -> 331 ;
332 [label="gini = 0.0\nsamples = 1\nvalue = [1, 0]"] ;
331 -> 332 ;
333 [label="x[52] <= 764243.125\ngini = 0.5\nsamples = 3\nvalue = [2, 2]"] ;
331 -> 333 ;
334 [label="gini = 0.0\nsamples = 1\nvalue = [1, 0]"] ;
333 -> 334 ;
335 [label="gini = 0.444\nsamples = 2\nvalue = [1, 2]"] ;
333 -> 335 ;
336 [label="gini = 0.0\nsamples = 1\nvalue = [0, 3]"] ;
330 -> 336 ;
337 [label="x[46] <= 53.105\ngini = 0.245\nsamples = 67\nvalue = [90, 15]"] ;
225 -> 337 ;
338 [label="x[57] <= 98.128\ngini = 0.463\nsamples = 7\nvalue = [7, 4]"] ;
337 -> 338 ;
339 [label="gini = 0.0\nsamples = 1\nvalue = [0, 2]"] ;
338 -> 339 ;
340 [label="x[53] <= 764344.469\ngini = 0.346\nsamples = 6\nvalue = [7, 2]"] ;
338 -> 340 ;
341 [label="x[52] <= 764272.469\ngini = 0.5\nsamples = 3\nvalue = [2, 2]"] ;
340 -> 341 ;
342 [label="gini = 0.0\nsamples = 2\nvalue = [0, 2]"] ;
341 -> 342 ;
343 [label="gini = 0.0\nsamples = 1\nvalue = [2, 0]"] ;
341 -> 343 ;
344 [label="gini = 0.0\nsamples = 3\nvalue = [5, 0]"] ;
340 -> 344 ;
345 [label="x[45] <= 764309.75\ngini = 0.207\nsamples = 60\nvalue = [83, 11]"] ;
337 -> 345 ;
346 [label="gini = 0.0\nsamples = 14\nvalue = [21, 0]"] ;
345 -> 346 ;
347 [label="x[55] <= 764310.562\ngini = 0.256\nsamples = 46\nvalue = [62, 11]"] ;
345 -> 347 ;
348 [label="x[69] <= 1528620.5\ngini = 0.494\nsamples = 8\nvalue = [4, 5]"] ;
347 -> 348 ;
349 [label="x[52] <= 764234.562\ngini = 0.48\nsamples = 4\nvalue = [2, 3]"] ;
348 -> 349 ;
350 [label="gini = 0.0\nsamples = 1\nvalue = [1, 0]"] ;
349 -> 350 ;
351 [label="x[53] <= 764364.469\ngini = 0.375\nsamples = 3\nvalue = [1, 3]"] ;
349 -> 351 ;
352 [label="gini = 0.0\nsamples = 1\nvalue = [1, 0]"] ;
351 -> 352 ;
353 [label="gini = 0.0\nsamples = 2\nvalue = [0, 3]"] ;
351 -> 353 ;
354 [label="x[53] <= 764365.562\ngini = 0.5\nsamples = 4\nvalue = [2, 2]"] ;
348 -> 354 ;
355 [label="gini = 0.0\nsamples = 2\nvalue = [2, 0]"] ;
354 -> 355 ;
356 [label="gini = 0.0\nsamples = 2\nvalue = [0, 2]"] ;
354 -> 356 ;
357 [label="x[68] <= 1528623.0\ngini = 0.17\nsamples = 38\nvalue = [58, 6]"] ;
347 -> 357 ;
358 [label="gini = 0.0\nsamples = 10\nvalue = [15, 0]"] ;
357 -> 358 ;
359 [label="x[9] <= 1.963\ngini = 0.215\nsamples = 28\nvalue = [43, 6]"] ;
357 -> 359 ;
360 [label="x[69] <= 1528624.875\ngini = 0.133\nsamples = 24\nvalue = [39, 3]"] ;
359 -> 360 ;
361 [label="gini = 0.0\nsamples = 4\nvalue = [7, 0]"] ;
360 -> 361 ;
362 [label="x[68] <= 1528629.0\ngini = 0.157\nsamples = 20\nvalue = [32, 3]"] ;
360 -> 362 ;
363 [label="x[54] <= 1528626.438\ngini = 0.137\nsamples = 16\nvalue = [25, 2]"] ;
362 -> 363 ;
364 [label="x[52] <= 764261.5\ngini = 0.188\nsamples = 11\nvalue = [17, 2]"] ;
363 -> 364 ;
365 [label="x[56] <= 84.968\ngini = 0.32\nsamples = 7\nvalue = [8, 2]"] ;
364 -> 365 ;
366 [label="gini = 0.0\nsamples = 2\nvalue = [0, 2]"] ;
365 -> 366 ;
367 [label="gini = 0.0\nsamples = 5\nvalue = [8, 0]"] ;
365 -> 367 ;
368 [label="gini = 0.0\nsamples = 4\nvalue = [9, 0]"] ;
364 -> 368 ;
369 [label="gini = 0.0\nsamples = 5\nvalue = [8, 0]"] ;
363 -> 369 ;
370 [label="x[43] <= 764366.031\ngini = 0.219\nsamples = 4\nvalue = [7, 1]"] ;
362 -> 370 ;
371 [label="gini = 0.0\nsamples = 1\nvalue = [5, 0]"] ;
370 -> 371 ;
372 [label="x[43] <= 764368.062\ngini = 0.444\nsamples = 3\nvalue = [2, 1]"] ;
370 -> 372 ;
373 [label="gini = 0.0\nsamples = 1\nvalue = [0, 1]"] ;
372 -> 373 ;
374 [label="gini = 0.0\nsamples = 2\nvalue = [2, 0]"] ;
372 -> 374 ;
375 [label="x[52] <= 764269.0\ngini = 0.49\nsamples = 4\nvalue = [4, 3]"] ;
359 -> 375 ;
376 [label="gini = 0.0\nsamples = 2\nvalue = [3, 0]"] ;
375 -> 376 ;
377 [label="x[43] <= 764352.562\ngini = 0.375\nsamples = 2\nvalue = [1, 3]"] ;
375 -> 377 ;
378 [label="gini = 0.0\nsamples = 1\nvalue = [1, 0]"] ;
377 -> 378 ;
379 [label="gini = 0.0\nsamples = 1\nvalue = [0, 3]"] ;
377 -> 379 ;
380 [label="x[2] <= 1.529\ngini = 0.485\nsamples = 196\nvalue = [185, 130]"] ;
96 -> 380 ;
381 [label="x[46] <= 170.695\ngini = 0.488\nsamples = 193\nvalue = [178, 130]"] ;
380 -> 381 ;
382 [label="x[68] <= 1528666.5\ngini = 0.498\nsamples = 158\nvalue = [132, 117]"] ;
381 -> 382 ;
383 [label="x[45] <= 764321.812\ngini = 0.495\nsamples = 136\nvalue = [118, 96]"] ;
382 -> 383 ;
384 [label="x[55] <= 764319.0\ngini = 0.5\nsamples = 99\nvalue = [81, 78]"] ;
383 -> 384 ;
385 [label="x[53] <= 764414.438\ngini = 0.498\nsamples = 81\nvalue = [68, 60]"] ;
384 -> 385 ;
386 [label="x[9] <= 1.963\ngini = 0.482\nsamples = 58\nvalue = [57, 39]"] ;
385 -> 386 ;
387 [label="x[2] <= 1.529\ngini = 0.466\nsamples = 49\nvalue = [53, 31]"] ;
386 -> 387 ;
388 [label="gini = 0.0\nsamples = 3\nvalue = [4, 0]"] ;
387 -> 388 ;
389 [label="x[42] <= 764214.406\ngini = 0.475\nsamples = 46\nvalue = [49, 31]"] ;
387 -> 389 ;
390 [label="gini = 0.0\nsamples = 7\nvalue = [12, 0]"] ;
389 -> 390 ;
391 [label="x[54] <= 1528609.562\ngini = 0.496\nsamples = 39\nvalue = [37, 31]"] ;
389 -> 391 ;
392 [label="gini = 0.0\nsamples = 4\nvalue = [0, 7]"] ;
391 -> 392 ;
393 [label="x[9] <= 1.963\ngini = 0.477\nsamples = 35\nvalue = [37, 24]"] ;
391 -> 393 ;
394 [label="x[7] <= 1.963\ngini = 0.49\nsamples = 33\nvalue = [32, 24]"] ;
393 -> 394 ;
395 [label="x[69] <= 1528620.5\ngini = 0.482\nsamples = 31\nvalue = [31, 21]"] ;
394 -> 395 ;
396 [label="x[43] <= 764394.406\ngini = 0.375\nsamples = 8\nvalue = [9, 3]"] ;
395 -> 396 ;
397 [label="gini = 0.0\nsamples = 3\nvalue = [6, 0]"] ;
396 -> 397 ;
398 [label="x[54] <= 1528619.5\ngini = 0.5\nsamples = 5\nvalue = [3, 3]"] ;
396 -> 398 ;
399 [label="x[44] <= 1528617.5\ngini = 0.48\nsamples = 4\nvalue = [2, 3]"] ;
398 -> 399 ;
400 [label="x[53] <= 764398.562\ngini = 0.444\nsamples = 2\nvalue = [1, 2]"] ;
399 -> 400 ;
401 [label="gini = 0.0\nsamples = 1\nvalue = [0, 2]"] ;
400 -> 401 ;
402 [label="gini = 0.0\nsamples = 1\nvalue = [1, 0]"] ;
400 -> 402 ;
403 [label="x[56] <= 124.417\ngini = 0.5\nsamples = 2\nvalue = [1, 1]"] ;
399 -> 403 ;
404 [label="gini = 0.0\nsamples = 1\nvalue = [0, 1]"] ;
403 -> 404 ;
405 [label="gini = 0.0\nsamples = 1\nvalue = [1, 0]"] ;
403 -> 405 ;
406 [label="gini = 0.0\nsamples = 1\nvalue = [1, 0]"] ;
398 -> 406 ;
407 [label="x[53] <= 764408.0\ngini = 0.495\nsamples = 23\nvalue = [22, 18]"] ;
395 -> 407 ;
408 [label="x[2] <= 1.529\ngini = 0.496\nsamples = 18\nvalue = [15, 18]"] ;
407 -> 408 ;
409 [label="x[44] <= 1528627.375\ngini = 0.488\nsamples = 14\nvalue = [15, 11]"] ;
408 -> 409 ;
410 [label="x[55] <= 764312.75\ngini = 0.495\nsamples = 10\nvalue = [9, 11]"] ;
409 -> 410 ;
411 [label="x[52] <= 764225.125\ngini = 0.492\nsamples = 8\nvalue = [9, 7]"] ;
410 -> 411 ;
412 [label="x[9] <= 1.963\ngini = 0.42\nsamples = 6\nvalue = [3, 7]"] ;
411 -> 412 ;
413 [label="gini = 0.0\nsamples = 2\nvalue = [0, 4]"] ;
412 -> 413 ;
414 [label="x[53] <= 764402.5\ngini = 0.5\nsamples = 4\nvalue = [3, 3]"] ;
412 -> 414 ;
415 [label="gini = 0.0\nsamples = 1\nvalue = [1, 0]"] ;
414 -> 415 ;
416 [label="x[53] <= 764405.0\ngini = 0.48\nsamples = 3\nvalue = [2, 3]"] ;
414 -> 416 ;
417 [label="gini = 0.0\nsamples = 1\nvalue = [0, 2]"] ;
416 -> 417 ;
418 [label="gini = 0.444\nsamples = 2\nvalue = [2, 1]"] ;
416 -> 418 ;
419 [label="gini = 0.0\nsamples = 2\nvalue = [6, 0]"] ;
411 -> 419 ;
420 [label="gini = 0.0\nsamples = 2\nvalue = [0, 4]"] ;
410 -> 420 ;
421 [label="gini = 0.0\nsamples = 4\nvalue = [6, 0]"] ;
409 -> 421 ;
422 [label="gini = 0.0\nsamples = 4\nvalue = [0, 7]"] ;
408 -> 422 ;
423 [label="gini = 0.0\nsamples = 5\nvalue = [7, 0]"] ;
407 -> 423 ;
424 [label="gini = 0.375\nsamples = 2\nvalue = [1, 3]"] ;
394 -> 424 ;
425 [label="gini = 0.0\nsamples = 2\nvalue = [5, 0]"] ;
393 -> 425 ;
426 [label="x[9] <= 1.963\ngini = 0.444\nsamples = 9\nvalue = [4, 8]"] ;
386 -> 426 ;
427 [label="gini = 0.0\nsamples = 2\nvalue = [0, 2]"] ;
426 -> 427 ;
428 [label="x[53] <= 764392.969\ngini = 0.48\nsamples = 7\nvalue = [4, 6]"] ;
426 -> 428 ;
429 [label="gini = 0.0\nsamples = 1\nvalue = [0, 2]"] ;
428 -> 429 ;
430 [label="x[46] <= 139.928\ngini = 0.5\nsamples = 6\nvalue = [4, 4]"] ;
428 -> 430 ;
431 [label="x[70] <= 1528598.062\ngini = 0.375\nsamples = 3\nvalue = [3, 1]"] ;
430 -> 431 ;
432 [label="gini = 0.0\nsamples = 1\nvalue = [0, 1]"] ;
431 -> 432 ;
433 [label="gini = 0.0\nsamples = 2\nvalue = [3, 0]"] ;
431 -> 433 ;
434 [label="x[9] <= 1.963\ngini = 0.375\nsamples = 3\nvalue = [1, 3]"] ;
430 -> 434 ;
435 [label="gini = 0.0\nsamples = 2\nvalue = [0, 3]"] ;
434 -> 435 ;
436 [label="gini = 0.0\nsamples = 1\nvalue = [1, 0]"] ;
434 -> 436 ;
437 [label="x[7] <= 1.963\ngini = 0.451\nsamples = 23\nvalue = [11, 21]"] ;
385 -> 437 ;
438 [label="x[54] <= 1528635.062\ngini = 0.219\nsamples = 5\nvalue = [7, 1]"] ;
437 -> 438 ;
439 [label="x[43] <= 764428.5\ngini = 0.375\nsamples = 3\nvalue = [3, 1]"] ;
438 -> 439 ;
440 [label="gini = 0.0\nsamples = 2\nvalue = [3, 0]"] ;
439 -> 440 ;
441 [label="gini = 0.0\nsamples = 1\nvalue = [0, 1]"] ;
439 -> 441 ;
442 [label="gini = 0.0\nsamples = 2\nvalue = [4, 0]"] ;
438 -> 442 ;
443 [label="x[52] <= 764185.438\ngini = 0.278\nsamples = 18\nvalue = [4, 20]"] ;
437 -> 443 ;
444 [label="gini = 0.0\nsamples = 1\nvalue = [1, 0]"] ;
443 -> 444 ;
445 [label="x[71] <= 1528629.0\ngini = 0.227\nsamples = 17\nvalue = [3, 20]"] ;
443 -> 445 ;
446 [label="x[7] <= 1.963\ngini = 0.105\nsamples = 13\nvalue = [1, 17]"] ;
445 -> 446 ;
447 [label="x[2] <= 1.529\ngini = 0.278\nsamples = 6\nvalue = [1, 5]"] ;
446 -> 447 ;
448 [label="gini = 0.0\nsamples = 1\nvalue = [1, 0]"] ;
447 -> 448 ;
449 [label="gini = 0.0\nsamples = 5\nvalue = [0, 5]"] ;
447 -> 449 ;
450 [label="gini = 0.0\nsamples = 7\nvalue = [0, 12]"] ;
446 -> 450 ;
451 [label="x[68] <= 1528630.5\ngini = 0.48\nsamples = 4\nvalue = [2, 3]"] ;
445 -> 451 ;
452 [label="gini = 0.0\nsamples = 2\nvalue = [2, 0]"] ;
451 -> 452 ;
453 [label="gini = 0.0\nsamples = 2\nvalue = [0, 3]"] ;
451 -> 453 ;
454 [label="x[69] <= 1528640.5\ngini = 0.487\nsamples = 18\nvalue = [13, 18]"] ;
384 -> 454 ;
455 [label="x[46] <= 126.946\ngini = 0.42\nsamples = 6\nvalue = [3, 7]"] ;
454 -> 455 ;
456 [label="gini = 0.0\nsamples = 3\nvalue = [3, 0]"] ;
455 -> 456 ;
457 [label="gini = 0.0\nsamples = 3\nvalue = [0, 7]"] ;
455 -> 457 ;
458 [label="x[68] <= 1528642.438\ngini = 0.499\nsamples = 12\nvalue = [10, 11]"] ;
454 -> 458 ;
459 [label="x[46] <= 139.928\ngini = 0.48\nsamples = 5\nvalue = [6, 4]"] ;
458 -> 459 ;
460 [label="x[42] <= 764240.031\ngini = 0.245\nsamples = 4\nvalue = [6, 1]"] ;
459 -> 460 ;
461 [label="gini = 0.0\nsamples = 2\nvalue = [4, 0]"] ;
460 -> 461 ;
462 [label="x[57] <= 98.126\ngini = 0.444\nsamples = 2\nvalue = [2, 1]"] ;
460 -> 462 ;
463 [label="gini = 0.0\nsamples = 1\nvalue = [0, 1]"] ;
462 -> 463 ;
464 [label="gini = 0.0\nsamples = 1\nvalue = [2, 0]"] ;
462 -> 464 ;
465 [label="gini = 0.0\nsamples = 1\nvalue = [0, 3]"] ;
459 -> 465 ;
466 [label="x[46] <= 134.28\ngini = 0.463\nsamples = 7\nvalue = [4, 7]"] ;
458 -> 466 ;
467 [label="gini = 0.0\nsamples = 2\nvalue = [0, 4]"] ;
466 -> 467 ;
468 [label="x[69] <= 1528643.0\ngini = 0.49\nsamples = 5\nvalue = [4, 3]"] ;
466 -> 468 ;
469 [label="x[43] <= 764427.062\ngini = 0.5\nsamples = 4\nvalue = [3, 3]"] ;
468 -> 469 ;
470 [label="gini = 0.0\nsamples = 3\nvalue = [3, 0]"] ;
469 -> 470 ;
471 [label="gini = 0.0\nsamples = 1\nvalue = [0, 3]"] ;
469 -> 471 ;
472 [label="gini = 0.0\nsamples = 1\nvalue = [1, 0]"] ;
468 -> 472 ;
473 [label="x[44] <= 1528644.562\ngini = 0.44\nsamples = 37\nvalue = [37, 18]"] ;
383 -> 473 ;
474 [label="gini = 0.0\nsamples = 3\nvalue = [6, 0]"] ;
473 -> 474 ;
475 [label="x[70] <= 1528645.5\ngini = 0.465\nsamples = 34\nvalue = [31, 18]"] ;
473 -> 475 ;
476 [label="gini = 0.0\nsamples = 2\nvalue = [0, 3]"] ;
475 -> 476 ;
477 [label="x[55] <= 764332.781\ngini = 0.44\nsamples = 32\nvalue = [31, 15]"] ;
475 -> 477 ;
478 [label="x[56] <= 116.831\ngini = 0.459\nsamples = 30\nvalue = [27, 15]"] ;
477 -> 478 ;
479 [label="gini = 0.0\nsamples = 2\nvalue = [5, 0]"] ;
478 -> 479 ;
480 [label="x[71] <= 1528648.0\ngini = 0.482\nsamples = 28\nvalue = [22, 15]"] ;
478 -> 480 ;
481 [label="gini = 0.0\nsamples = 3\nvalue = [3, 0]"] ;
480 -> 481 ;
482 [label="x[45] <= 764324.531\ngini = 0.493\nsamples = 25\nvalue = [19, 15]"] ;
480 -> 482 ;
483 [label="gini = 0.0\nsamples = 1\nvalue = [0, 2]"] ;
482 -> 483 ;
484 [label="x[57] <= 98.126\ngini = 0.482\nsamples = 24\nvalue = [19, 13]"] ;
482 -> 484 ;
485 [label="x[46] <= 126.525\ngini = 0.498\nsamples = 14\nvalue = [8, 9]"] ;
484 -> 485 ;
486 [label="x[42] <= 764245.969\ngini = 0.32\nsamples = 4\nvalue = [4, 1]"] ;
485 -> 486 ;
487 [label="gini = 0.0\nsamples = 3\nvalue = [4, 0]"] ;
486 -> 487 ;
488 [label="gini = 0.0\nsamples = 1\nvalue = [0, 1]"] ;
486 -> 488 ;
489 [label="x[7] <= 1.963\ngini = 0.444\nsamples = 10\nvalue = [4, 8]"] ;
485 -> 489 ;
490 [label="gini = 0.0\nsamples = 3\nvalue = [0, 3]"] ;
489 -> 490 ;
491 [label="x[46] <= 136.893\ngini = 0.494\nsamples = 7\nvalue = [4, 5]"] ;
489 -> 491 ;
492 [label="x[54] <= 1528657.438\ngini = 0.408\nsamples = 6\nvalue = [2, 5]"] ;
491 -> 492 ;
493 [label="x[2] <= 1.529\ngini = 0.278\nsamples = 5\nvalue = [1, 5]"] ;
492 -> 493 ;
494 [label="x[44] <= 1528654.0\ngini = 0.444\nsamples = 3\nvalue = [1, 2]"] ;
493 -> 494 ;
495 [label="x[53] <= 764419.312\ngini = 0.5\nsamples = 2\nvalue = [1, 1]"] ;
494 -> 495 ;
496 [label="gini = 0.0\nsamples = 1\nvalue = [0, 1]"] ;
495 -> 496 ;
497 [label="gini = 0.0\nsamples = 1\nvalue = [1, 0]"] ;
495 -> 497 ;
498 [label="gini = 0.0\nsamples = 1\nvalue = [0, 1]"] ;
494 -> 498 ;
499 [label="gini = 0.0\nsamples = 2\nvalue = [0, 3]"] ;
493 -> 499 ;
500 [label="gini = 0.0\nsamples = 1\nvalue = [1, 0]"] ;
492 -> 500 ;
501 [label="gini = 0.0\nsamples = 1\nvalue = [2, 0]"] ;
491 -> 501 ;
502 [label="x[42] <= 764239.094\ngini = 0.391\nsamples = 10\nvalue = [11, 4]"] ;
484 -> 502 ;
503 [label="x[56] <= 140.77\ngini = 0.26\nsamples = 9\nvalue = [11, 2]"] ;
502 -> 503 ;
504 [label="x[68] <= 1528652.562\ngini = 0.408\nsamples = 5\nvalue = [5, 2]"] ;
503 -> 504 ;
505 [label="x[68] <= 1528651.5\ngini = 0.48\nsamples = 4\nvalue = [3, 2]"] ;
504 -> 505 ;
506 [label="x[46] <= 127.958\ngini = 0.444\nsamples = 2\nvalue = [2, 1]"] ;
505 -> 506 ;
507 [label="gini = 0.0\nsamples = 1\nvalue = [2, 0]"] ;
506 -> 507 ;
508 [label="gini = 0.0\nsamples = 1\nvalue = [0, 1]"] ;
506 -> 508 ;
509 [label="x[52] <= 764231.469\ngini = 0.5\nsamples = 2\nvalue = [1, 1]"] ;
505 -> 509 ;
510 [label="gini = 0.0\nsamples = 1\nvalue = [0, 1]"] ;
509 -> 510 ;
511 [label="gini = 0.0\nsamples = 1\nvalue = [1, 0]"] ;
509 -> 511 ;
512 [label="gini = 0.0\nsamples = 1\nvalue = [2, 0]"] ;
504 -> 512 ;
513 [label="gini = 0.0\nsamples = 4\nvalue = [6, 0]"] ;
503 -> 513 ;
514 [label="gini = 0.0\nsamples = 1\nvalue = [0, 2]"] ;
502 -> 514 ;
515 [label="gini = 0.0\nsamples = 2\nvalue = [4, 0]"] ;
477 -> 515 ;
516 [label="x[68] <= 1528667.438\ngini = 0.48\nsamples = 22\nvalue = [14, 21]"] ;
382 -> 516 ;
517 [label="gini = 0.0\nsamples = 4\nvalue = [0, 7]"] ;
516 -> 517 ;
518 [label="x[52] <= 764249.938\ngini = 0.5\nsamples = 18\nvalue = [14, 14]"] ;
516 -> 518 ;
519 [label="x[53] <= 764437.438\ngini = 0.444\nsamples = 11\nvalue = [12, 6]"] ;
518 -> 519 ;
520 [label="gini = 0.0\nsamples = 6\nvalue = [11, 0]"] ;
519 -> 520 ;
521 [label="x[45] <= 764337.219\ngini = 0.245\nsamples = 5\nvalue = [1, 6]"] ;
519 -> 521 ;
522 [label="gini = 0.0\nsamples = 3\nvalue = [0, 3]"] ;
521 -> 522 ;
523 [label="x[52] <= 764237.625\ngini = 0.375\nsamples = 2\nvalue = [1, 3]"] ;
521 -> 523 ;
524 [label="gini = 0.0\nsamples = 1\nvalue = [1, 0]"] ;
523 -> 524 ;
525 [label="gini = 0.0\nsamples = 1\nvalue = [0, 3]"] ;
523 -> 525 ;
526 [label="x[70] <= 1528670.438\ngini = 0.32\nsamples = 7\nvalue = [2, 8]"] ;
518 -> 526 ;
527 [label="gini = 0.0\nsamples = 2\nvalue = [0, 4]"] ;
526 -> 527 ;
528 [label="x[70] <= 1528671.5\ngini = 0.444\nsamples = 5\nvalue = [2, 4]"] ;
526 -> 528 ;
529 [label="gini = 0.0\nsamples = 1\nvalue = [1, 0]"] ;
528 -> 529 ;
530 [label="x[42] <= 764253.469\ngini = 0.32\nsamples = 4\nvalue = [1, 4]"] ;
528 -> 530 ;
531 [label="gini = 0.0\nsamples = 2\nvalue = [0, 3]"] ;
530 -> 531 ;
532 [label="x[43] <= 764418.938\ngini = 0.5\nsamples = 2\nvalue = [1, 1]"] ;
530 -> 532 ;
533 [label="gini = 0.0\nsamples = 1\nvalue = [1, 0]"] ;
532 -> 533 ;
534 [label="gini = 0.0\nsamples = 1\nvalue = [0, 1]"] ;
532 -> 534 ;
535 [label="x[7] <= 1.963\ngini = 0.344\nsamples = 35\nvalue = [46, 13]"] ;
381 -> 535 ;
536 [label="x[68] <= 1528643.0\ngini = 0.1\nsamples = 11\nvalue = [18, 1]"] ;
535 -> 536 ;
537 [label="gini = 0.0\nsamples = 7\nvalue = [12, 0]"] ;
536 -> 537 ;
538 [label="x[45] <= 764324.469\ngini = 0.245\nsamples = 4\nvalue = [6, 1]"] ;
536 -> 538 ;
539 [label="gini = 0.0\nsamples = 1\nvalue = [0, 1]"] ;
538 -> 539 ;
540 [label="gini = 0.0\nsamples = 3\nvalue = [6, 0]"] ;
538 -> 540 ;
541 [label="x[68] <= 1528627.875\ngini = 0.42\nsamples = 24\nvalue = [28, 12]"] ;
535 -> 541 ;
542 [label="x[42] <= 764161.0\ngini = 0.388\nsamples = 23\nvalue = [28, 10]"] ;
541 -> 542 ;
543 [label="gini = 0.0\nsamples = 1\nvalue = [0, 2]"] ;
542 -> 543 ;
544 [label="x[42] <= 764173.5\ngini = 0.346\nsamples = 22\nvalue = [28, 8]"] ;
542 -> 544 ;
545 [label="gini = 0.0\nsamples = 8\nvalue = [13, 0]"] ;
544 -> 545 ;
546 [label="x[44] <= 1528610.0\ngini = 0.454\nsamples = 14\nvalue = [15, 8]"] ;
544 -> 546 ;
547 [label="gini = 0.0\nsamples = 2\nvalue = [0, 4]"] ;
546 -> 547 ;
548 [label="x[45] <= 764309.281\ngini = 0.332\nsamples = 12\nvalue = [15, 4]"] ;
546 -> 548 ;
549 [label="x[54] <= 1528612.938\ngini = 0.463\nsamples = 7\nvalue = [7, 4]"] ;
548 -> 549 ;
550 [label="x[42] <= 764181.031\ngini = 0.219\nsamples = 4\nvalue = [7, 1]"] ;
549 -> 550 ;
551 [label="gini = 0.0\nsamples = 2\nvalue = [6, 0]"] ;
550 -> 551 ;
552 [label="x[68] <= 1528611.438\ngini = 0.5\nsamples = 2\nvalue = [1, 1]"] ;
550 -> 552 ;
553 [label="gini = 0.0\nsamples = 1\nvalue = [0, 1]"] ;
552 -> 553 ;
554 [label="gini = 0.0\nsamples = 1\nvalue = [1, 0]"] ;
552 -> 554 ;
555 [label="gini = 0.0\nsamples = 3\nvalue = [0, 3]"] ;
549 -> 555 ;
556 [label="gini = 0.0\nsamples = 5\nvalue = [8, 0]"] ;
548 -> 556 ;
557 [label="gini = 0.0\nsamples = 1\nvalue = [0, 2]"] ;
541 -> 557 ;
558 [label="gini = 0.0\nsamples = 3\nvalue = [7, 0]"] ;
380 -> 558 ;
559 [label="x[52] <= 764180.562\ngini = 0.1\nsamples = 12\nvalue = [18, 1]"] ;
95 -> 559 ;
560 [label="x[46] <= 201.462\ngini = 0.245\nsamples = 5\nvalue = [6, 1]"] ;
559 -> 560 ;
561 [label="gini = 0.0\nsamples = 1\nvalue = [0, 1]"] ;
560 -> 561 ;
562 [label="gini = 0.0\nsamples = 4\nvalue = [6, 0]"] ;
560 -> 562 ;
563 [label="gini = 0.0\nsamples = 7\nvalue = [12, 0]"] ;
559 -> 563 ;
564 [label="x[70] <= 1528577.0\ngini = 0.491\nsamples = 212\nvalue = [190, 145]"] ;
52 -> 564 ;
565 [label="x[69] <= 1528575.5\ngini = 0.449\nsamples = 56\nvalue = [60, 31]"] ;
564 -> 565 ;
566 [label="x[52] <= 764178.625\ngini = 0.47\nsamples = 45\nvalue = [46, 28]"] ;
565 -> 566 ;
567 [label="gini = 0.0\nsamples = 4\nvalue = [9, 0]"] ;
566 -> 567 ;
568 [label="x[57] <= 98.131\ngini = 0.49\nsamples = 41\nvalue = [37, 28]"] ;
566 -> 568 ;
569 [label="x[44] <= 1528572.875\ngini = 0.5\nsamples = 27\nvalue = [21, 22]"] ;
568 -> 569 ;
570 [label="gini = 0.0\nsamples = 1\nvalue = [0, 1]"] ;
569 -> 570 ;
571 [label="x[46] <= 126.188\ngini = 0.5\nsamples = 26\nvalue = [21, 21]"] ;
569 -> 571 ;
572 [label="x[52] <= 764205.938\ngini = 0.491\nsamples = 22\nvalue = [16, 21]"] ;
571 -> 572 ;
573 [label="gini = 0.0\nsamples = 3\nvalue = [0, 5]"] ;
572 -> 573 ;
574 [label="x[53] <= 764362.594\ngini = 0.5\nsamples = 19\nvalue = [16, 16]"] ;
572 -> 574 ;
575 [label="x[46] <= 99.972\ngini = 0.498\nsamples = 18\nvalue = [14, 16]"] ;
574 -> 575 ;
576 [label="x[69] <= 1528574.625\ngini = 0.497\nsamples = 16\nvalue = [14, 12]"] ;
575 -> 576 ;
577 [label="x[70] <= 1528573.5\ngini = 0.426\nsamples = 7\nvalue = [9, 4]"] ;
576 -> 577 ;
578 [label="x[56] <= 79.236\ngini = 0.444\nsamples = 2\nvalue = [1, 2]"] ;
577 -> 578 ;
579 [label="gini = 0.0\nsamples = 1\nvalue = [1, 0]"] ;
578 -> 579 ;
580 [label="gini = 0.0\nsamples = 1\nvalue = [0, 2]"] ;
578 -> 580 ;
581 [label="x[53] <= 764348.844\ngini = 0.32\nsamples = 5\nvalue = [8, 2]"] ;
577 -> 581 ;
582 [label="gini = 0.0\nsamples = 2\nvalue = [5, 0]"] ;
581 -> 582 ;
583 [label="x[9] <= 1.963\ngini = 0.48\nsamples = 3\nvalue = [3, 2]"] ;
581 -> 583 ;
584 [label="gini = 0.0\nsamples = 1\nvalue = [3, 0]"] ;
583 -> 584 ;
585 [label="gini = 0.0\nsamples = 2\nvalue = [0, 2]"] ;
583 -> 585 ;
586 [label="x[45] <= 764287.531\ngini = 0.473\nsamples = 9\nvalue = [5, 8]"] ;
576 -> 586 ;
587 [label="x[42] <= 764228.0\ngini = 0.463\nsamples = 7\nvalue = [4, 7]"] ;
586 -> 587 ;
588 [label="gini = 0.0\nsamples = 1\nvalue = [2, 0]"] ;
587 -> 588 ;
589 [label="x[56] <= 43.833\ngini = 0.346\nsamples = 6\nvalue = [2, 7]"] ;
587 -> 589 ;
590 [label="x[43] <= 764309.531\ngini = 0.48\nsamples = 3\nvalue = [2, 3]"] ;
589 -> 590 ;
591 [label="gini = 0.0\nsamples = 1\nvalue = [0, 3]"] ;
590 -> 591 ;
592 [label="gini = 0.0\nsamples = 2\nvalue = [2, 0]"] ;
590 -> 592 ;
593 [label="gini = 0.0\nsamples = 3\nvalue = [0, 4]"] ;
589 -> 593 ;
594 [label="x[43] <= 764319.656\ngini = 0.5\nsamples = 2\nvalue = [1, 1]"] ;
586 -> 594 ;
595 [label="gini = 0.0\nsamples = 1\nvalue = [0, 1]"] ;
594 -> 595 ;
596 [label="gini = 0.0\nsamples = 1\nvalue = [1, 0]"] ;
594 -> 596 ;
597 [label="gini = 0.0\nsamples = 2\nvalue = [0, 4]"] ;
575 -> 597 ;
598 [label="gini = 0.0\nsamples = 1\nvalue = [2, 0]"] ;
574 -> 598 ;
599 [label="gini = 0.0\nsamples = 4\nvalue = [5, 0]"] ;
571 -> 599 ;
600 [label="x[54] <= 1528571.5\ngini = 0.397\nsamples = 14\nvalue = [16, 6]"] ;
568 -> 600 ;
601 [label="x[70] <= 1528570.5\ngini = 0.494\nsamples = 7\nvalue = [5, 4]"] ;
600 -> 601 ;
602 [label="gini = 0.375\nsamples = 2\nvalue = [3, 1]"] ;
601 -> 602 ;
603 [label="x[44] <= 1528571.0\ngini = 0.48\nsamples = 5\nvalue = [2, 3]"] ;
601 -> 603 ;
604 [label="gini = 0.0\nsamples = 2\nvalue = [0, 2]"] ;
603 -> 604 ;
605 [label="x[52] <= 764210.094\ngini = 0.444\nsamples = 3\nvalue = [2, 1]"] ;
603 -> 605 ;
606 [label="gini = 0.0\nsamples = 1\nvalue = [0, 1]"] ;
605 -> 606 ;
607 [label="gini = 0.0\nsamples = 2\nvalue = [2, 0]"] ;
605 -> 607 ;
608 [label="x[43] <= 764382.125\ngini = 0.26\nsamples = 7\nvalue = [11, 2]"] ;
600 -> 608 ;
609 [label="gini = 0.0\nsamples = 5\nvalue = [9, 0]"] ;
608 -> 609 ;
610 [label="x[42] <= 764182.906\ngini = 0.5\nsamples = 2\nvalue = [2, 2]"] ;
608 -> 610 ;
611 [label="gini = 0.0\nsamples = 1\nvalue = [2, 0]"] ;
610 -> 611 ;
612 [label="gini = 0.0\nsamples = 1\nvalue = [0, 2]"] ;
610 -> 612 ;
613 [label="x[2] <= 1.529\ngini = 0.291\nsamples = 11\nvalue = [14, 3]"] ;
565 -> 613 ;
614 [label="x[55] <= 764288.0\ngini = 0.32\nsamples = 9\nvalue = [12, 3]"] ;
613 -> 614 ;
615 [label="x[53] <= 764340.969\ngini = 0.32\nsamples = 6\nvalue = [8, 2]"] ;
614 -> 615 ;
616 [label="x[46] <= 53.779\ngini = 0.444\nsamples = 2\nvalue = [1, 2]"] ;
615 -> 616 ;
617 [label="gini = 0.0\nsamples = 1\nvalue = [1, 0]"] ;
616 -> 617 ;
618 [label="gini = 0.0\nsamples = 1\nvalue = [0, 2]"] ;
616 -> 618 ;
619 [label="gini = 0.0\nsamples = 4\nvalue = [7, 0]"] ;
615 -> 619 ;
620 [label="x[56] <= 40.292\ngini = 0.32\nsamples = 3\nvalue = [4, 1]"] ;
614 -> 620 ;
621 [label="gini = 0.0\nsamples = 2\nvalue = [4, 0]"] ;
620 -> 621 ;
622 [label="gini = 0.0\nsamples = 1\nvalue = [0, 1]"] ;
620 -> 622 ;
623 [label="gini = 0.0\nsamples = 2\nvalue = [2, 0]"] ;
613 -> 623 ;
624 [label="x[69] <= 1528580.125\ngini = 0.498\nsamples = 156\nvalue = [130, 114]"] ;
564 -> 624 ;
625 [label="x[42] <= 764195.562\ngini = 0.472\nsamples = 28\nvalue = [21, 34]"] ;
624 -> 625 ;
626 [label="gini = 0.0\nsamples = 3\nvalue = [6, 0]"] ;
625 -> 626 ;
627 [label="x[44] <= 1528577.438\ngini = 0.425\nsamples = 25\nvalue = [15, 34]"] ;
625 -> 627 ;
628 [label="x[43] <= 764336.0\ngini = 0.472\nsamples = 8\nvalue = [8, 13]"] ;
627 -> 628 ;
629 [label="x[53] <= 764310.969\ngini = 0.18\nsamples = 4\nvalue = [1, 9]"] ;
628 -> 629 ;
630 [label="gini = 0.0\nsamples = 1\nvalue = [1, 0]"] ;
629 -> 630 ;
631 [label="gini = 0.0\nsamples = 3\nvalue = [0, 9]"] ;
629 -> 631 ;
632 [label="x[56] <= 120.203\ngini = 0.463\nsamples = 4\nvalue = [7, 4]"] ;
628 -> 632 ;
633 [label="gini = 0.0\nsamples = 3\nvalue = [7, 0]"] ;
632 -> 633 ;
634 [label="gini = 0.0\nsamples = 1\nvalue = [0, 4]"] ;
632 -> 634 ;
635 [label="x[9] <= 1.963\ngini = 0.375\nsamples = 17\nvalue = [7, 21]"] ;
627 -> 635 ;
636 [label="x[7] <= 1.963\ngini = 0.393\nsamples = 16\nvalue = [7, 19]"] ;
635 -> 636 ;
637 [label="x[46] <= 52.431\ngini = 0.32\nsamples = 6\nvalue = [2, 8]"] ;
636 -> 637 ;
638 [label="x[42] <= 764259.469\ngini = 0.5\nsamples = 2\nvalue = [2, 2]"] ;
637 -> 638 ;
639 [label="gini = 0.0\nsamples = 1\nvalue = [2, 0]"] ;
638 -> 639 ;
640 [label="gini = 0.0\nsamples = 1\nvalue = [0, 2]"] ;
638 -> 640 ;
641 [label="gini = 0.0\nsamples = 4\nvalue = [0, 6]"] ;
637 -> 641 ;
642 [label="x[57] <= 98.13\ngini = 0.43\nsamples = 10\nvalue = [5, 11]"] ;
636 -> 642 ;
643 [label="x[42] <= 764235.969\ngini = 0.408\nsamples = 5\nvalue = [2, 5]"] ;
642 -> 643 ;
644 [label="gini = 0.0\nsamples = 3\nvalue = [0, 5]"] ;
643 -> 644 ;
645 [label="gini = 0.0\nsamples = 2\nvalue = [2, 0]"] ;
643 -> 645 ;
646 [label="x[53] <= 764320.5\ngini = 0.444\nsamples = 5\nvalue = [3, 6]"] ;
642 -> 646 ;
647 [label="gini = 0.444\nsamples = 2\nvalue = [2, 1]"] ;
646 -> 647 ;
648 [label="x[56] <= 64.4\ngini = 0.278\nsamples = 3\nvalue = [1, 5]"] ;
646 -> 648 ;
649 [label="gini = 0.0\nsamples = 2\nvalue = [0, 5]"] ;
648 -> 649 ;
650 [label="gini = 0.0\nsamples = 1\nvalue = [1, 0]"] ;
648 -> 650 ;
651 [label="gini = 0.0\nsamples = 1\nvalue = [0, 2]"] ;
635 -> 651 ;
652 [label="x[44] <= 1528588.875\ngini = 0.488\nsamples = 128\nvalue = [109, 80]"] ;
624 -> 652 ;
653 [label="x[52] <= 764274.469\ngini = 0.46\nsamples = 69\nvalue = [68, 38]"] ;
652 -> 653 ;
654 [label="x[9] <= 1.963\ngini = 0.444\nsamples = 67\nvalue = [68, 34]"] ;
653 -> 654 ;
655 [label="x[55] <= 764293.0\ngini = 0.458\nsamples = 62\nvalue = [60, 33]"] ;
654 -> 655 ;
656 [label="x[45] <= 764291.75\ngini = 0.492\nsamples = 42\nvalue = [36, 28]"] ;
655 -> 656 ;
657 [label="x[9] <= 1.963\ngini = 0.456\nsamples = 23\nvalue = [24, 13]"] ;
656 -> 657 ;
658 [label="x[52] <= 764211.062\ngini = 0.444\nsamples = 9\nvalue = [10, 5]"] ;
657 -> 658 ;
659 [label="x[52] <= 764179.094\ngini = 0.32\nsamples = 3\nvalue = [1, 4]"] ;
658 -> 659 ;
660 [label="gini = 0.0\nsamples = 1\nvalue = [0, 2]"] ;
659 -> 660 ;
661 [label="x[42] <= 764193.062\ngini = 0.444\nsamples = 2\nvalue = [1, 2]"] ;
659 -> 661 ;
662 [label="gini = 0.0\nsamples = 1\nvalue = [1, 0]"] ;
661 -> 662 ;
663 [label="gini = 0.0\nsamples = 1\nvalue = [0, 2]"] ;
661 -> 663 ;
664 [label="x[55] <= 764291.438\ngini = 0.18\nsamples = 6\nvalue = [9, 1]"] ;
658 -> 664 ;
665 [label="gini = 0.0\nsamples = 1\nvalue = [2, 0]"] ;
664 -> 665 ;
666 [label="x[52] <= 764268.969\ngini = 0.219\nsamples = 5\nvalue = [7, 1]"] ;
664 -> 666 ;
667 [label="x[43] <= 764325.125\ngini = 0.375\nsamples = 3\nvalue = [3, 1]"] ;
666 -> 667 ;
668 [label="gini = 0.0\nsamples = 1\nvalue = [0, 1]"] ;
667 -> 668 ;
669 [label="gini = 0.0\nsamples = 2\nvalue = [3, 0]"] ;
667 -> 669 ;
670 [label="gini = 0.0\nsamples = 2\nvalue = [4, 0]"] ;
666 -> 670 ;
671 [label="x[45] <= 764291.0\ngini = 0.463\nsamples = 14\nvalue = [14, 8]"] ;
657 -> 671 ;
672 [label="x[42] <= 764224.531\ngini = 0.488\nsamples = 11\nvalue = [11, 8]"] ;
671 -> 672 ;
673 [label="gini = 0.0\nsamples = 3\nvalue = [0, 4]"] ;
672 -> 673 ;
674 [label="x[70] <= 1528581.5\ngini = 0.391\nsamples = 8\nvalue = [11, 4]"] ;
672 -> 674 ;
675 [label="gini = 0.0\nsamples = 4\nvalue = [6, 0]"] ;
674 -> 675 ;
676 [label="x[42] <= 764256.469\ngini = 0.494\nsamples = 4\nvalue = [5, 4]"] ;
674 -> 676 ;
677 [label="gini = 0.0\nsamples = 2\nvalue = [2, 0]"] ;
676 -> 677 ;
678 [label="gini = 0.49\nsamples = 2\nvalue = [3, 4]"] ;
676 -> 678 ;
679 [label="gini = 0.0\nsamples = 3\nvalue = [3, 0]"] ;
671 -> 679 ;
680 [label="x[46] <= 50.913\ngini = 0.494\nsamples = 19\nvalue = [12, 15]"] ;
656 -> 680 ;
681 [label="gini = 0.0\nsamples = 5\nvalue = [0, 8]"] ;
680 -> 681 ;
682 [label="x[52] <= 764242.031\ngini = 0.465\nsamples = 14\nvalue = [12, 7]"] ;
680 -> 682 ;
683 [label="x[55] <= 764292.719\ngini = 0.492\nsamples = 12\nvalue = [9, 7]"] ;
682 -> 683 ;
684 [label="x[69] <= 1528584.5\ngini = 0.496\nsamples = 9\nvalue = [6, 5]"] ;
683 -> 684 ;
685 [label="x[56] <= 88.508\ngini = 0.494\nsamples = 7\nvalue = [5, 4]"] ;
684 -> 685 ;
686 [label="gini = 0.0\nsamples = 2\nvalue = [0, 2]"] ;
685 -> 686 ;
687 [label="x[52] <= 764204.5\ngini = 0.408\nsamples = 5\nvalue = [5, 2]"] ;
685 -> 687 ;
688 [label="x[56] <= 152.066\ngini = 0.5\nsamples = 2\nvalue = [2, 2]"] ;
687 -> 688 ;
689 [label="gini = 0.0\nsamples = 1\nvalue = [0, 2]"] ;
688 -> 689 ;
690 [label="gini = 0.0\nsamples = 1\nvalue = [2, 0]"] ;
688 -> 690 ;
691 [label="gini = 0.0\nsamples = 3\nvalue = [3, 0]"] ;
687 -> 691 ;
692 [label="x[46] <= 99.635\ngini = 0.5\nsamples = 2\nvalue = [1, 1]"] ;
684 -> 692 ;
693 [label="gini = 0.0\nsamples = 1\nvalue = [0, 1]"] ;
692 -> 693 ;
694 [label="gini = 0.0\nsamples = 1\nvalue = [1, 0]"] ;
692 -> 694 ;
695 [label="x[43] <= 764361.969\ngini = 0.48\nsamples = 3\nvalue = [3, 2]"] ;
683 -> 695 ;
696 [label="gini = 0.0\nsamples = 1\nvalue = [2, 0]"] ;
695 -> 696 ;
697 [label="x[42] <= 764203.406\ngini = 0.444\nsamples = 2\nvalue = [1, 2]"] ;
695 -> 697 ;
698 [label="gini = 0.0\nsamples = 1\nvalue = [1, 0]"] ;
697 -> 698 ;
699 [label="gini = 0.0\nsamples = 1\nvalue = [0, 2]"] ;
697 -> 699 ;
700 [label="gini = 0.0\nsamples = 2\nvalue = [3, 0]"] ;
682 -> 700 ;
701 [label="x[55] <= 764293.75\ngini = 0.285\nsamples = 20\nvalue = [24, 5]"] ;
655 -> 701 ;
702 [label="x[71] <= 1528587.0\ngini = 0.105\nsamples = 12\nvalue = [17, 1]"] ;
701 -> 702 ;
703 [label="gini = 0.0\nsamples = 6\nvalue = [11, 0]"] ;
702 -> 703 ;
704 [label="x[56] <= 102.501\ngini = 0.245\nsamples = 6\nvalue = [6, 1]"] ;
702 -> 704 ;
705 [label="x[53] <= 764360.406\ngini = 0.444\nsamples = 3\nvalue = [2, 1]"] ;
704 -> 705 ;
706 [label="gini = 0.0\nsamples = 2\nvalue = [2, 0]"] ;
705 -> 706 ;
707 [label="gini = 0.0\nsamples = 1\nvalue = [0, 1]"] ;
705 -> 707 ;
708 [label="gini = 0.0\nsamples = 3\nvalue = [4, 0]"] ;
704 -> 708 ;
709 [label="x[56] <= 55.128\ngini = 0.463\nsamples = 8\nvalue = [7, 4]"] ;
701 -> 709 ;
710 [label="gini = 0.0\nsamples = 4\nvalue = [5, 0]"] ;
709 -> 710 ;
711 [label="x[7] <= 1.963\ngini = 0.444\nsamples = 4\nvalue = [2, 4]"] ;
709 -> 711 ;
712 [label="x[43] <= 764349.562\ngini = 0.48\nsamples = 3\nvalue = [2, 3]"] ;
711 -> 712 ;
713 [label="gini = 0.0\nsamples = 1\nvalue = [0, 1]"] ;
712 -> 713 ;
714 [label="gini = 0.5\nsamples = 2\nvalue = [2, 2]"] ;
712 -> 714 ;
715 [label="gini = 0.0\nsamples = 1\nvalue = [0, 1]"] ;
711 -> 715 ;
716 [label="x[44] <= 1528580.562\ngini = 0.198\nsamples = 5\nvalue = [8, 1]"] ;
654 -> 716 ;
717 [label="gini = 0.0\nsamples = 1\nvalue = [1, 0]"] ;
716 -> 717 ;
718 [label="x[46] <= 58.668\ngini = 0.219\nsamples = 4\nvalue = [7, 1]"] ;
716 -> 718 ;
719 [label="gini = 0.0\nsamples = 1\nvalue = [4, 0]"] ;
718 -> 719 ;
720 [label="x[42] <= 764223.469\ngini = 0.375\nsamples = 3\nvalue = [3, 1]"] ;
718 -> 720 ;
721 [label="gini = 0.0\nsamples = 2\nvalue = [3, 0]"] ;
720 -> 721 ;
722 [label="gini = 0.0\nsamples = 1\nvalue = [0, 1]"] ;
720 -> 722 ;
723 [label="gini = 0.0\nsamples = 2\nvalue = [0, 4]"] ;
653 -> 723 ;
724 [label="x[42] <= 764209.531\ngini = 0.5\nsamples = 59\nvalue = [41, 42]"] ;
652 -> 724 ;
725 [label="x[54] <= 1528592.0\ngini = 0.384\nsamples = 16\nvalue = [7, 20]"] ;
724 -> 725 ;
726 [label="x[45] <= 764295.75\ngini = 0.291\nsamples = 12\nvalue = [3, 14]"] ;
725 -> 726 ;
727 [label="x[70] <= 1528590.562\ngini = 0.32\nsamples = 10\nvalue = [3, 12]"] ;
726 -> 727 ;
728 [label="x[56] <= 139.928\ngini = 0.219\nsamples = 6\nvalue = [1, 7]"] ;
727 -> 728 ;
729 [label="gini = 0.0\nsamples = 4\nvalue = [0, 4]"] ;
728 -> 729 ;
730 [label="x[68] <= 1528589.625\ngini = 0.375\nsamples = 2\nvalue = [1, 3]"] ;
728 -> 730 ;
731 [label="gini = 0.0\nsamples = 1\nvalue = [1, 0]"] ;
730 -> 731 ;
732 [label="gini = 0.0\nsamples = 1\nvalue = [0, 3]"] ;
730 -> 732 ;
733 [label="x[44] <= 1528591.0\ngini = 0.408\nsamples = 4\nvalue = [2, 5]"] ;
727 -> 733 ;
734 [label="gini = 0.0\nsamples = 1\nvalue = [1, 0]"] ;
733 -> 734 ;
735 [label="x[42] <= 764188.5\ngini = 0.278\nsamples = 3\nvalue = [1, 5]"] ;
733 -> 735 ;
736 [label="x[43] <= 764419.562\ngini = 0.5\nsamples = 2\nvalue = [1, 1]"] ;
735 -> 736 ;
737 [label="gini = 0.0\nsamples = 1\nvalue = [1, 0]"] ;
736 -> 737 ;
738 [label="gini = 0.0\nsamples = 1\nvalue = [0, 1]"] ;
736 -> 738 ;
739 [label="gini = 0.0\nsamples = 1\nvalue = [0, 4]"] ;
735 -> 739 ;
740 [label="gini = 0.0\nsamples = 2\nvalue = [0, 2]"] ;
726 -> 740 ;
741 [label="x[69] <= 1528592.625\ngini = 0.48\nsamples = 4\nvalue = [4, 6]"] ;
725 -> 741 ;
742 [label="gini = 0.0\nsamples = 1\nvalue = [3, 0]"] ;
741 -> 742 ;
743 [label="x[53] <= 764392.969\ngini = 0.245\nsamples = 3\nvalue = [1, 6]"] ;
741 -> 743 ;
744 [label="gini = 0.0\nsamples = 1\nvalue = [0, 4]"] ;
743 -> 744 ;
745 [label="x[42] <= 764187.094\ngini = 0.444\nsamples = 2\nvalue = [1, 2]"] ;
743 -> 745 ;
746 [label="gini = 0.0\nsamples = 1\nvalue = [0, 2]"] ;
745 -> 746 ;
747 [label="gini = 0.0\nsamples = 1\nvalue = [1, 0]"] ;
745 -> 747 ;
748 [label="x[56] <= 30.683\ngini = 0.477\nsamples = 43\nvalue = [34, 22]"] ;
724 -> 748 ;
749 [label="x[42] <= 764275.531\ngini = 0.278\nsamples = 4\nvalue = [1, 5]"] ;
748 -> 749 ;
750 [label="gini = 0.0\nsamples = 2\nvalue = [0, 4]"] ;
749 -> 750 ;
751 [label="x[55] <= 764295.531\ngini = 0.5\nsamples = 2\nvalue = [1, 1]"] ;
749 -> 751 ;
752 [label="gini = 0.0\nsamples = 1\nvalue = [0, 1]"] ;
751 -> 752 ;
753 [label="gini = 0.0\nsamples = 1\nvalue = [1, 0]"] ;
751 -> 753 ;
754 [label="x[68] <= 1528593.0\ngini = 0.449\nsamples = 39\nvalue = [33, 17]"] ;
748 -> 754 ;
755 [label="x[43] <= 764341.375\ngini = 0.472\nsamples = 32\nvalue = [26, 16]"] ;
754 -> 755 ;
756 [label="x[71] <= 1528590.438\ngini = 0.351\nsamples = 17\nvalue = [17, 5]"] ;
755 -> 756 ;
757 [label="x[9] <= 1.963\ngini = 0.391\nsamples = 10\nvalue = [11, 4]"] ;
756 -> 757 ;
758 [label="x[46] <= 31.863\ngini = 0.408\nsamples = 9\nvalue = [10, 4]"] ;
757 -> 758 ;
759 [label="gini = 0.0\nsamples = 2\nvalue = [4, 0]"] ;
758 -> 759 ;
760 [label="x[53] <= 764324.562\ngini = 0.48\nsamples = 7\nvalue = [6, 4]"] ;
758 -> 760 ;
761 [label="gini = 0.0\nsamples = 2\nvalue = [0, 3]"] ;
760 -> 761 ;
762 [label="x[52] <= 764254.938\ngini = 0.245\nsamples = 5\nvalue = [6, 1]"] ;
760 -> 762 ;
763 [label="x[46] <= 62.883\ngini = 0.444\nsamples = 3\nvalue = [2, 1]"] ;
762 -> 763 ;
764 [label="gini = 0.0\nsamples = 1\nvalue = [0, 1]"] ;
763 -> 764 ;
765 [label="gini = 0.0\nsamples = 2\nvalue = [2, 0]"] ;
763 -> 765 ;
766 [label="gini = 0.0\nsamples = 2\nvalue = [4, 0]"] ;
762 -> 766 ;
767 [label="gini = 0.0\nsamples = 1\nvalue = [1, 0]"] ;
757 -> 767 ;
768 [label="x[2] <= 1.529\ngini = 0.245\nsamples = 7\nvalue = [6, 1]"] ;
756 -> 768 ;
769 [label="gini = 0.0\nsamples = 2\nvalue = [2, 0]"] ;
768 -> 769 ;
770 [label="x[2] <= 1.529\ngini = 0.32\nsamples = 5\nvalue = [4, 1]"] ;
768 -> 770 ;
771 [label="x[42] <= 764266.969\ngini = 0.375\nsamples = 4\nvalue = [3, 1]"] ;
770 -> 771 ;
772 [label="gini = 0.0\nsamples = 3\nvalue = [3, 0]"] ;
771 -> 772 ;
773 [label="gini = 0.0\nsamples = 1\nvalue = [0, 1]"] ;
771 -> 773 ;
774 [label="gini = 0.0\nsamples = 1\nvalue = [1, 0]"] ;
770 -> 774 ;
775 [label="x[44] <= 1528591.5\ngini = 0.495\nsamples = 15\nvalue = [9, 11]"] ;
755 -> 775 ;
776 [label="x[56] <= 74.684\ngini = 0.5\nsamples = 8\nvalue = [6, 6]"] ;
775 -> 776 ;
777 [label="x[56] <= 71.987\ngini = 0.245\nsamples = 4\nvalue = [1, 6]"] ;
776 -> 777 ;
778 [label="x[45] <= 764294.969\ngini = 0.444\nsamples = 2\nvalue = [1, 2]"] ;
777 -> 778 ;
779 [label="gini = 0.0\nsamples = 1\nvalue = [0, 2]"] ;
778 -> 779 ;
780 [label="gini = 0.0\nsamples = 1\nvalue = [1, 0]"] ;
778 -> 780 ;
781 [label="gini = 0.0\nsamples = 2\nvalue = [0, 4]"] ;
777 -> 781 ;
782 [label="gini = 0.0\nsamples = 4\nvalue = [5, 0]"] ;
776 -> 782 ;
783 [label="x[55] <= 764296.25\ngini = 0.469\nsamples = 7\nvalue = [3, 5]"] ;
775 -> 783 ;
784 [label="x[71] <= 1528592.0\ngini = 0.444\nsamples = 5\nvalue = [2, 4]"] ;
783 -> 784 ;
785 [label="x[53] <= 764353.531\ngini = 0.444\nsamples = 2\nvalue = [1, 2]"] ;
784 -> 785 ;
786 [label="gini = 0.0\nsamples = 1\nvalue = [1, 0]"] ;
785 -> 786 ;
787 [label="gini = 0.0\nsamples = 1\nvalue = [0, 2]"] ;
785 -> 787 ;
788 [label="x[52] <= 764233.594\ngini = 0.444\nsamples = 3\nvalue = [1, 2]"] ;
784 -> 788 ;
789 [label="gini = 0.0\nsamples = 1\nvalue = [0, 1]"] ;
788 -> 789 ;
790 [label="x[52] <= 764246.594\ngini = 0.5\nsamples = 2\nvalue = [1, 1]"] ;
788 -> 790 ;
791 [label="gini = 0.0\nsamples = 1\nvalue = [1, 0]"] ;
790 -> 791 ;
792 [label="gini = 0.0\nsamples = 1\nvalue = [0, 1]"] ;
790 -> 792 ;
793 [label="x[52] <= 764241.938\ngini = 0.5\nsamples = 2\nvalue = [1, 1]"] ;
783 -> 793 ;
794 [label="gini = 0.0\nsamples = 1\nvalue = [1, 0]"] ;
793 -> 794 ;
795 [label="gini = 0.0\nsamples = 1\nvalue = [0, 1]"] ;
793 -> 795 ;
796 [label="x[43] <= 764344.094\ngini = 0.219\nsamples = 7\nvalue = [7, 1]"] ;
754 -> 796 ;
797 [label="x[53] <= 764339.594\ngini = 0.444\nsamples = 3\nvalue = [2, 1]"] ;
796 -> 797 ;
798 [label="gini = 0.0\nsamples = 2\nvalue = [2, 0]"] ;
797 -> 798 ;
799 [label="gini = 0.0\nsamples = 1\nvalue = [0, 1]"] ;
797 -> 799 ;
800 [label="gini = 0.0\nsamples = 4\nvalue = [5, 0]"] ;
796 -> 800 ;
801 [label="gini = 0.0\nsamples = 3\nvalue = [0, 5]"] ;
41 -> 801 ;
802 [label="x[44] <= 1528589.5\ngini = 0.489\nsamples = 458\nvalue = [421, 314]"] ;
40 -> 802 ;
803 [label="x[42] <= 764282.594\ngini = 0.488\nsamples = 26\nvalue = [19, 26]"] ;
802 -> 803 ;
804 [label="x[69] <= 1528587.938\ngini = 0.459\nsamples = 10\nvalue = [9, 5]"] ;
803 -> 804 ;
805 [label="x[44] <= 1528577.062\ngini = 0.18\nsamples = 8\nvalue = [9, 1]"] ;
804 -> 805 ;
806 [label="gini = 0.0\nsamples = 3\nvalue = [5, 0]"] ;
805 -> 806 ;
807 [label="x[57] <= 98.13\ngini = 0.32\nsamples = 5\nvalue = [4, 1]"] ;
805 -> 807 ;
808 [label="gini = 0.0\nsamples = 4\nvalue = [4, 0]"] ;
807 -> 808 ;
809 [label="gini = 0.0\nsamples = 1\nvalue = [0, 1]"] ;
807 -> 809 ;
810 [label="gini = 0.0\nsamples = 2\nvalue = [0, 4]"] ;
804 -> 810 ;
811 [label="x[9] <= 1.963\ngini = 0.437\nsamples = 16\nvalue = [10, 21]"] ;
803 -> 811 ;
812 [label="x[69] <= 1528582.562\ngini = 0.486\nsamples = 13\nvalue = [10, 14]"] ;
811 -> 812 ;
813 [label="x[54] <= 1528577.562\ngini = 0.278\nsamples = 3\nvalue = [5, 1]"] ;
812 -> 813 ;
814 [label="gini = 0.0\nsamples = 1\nvalue = [3, 0]"] ;
813 -> 814 ;
815 [label="x[45] <= 764290.031\ngini = 0.444\nsamples = 2\nvalue = [2, 1]"] ;
813 -> 815 ;
816 [label="gini = 0.0\nsamples = 1\nvalue = [0, 1]"] ;
815 -> 816 ;
817 [label="gini = 0.0\nsamples = 1\nvalue = [2, 0]"] ;
815 -> 817 ;
818 [label="x[45] <= 764293.719\ngini = 0.401\nsamples = 10\nvalue = [5, 13]"] ;
812 -> 818 ;
819 [label="x[56] <= 6.069\ngini = 0.473\nsamples = 6\nvalue = [5, 8]"] ;
818 -> 819 ;
820 [label="gini = 0.0\nsamples = 3\nvalue = [5, 0]"] ;
819 -> 820 ;
821 [label="gini = 0.0\nsamples = 3\nvalue = [0, 8]"] ;
819 -> 821 ;
822 [label="gini = 0.0\nsamples = 4\nvalue = [0, 5]"] ;
818 -> 822 ;
823 [label="gini = 0.0\nsamples = 3\nvalue = [0, 7]"] ;
811 -> 823 ;
824 [label="x[43] <= 764314.531\ngini = 0.486\nsamples = 432\nvalue = [402, 288]"] ;
802 -> 824 ;
825 [label="x[56] <= 0.421\ngini = 0.396\nsamples = 55\nvalue = [59, 22]"] ;
824 -> 825 ;
826 [label="gini = 0.0\nsamples = 2\nvalue = [0, 3]"] ;
825 -> 826 ;
827 [label="x[57] <= 98.129\ngini = 0.369\nsamples = 53\nvalue = [59, 19]"] ;
825 -> 827 ;
828 [label="x[52] <= 764299.406\ngini = 0.469\nsamples = 19\nvalue = [20, 12]"] ;
827 -> 828 ;
829 [label="x[53] <= 764310.0\ngini = 0.444\nsamples = 6\nvalue = [4, 8]"] ;
828 -> 829 ;
830 [label="gini = 0.0\nsamples = 3\nvalue = [0, 7]"] ;
829 -> 830 ;
831 [label="x[7] <= 1.963\ngini = 0.32\nsamples = 3\nvalue = [4, 1]"] ;
829 -> 831 ;
832 [label="gini = 0.0\nsamples = 1\nvalue = [1, 0]"] ;
831 -> 832 ;
833 [label="gini = 0.375\nsamples = 2\nvalue = [3, 1]"] ;
831 -> 833 ;
834 [label="x[57] <= 98.128\ngini = 0.32\nsamples = 13\nvalue = [16, 4]"] ;
828 -> 834 ;
835 [label="x[9] <= 1.963\ngini = 0.426\nsamples = 8\nvalue = [9, 4]"] ;
834 -> 835 ;
836 [label="x[9] <= 1.963\ngini = 0.375\nsamples = 7\nvalue = [9, 3]"] ;
835 -> 836 ;
837 [label="x[53] <= 764312.5\ngini = 0.469\nsamples = 5\nvalue = [5, 3]"] ;
836 -> 837 ;
838 [label="gini = 0.0\nsamples = 2\nvalue = [3, 0]"] ;
837 -> 838 ;
839 [label="x[45] <= 764309.219\ngini = 0.48\nsamples = 3\nvalue = [2, 3]"] ;
837 -> 839 ;
840 [label="gini = 0.0\nsamples = 1\nvalue = [0, 2]"] ;
839 -> 840 ;
841 [label="x[44] <= 1528620.938\ngini = 0.444\nsamples = 2\nvalue = [2, 1]"] ;
839 -> 841 ;
842 [label="gini = 0.0\nsamples = 1\nvalue = [2, 0]"] ;
841 -> 842 ;
843 [label="gini = 0.0\nsamples = 1\nvalue = [0, 1]"] ;
841 -> 843 ;
844 [label="gini = 0.0\nsamples = 2\nvalue = [4, 0]"] ;
836 -> 844 ;
845 [label="gini = 0.0\nsamples = 1\nvalue = [0, 1]"] ;
835 -> 845 ;
846 [label="gini = 0.0\nsamples = 5\nvalue = [7, 0]"] ;
834 -> 846 ;
847 [label="x[71] <= 1528597.5\ngini = 0.258\nsamples = 34\nvalue = [39, 7]"] ;
827 -> 847 ;
848 [label="x[68] <= 1528597.0\ngini = 0.366\nsamples = 21\nvalue = [22, 7]"] ;
847 -> 848 ;
849 [label="x[42] <= 764288.656\ngini = 0.337\nsamples = 20\nvalue = [22, 6]"] ;
848 -> 849 ;
850 [label="x[7] <= 1.963\ngini = 0.48\nsamples = 11\nvalue = [9, 6]"] ;
849 -> 850 ;
851 [label="gini = 0.0\nsamples = 4\nvalue = [0, 4]"] ;
850 -> 851 ;
852 [label="x[43] <= 764306.906\ngini = 0.298\nsamples = 7\nvalue = [9, 2]"] ;
850 -> 852 ;
853 [label="x[44] <= 1528591.625\ngini = 0.48\nsamples = 4\nvalue = [3, 2]"] ;
852 -> 853 ;
854 [label="x[57] <= 98.13\ngini = 0.444\nsamples = 3\nvalue = [1, 2]"] ;
853 -> 854 ;
855 [label="gini = 0.0\nsamples = 1\nvalue = [0, 1]"] ;
854 -> 855 ;
856 [label="x[43] <= 764304.906\ngini = 0.5\nsamples = 2\nvalue = [1, 1]"] ;
854 -> 856 ;
857 [label="gini = 0.0\nsamples = 1\nvalue = [1, 0]"] ;
856 -> 857 ;
858 [label="gini = 0.0\nsamples = 1\nvalue = [0, 1]"] ;
856 -> 858 ;
859 [label="gini = 0.0\nsamples = 1\nvalue = [2, 0]"] ;
853 -> 859 ;
860 [label="gini = 0.0\nsamples = 3\nvalue = [6, 0]"] ;
852 -> 860 ;
861 [label="gini = 0.0\nsamples = 9\nvalue = [13, 0]"] ;
849 -> 861 ;
862 [label="gini = 0.0\nsamples = 1\nvalue = [0, 1]"] ;
848 -> 862 ;
863 [label="gini = 0.0\nsamples = 13\nvalue = [17, 0]"] ;
847 -> 863 ;
864 [label="x[2] <= 1.529\ngini = 0.492\nsamples = 377\nvalue = [343, 266]"] ;
824 -> 864 ;
865 [label="x[55] <= 764309.0\ngini = 0.48\nsamples = 51\nvalue = [32, 48]"] ;
864 -> 865 ;
866 [label="x[45] <= 764307.75\ngini = 0.492\nsamples = 45\nvalue = [31, 40]"] ;
865 -> 866 ;
867 [label="x[43] <= 764318.0\ngini = 0.466\nsamples = 32\nvalue = [20, 34]"] ;
866 -> 867 ;
868 [label="gini = 0.0\nsamples = 3\nvalue = [0, 6]"] ;
867 -> 868 ;
869 [label="x[52] <= 764284.969\ngini = 0.486\nsamples = 29\nvalue = [20, 28]"] ;
867 -> 869 ;
870 [label="x[69] <= 1528607.375\ngini = 0.426\nsamples = 16\nvalue = [8, 18]"] ;
869 -> 870 ;
871 [label="x[56] <= 29.334\ngini = 0.494\nsamples = 5\nvalue = [5, 4]"] ;
870 -> 871 ;
872 [label="gini = 0.0\nsamples = 2\nvalue = [0, 3]"] ;
871 -> 872 ;
873 [label="x[9] <= 1.963\ngini = 0.278\nsamples = 3\nvalue = [5, 1]"] ;
871 -> 873 ;
874 [label="gini = 0.0\nsamples = 1\nvalue = [3, 0]"] ;
873 -> 874 ;
875 [label="x[53] <= 764325.5\ngini = 0.444\nsamples = 2\nvalue = [2, 1]"] ;
873 -> 875 ;
876 [label="gini = 0.0\nsamples = 1\nvalue = [2, 0]"] ;
875 -> 876 ;
877 [label="gini = 0.0\nsamples = 1\nvalue = [0, 1]"] ;
875 -> 877 ;
878 [label="x[68] <= 1528612.5\ngini = 0.291\nsamples = 11\nvalue = [3, 14]"] ;
870 -> 878 ;
879 [label="gini = 0.0\nsamples = 4\nvalue = [0, 5]"] ;
878 -> 879 ;
880 [label="x[42] <= 764278.531\ngini = 0.375\nsamples = 7\nvalue = [3, 9]"] ;
878 -> 880 ;
881 [label="gini = 0.0\nsamples = 1\nvalue = [0, 2]"] ;
880 -> 881 ;
882 [label="x[56] <= 37.511\ngini = 0.42\nsamples = 6\nvalue = [3, 7]"] ;
880 -> 882 ;
883 [label="x[46] <= 34.729\ngini = 0.346\nsamples = 5\nvalue = [2, 7]"] ;
882 -> 883 ;
884 [label="x[57] <= 98.128\ngini = 0.444\nsamples = 4\nvalue = [2, 4]"] ;
883 -> 884 ;
885 [label="x[43] <= 764330.531\ngini = 0.48\nsamples = 3\nvalue = [2, 3]"] ;
884 -> 885 ;
886 [label="gini = 0.0\nsamples = 1\nvalue = [1, 0]"] ;
885 -> 886 ;
887 [label="gini = 0.375\nsamples = 2\nvalue = [1, 3]"] ;
885 -> 887 ;
888 [label="gini = 0.0\nsamples = 1\nvalue = [0, 1]"] ;
884 -> 888 ;
889 [label="gini = 0.0\nsamples = 1\nvalue = [0, 3]"] ;
883 -> 889 ;
890 [label="gini = 0.0\nsamples = 1\nvalue = [1, 0]"] ;
882 -> 890 ;
891 [label="x[46] <= 26.553\ngini = 0.496\nsamples = 13\nvalue = [12, 10]"] ;
869 -> 891 ;
892 [label="x[68] <= 1528609.5\ngini = 0.469\nsamples = 10\nvalue = [6, 10]"] ;
891 -> 892 ;
893 [label="gini = 0.0\nsamples = 4\nvalue = [5, 0]"] ;
892 -> 893 ;
894 [label="x[55] <= 764306.969\ngini = 0.165\nsamples = 6\nvalue = [1, 10]"] ;
892 -> 894 ;
895 [label="gini = 0.0\nsamples = 5\nvalue = [0, 10]"] ;
894 -> 895 ;
896 [label="gini = 0.0\nsamples = 1\nvalue = [1, 0]"] ;
894 -> 896 ;
897 [label="gini = 0.0\nsamples = 3\nvalue = [6, 0]"] ;
891 -> 897 ;
898 [label="x[46] <= 17.702\ngini = 0.457\nsamples = 13\nvalue = [11, 6]"] ;
866 -> 898 ;
899 [label="gini = 0.0\nsamples = 2\nvalue = [0, 2]"] ;
898 -> 899 ;
900 [label="x[54] <= 1528617.5\ngini = 0.391\nsamples = 11\nvalue = [11, 4]"] ;
898 -> 900 ;
901 [label="x[44] <= 1528616.438\ngini = 0.426\nsamples = 10\nvalue = [9, 4]"] ;
900 -> 901 ;
902 [label="x[53] <= 764329.438\ngini = 0.375\nsamples = 6\nvalue = [6, 2]"] ;
901 -> 902 ;
903 [label="gini = 0.0\nsamples = 2\nvalue = [3, 0]"] ;
902 -> 903 ;
904 [label="x[43] <= 764333.0\ngini = 0.48\nsamples = 4\nvalue = [3, 2]"] ;
902 -> 904 ;
905 [label="gini = 0.0\nsamples = 2\nvalue = [0, 2]"] ;
904 -> 905 ;
906 [label="gini = 0.0\nsamples = 2\nvalue = [3, 0]"] ;
904 -> 906 ;
907 [label="x[71] <= 1528617.0\ngini = 0.48\nsamples = 4\nvalue = [3, 2]"] ;
901 -> 907 ;
908 [label="gini = 0.5\nsamples = 2\nvalue = [1, 1]"] ;
907 -> 908 ;
909 [label="x[53] <= 764330.5\ngini = 0.444\nsamples = 2\nvalue = [2, 1]"] ;
907 -> 909 ;
910 [label="gini = 0.0\nsamples = 1\nvalue = [0, 1]"] ;
909 -> 910 ;
911 [label="gini = 0.0\nsamples = 1\nvalue = [2, 0]"] ;
909 -> 911 ;
912 [label="gini = 0.0\nsamples = 1\nvalue = [2, 0]"] ;
900 -> 912 ;
913 [label="x[55] <= 764309.281\ngini = 0.198\nsamples = 6\nvalue = [1, 8]"] ;
865 -> 913 ;
914 [label="gini = 0.0\nsamples = 1\nvalue = [0, 1]"] ;
913 -> 914 ;
915 [label="x[56] <= 16.353\ngini = 0.219\nsamples = 5\nvalue = [1, 7]"] ;
913 -> 915 ;
916 [label="gini = 0.0\nsamples = 3\nvalue = [0, 6]"] ;
915 -> 916 ;
917 [label="x[56] <= 24.782\ngini = 0.5\nsamples = 2\nvalue = [1, 1]"] ;
915 -> 917 ;
918 [label="gini = 0.0\nsamples = 1\nvalue = [1, 0]"] ;
917 -> 918 ;
919 [label="gini = 0.0\nsamples = 1\nvalue = [0, 1]"] ;
917 -> 919 ;
920 [label="x[53] <= 764363.531\ngini = 0.485\nsamples = 326\nvalue = [311, 218]"] ;
864 -> 920 ;
921 [label="x[56] <= 28.913\ngini = 0.468\nsamples = 241\nvalue = [246, 147]"] ;
920 -> 921 ;
922 [label="x[69] <= 1528670.438\ngini = 0.49\nsamples = 166\nvalue = [156, 118]"] ;
921 -> 922 ;
923 [label="x[43] <= 764331.0\ngini = 0.496\nsamples = 145\nvalue = [129, 109]"] ;
922 -> 923 ;
924 [label="x[56] <= 12.054\ngini = 0.464\nsamples = 61\nvalue = [59, 34]"] ;
923 -> 924 ;
925 [label="x[2] <= 1.529\ngini = 0.5\nsamples = 37\nvalue = [26, 27]"] ;
924 -> 925 ;
926 [label="gini = 0.0\nsamples = 2\nvalue = [0, 3]"] ;
925 -> 926 ;
927 [label="x[54] <= 1528631.438\ngini = 0.499\nsamples = 35\nvalue = [26, 24]"] ;
925 -> 927 ;
928 [label="x[57] <= 98.127\ngini = 0.355\nsamples = 8\nvalue = [10, 3]"] ;
927 -> 928 ;
929 [label="gini = 0.0\nsamples = 3\nvalue = [6, 0]"] ;
928 -> 929 ;
930 [label="x[71] <= 1528625.562\ngini = 0.49\nsamples = 5\nvalue = [4, 3]"] ;
928 -> 930 ;
931 [label="gini = 0.0\nsamples = 3\nvalue = [4, 0]"] ;
930 -> 931 ;
932 [label="gini = 0.0\nsamples = 2\nvalue = [0, 3]"] ;
930 -> 932 ;
933 [label="x[68] <= 1528633.0\ngini = 0.491\nsamples = 27\nvalue = [16, 21]"] ;
927 -> 933 ;
934 [label="gini = 0.0\nsamples = 3\nvalue = [0, 5]"] ;
933 -> 934 ;
935 [label="x[54] <= 1528651.5\ngini = 0.5\nsamples = 24\nvalue = [16, 16]"] ;
933 -> 935 ;
936 [label="x[53] <= 764320.5\ngini = 0.498\nsamples = 22\nvalue = [16, 14]"] ;
935 -> 936 ;
937 [label="gini = 0.0\nsamples = 3\nvalue = [0, 3]"] ;
936 -> 937 ;
938 [label="x[53] <= 764327.531\ngini = 0.483\nsamples = 19\nvalue = [16, 11]"] ;
936 -> 938 ;
939 [label="x[70] <= 1528643.062\ngini = 0.388\nsamples = 13\nvalue = [14, 5]"] ;
938 -> 939 ;
940 [label="x[55] <= 764318.219\ngini = 0.278\nsamples = 8\nvalue = [10, 2]"] ;
939 -> 940 ;
941 [label="x[55] <= 764317.281\ngini = 0.5\nsamples = 3\nvalue = [2, 2]"] ;
940 -> 941 ;
942 [label="gini = 0.0\nsamples = 2\nvalue = [2, 0]"] ;
941 -> 942 ;
943 [label="gini = 0.0\nsamples = 1\nvalue = [0, 2]"] ;
941 -> 943 ;
944 [label="gini = 0.0\nsamples = 5\nvalue = [8, 0]"] ;
940 -> 944 ;
945 [label="x[7] <= 1.963\ngini = 0.49\nsamples = 5\nvalue = [4, 3]"] ;
939 -> 945 ;
946 [label="gini = 0.0\nsamples = 2\nvalue = [3, 0]"] ;
945 -> 946 ;
947 [label="x[46] <= 3.625\ngini = 0.375\nsamples = 3\nvalue = [1, 3]"] ;
945 -> 947 ;
948 [label="x[57] <= 98.126\ngini = 0.5\nsamples = 2\nvalue = [1, 1]"] ;
947 -> 948 ;
949 [label="gini = 0.0\nsamples = 1\nvalue = [1, 0]"] ;
948 -> 949 ;
950 [label="gini = 0.0\nsamples = 1\nvalue = [0, 1]"] ;
948 -> 950 ;
951 [label="gini = 0.0\nsamples = 1\nvalue = [0, 2]"] ;
947 -> 951 ;
952 [label="x[69] <= 1528647.062\ngini = 0.375\nsamples = 6\nvalue = [2, 6]"] ;
938 -> 952 ;
953 [label="gini = 0.0\nsamples = 4\nvalue = [0, 6]"] ;
952 -> 953 ;
954 [label="gini = 0.0\nsamples = 2\nvalue = [2, 0]"] ;
952 -> 954 ;
955 [label="gini = 0.0\nsamples = 2\nvalue = [0, 2]"] ;
935 -> 955 ;
956 [label="x[52] <= 764294.031\ngini = 0.289\nsamples = 24\nvalue = [33, 7]"] ;
924 -> 956 ;
957 [label="gini = 0.0\nsamples = 1\nvalue = [0, 2]"] ;
956 -> 957 ;
958 [label="x[54] <= 1528624.5\ngini = 0.229\nsamples = 23\nvalue = [33, 5]"] ;
956 -> 958 ;
959 [label="x[70] <= 1528623.5\ngini = 0.42\nsamples = 7\nvalue = [7, 3]"] ;
958 -> 959 ;
960 [label="gini = 0.0\nsamples = 3\nvalue = [4, 0]"] ;
959 -> 960 ;
961 [label="x[71] <= 1528623.938\ngini = 0.5\nsamples = 4\nvalue = [3, 3]"] ;
959 -> 961 ;
962 [label="gini = 0.0\nsamples = 1\nvalue = [0, 1]"] ;
961 -> 962 ;
963 [label="x[42] <= 764296.531\ngini = 0.48\nsamples = 3\nvalue = [3, 2]"] ;
961 -> 963 ;
964 [label="gini = 0.0\nsamples = 2\nvalue = [3, 0]"] ;
963 -> 964 ;
965 [label="gini = 0.0\nsamples = 1\nvalue = [0, 2]"] ;
963 -> 965 ;
966 [label="x[44] <= 1528634.562\ngini = 0.133\nsamples = 16\nvalue = [26, 2]"] ;
958 -> 966 ;
967 [label="x[2] <= 1.529\ngini = 0.18\nsamples = 14\nvalue = [18, 2]"] ;
966 -> 967 ;
968 [label="x[57] <= 98.127\ngini = 0.105\nsamples = 12\nvalue = [17, 1]"] ;
967 -> 968 ;
969 [label="gini = 0.0\nsamples = 6\nvalue = [11, 0]"] ;
968 -> 969 ;
970 [label="x[52] <= 764302.594\ngini = 0.245\nsamples = 6\nvalue = [6, 1]"] ;
968 -> 970 ;
971 [label="gini = 0.0\nsamples = 5\nvalue = [6, 0]"] ;
970 -> 971 ;
972 [label="gini = 0.0\nsamples = 1\nvalue = [0, 1]"] ;
970 -> 972 ;
973 [label="x[44] <= 1528634.0\ngini = 0.5\nsamples = 2\nvalue = [1, 1]"] ;
967 -> 973 ;
974 [label="gini = 0.0\nsamples = 1\nvalue = [1, 0]"] ;
973 -> 974 ;
975 [label="gini = 0.0\nsamples = 1\nvalue = [0, 1]"] ;
973 -> 975 ;
976 [label="gini = 0.0\nsamples = 2\nvalue = [8, 0]"] ;
966 -> 976 ;
977 [label="x[52] <= 764296.062\ngini = 0.499\nsamples = 84\nvalue = [70, 75]"] ;
923 -> 977 ;
978 [label="gini = 0.0\nsamples = 5\nvalue = [0, 10]"] ;
977 -> 978 ;
979 [label="x[9] <= 1.962\ngini = 0.499\nsamples = 79\nvalue = [70, 65]"] ;
977 -> 979 ;
980 [label="x[42] <= 764320.344\ngini = 0.245\nsamples = 7\nvalue = [2, 12]"] ;
979 -> 980 ;
981 [label="x[43] <= 764353.031\ngini = 0.5\nsamples = 2\nvalue = [1, 1]"] ;
980 -> 981 ;
982 [label="gini = 0.0\nsamples = 1\nvalue = [1, 0]"] ;
981 -> 982 ;
983 [label="gini = 0.0\nsamples = 1\nvalue = [0, 1]"] ;
981 -> 983 ;
984 [label="x[55] <= 764334.25\ngini = 0.153\nsamples = 5\nvalue = [1, 11]"] ;
980 -> 984 ;
985 [label="gini = 0.0\nsamples = 2\nvalue = [0, 5]"] ;
984 -> 985 ;
986 [label="x[53] <= 764342.438\ngini = 0.245\nsamples = 3\nvalue = [1, 6]"] ;
984 -> 986 ;
987 [label="x[42] <= 764328.969\ngini = 0.444\nsamples = 2\nvalue = [1, 2]"] ;
986 -> 987 ;
988 [label="gini = 0.0\nsamples = 1\nvalue = [1, 0]"] ;
987 -> 988 ;
989 [label="gini = 0.0\nsamples = 1\nvalue = [0, 2]"] ;
987 -> 989 ;
990 [label="gini = 0.0\nsamples = 1\nvalue = [0, 4]"] ;
986 -> 990 ;
991 [label="x[55] <= 764330.75\ngini = 0.492\nsamples = 72\nvalue = [68, 53]"] ;
979 -> 991 ;
992 [label="x[52] <= 764322.875\ngini = 0.5\nsamples = 54\nvalue = [47, 46]"] ;
991 -> 992 ;
993 [label="x[53] <= 764334.438\ngini = 0.494\nsamples = 49\nvalue = [46, 37]"] ;
992 -> 993 ;
994 [label="x[7] <= 1.963\ngini = 0.386\nsamples = 13\nvalue = [17, 6]"] ;
993 -> 994 ;
995 [label="gini = 0.0\nsamples = 3\nvalue = [5, 0]"] ;
994 -> 995 ;
996 [label="x[54] <= 1528642.062\ngini = 0.444\nsamples = 10\nvalue = [12, 6]"] ;
994 -> 996 ;
997 [label="x[54] <= 1528632.062\ngini = 0.278\nsamples = 6\nvalue = [10, 2]"] ;
996 -> 997 ;
998 [label="gini = 0.0\nsamples = 1\nvalue = [4, 0]"] ;
997 -> 998 ;
999 [label="x[69] <= 1528635.0\ngini = 0.375\nsamples = 5\nvalue = [6, 2]"] ;
997 -> 999 ;
1000 [label="gini = 0.0\nsamples = 1\nvalue = [0, 1]"] ;
999 -> 1000 ;
1001 [label="x[42] <= 764305.125\ngini = 0.245\nsamples = 4\nvalue = [6, 1]"] ;
999 -> 1001 ;
1002 [label="gini = 0.0\nsamples = 2\nvalue = [4, 0]"] ;
1001 -> 1002 ;
1003 [label="x[46] <= 16.69\ngini = 0.444\nsamples = 2\nvalue = [2, 1]"] ;
1001 -> 1003 ;
1004 [label="gini = 0.0\nsamples = 1\nvalue = [2, 0]"] ;
1003 -> 1004 ;
1005 [label="gini = 0.0\nsamples = 1\nvalue = [0, 1]"] ;
1003 -> 1005 ;
1006 [label="x[53] <= 764333.469\ngini = 0.444\nsamples = 4\nvalue = [2, 4]"] ;
996 -> 1006 ;
1007 [label="gini = 0.0\nsamples = 2\nvalue = [0, 4]"] ;
1006 -> 1007 ;
1008 [label="gini = 0.0\nsamples = 2\nvalue = [2, 0]"] ;
1006 -> 1008 ;
1009 [label="x[45] <= 764316.75\ngini = 0.499\nsamples = 36\nvalue = [29, 31]"] ;
993 -> 1009 ;
1010 [label="gini = 0.0\nsamples = 1\nvalue = [0, 2]"] ;
1009 -> 1010 ;
1011 [label="x[9] <= 1.963\ngini = 0.5\nsamples = 35\nvalue = [29, 29]"] ;
1009 -> 1011 ;
1012 [label="x[43] <= 764348.406\ngini = 0.497\nsamples = 34\nvalue = [25, 29]"] ;
1011 -> 1012 ;
1013 [label="x[43] <= 764346.938\ngini = 0.487\nsamples = 32\nvalue = [21, 29]"] ;
1012 -> 1013 ;
1014 [label="x[45] <= 764317.969\ngini = 0.496\nsamples = 30\nvalue = [21, 25]"] ;
1013 -> 1014 ;
1015 [label="gini = 0.0\nsamples = 1\nvalue = [0, 3]"] ;
1014 -> 1015 ;
1016 [label="x[68] <= 1528639.875\ngini = 0.5\nsamples = 29\nvalue = [21, 22]"] ;
1014 -> 1016 ;
1017 [label="gini = 0.0\nsamples = 3\nvalue = [4, 0]"] ;
1016 -> 1017 ;
1018 [label="x[57] <= 98.126\ngini = 0.492\nsamples = 26\nvalue = [17, 22]"] ;
1016 -> 1018 ;
1019 [label="x[56] <= 24.445\ngini = 0.497\nsamples = 17\nvalue = [14, 12]"] ;
1018 -> 1019 ;
1020 [label="x[71] <= 1528652.562\ngini = 0.496\nsamples = 14\nvalue = [10, 12]"] ;
1019 -> 1020 ;
1021 [label="gini = 0.0\nsamples = 2\nvalue = [4, 0]"] ;
1020 -> 1021 ;
1022 [label="x[46] <= 13.15\ngini = 0.444\nsamples = 12\nvalue = [6, 12]"] ;
1020 -> 1022 ;
1023 [label="gini = 0.0\nsamples = 2\nvalue = [3, 0]"] ;
1022 -> 1023 ;
1024 [label="x[68] <= 1528654.938\ngini = 0.32\nsamples = 10\nvalue = [3, 12]"] ;
1022 -> 1024 ;
1025 [label="gini = 0.0\nsamples = 4\nvalue = [0, 6]"] ;
1024 -> 1025 ;
1026 [label="x[70] <= 1528658.438\ngini = 0.444\nsamples = 6\nvalue = [3, 6]"] ;
1024 -> 1026 ;
1027 [label="x[44] <= 1528655.5\ngini = 0.48\nsamples = 5\nvalue = [3, 2]"] ;
1026 -> 1027 ;
1028 [label="x[53] <= 764341.0\ngini = 0.444\nsamples = 3\nvalue = [1, 2]"] ;
1027 -> 1028 ;
1029 [label="gini = 0.0\nsamples = 1\nvalue = [0, 1]"] ;
1028 -> 1029 ;
1030 [label="x[42] <= 764312.5\ngini = 0.5\nsamples = 2\nvalue = [1, 1]"] ;
1028 -> 1030 ;
1031 [label="gini = 0.0\nsamples = 1\nvalue = [0, 1]"] ;
1030 -> 1031 ;
1032 [label="gini = 0.0\nsamples = 1\nvalue = [1, 0]"] ;
1030 -> 1032 ;
1033 [label="gini = 0.0\nsamples = 2\nvalue = [2, 0]"] ;
1027 -> 1033 ;
1034 [label="gini = 0.0\nsamples = 1\nvalue = [0, 4]"] ;
1026 -> 1034 ;
1035 [label="gini = 0.0\nsamples = 3\nvalue = [4, 0]"] ;
1019 -> 1035 ;
1036 [label="x[7] <= 1.963\ngini = 0.355\nsamples = 9\nvalue = [3, 10]"] ;
1018 -> 1036 ;
1037 [label="x[44] <= 1528649.562\ngini = 0.198\nsamples = 6\nvalue = [1, 8]"] ;
1036 -> 1037 ;
1038 [label="gini = 0.0\nsamples = 3\nvalue = [0, 4]"] ;
1037 -> 1038 ;
1039 [label="x[56] <= 20.568\ngini = 0.32\nsamples = 3\nvalue = [1, 4]"] ;
1037 -> 1039 ;
1040 [label="gini = 0.0\nsamples = 1\nvalue = [0, 3]"] ;
1039 -> 1040 ;
1041 [label="x[42] <= 764307.625\ngini = 0.5\nsamples = 2\nvalue = [1, 1]"] ;
1039 -> 1041 ;
1042 [label="gini = 0.0\nsamples = 1\nvalue = [0, 1]"] ;
1041 -> 1042 ;
1043 [label="gini = 0.0\nsamples = 1\nvalue = [1, 0]"] ;
1041 -> 1043 ;
1044 [label="x[45] <= 764320.25\ngini = 0.5\nsamples = 3\nvalue = [2, 2]"] ;
1036 -> 1044 ;
1045 [label="gini = 0.0\nsamples = 1\nvalue = [0, 2]"] ;
1044 -> 1045 ;
1046 [label="gini = 0.0\nsamples = 2\nvalue = [2, 0]"] ;
1044 -> 1046 ;
1047 [label="gini = 0.0\nsamples = 2\nvalue = [0, 4]"] ;
1013 -> 1047 ;
1048 [label="gini = 0.0\nsamples = 2\nvalue = [4, 0]"] ;
1012 -> 1048 ;
1049 [label="gini = 0.0\nsamples = 1\nvalue = [4, 0]"] ;
1011 -> 1049 ;
1050 [label="x[7] <= 1.963\ngini = 0.18\nsamples = 5\nvalue = [1, 9]"] ;
992 -> 1050 ;
1051 [label="x[43] <= 764334.438\ngini = 0.219\nsamples = 4\nvalue = [1, 7]"] ;
1050 -> 1051 ;
1052 [label="gini = 0.0\nsamples = 2\nvalue = [0, 5]"] ;
1051 -> 1052 ;
1053 [label="gini = 0.444\nsamples = 2\nvalue = [1, 2]"] ;
1051 -> 1053 ;
1054 [label="gini = 0.0\nsamples = 1\nvalue = [0, 2]"] ;
1050 -> 1054 ;
1055 [label="x[57] <= 98.125\ngini = 0.375\nsamples = 18\nvalue = [21, 7]"] ;
991 -> 1055 ;
1056 [label="gini = 0.0\nsamples = 1\nvalue = [0, 2]"] ;
1055 -> 1056 ;
1057 [label="x[46] <= 25.71\ngini = 0.311\nsamples = 17\nvalue = [21, 5]"] ;
1055 -> 1057 ;
1058 [label="x[54] <= 1528663.5\ngini = 0.245\nsamples = 13\nvalue = [18, 3]"] ;
1057 -> 1058 ;
1059 [label="gini = 0.0\nsamples = 7\nvalue = [11, 0]"] ;
1058 -> 1059 ;
1060 [label="x[9] <= 1.962\ngini = 0.42\nsamples = 6\nvalue = [7, 3]"] ;
1058 -> 1060 ;
1061 [label="gini = 0.0\nsamples = 3\nvalue = [6, 0]"] ;
1060 -> 1061 ;
1062 [label="x[69] <= 1528664.0\ngini = 0.375\nsamples = 3\nvalue = [1, 3]"] ;
1060 -> 1062 ;
1063 [label="gini = 0.0\nsamples = 1\nvalue = [0, 1]"] ;
1062 -> 1063 ;
1064 [label="gini = 0.444\nsamples = 2\nvalue = [1, 2]"] ;
1062 -> 1064 ;
1065 [label="x[9] <= 1.962\ngini = 0.48\nsamples = 4\nvalue = [3, 2]"] ;
1057 -> 1065 ;
1066 [label="x[53] <= 764352.469\ngini = 0.375\nsamples = 3\nvalue = [3, 1]"] ;
1065 -> 1066 ;
1067 [label="gini = 0.0\nsamples = 1\nvalue = [0, 1]"] ;
1066 -> 1067 ;
1068 [label="gini = 0.0\nsamples = 2\nvalue = [3, 0]"] ;
1066 -> 1068 ;
1069 [label="gini = 0.0\nsamples = 1\nvalue = [0, 1]"] ;
1065 -> 1069 ;
1070 [label="x[53] <= 764359.0\ngini = 0.375\nsamples = 21\nvalue = [27, 9]"] ;
922 -> 1070 ;
1071 [label="x[55] <= 764338.562\ngini = 0.327\nsamples = 20\nvalue = [27, 7]"] ;
1070 -> 1071 ;
1072 [label="x[56] <= 19.135\ngini = 0.444\nsamples = 11\nvalue = [12, 6]"] ;
1071 -> 1072 ;
1073 [label="x[46] <= 9.019\ngini = 0.153\nsamples = 6\nvalue = [11, 1]"] ;
1072 -> 1073 ;
1074 [label="x[57] <= 98.124\ngini = 0.444\nsamples = 2\nvalue = [2, 1]"] ;
1073 -> 1074 ;
1075 [label="gini = 0.0\nsamples = 1\nvalue = [0, 1]"] ;
1074 -> 1075 ;
1076 [label="gini = 0.0\nsamples = 1\nvalue = [2, 0]"] ;
1074 -> 1076 ;
1077 [label="gini = 0.0\nsamples = 4\nvalue = [9, 0]"] ;
1073 -> 1077 ;
1078 [label="x[70] <= 1528674.5\ngini = 0.278\nsamples = 5\nvalue = [1, 5]"] ;
1072 -> 1078 ;
1079 [label="gini = 0.0\nsamples = 1\nvalue = [1, 0]"] ;
1078 -> 1079 ;
1080 [label="gini = 0.0\nsamples = 4\nvalue = [0, 5]"] ;
1078 -> 1080 ;
1081 [label="x[70] <= 1528680.0\ngini = 0.117\nsamples = 9\nvalue = [15, 1]"] ;
1071 -> 1081 ;
1082 [label="gini = 0.0\nsamples = 5\nvalue = [8, 0]"] ;
1081 -> 1082 ;
1083 [label="x[43] <= 764346.594\ngini = 0.219\nsamples = 4\nvalue = [7, 1]"] ;
1081 -> 1083 ;
1084 [label="gini = 0.0\nsamples = 1\nvalue = [0, 1]"] ;
1083 -> 1084 ;
1085 [label="gini = 0.0\nsamples = 3\nvalue = [7, 0]"] ;
1083 -> 1085 ;
1086 [label="gini = 0.0\nsamples = 1\nvalue = [0, 2]"] ;
1070 -> 1086 ;
1087 [label="x[55] <= 764320.812\ngini = 0.369\nsamples = 75\nvalue = [90, 29]"] ;
921 -> 1087 ;
1088 [label="x[68] <= 1528636.562\ngini = 0.223\nsamples = 32\nvalue = [41, 6]"] ;
1087 -> 1088 ;
1089 [label="x[46] <= 52.515\ngini = 0.26\nsamples = 27\nvalue = [33, 6]"] ;
1088 -> 1089 ;
1090 [label="x[54] <= 1528636.125\ngini = 0.198\nsamples = 25\nvalue = [32, 4]"] ;
1089 -> 1090 ;
1091 [label="x[56] <= 41.725\ngini = 0.157\nsamples = 24\nvalue = [32, 3]"] ;
1090 -> 1091 ;
1092 [label="x[69] <= 1528631.062\ngini = 0.211\nsamples = 18\nvalue = [22, 3]"] ;
1091 -> 1092 ;
1093 [label="x[2] <= 1.529\ngini = 0.291\nsamples = 13\nvalue = [14, 3]"] ;
1092 -> 1093 ;
1094 [label="x[70] <= 1528627.375\ngini = 0.219\nsamples = 12\nvalue = [14, 2]"] ;
1093 -> 1094 ;
1095 [label="x[45] <= 764310.25\ngini = 0.142\nsamples = 9\nvalue = [12, 1]"] ;
1094 -> 1095 ;
1096 [label="x[42] <= 764287.469\ngini = 0.375\nsamples = 3\nvalue = [3, 1]"] ;
1095 -> 1096 ;
1097 [label="gini = 0.5\nsamples = 2\nvalue = [1, 1]"] ;
1096 -> 1097 ;
1098 [label="gini = 0.0\nsamples = 1\nvalue = [2, 0]"] ;
1096 -> 1098 ;
1099 [label="gini = 0.0\nsamples = 6\nvalue = [9, 0]"] ;
1095 -> 1099 ;
1100 [label="x[68] <= 1528628.0\ngini = 0.444\nsamples = 3\nvalue = [2, 1]"] ;
1094 -> 1100 ;
1101 [label="gini = 0.0\nsamples = 1\nvalue = [0, 1]"] ;
1100 -> 1101 ;
1102 [label="gini = 0.0\nsamples = 2\nvalue = [2, 0]"] ;
1100 -> 1102 ;
1103 [label="gini = 0.0\nsamples = 1\nvalue = [0, 1]"] ;
1093 -> 1103 ;
1104 [label="gini = 0.0\nsamples = 5\nvalue = [8, 0]"] ;
1092 -> 1104 ;
1105 [label="gini = 0.0\nsamples = 6\nvalue = [10, 0]"] ;
1091 -> 1105 ;
1106 [label="gini = 0.0\nsamples = 1\nvalue = [0, 1]"] ;
1090 -> 1106 ;
1107 [label="gini = 0.444\nsamples = 2\nvalue = [1, 2]"] ;
1089 -> 1107 ;
1108 [label="gini = 0.0\nsamples = 5\nvalue = [8, 0]"] ;
1088 -> 1108 ;
1109 [label="x[56] <= 35.066\ngini = 0.435\nsamples = 43\nvalue = [49, 23]"] ;
1087 -> 1109 ;
1110 [label="x[9] <= 1.962\ngini = 0.147\nsamples = 16\nvalue = [23, 2]"] ;
1109 -> 1110 ;
1111 [label="gini = 0.0\nsamples = 7\nvalue = [13, 0]"] ;
1110 -> 1111 ;
1112 [label="x[44] <= 1528661.625\ngini = 0.278\nsamples = 9\nvalue = [10, 2]"] ;
1110 -> 1112 ;
1113 [label="gini = 0.0\nsamples = 8\nvalue = [10, 0]"] ;
1112 -> 1113 ;
1114 [label="gini = 0.0\nsamples = 1\nvalue = [0, 2]"] ;
1112 -> 1114 ;
1115 [label="x[55] <= 764321.219\ngini = 0.494\nsamples = 27\nvalue = [26, 21]"] ;
1109 -> 1115 ;
1116 [label="gini = 0.0\nsamples = 2\nvalue = [0, 3]"] ;
1115 -> 1116 ;
1117 [label="x[57] <= 98.126\ngini = 0.483\nsamples = 25\nvalue = [26, 18]"] ;
1115 -> 1117 ;
1118 [label="x[55] <= 764323.75\ngini = 0.495\nsamples = 24\nvalue = [22, 18]"] ;
1117 -> 1118 ;
1119 [label="x[45] <= 764322.031\ngini = 0.346\nsamples = 7\nvalue = [2, 7]"] ;
1118 -> 1119 ;
1120 [label="x[46] <= 52.262\ngini = 0.48\nsamples = 3\nvalue = [2, 3]"] ;
1119 -> 1120 ;
1121 [label="x[53] <= 764351.0\ngini = 0.444\nsamples = 2\nvalue = [2, 1]"] ;
1120 -> 1121 ;
1122 [label="gini = 0.0\nsamples = 1\nvalue = [0, 1]"] ;
1121 -> 1122 ;
1123 [label="gini = 0.0\nsamples = 1\nvalue = [2, 0]"] ;
1121 -> 1123 ;
1124 [label="gini = 0.0\nsamples = 1\nvalue = [0, 2]"] ;
1120 -> 1124 ;
1125 [label="gini = 0.0\nsamples = 4\nvalue = [0, 4]"] ;
1119 -> 1125 ;
1126 [label="x[70] <= 1528665.062\ngini = 0.458\nsamples = 17\nvalue = [20, 11]"] ;
1118 -> 1126 ;
1127 [label="x[52] <= 764297.0\ngini = 0.428\nsamples = 16\nvalue = [20, 9]"] ;
1126 -> 1127 ;
1128 [label="x[54] <= 1528648.5\ngini = 0.153\nsamples = 8\nvalue = [11, 1]"] ;
1127 -> 1128 ;
1129 [label="gini = 0.0\nsamples = 2\nvalue = [5, 0]"] ;
1128 -> 1129 ;
1130 [label="x[69] <= 1528649.438\ngini = 0.245\nsamples = 6\nvalue = [6, 1]"] ;
1128 -> 1130 ;
1131 [label="gini = 0.5\nsamples = 2\nvalue = [1, 1]"] ;
1130 -> 1131 ;
1132 [label="gini = 0.0\nsamples = 4\nvalue = [5, 0]"] ;
1130 -> 1132 ;
1133 [label="x[56] <= 40.714\ngini = 0.498\nsamples = 8\nvalue = [9, 8]"] ;
1127 -> 1133 ;
1134 [label="x[69] <= 1528653.625\ngini = 0.444\nsamples = 6\nvalue = [4, 8]"] ;
1133 -> 1134 ;
1135 [label="gini = 0.0\nsamples = 3\nvalue = [0, 6]"] ;
1134 -> 1135 ;
1136 [label="x[44] <= 1528656.125\ngini = 0.444\nsamples = 3\nvalue = [4, 2]"] ;
1134 -> 1136 ;
1137 [label="gini = 0.0\nsamples = 1\nvalue = [4, 0]"] ;
1136 -> 1137 ;
1138 [label="gini = 0.0\nsamples = 2\nvalue = [0, 2]"] ;
1136 -> 1138 ;
1139 [label="gini = 0.0\nsamples = 2\nvalue = [5, 0]"] ;
1133 -> 1139 ;
1140 [label="gini = 0.0\nsamples = 1\nvalue = [0, 2]"] ;
1126 -> 1140 ;
1141 [label="gini = 0.0\nsamples = 1\nvalue = [4, 0]"] ;
1117 -> 1141 ;
1142 [label="x[54] <= 1528661.5\ngini = 0.499\nsamples = 85\nvalue = [65, 71]"] ;
920 -> 1142 ;
1143 [label="x[56] <= 52.262\ngini = 0.461\nsamples = 26\nvalue = [18, 32]"] ;
1142 -> 1143 ;
1144 [label="x[56] <= 47.71\ngini = 0.219\nsamples = 5\nvalue = [2, 14]"] ;
1143 -> 1144 ;
1145 [label="gini = 0.0\nsamples = 1\nvalue = [2, 0]"] ;
1144 -> 1145 ;
1146 [label="gini = 0.0\nsamples = 4\nvalue = [0, 14]"] ;
1144 -> 1146 ;
1147 [label="x[56] <= 53.695\ngini = 0.498\nsamples = 21\nvalue = [16, 18]"] ;
1143 -> 1147 ;
1148 [label="gini = 0.0\nsamples = 2\nvalue = [3, 0]"] ;
1147 -> 1148 ;
1149 [label="x[55] <= 764329.0\ngini = 0.487\nsamples = 19\nvalue = [13, 18]"] ;
1147 -> 1149 ;
1150 [label="x[44] <= 1528656.5\ngini = 0.499\nsamples = 11\nvalue = [10, 9]"] ;
1149 -> 1150 ;
1151 [label="x[52] <= 764283.406\ngini = 0.397\nsamples = 7\nvalue = [3, 8]"] ;
1150 -> 1151 ;
1152 [label="gini = 0.0\nsamples = 4\nvalue = [0, 5]"] ;
1151 -> 1152 ;
1153 [label="x[71] <= 1528652.562\ngini = 0.5\nsamples = 3\nvalue = [3, 3]"] ;
1151 -> 1153 ;
1154 [label="gini = 0.0\nsamples = 2\nvalue = [3, 0]"] ;
1153 -> 1154 ;
1155 [label="gini = 0.0\nsamples = 1\nvalue = [0, 3]"] ;
1153 -> 1155 ;
1156 [label="x[69] <= 1528657.562\ngini = 0.219\nsamples = 4\nvalue = [7, 1]"] ;
1150 -> 1156 ;
1157 [label="x[69] <= 1528657.125\ngini = 0.444\nsamples = 2\nvalue = [2, 1]"] ;
1156 -> 1157 ;
1158 [label="gini = 0.0\nsamples = 1\nvalue = [2, 0]"] ;
1157 -> 1158 ;
1159 [label="gini = 0.0\nsamples = 1\nvalue = [0, 1]"] ;
1157 -> 1159 ;
1160 [label="gini = 0.0\nsamples = 2\nvalue = [5, 0]"] ;
1156 -> 1160 ;
1161 [label="x[70] <= 1528659.062\ngini = 0.375\nsamples = 8\nvalue = [3, 9]"] ;
1149 -> 1161 ;
1162 [label="gini = 0.0\nsamples = 3\nvalue = [0, 4]"] ;
1161 -> 1162 ;
1163 [label="x[56] <= 56.645\ngini = 0.469\nsamples = 5\nvalue = [3, 5]"] ;
1161 -> 1163 ;
1164 [label="gini = 0.0\nsamples = 1\nvalue = [0, 3]"] ;
1163 -> 1164 ;
1165 [label="x[55] <= 764330.25\ngini = 0.48\nsamples = 4\nvalue = [3, 2]"] ;
1163 -> 1165 ;
1166 [label="x[56] <= 67.266\ngini = 0.375\nsamples = 3\nvalue = [3, 1]"] ;
1165 -> 1166 ;
1167 [label="gini = 0.0\nsamples = 2\nvalue = [3, 0]"] ;
1166 -> 1167 ;
1168 [label="gini = 0.0\nsamples = 1\nvalue = [0, 1]"] ;
1166 -> 1168 ;
1169 [label="gini = 0.0\nsamples = 1\nvalue = [0, 1]"] ;
1165 -> 1169 ;
1170 [label="x[68] <= 1528665.0\ngini = 0.496\nsamples = 59\nvalue = [47, 39]"] ;
1142 -> 1170 ;
1171 [label="gini = 0.0\nsamples = 5\nvalue = [7, 0]"] ;
1170 -> 1171 ;
1172 [label="x[54] <= 1528677.5\ngini = 0.5\nsamples = 54\nvalue = [40, 39]"] ;
1170 -> 1172 ;
1173 [label="x[53] <= 764372.469\ngini = 0.485\nsamples = 31\nvalue = [27, 19]"] ;
1172 -> 1173 ;
1174 [label="gini = 0.0\nsamples = 8\nvalue = [9, 0]"] ;
1173 -> 1174 ;
1175 [label="x[2] <= 1.529\ngini = 0.5\nsamples = 23\nvalue = [18, 19]"] ;
1173 -> 1175 ;
1176 [label="x[53] <= 764374.969\ngini = 0.493\nsamples = 21\nvalue = [15, 19]"] ;
1175 -> 1176 ;
1177 [label="gini = 0.0\nsamples = 3\nvalue = [0, 5]"] ;
1176 -> 1177 ;
1178 [label="x[2] <= 1.529\ngini = 0.499\nsamples = 18\nvalue = [15, 14]"] ;
1176 -> 1178 ;
1179 [label="x[52] <= 764290.469\ngini = 0.472\nsamples = 13\nvalue = [13, 8]"] ;
1178 -> 1179 ;
1180 [label="x[2] <= 1.529\ngini = 0.415\nsamples = 10\nvalue = [12, 5]"] ;
1179 -> 1180 ;
1181 [label="x[53] <= 764384.531\ngini = 0.486\nsamples = 8\nvalue = [7, 5]"] ;
1180 -> 1181 ;
1182 [label="gini = 0.0\nsamples = 3\nvalue = [5, 0]"] ;
1181 -> 1182 ;
1183 [label="x[45] <= 764334.562\ngini = 0.408\nsamples = 5\nvalue = [2, 5]"] ;
1181 -> 1183 ;
1184 [label="x[55] <= 764334.0\ngini = 0.444\nsamples = 3\nvalue = [2, 1]"] ;
1183 -> 1184 ;
1185 [label="gini = 0.5\nsamples = 2\nvalue = [1, 1]"] ;
1184 -> 1185 ;
1186 [label="gini = 0.0\nsamples = 1\nvalue = [1, 0]"] ;
1184 -> 1186 ;
1187 [label="gini = 0.0\nsamples = 2\nvalue = [0, 4]"] ;
1183 -> 1187 ;
1188 [label="gini = 0.0\nsamples = 2\nvalue = [5, 0]"] ;
1180 -> 1188 ;
1189 [label="x[2] <= 1.529\ngini = 0.375\nsamples = 3\nvalue = [1, 3]"] ;
1179 -> 1189 ;
1190 [label="x[52] <= 764291.875\ngini = 0.444\nsamples = 2\nvalue = [1, 2]"] ;
1189 -> 1190 ;
1191 [label="gini = 0.0\nsamples = 1\nvalue = [0, 2]"] ;
1190 -> 1191 ;
1192 [label="gini = 0.0\nsamples = 1\nvalue = [1, 0]"] ;
1190 -> 1192 ;
1193 [label="gini = 0.0\nsamples = 1\nvalue = [0, 1]"] ;
1189 -> 1193 ;
1194 [label="x[56] <= 79.91\ngini = 0.375\nsamples = 5\nvalue = [2, 6]"] ;
1178 -> 1194 ;
1195 [label="x[55] <= 764337.5\ngini = 0.5\nsamples = 4\nvalue = [2, 2]"] ;
1194 -> 1195 ;
1196 [label="gini = 0.0\nsamples = 1\nvalue = [0, 1]"] ;
1195 -> 1196 ;
1197 [label="x[46] <= 63.557\ngini = 0.444\nsamples = 3\nvalue = [2, 1]"] ;
1195 -> 1197 ;
1198 [label="gini = 0.0\nsamples = 1\nvalue = [0, 1]"] ;
1197 -> 1198 ;
1199 [label="gini = 0.0\nsamples = 2\nvalue = [2, 0]"] ;
1197 -> 1199 ;
1200 [label="gini = 0.0\nsamples = 1\nvalue = [0, 4]"] ;
1194 -> 1200 ;
1201 [label="gini = 0.0\nsamples = 2\nvalue = [3, 0]"] ;
1175 -> 1201 ;
1202 [label="x[53] <= 764373.531\ngini = 0.478\nsamples = 23\nvalue = [13, 20]"] ;
1172 -> 1202 ;
1203 [label="x[57] <= 98.124\ngini = 0.473\nsamples = 7\nvalue = [8, 5]"] ;
1202 -> 1203 ;
1204 [label="x[69] <= 1528681.5\ngini = 0.198\nsamples = 5\nvalue = [8, 1]"] ;
1203 -> 1204 ;
1205 [label="gini = 0.0\nsamples = 2\nvalue = [5, 0]"] ;
1204 -> 1205 ;
1206 [label="x[53] <= 764367.0\ngini = 0.375\nsamples = 3\nvalue = [3, 1]"] ;
1204 -> 1206 ;
1207 [label="gini = 0.0\nsamples = 1\nvalue = [0, 1]"] ;
1206 -> 1207 ;
1208 [label="gini = 0.0\nsamples = 2\nvalue = [3, 0]"] ;
1206 -> 1208 ;
1209 [label="gini = 0.0\nsamples = 2\nvalue = [0, 4]"] ;
1203 -> 1209 ;
1210 [label="x[68] <= 1528679.5\ngini = 0.375\nsamples = 16\nvalue = [5, 15]"] ;
1202 -> 1210 ;
1211 [label="x[71] <= 1528679.0\ngini = 0.469\nsamples = 7\nvalue = [3, 5]"] ;
1210 -> 1211 ;
1212 [label="x[43] <= 764389.406\ngini = 0.32\nsamples = 4\nvalue = [1, 4]"] ;
1211 -> 1212 ;
1213 [label="gini = 0.0\nsamples = 2\nvalue = [0, 3]"] ;
1212 -> 1213 ;
1214 [label="gini = 0.5\nsamples = 2\nvalue = [1, 1]"] ;
1212 -> 1214 ;
1215 [label="x[42] <= 764294.031\ngini = 0.444\nsamples = 3\nvalue = [2, 1]"] ;
1211 -> 1215 ;
1216 [label="gini = 0.0\nsamples = 1\nvalue = [1, 0]"] ;
1215 -> 1216 ;
1217 [label="x[46] <= 56.645\ngini = 0.5\nsamples = 2\nvalue = [1, 1]"] ;
1215 -> 1217 ;
1218 [label="gini = 0.0\nsamples = 1\nvalue = [1, 0]"] ;
1217 -> 1218 ;
1219 [label="gini = 0.0\nsamples = 1\nvalue = [0, 1]"] ;
1217 -> 1219 ;
1220 [label="x[56] <= 58.837\ngini = 0.278\nsamples = 9\nvalue = [2, 10]"] ;
1210 -> 1220 ;
1221 [label="x[71] <= 1528681.5\ngini = 0.48\nsamples = 4\nvalue = [2, 3]"] ;
1220 -> 1221 ;
1222 [label="gini = 0.0\nsamples = 1\nvalue = [0, 1]"] ;
1221 -> 1222 ;
1223 [label="x[7] <= 1.962\ngini = 0.5\nsamples = 3\nvalue = [2, 2]"] ;
1221 -> 1223 ;
1224 [label="gini = 0.0\nsamples = 1\nvalue = [0, 1]"] ;
1223 -> 1224 ;
1225 [label="x[56] <= 55.297\ngini = 0.444\nsamples = 2\nvalue = [2, 1]"] ;
1223 -> 1225 ;
1226 [label="gini = 0.0\nsamples = 1\nvalue = [0, 1]"] ;
1225 -> 1226 ;
1227 [label="gini = 0.0\nsamples = 1\nvalue = [2, 0]"] ;
1225 -> 1227 ;
1228 [label="gini = 0.0\nsamples = 5\nvalue = [0, 7]"] ;
1220 -> 1228 ;
1229 [label="x[69] <= 1528684.0\ngini = 0.198\nsamples = 10\nvalue = [16, 2]"] ;
39 -> 1229 ;
1230 [label="gini = 0.0\nsamples = 5\nvalue = [8, 0]"] ;
1229 -> 1230 ;
1231 [label="x[7] <= 1.962\ngini = 0.32\nsamples = 5\nvalue = [8, 2]"] ;
1229 -> 1231 ;
1232 [label="gini = 0.0\nsamples = 3\nvalue = [7, 0]"] ;
1231 -> 1232 ;
1233 [label="x[53] <= 764376.062\ngini = 0.444\nsamples = 2\nvalue = [1, 2]"] ;
1231 -> 1233 ;
1234 [label="gini = 0.0\nsamples = 1\nvalue = [0, 2]"] ;
1233 -> 1234 ;
1235 [label="gini = 0.0\nsamples = 1\nvalue = [1, 0]"] ;
1233 -> 1235 ;
1236 [label="x[7] <= 1.963\ngini = 0.496\nsamples = 61\nvalue = [43, 52]"] ;
38 -> 1236 ;
